function [y1] = NN20100(x1)
%NN20100 neural network simulation function.
%
% Auto-generated by MATLAB, 15-Oct-2019 23:12:39.
% 
% [y1] = NN20100(x1) takes these arguments:
%   x = 6xQ matrix, input #1
% and returns:
%   y = 2xQ matrix, output #1
% where Q is the number of samples.

%#ok<*RPMT0>

% ===== NEURAL NETWORK CONSTANTS =====

% Input 1
x1_step1.xoffset = [-4.116737;-4.414833;-1.286626;-1.32087;-0.9986827;-0.9993171];
x1_step1.gain = [0.237677350382405;0.228848138663664;0.775972176741631;0.761305867955304;1.00099022958462;1.00085057285934];
x1_step1.ymin = -1;

% Layer 1
b1 = [0.028550272109286928268;-0.025025416764780827189;-0.017314237227387986595;-0.045820024574158554898;0.011787868251097323447;0.092685202181154779932;-0.17779285594714971941;-0.076005339258134768654;0.0046742891960787867622;0.15166485680681193737;0.22164918717837395201;0.15073904759270639886;-0.12609519506451552506;0.039244555959233790032;-0.04579202750445288822;-0.052013614889268908192;0.10957273414275169043;0.043111621112582841631;0.085387871478375232392;0.06379614001289267422];
IW1_1 = [0.65085866273452264164 0.7494382428129254814 0.44147129580876814936 0.52920229023548692737 0.12556816842806642343 0.22662823743867149817;2.5887186420521270946 7.6426551990649480572 0.50097996628751395587 0.41121944917416380916 0.20528720393612290285 0.72148630989013440296;-0.80958401056933648743 0.10410721310971964015 0.49067457689950561006 0.00042263707993423263974 -0.055099285858990453002 0.10396070927100775627;-1.9391175303307517375 -2.049594400762711377 0.79672339980531559078 1.0859442710361235651 0.35027930099466031422 -0.62477781519383346343;0.5035912776883209041 -6.956693174829561066 -4.6899409871267359051 11.102499010083917597 3.5805779907335568701 -8.4283302423172372642;4.9689714052822520074 1.444179076718177468 0.60197545626088522219 0.011336675831095799002 0.31005954253002238064 0.25565550698089911652;-9.8047228480376684701 -6.6453543717403080748 6.0858144072550750536 7.9372262465900504935 -4.8324689880933471287 -6.0745905724770725698;1.3321998216145720662 8.9960286552648032199 -0.033959264563692886929 -0.98143112732388437802 -0.17728237098960300533 0.33268308621197906216;-1.3721557780990853992 0.95062317428864007152 0.48494998895000795969 -1.2250293768368161196 0.24839735071694191149 0.4200238603762163625;7.3262514530329534423 1.1563565870214649323 -0.82175049062510496789 0.38311638522671503937 0.34401359674130310706 -0.5869808855066305231;6.9652721558257111312 -7.5513500051365722854 -0.062640017826837715575 -0.41926864125613066969 0.029252144989139250431 0.072788730702272083639;5.543542159220070431 -4.5627366557214701359 -1.7510792302775837204 1.0540246242108006758 1.0187107732452427289 0.075297673816963339721;-3.6377380001695782674 4.9255846642687073356 -0.43491009286019499669 0.39746811384538383027 -0.36341545557728355265 0.37418992185831839725;0.093267868653342952956 -0.77135211053111729651 0.039992734877602957588 -0.8544711132975639778 -0.01673195020792757684 0.84913794563086419931;-0.77944333877370164387 0.64286214579598277563 -0.47680549926449022902 0.47401806447884159423 -0.22430248885934070402 0.23367849034527954366;-2.6835578936008794848 -1.0023301236690971283 -0.75521154700530035431 0.22371214218412630026 -0.87516263389046811128 -0.23991428408437490138;3.7332543474973944875 2.3105957661404792347 -3.3239426074561064794 -0.13251935248702248482 3.2723708687841432941 -0.49523760334112770787;0.63877788997196827125 -2.882633512026456124 0.56318386195768210811 0.00122312544737319083 -0.73258428110704465475 -0.28970168597677514732;1.3213137252554831846 -0.84600717746894493754 -0.36511062085640522135 0.90300666271711704791 0.23904572400158424772 0.7512471064041600366;4.7194847858039441491 -0.27313079118060551442 -5.338683187866223534 1.7862822857054456716 3.9042254578291748501 -1.2967872061205949485];

% Layer 2
b2 = [-0.088130664881773387864;-0.010028720158331451764;-0.13215726559073576185;-0.0017189561997225275784;0.0042329506630368078299;0.035699780439956398104;0.22836360533334920664;0.0024943010099716857869;-0.010172295255259998503;0.003295146999645053032;-0.01111194929637241216;0.0080194502464895709576;0.018434082703747106669;0.017908130780744897087;0.036690023087214973518;0.0041145809754570194725;-0.0070322608255636246538;0.032690635091623301833;-0.027540002202606172349;-0.18907421059445295164;-0.07163032335787879179;-0.0095323454358213731419;0.020464272539802770556;-0.035851821917264353745;-0.05064282045023113521;-0.012108672921762276761;-0.07395314188627369334;-0.056980045457030954748;-0.020755534017765198129;-0.012407667565621494782;0.0076008023443108986214;0.00090787064140737498696;-0.041469436832462507059;0.0067844840543061207122;-0.0024087339793513046216;-0.011593524643052953785;-0.010033102706463029041;-0.007755269580642855376;0.021458397798554868646;0.032579621376062073423;-0.072085918645247687442;-0.019645626147826850821;-0.026871503011506155112;-0.039460982984338789648;-0.01525452427820745728;-0.035499126606158094843;0.0097348310284441387508;-0.022882790944028251479;0.0083858085694034460722;0.038699842020032772238;-0.0082095336525106910736;-0.0072088187650655435532;-0.30646191314075948986;0.0026905177720078642285;-0.0094696831178896680864;0.0025698134623622259816;0.036818080438298143864;-0.029793642818532518196;-0.025224541218523677949;-0.011039567216422414841;0.014370424691402596332;0.02876338678406809013;0.12921904315320498213;0.013366056912999567732;-0.0026809514904001996091;-0.047537514808748737583;0.20686872888703145001;0.014255857719537967654;-0.054544758622034117401;0.024877780906214327916;-0.0084100740673229198302;0.012726326421332203112;0.011354241945555156035;0.047333207670420124336;0.073176053165494817088;0.0059179380852763885726;-0.00053699779320103458065;-0.00092363195321865576223;-0.0097286246337413492813;-0.010205840132416387628;-0.0087070006190503989457;8.1606290487314152521e-05;0.13835802891590076591;0.014235419498061717761;0.011960407217899997681;0.0020461846501738140298;-0.02422553504386656259;-0.2186604339985973311;0.012550270801527660738;0.0066288437063311894323;-0.28441926325903943429;0.0081620408475273041604;-0.015270953279304690792;0.014607758693005061523;0.0078664443223851448356;-0.00051647976462447454851;0.0033718127216021596092;0.036732019331692407349;-0.037939972267151803043;0.009556174720777176404];
LW2_1 = [-0.14954461256415521597 -0.014410732198179775423 -0.13293503813764237509 0.0012441600902616237103 -0.12784062216384070587 -0.030685699584863522504 -0.042373119936354501636 -0.45093045113013469072 -0.17707951656421686004 -0.13212932959926904086 0.043311215220261427283 0.2612239248977305528 0.25734039538907160782 0.1277074943092658954 0.17929771380591788543 0.050999494020029456642 0.025206200083142945439 0.00097122996880278560181 -0.085561963025965748209 -0.056890982892969517437;-0.0045743739893733519758 -0.32053687424666388317 0.034075688868055772907 -0.08563040654344647451 0.076462640702262343884 -0.012709127879291433685 -0.037988881590445722214 0.11408434030760726541 0.069127721818207019111 -0.50587356222832446928 0.31329193430863694347 0.24792078937191000532 0.2354646059848408135 0.084390699699813276347 -0.14748403035223220381 0.12528522082113627278 -0.068923565003618986191 0.14225195995915701497 0.014816413470756755258 -0.32568418364424933653;0.24094777592237900943 0.49271577502556540562 -0.0011767550027239233323 0.10388297673561910917 -0.016875368546436859268 0.16733030367303911023 -0.091826773493082172739 -0.23121017513573241531 -0.1256947400382977531 -0.47704435466011135825 -0.23630945890392995867 0.16755516744412246588 0.051909537776383664343 0.089892482590083269689 0.25188059346484675816 -0.11515714499732514209 0.038631005992835504292 -0.12849177345046827736 -0.080001302256071604724 -0.12253764669468518445;0.012664355181708171483 -0.0036302561506348423812 -0.003477476677787165113 -0.011399250417571721652 -0.010900635604287015057 0.0085013063857539723084 -0.027922072678128330436 0.0051121725994922352643 -0.0038987561688409982236 -0.0097822788252672834841 0.00070159604856731062374 -0.0046982273775918008407 0.0091897882959733542818 0.0056823225724044043247 0.0028780668373283267714 -0.010927850282375131327 0.00971401160268926811 -0.010525103284451626379 -0.0065135263164630956972 -0.016128088544633312901;-0.15533050547307461486 -0.012470436684610296946 -0.00065085132251448043345 0.051431349064379350278 0.43482429000100847327 0.10800477848201557596 -0.04795865500240193563 -0.25341635933453171559 0.10400180103236220108 -0.3487096634269289952 0.04489247063295200707 -0.18874675516840008771 -0.060859814081731154756 -0.03950447660844637332 0.10218147411914732525 -0.10072563621097360698 0.21497721197258459758 -0.14259234258402941897 0.055858106721151899732 0.11185866750021762617;-0.091639013409439307178 0.21208532706869789863 0.13616692577922354102 0.2079400034217065707 -0.4887630523609128308 -0.064670094586498527711 -0.31532988313027804361 -0.10935064769907142102 -0.14751048796086921322 0.11004341425975973368 0.035897864314400791674 0.0021918589492329132798 0.15777632967122032226 -0.30104780113759949112 -0.011978829672535724893 0.082560244933530341216 0.024142462119426884998 -0.10742900223185028463 0.17017536822898449156 0.34980020240804432508;0.10886544357369164204 -0.16063458506225189448 0.080002055364099045054 0.015872988364689036983 -0.087418771983824028471 -0.060111727309845035261 0.30350790177072933806 -0.012555593415275395977 0.021942218324171387095 0.12492095999292798791 0.036925113040411947085 -0.013638338961637960084 -0.092574616088020034166 -0.060013006098293554536 -0.092731999190772060326 0.049056515790882097849 0.073006770862678607714 0.055360191366977083705 0.015727531932211220866 0.10715243281715529367;-0.020241209357957028192 0.01710147910108671121 0.17749666046966766642 0.0093788313641801918791 -0.046269302000646300721 0.14447307119996399827 0.42226884621597804426 -0.95290474327148488864 -0.43058936117599982962 -0.5344421376327911366 0.43913006648336622151 0.063027494754793619847 0.12663572564583713831 0.03891504011051854367 -0.22307180088599082302 0.26638643194591882235 -0.095164590774391571992 0.017135005251284998046 -0.17635880599468306551 -0.87063844318708816239;0.12677345357542968429 -0.27926429746102765517 0.14967106141768243832 -0.095075967424750731927 0.15159472416459318644 -0.091298624693185739809 0.32836040466523025438 0.62453129544517338445 0.035824553910910647558 0.0962465582020818472 0.067854849300674008328 -0.18467830360365919407 -0.099521537609956273185 0.15058665503343612868 -0.19171570096368897862 -0.018867531147281669385 -0.28690898327114228161 0.1598445170876609811 -0.071457851724524915071 -0.3005508480557908535;0.68211166528205169346 0.51174703136083143917 -0.13606907709715432286 0.057498409444555448333 0.061894849928770236114 0.62004842084111866374 0.10858603475783153158 0.04033622432407699826 0.028686246053781068455 -0.45819560397392228301 0.46508588903599284992 0.027542824266877003608 -0.27264157951933148949 -0.016648719005007243943 0.39243936802306611522 0.1604025361935255134 0.063414805187760006633 0.34888161001767181713 -0.016530184430979342342 -0.0081248882804867156998;0.13143208155320326713 0.18869992609233901537 0.12148488919431338351 -0.21643844138081988482 0.054817727289718655437 -0.063718224998986022767 0.07270299923000836384 0.54687790167563832266 -0.062743167218613074554 0.42424279034410955491 0.13574793309906368899 -0.37679151155481255264 0.59519342301997824052 -0.27374004820619340927 0.084556643322097738147 0.19341152570093378404 -0.046776355647424619488 0.1742001710425093719 0.3629316512686643903 0.12047321262784972673;-0.20445884216575072045 0.089893676070349787244 -0.18589602469011803909 -0.071594043610727797766 -1.6582408496672789155 0.10834221518250568284 2.4637310596862396217 0.13040238821353236642 -0.10695005274605347279 -0.17820016202855534782 -0.24345511038608969034 -0.05836532094033362178 -0.25969894438420065841 0.020473202587106185957 0.12457263935242834929 -0.044082070831650402298 -0.24796779865379095509 -0.093738319618637988562 0.057843188721122727747 -0.69097174928071425359;0.096337808714059641746 -0.13936198579186465096 -0.02989071501942538317 0.063534178614111827543 0.34436045968847528442 0.11197048012218606405 0.10706416107513903879 -0.40731700673642201593 -0.16641063924759968984 -0.25773393127811833336 -0.48004911510720554846 -0.13774769472971840067 -0.28148708238311603846 -0.14706356811939283458 0.15842523712857239926 0.038549595930766893115 -0.12289018086026198828 0.40356151678022073037 -0.22236149501794971739 -0.30345288556404048652;-0.17025806814080643448 -0.55544251591221460718 -0.1282590322794125437 -0.016542157800257122763 0.032860781177850267865 -0.14525842752900897104 0.13676945588690334055 -0.3982118718098753285 -0.08998908525921793522 0.28268599268226041188 -0.35488518957595915904 0.32259544341109769316 0.3470727296539420359 0.11573716402667727499 0.26795065548029572966 0.2725446451444793472 0.01046317426655899753 0.14112406450480782794 -0.14657571627390228453 -0.17093040988165578153;0.310444213673303826 -0.40460768619193987483 0.11265253354377600947 0.35975777944744413706 0.24441011398813561328 -0.088263620613733495546 0.69171913163591880469 -1.5543396919947372048 -0.041906776948882881739 -0.64404601920802628801 2.3473410246096912957 0.6336627417851584676 -0.13621956406219357105 0.55193661435955576611 -0.29353875959227099246 0.18422089497008828363 -0.49058623123400013633 0.26049787527090101369 -0.68292685898078153706 0.47808194812276000318;-0.11637831911298428256 0.053069093531071406811 -0.11452478780004642089 -0.059281314610406796173 -1.6357815271538147517 0.18067892367364454809 2.4388258503241790898 0.16253085208185655275 -0.013840244839317214498 -0.17159893916032395444 -0.28313268322092755014 0.026395095679475056444 -0.25937988550224938544 0.045831497109992673511 0.082398905127663388259 0.027650298117273749976 -0.23792230259334976039 -0.088110690463285304408 0.058925246366209729776 -0.48045380708386803414;0.19118773923282261773 -6.9690726669331334864e-08 0.034791369813540140576 0.06817152535717335704 -0.15109571184614134509 0.055485383261830181767 0.085898803949368884858 -0.048332345283371484779 0.023943076391635044475 -0.10560561754531352929 -0.016592113031478200602 0.038980307555329413161 0.20572396734324829848 -0.32914346103829067447 0.16222858103564263832 -0.0052249816546553664448 0.028437113464205625302 -0.015713459388837835995 -0.033014588196292458944 0.11066647460068661235;0.10228065130264041294 0.014222138475674946101 -0.11923970781310824774 0.061109703089746524041 -0.30485010841023474359 0.056188823288262482181 -0.23799819839293706591 -0.13546992081887110349 -0.19177537489447954444 0.068397569729619592249 0.09798351928526501109 0.13844164931002045371 0.11278851767762439195 -0.057525287811361812407 -0.055217432180061622182 0.070789435708795478419 -0.28799768979955803205 0.01614751949901297931 -0.049744236950357824389 -0.12927173729023311299;0.11203048409350685466 0.15270480946312200987 -0.020968613071979790713 0.11501853605576932427 0.032164510248069759502 0.18127325469261718061 0.0059806198032967602257 -0.068930726551718835005 -0.079622501343889290348 0.14517094329382154716 0.12547921608480186451 0.08347015441262020663 -0.075224549710989713214 -0.20311584381896574669 -0.11115599539242491944 0.14400962381268536672 -0.029815531304867522872 0.26746212687252246543 -0.26724355554534301449 -0.22905163735012448734;0.035637909587847634019 -0.14766592149944457457 0.1185730277225648388 -0.046307593243538461292 -0.03629979659170799039 0.027132869045984640138 -0.042920538734073400422 0.086400993774773601763 -0.099992119671898777034 -0.07775977037798637026 -0.08321868804248175322 -0.07995474154429489666 -0.0040467725216265047067 0.22625212219958476534 0.021230449841850289328 0.041246083451643614226 -0.068841400748666611853 -0.066297716768910858187 0.0016118310600943602448 -0.018730073184775809098;-0.062989902332493269421 -0.10929134141278752657 -0.067401858901728436968 -0.14270460550921953979 -0.13703745675531545101 -0.02744848765696200274 0.049111777052576480185 0.0099186254963691510012 -0.09675850033860314281 0.075021660821573923905 0.074659432113099402639 -0.054025680593950783925 -0.10615238728201528695 0.13283898473398908502 -0.031207046705647063789 -0.060245999807845881935 -0.054830223122904191146 0.035700649200075075529 0.092489847429142776902 -0.054779152286364901636;-0.36554727779543066957 0.26547646915409262025 0.42063726137990448128 0.05417358285332313228 -0.051333666501122331149 -0.051431805578462053141 0.077880798714902721436 -0.54698247638843378038 -0.20747830715109921718 -0.46648627152374588789 -0.68751159414641183076 0.30292861310058499802 -0.80493986393027283643 -0.062974794395557073812 -0.1225311223651363024 -0.22345029659806303624 -0.15126748801412659429 -0.26141610514102858742 -0.011523273601588680456 -0.11732433736911930533;-0.085699437023537369806 0.32267545277475617738 -0.0064000881304640371006 -0.026255386427194223053 -0.023703086450994260981 -0.33214279694362081052 -0.079978077126764024474 -0.042784155556716989277 -0.16316608279905481238 -0.10757795210356926874 -0.28014588250190786134 -0.27347319164447109197 0.072711399876858623381 -0.087865626456050893722 0.33857519047277145896 0.124145241899140793 0.11120522128274579199 0.23967014798673502707 -0.18284060868555193635 -0.10904824203645806235;0.69763002106972937799 0.28193677026792007823 0.089317925940165562859 -0.19997783893903670061 0.0036268517005681229909 0.67695564686854281522 -0.072504407619595798162 0.43980320849591708621 0.1030774464025419751 0.88539254785505860923 -0.77115156798788320192 -0.69911104997950490603 0.60859686174053473362 -0.48271813669118762702 0.2515806690316547134 -0.1255819071111968499 0.071691783727263910797 0.082072675694433522287 0.58799625367050856184 0.023880704550982977119;0.16728510396549736705 -0.0035836757630272140368 0.10841176531203929045 0.35038110850512266259 0.042261900100222932197 -0.044462265148901509992 0.040925842739231291234 -0.15936380046291331869 0.096738930498545122605 0.019591616496859504126 0.060303801291982088439 0.072387903470663331196 -0.072812815036140912661 -0.063716500855773336442 0.0012453602202938877756 -0.1685947756375773543 -0.077033464574752089082 -0.090897215386986821017 -0.0086295484278604318862 -0.11361770533831966334;0.058180561928300456032 -0.14058865389543104274 0.019120774935084208085 -0.029908868651659221288 -0.2508930286193672976 0.10159148955632027467 0.89783970802629908814 -0.61152858981266366989 0.07240739065391209317 -0.18503037716824680126 0.76673188746653730963 -0.23918783809429530751 -0.044954694343501980236 0.15525746883004681864 -0.081730843882835066405 -0.018563948214096320788 -0.20755434620001550483 -0.053013839953926417126 0.030699067196028669013 -0.096120649727938489715;-0.026029226814603154821 -0.13239088802044424176 -0.021009130769992900162 -0.15522112251200129163 -0.15301549068027087142 -0.15045922386287491346 0.1153517521723935596 0.13661383260619322511 -0.081861606305811795981 -0.022170564575629155696 0.025321658262411783635 -0.14775200817368056017 0.0058946473245030765742 0.10740842449450352381 -0.041734860196282225209 -0.085752511235950040769 0.14799611170096785284 0.033186052500927674946 0.071197979308282505206 0.19167652586997407926;-0.027883952602444396496 0.26031136482866962245 -0.26986913347048774314 0.36559603103625210041 -0.17376787356468870183 -0.048093550360030490332 0.0083363565250020952441 -0.080217907157087681158 -0.24080393693839854952 -0.086246318373338431984 0.35339776223922303444 -0.24137284612852571986 -0.12993304759292481632 -0.035450951214873932527 0.032296536955696543425 -0.1253412782198373987 0.3151497995182743761 -0.18951148752137039755 0.041648022205802603946 -0.030091183088177351351;0.23133967453415657523 0.89050456062178917627 0.42489036178679340239 -0.24559301111151635166 0.11016074551415172555 0.51064772974712946407 0.052944129998355980715 0.039666771618295355861 -0.092583449646888735241 0.45235291639394759056 -0.3420404505620947555 0.031735346063621799884 -0.042946217762489864722 -0.48328211160674944269 -0.12354076759792431695 -0.50410674704161495541 0.033502806858672531942 0.28230953830837368645 0.025792299342855949662 0.089458903934728106755;-0.39051444371889032503 -0.21053741451738891555 0.039199831772549272035 -0.0057303226972662008737 0.0050838070902930578357 0.89324648327179834162 0.010386446894286034681 0.47411264308494244224 -0.085039522024572836156 0.51281052898725065781 0.39382782950793820964 -0.2154104220461426078 -0.30952384586665393496 -0.25795870073988008686 -0.48547368615658387236 -0.17303533752231142762 0.10224695808547190623 0.41390083838521918302 0.27872015687269641182 -0.052826175575879194546;-0.043949579776299416145 0.26574537521153124286 -0.0089768778510441581825 -0.022066655206544973089 -0.0063635894844495327974 0.1342906551722902464 -0.066766400031297898354 0.5159433638897644725 0.053941864907207509594 0.43618576700208339103 0.44390910360685442715 0.26934228754906702763 0.069376851830957611544 -0.052668067872658867745 -0.40887394271535015822 -0.21836322172396158137 -0.075378824793178755836 -0.27610840888711885022 -0.041607737422528871807 0.11829010462063806186;0.026111705164732965795 -0.022411759430928879233 -0.38909942104380434991 0.1529911244108800028 -0.010992823543824831178 -0.44170969206523541528 -0.064315083929459046508 -0.69233560342823297074 0.15919127755041784233 -0.52029727605094355791 -0.85184613690532329233 -0.44368577436102601963 0.52381648031358551965 0.04225825457646049943 0.41311914631090690397 0.36846884001737223446 0.16170929370219547239 -0.58928125302975431499 -0.077389327515471645347 -0.13337643938336721239;1.0150702299005658347 0.57595371193546651689 -0.19503645358952567679 -0.24952719454170518842 0.044343387050331514732 0.40929568148739897682 0.0049176603057777172959 0.19847338432992675528 -0.18413728416009553235 0.17343204599755113193 -0.15490402751360024536 0.16295326612750721251 0.08765732138504893356 -0.30619793280077695075 -0.42614811096619487074 -0.067406111422791487042 0.02261223670201914504 0.17775068193448187448 -0.077642004071181727753 0.090691023557015110201;-0.041904274160106787239 -0.048682406993759544389 0.25052599962975674597 -0.037999830620325809882 0.39949461836321009667 0.076746407477833233912 0.7566168014354964777 -0.16564510820117794854 0.18941546119884430932 -0.043721481369642829773 0.1440808462558756109 0.037123810899736153779 -0.00010643863464970414103 0.022649556175292882149 -0.0050423047784885488554 -0.04142499696584852481 0.0057289464288164861777 -0.00090008647200607661346 -0.047153992122926098596 0.38585129194871287117;0.019216801283302699377 -0.017994482161632293499 0.08791109863660789836 0.38958662922835868292 0.3428983347287499206 -0.38013939122614098798 -0.42298225247632009749 -0.93583793453062280587 0.2343701805946149519 0.14472051496971077844 0.69293663073493916293 0.55114607199878506982 -0.19151949234616250095 -0.043208284306417293896 0.081625723396915414454 0.0071206119325730706307 -0.32979152224721230979 -0.045207125088159758053 -0.18757495835321646993 0.80807584884110761347;0.27339539329053208494 0.12836459712077427642 0.22118218433512076837 0.070945782261027504068 0.032805926902426139902 0.38223913277209792261 0.27413311357997083295 0.5217424064584306187 -0.24177331277933772347 0.66412701293489806442 0.14174034905854612787 -0.78766047266744820821 0.72402875667918065172 -0.19579015949365510818 -0.018248695039359712211 0.34822112508135910636 -0.10342561872952739377 0.22812814155847718767 0.33595311413749229246 0.11352532836615583656;-0.30517032189815734844 -1.1006431074843516793 -0.1878193803634230219 0.15392994428578790633 -0.0026084819256791441817 -0.21646788118119453248 -0.010643642099558932312 -0.71717775607726619302 0.32426534169810922181 -0.62867490917875112899 -0.3528902426983969165 0.14103329902692524067 0.34629839070656465161 0.38236565224182317291 -0.33415328243506720041 0.61868011169896575119 -0.033083724800883375361 -0.36805780362683954143 1.9615879403837898146e-05 -0.032563411081340407072;0.21006425454240360007 -0.033770652333220942121 0.56664308335149227158 -0.058167495240656591493 2.4750797827448849375 -0.33860509237431896112 1.9347554770575001726 -0.57209684830293672242 0.052386869427949712963 0.23712759560657403757 0.056428309252214842173 0.45528706414766856314 0.06711143180981098133 -0.019600085470716954728 -0.01327314633021178629 -0.053837618917525260909 0.65261982385399397444 0.13699202281588693242 -0.408398407264207286 2.4199349273072288113;-0.24582963738663587971 -0.30368218142930003545 -0.17738931668365798267 -0.098524182336493557055 -0.036056421768162642827 0.10291803964617185496 0.12676385981998730679 -0.21927137072114108451 0.18814657500574591409 0.30415795141285612013 0.002401604151809781651 -0.46042966460972950538 -0.087947290751879986237 0.041665556840443936093 -0.14831897378700262258 -0.044475761554002422871 -0.036511586492217716626 0.1028072462669074455 0.11466472232088802119 -0.2753962274124677756;-0.48793522130414390681 -0.31638515539024691936 0.045936764152760545254 0.01766024955620918227 0.040394610442547357332 -0.81097524659197073316 0.064112983036357137911 -0.44361062331510536794 -0.021473676212766322491 -0.64522130480412542841 0.92128221233667439982 0.69304271145981299895 -0.29668021364669933115 0.34341514180784138421 -0.053167090379186890403 0.077831235426528047605 -0.12721633735730553116 0.086407412967045724161 -0.5245224106263625119 0.021747776470755448425;0.31987398018158463842 0.73296541475652288167 0.077702107337196693604 0.30963644826305197766 0.51586482180489412475 0.61238996460299210955 -0.095842073077832767858 -0.33487847061088465983 -0.066334656066819264186 0.084407325618022194247 0.33026018955573593905 0.4449862746116709511 0.24680755053441238989 0.052906000240823390646 0.086421292881924058338 0.45590359489818260696 -0.058630522584998803759 -0.30215117878707692389 0.29563989493717218737 0.21221011944528211934;-0.42879751608055582945 0.041928702507365231411 -0.082784712047686642711 -0.067263503726948128958 0.00063809460562243530517 -0.1288471280933894958 -0.29828799487348722774 0.21754052647653698838 0.083403685120449683188 -0.11903804353629664214 0.29829930299813911532 -0.13390084554721523591 0.31511102467586027398 -0.23072552527234238551 -0.044441875642959247084 0.074336898982395399615 -0.10615131251334959661 0.12322752569285140567 0.091977448441560999415 0.024286340819819590697;0.06129992676915761024 0.33309026543202241433 -0.26454550177710023373 0.15857091486053540019 -0.15619947804085448917 0.12173990112845468892 -0.57944758497455495228 0.2271395119323706413 0.092521817380991952517 0.14468411943630204997 -0.72157366644572074055 0.011536994096886750427 0.0635206867288481275 0.061424712501744319071 0.065237785638680031997 0.011284754694041982878 -0.1544636661550968515 -0.071297855540395915774 0.12331819969690718808 -0.038321982242389106277;-0.14742008621617952446 0.038687706227431020722 -0.10364177362827448059 -0.071926404803256377418 -0.047980013680611971472 -0.27334724514877833945 0.12319522135140596741 0.13694647186314079512 -0.096545211837907068952 0.29947323723310675936 0.5572401615626426663 -0.21434751943465871205 -0.23603479254181389257 0.047008621850902466976 0.09426013541666405926 0.10441148921927580207 -0.089953540595510181332 -0.022163820998497823361 -0.14220585014502090671 0.18104221096211367548;0.029320219714916266607 0.12765881184900410017 -0.072655383205589008089 -0.46457514402206756543 -0.019911635116311044574 -0.55670110252979554399 0.049566693664977304334 0.63403290810507173525 -0.022431936580305681522 0.40477589525166496331 -0.57196459165033219918 -0.22278324543645439126 0.26020729410287746219 -0.3455527587240319054 0.15112725309833485721 -0.080954750228874744478 -0.060596096390704082268 -0.067600103713342712952 0.39807588673699467741 0.148713909428167812;0.30725184038238695372 0.36022245281951836837 -0.21027740421230659007 0.0098042159303439041507 -0.0047675465904976691012 0.33113242534754272484 0.058844819691437552645 0.082777204466882692291 -0.18672211567766552887 0.15884929520943003034 0.48622959199480336734 0.023702166833851588679 0.92796825412546235512 0.0082252477123336623088 0.054492530861442796397 0.16148453488831512881 -0.097670622810073923215 -0.25468640269048442581 0.18581181049709441511 -0.10126240575582107217;-0.052457801004591478322 -0.004993524343517541722 -0.003143868636800795438 0.035030743663950675293 0.034396446258428407805 -0.041267759205666297573 0.11558846761797236802 -0.012853615106149863731 0.015406939004150566747 0.063257451196211872402 0.029466976829468638499 -0.0016011970102391892209 -0.084746370067256368563 -0.023326592919012640454 -0.027249386198082974075 0.020162290673670240498 -0.049945000553552214295 0.029879680474254918798 -0.0023690911746737392668 0.085544209045805202907;-0.069504179455200640336 0.35571287699903497703 -0.25564994183577555154 -0.29604192326114747713 0.52309221443236730842 -0.58518102517565240284 0.56117719106425933973 1.2797154968786179641 0.56132160790837404285 -0.17441125617837885398 -0.39617243737468915699 -1.0266145208858381555 0.029524405130624997023 -0.16289186817040174349 0.22228053513951082087 -0.44335059604755305829 0.43429754936978132163 0.062889919148527664849 0.29844596494394576291 -0.24596820076950617895;-0.33494342141285704528 0.032817193951231331261 -0.32693705880651086071 -0.078535085023207787391 -0.86394674462992093744 0.2489679412357693189 3.398349330742995722 0.31793056889068316284 -0.32883627999560421928 -0.39872563722012344112 -0.42856967680012281185 -0.085687600384492093597 -0.4551061826856903636 0.068600758139544013026 0.16613148507419206457 -0.00071257475449003218962 -0.35719230414323799305 -0.24850411504622904602 0.15181419841052157249 -1.4013616779601827389;-0.093865517255850405842 -0.0059499924314103886172 0.11150894453679249807 0.3131669816037765397 -0.038315061100368294489 0.52619787333942835694 0.15101404659043332623 -0.35936941066960037539 -0.073786606170823262896 0.093247394585127943434 0.010163828472414190851 -0.01765091207563615136 0.51746818280142881097 0.087598676100195421723 0.01350537535969615309 0.014650293776854221572 -0.11274791540267654899 0.34132416827574346696 -0.045126074062511248308 0.090779121577734350756;-0.14512506488198112509 0.10809980357880606683 -0.028328032917086444498 0.047332417660780341795 0.06259081346868806961 0.3185640357151224844 -0.0042799298202066196617 -0.035121268861048271503 -0.054295168163844123588 0.66112007456319832333 0.11500024545051806824 -0.63384265103917214468 0.4048375739572888099 -0.03482412843144912229 -0.46465912171115414386 -0.004233293978018912336 0.035826752036828848902 0.31546912551354194809 0.0010633951329131140738 -0.13395934437065210032;0.19564555692120197405 -0.29379848784252754479 0.084498712568090078578 -0.22379357732566179662 -0.089564574385186945804 0.31395811506808529723 0.061614806822623449656 0.46701599160001183719 -0.045800988546024531956 0.42118208016786684578 0.51759800350995699425 -0.2130148562835175452 0.26967245333770839544 0.077257825896894449791 -0.33926236604316345469 0.032040910382246289012 -0.18830914027593612103 0.29890695383225679427 0.031134911002946786401 -0.16234917446036806199;0.048853903979347426678 0.33591303908609537743 0.16285208397992542717 -0.0545549602073378756 0.064422097308817496963 0.58994280402866616786 -0.01095109359055446846 -0.051442876264392804753 -0.60639375188929800498 0.15570650950919615041 0.092162459320341824642 0.10146785792670218185 -0.11262923531270289945 0.30275689106462483347 -0.25652615253751598345 -0.070964980258701612637 0.085981896187599438086 0.34307895306011798597 0.067702393664326926404 0.069201874495527407327;-0.48022182080407926907 -0.0097698963530765976088 -0.054953963952639267587 -0.066207497915361804286 -0.043278886839993341296 -0.44978582525551258353 0.0012384482624249702754 0.43508765324534431906 -0.065442058193371122066 0.07450622362554355782 -0.11578197188690399211 -0.27435436996633943973 0.36046488580481783615 -0.16325935124294913003 -0.10120164510981879968 0.16528087926149917508 -0.1208137427815571957 0.12873275185891033812 0.049870452139073664921 0.14110942867976677961;-0.13253447394511436164 -0.31428154478462855259 0.24785015811114130546 0.11112178168377673249 0.086517877013655292151 -0.13855561288895890115 0.3738573153444225694 -0.29229051665557581607 0.16741539902302010612 -0.35938296957925719433 -0.62649734496811737561 -0.21685552089906126594 0.11111679113858058399 -0.10973529631163750353 0.018806050104630996078 -0.10795846547110721225 0.41133867167465976156 -0.16672252970175335807 0.17961511132752436271 -0.0051342919062269259944;-0.27579894334496635189 -0.45860108971451685189 0.30741055824522561801 -0.12729782799514305358 0.092991818744002571751 -0.044978042887477462375 0.2637045688943533972 -0.49132978044298158959 0.092080472478232158751 0.74113849939369658149 1.0154676198078433913 0.36802657611445210861 0.22357852030515193431 -0.049511954925627016388 -0.55951937133676898917 -0.051893137110133269463 -0.21406088953243201933 0.36450223870621850653 -0.11009644985549696394 0.21029309433001794338;-0.055067245302526893203 -0.028804778205739772073 -0.033615450959079508364 0.2844337621718455722 0.087775218321057862925 0.34246228560610814107 -0.017475429260797814557 -0.27977068563071627594 -0.040795422371206584156 -0.31874984416176360691 -0.68192746872612175491 -0.20693744033043146024 -0.33994651807889908479 -0.077583367102321262876 0.34019318175588419972 -0.17959932233527134415 0.19927913211407360938 0.49379853810218887755 -0.21321434176022910356 -0.13757934202677105096;-0.16733358453254784659 0.56132856432984201689 -0.46663149971315465159 -0.11010070523284132271 -0.14842033164621754038 -0.17831287162276096558 -0.26106914096479610921 -0.77796635887592680003 0.20782850580216630232 -0.6664205768824823517 0.018041414295595536305 0.29817924865102946042 0.36289113648138443535 0.061397429508850236146 0.3014356133161434359 -0.24342285313635028676 -0.044467991510335425076 0.041238761284103461757 -0.053347129076036392537 -0.089160004759792813034;0.236437492703722274 0.390683056969406306 0.15168453088622771419 -0.023937015279187148081 -0.080006919581001340047 0.29161278561253217712 -0.053582550909820690632 0.29009158812982349662 -0.11355766934334766971 -0.017421673897105291462 -0.24911736679026083574 0.17811813395842920893 -0.00026605570719281826202 0.12892228429794827527 0.0022169201184263848461 -0.091748928251821598723 0.021463461939875548568 0.17957044433556573759 0.18570966307053105027 0.045357898397388345113;-0.044517642686708852606 -0.013776159919081532729 -0.0086441777126667375397 0.060475137418350803642 0.047167587619805696753 -0.031588801444061544166 0.11762557205678769723 -0.02191647900829137019 0.02139314457394337482 0.078828542996843262158 0.041202350393018304098 0.00048260067032464227729 -0.085282590566623961426 -0.021869538860814066727 -0.015079367069168545662 0.01426953709880110846 -0.027969372111947936321 0.036249061205254187734 0.010568699968873397285 0.072454038869661716027;0.30277061459092474704 -0.12535749406826510177 0.32225638094251157773 0.085743666950035268837 0.013210369294838434501 0.12384950569833880207 0.63813506551114962395 -1.2556104284961180362 -0.042604006624286379357 -0.33201904444690788498 1.1940394206197229021 0.74057075250164261515 -0.056114250248422516132 0.27814857709350243598 -0.25247585586865944896 0.38246314253714802645 -0.60607570839686508712 0.076902518537222810946 -0.25806876760248537162 0.5365828346490761902;-0.044745793016576412837 0.064860093825211392882 0.30318552092504069684 0.0074497239946888591661 0.07946904942211664713 0.3005699090668909057 0.12926577716149018071 -0.045215182326182344619 0.069660511871724131727 -0.22041021723210735273 0.09204777456741879138 -0.39055868436799723309 -0.020924390124448452588 0.21904052090063655389 0.0063028447405286550445 -0.023147415030257061791 0.10849822615303865436 -0.18796057184791176153 -0.1939415713440196809 -0.016171251529644083134;-0.052300494607978635642 -0.13243643206549457481 0.0012436491215528323526 0.085705022751995527108 0.11165954534275555898 -0.098092360354747873408 0.10564981617399057945 -0.18912649645893772621 -0.095292101623794742138 0.10411097963564375224 0.1808686785120017515 -0.055751863291503375719 -0.21989555311050884567 0.069386427621124985299 -0.10075159621702733936 0.037438421536826291258 -0.080604021828873731459 0.0954443734552778561 -0.10173444679636482746 -0.013876629734601622287;0.085472613322759516397 -0.080483351297519295509 0.30616102388528582123 0.02787982472315334373 0.24731406848191689329 0.19069461932421999384 0.039638966907157346942 -0.52808557612169271245 -0.30656280700551558072 -0.77095394041137099705 0.46587623983548742679 0.37927335738343509464 0.65264119889090221882 0.25853973070558700087 0.25551262865102425392 0.28279943160632686761 -0.002153265116586483216 0.036670727005045256064 0.065633762495555858507 0.033539286116223011869;-0.14293221172353817727 0.07841227236735603956 -0.25678132990866686658 -0.065947569708771483499 -0.1915070180083577045 -0.49338701962055026007 -0.13729813534417850684 0.80504527867986941381 0.32958242464692383278 0.61490072512081084266 -0.02197110817990631515 -0.45468356808855836526 -0.19879394636978253708 -0.019568836615348375596 0.25823972334640504789 -0.45546540878851637935 0.12667900466663351011 -0.093955101038255398049 0.26950333050011582303 0.77352983462424240724;-0.0027050103907191535256 0.007992689741878333809 0.006512989401543685733 0.17206562932019892065 -0.066861543371107251543 -0.046330648331557568176 0.26626688980127233286 0.017983405283527129775 0.037952197631799695909 0.028758247997293578252 0.12196007273154073347 -0.10307091521041240878 -0.053833862214935357393 -0.11791995944722634404 -0.0036540766907018473048 -0.026813859852191205407 0.06392401871853586881 -0.064397856031260997112 -0.058551707970226823941 0.15063726552813211379;0.018047326362253094528 0.1556841725681792632 0.03131076566204005901 -0.026243114009934578879 -0.087118236630345374794 0.063315588441922615592 -0.15568129229169538896 0.038901738000877594814 -0.024736700284288561796 -0.097249227523556538988 -0.13706347079620784246 0.15680339282452279703 0.018687729513786350416 0.090523903918543632829 0.014286933381692588918 -0.01043166036605307212 0.068030696168276241775 -0.057850075634788764023 0.0089361992554582991843 -0.0024145293456806181387;-0.12397143311566638513 -0.15049514693877358296 -0.25535790771471622573 -0.12165785883300682391 0.12099244840611664276 -0.23765978150485217446 0.21508025169964356538 0.019882947151994505297 0.2594504021839217911 0.12767212470378266898 -0.53069304124815108725 0.033017717069452640066 0.1785455678210456365 0.031455462819428264831 -0.034888373681468430598 0.085975326613944066945 -0.16501940178100441003 0.50804551920214124916 -0.15159131885962673358 -0.13833320526301878806;0.37416371675864845692 0.23325415907015820127 0.16438470243024025375 0.007012143566164219001 -0.06156227416711490541 -0.19611770165271188993 0.072478107861181917393 -0.2551651612116244694 -0.075630397267935675631 -0.49468643610130608179 -0.51150804376456093792 0.25040382179782361138 -0.58487978639307136586 0.10696612934376051318 -0.32098406749254143611 -0.033824302875898076826 -0.11717031264546379221 -0.033062188813120077513 0.01174517435830731843 -0.062730811644095274549;-0.77591883741846900957 -0.25678046995722647594 -0.39413018094018681392 0.42073679894631049736 -0.012674507531253332779 -0.57513342619287510793 0.088750807983451363015 -0.49147561059867983513 0.056068561750373224761 -0.93862505992365630192 0.40509806368116735298 0.67510471690491169472 -0.89190022250248945923 0.51008737380693269792 -0.21745216780558643266 -0.02038471771608881683 0.012602860206063357801 -0.17141486723591367602 -0.57164892065729522308 -0.06811334280343975256;-0.36910120449271988097 -0.072375258007809875616 -0.036088330909741318797 0.020285769640884750153 0.035463143994148897675 0.11980939145046912153 -0.043379326021411930558 0.058662492671499616437 0.14123582909272036634 -0.37870091990322524156 -0.34927050572416112884 -0.38047897837947042277 -0.57836222975553430725 0.16173880696731374185 -0.010022046217553372618 -0.22105924464050583089 0.14243369992616772279 -0.16741395034919312468 0.066947089180856150792 -0.036963086495557358202;0.21923806622933661448 1.2778000938512588114 0.079298466852332757937 -0.11421507840613084883 -0.01149956586848836261 0.17657344793954263262 -0.0090708978224532145485 0.67842633968946985945 -0.1809475990036341353 0.7679950979924584642 0.095293919455009729047 -0.39789895193605356871 -0.93416247836909860336 -0.47069149477329191855 0.19618367745820147752 -0.57417990033097898728 0.069997979188273731777 0.31460447543740099885 0.02794875245810880468 0.0083958924180992863806;-0.24397919782801810729 -0.4997564165305388717 0.016222909165870144643 0.45964449638443827251 -0.040724375466588136341 -0.18116420457284518331 0.31832806092530940845 -0.46195235570109199896 -0.03301043773523353736 0.39788661817268161647 0.35435401777504393905 0.49544765670242862932 -0.68346012060869421045 -0.040654709828876423039 -0.418752951761504566 -0.047286982813581526774 -0.096736853104097089706 -0.38305611422808322208 -0.27587706356642766048 -0.01374401432021093647;0.3681109256839082966 -0.45502797996799082547 0.021366425731871023508 0.51311178300998216972 0.27432655801509714388 -0.33615173982165996724 0.69764856524357099499 -1.650302889248169036 -0.058719680224947043423 -0.67165005092356122596 2.7965242320490966144 0.52268647067715090504 -0.26753593988782736757 0.6708676612512968207 -0.23684077486525101364 0.11864660705154649045 -0.36350928058322412584 0.31578920567506912898 -0.88320467681272951666 0.41024704764733344042;-0.1659829120363427446 -0.066161467871785700767 -0.21698614896461443369 -0.051901247939001964038 -0.014700661676550848614 -0.11266125877288912793 0.12817889478819852189 -0.30835713525917290978 0.015898641423059554217 -0.031630735123921102647 0.11050522496773290682 -0.013249770212788837889 -0.038616585889082725991 -0.068572599236508699483 0.10081594454354877999 0.031936222384297073551 0.24440018915619357576 -0.034502595672615821165 0.035892844952933218583 0.043569165113170618686;-0.16653558037665858182 0.072800207626366894575 -0.12787159433651212881 -0.069964309384298109529 -2.4550130647281300789 0.18169142943453331362 3.0841989275199641618 0.21050870908431515427 -0.10677860376500811213 -0.21795550450332237813 -0.32610421308052289779 -0.060459857388009241586 -0.32250718289897922775 0.070245425363422084319 0.13549635606362378515 -0.022477902819308722554 -0.31848768169507363224 -0.084446575325465400574 0.051904352536132757068 -0.61080254250027410379;0.06493762397653438101 0.088426336411819461691 -0.21492442728253594031 0.055295351622207167264 -0.022805801825688854639 -0.583410361977722558 -0.071670731151917105306 -0.36301993321406561543 0.12470451574513348458 -0.17058470375717879608 -0.46488116294447495713 -0.2387263749323002282 0.45466550938622812827 -0.11973867931516908591 0.51064457497868331881 0.21630279568537444379 -0.066944413576448855152 -0.37039123828117154202 -0.054505274843589163192 0.0059620781940171391558;0.1196602030872382233 -0.26313187634990042874 -0.29975638859698439109 0.10376280631065018523 -0.063290968082512819026 0.16009809001382654947 0.16358328388855133961 0.026176495847570722952 -0.040622164970334689871 -0.021637575446436720095 0.097939307742594433615 0.2076364536771717062 0.49322747315429549264 0.31622947228501774308 0.14756781003843358335 0.39548394031562905671 0.0077774487810276585198 -0.048547871896102448575 -0.035666638617158546998 -0.050444846475811884468;0.76570935871093370739 0.76509558219673945434 -0.098694026365815631929 -0.20990910256680053725 0.0015395695296906929637 0.26565505028663821685 0.022234928142102865223 0.85782683401709891591 -0.40401138379157586211 0.45332296430816659827 0.59341690203002162018 0.18613909164465808344 0.29091060401766205556 -0.21845427945919720925 0.11546051151849201499 -0.33207373901442499564 0.00057985957447095415676 0.29413998467241714296 -0.086340473743600237855 0.063978390543590446526;-0.10656646807861171189 -0.33970445806406346367 -0.11630743164398876788 0.26200382961612811439 0.064431613406725721238 -0.14855312512794410784 0.073483545583145654101 0.46648183780752905392 -0.039064837168193422556 0.22629705287482471121 0.25058074030140747857 -0.0041935609248868205984 -0.014065541853971066585 -0.24304930040130437452 -0.14393284925495677951 0.034744693527028254476 0.029535745421895569229 0.08519432101048640682 -0.079264897951145302235 -0.12781273501585635466;-0.12421492403859886455 0.016741946158545711887 -0.46838145327012281616 0.054313846031753619525 -2.0100720786522328076 0.16283707022703611256 -0.78814303039499955528 0.36827698115746954066 -0.10772066378446024104 -0.16911008519827833152 -0.041934760042475011099 -0.35681473177191180834 -0.02368070703779949493 0.027371954808863677849 -0.017695813995553661552 0.0082354108614402943972 -0.55004771760418780246 -0.074911711906705050201 0.23039818736342329575 -1.1539925692963377557;0.24218662679409155847 -0.060662789707334401068 0.05954378510677553471 -0.1294567179535383028 1.3088876800909321485 0.050889914982205561311 2.0061074314996205636 -1.3452406084542420928 0.16142382431641438822 -0.18340105200457224033 1.176990236101215892 -0.26042232319868535706 0.28354595782985936303 0.37215351437161070525 -0.027815371976507831386 -0.10979970909336955742 -0.24070924704456664323 0.038943543867796401314 -0.44731620211111849938 0.50503721080934993459;-0.034068109183889444536 -0.0075343943187809337553 0.029510612004507587314 -0.16908272460979745233 -0.024233900431659370633 -0.030658116929692825342 -0.16047845053551929029 0.076082151008087822719 -0.023447960239321417181 -0.122147450091970311 -0.18009296733039051319 0.052811231199481133147 0.14725700894484669567 0.057080238687647340268 -0.011629228515300999922 0.054884603734163588118 -0.054383864511974605582 -0.018946463255095788436 -0.058404080662932074397 -0.12009190112867026978;-0.41103161609483429562 -0.47774217192871804016 0.11806545708669090311 0.19008738755296097911 0.034448645386317471029 0.092412076175706195369 0.057160065951775765325 -0.23461070535477096533 -0.0072743553210645054211 0.27655584489619994271 0.44871454067375515784 0.17737860286284168332 -0.39677012371332270879 0.14518043133853017479 -0.67409290287401613107 -0.10411636096964502207 -0.060672845606330155777 0.15481392303042829095 -0.17766367671297703112 0.010630963100065509916;-0.264327892480430926 0.18814904881363822553 -0.18625396992998927148 0.11453735088343112991 -1.5636520119830108477 -0.066714969321244585454 -1.5350194571699513624 -0.19662567759464433248 -0.35521345407183080312 0.19406022340043155294 -0.21176573878077875612 -0.31327845501925272176 0.0017309273292801532172 -0.55835226941101057108 -0.21480712757810307978 0.14647814550456653149 -0.32448772278053317208 0.037411523213273491228 0.35065262791443030377 0.14653495753427944748;0.036538939801766062709 -0.09817380696841064569 -0.12056595205881062705 0.088591769346947762953 0.082319499078137930992 -0.034323419754976193519 0.18861775566183958119 -0.25043365914785359339 -0.014938066448545150519 0.13542553206976790103 0.19073372220124865106 -0.097803485731305234152 -0.069242474875656045974 -0.09448309027263319948 -0.020420696587922660542 -0.020098753259102732777 0.10627376795346452076 0.037593333739332844556 0.065790261793790369427 0.054109274502671007856;0.46680815381604323644 0.52067806958250828497 -0.12278287396951670374 0.075591663225082109112 -0.025347126987827758166 0.24056302587740860388 -0.049190577226367555863 0.048377905517291749926 0.092827920809410269243 0.22898973691364665761 0.37672271710861954253 -0.43166834720675367754 0.41067149297406529973 0.054142183546651866111 -0.16126200575144331029 0.30533595890505677017 -0.19827590716068524412 0.042839078273034993105 0.10652439446450802374 -0.10860314376162995276;0.084564805363804271265 -0.45875948433910612723 -0.096007208599664578541 -0.019376569413101559641 -0.052962904502304772314 0.14052126763521891051 -0.063531143651023913588 0.13377551026709222359 0.010533037224835912343 -0.026157768275107885769 -0.067758298121298909944 -0.085738598401553886563 -0.14078214698015589779 0.15459922304510245739 -0.043028569498003453597 -0.064282562343762852941 0.065828506948453754943 -0.059853917963587813245 -0.18206256768328626938 -0.038750464958483679667;0.18949807860155093442 0.39131624385541941002 0.36886960046720335127 0.12852371915996296803 0.066773064308226645625 0.32734381738236922876 -0.15821241363819441017 -0.20695645679178870102 0.1255005535302669839 0.30236259541160476205 -0.094029208489324153653 -0.17866465105918896694 -0.24224481134766059909 0.13435410860426635904 -0.12391028724581892861 -0.02618280203327993591 0.066094871748930889011 -0.22147655918957578902 -0.13097715612920038386 0.11227594583673838891;-0.17594149312721890643 0.14197396065988360236 -0.29649433579264539151 -0.046054745179058657889 0.25694488470081511267 -0.18500192011428515104 -0.08222372663771221335 0.25591905448966639769 0.25761269118552415636 0.034783196356359673274 0.14731211259660073609 -0.16341010877587100469 -0.13713225511893539776 -0.24780579696599927542 -0.23116551781978100788 -0.00903422946021357684 0.093444822869475183125 -0.042107947170733281417 0.25908390947423459716 0.20225788781748954559;-0.10501648553139197872 -0.059415671343799783544 -0.053832944439852342677 -0.039156055257456849616 -0.06230680531885141038 -0.19859260409563583849 0.14644843317256503457 0.10132670622201919719 0.024753316861405173788 0.11044069909982881517 0.08242883090262821677 -0.0007843674623410875138 -0.12940262282673481442 -0.038343955788760021586 0.0043066970747623811375 0.028307467517307068061 0.10250391535472382076 0.014465696291478355451 -0.0089067395191980546637 -0.0049019946794268826062;0.19055464584829520658 0.80246704922800327076 0.51813678478282676476 -0.16271874724600818296 0.053874526109694058362 0.22580594353958377551 0.032396963029037731396 0.26170343681520519263 -0.23580144576864420225 0.53778479410284063533 0.93435612254614219818 0.50414508539130420406 -0.60623719887245175464 0.09792413410532127549 -0.36457058485676357984 -0.28933862161033979676 -0.16817785075681734863 0.55272916543850680871 -0.065644459478036334965 0.14917246591186297811;0.13388752593793712409 0.040625810344934509821 -0.12537987960942320598 -0.12126666109369994839 -0.023779473627615208692 -1.2191965190322058277 -0.029315188898557539843 0.71542527166778668857 -0.0073799895723189656502 -0.3265533871529306964 -0.25946886608282354603 -0.46696740423294097466 0.25411714424079678842 -0.094502769848742937397 0.28321325516967726932 0.053631896834267375751 -0.094449003694696456734 -0.29926935627283829389 0.26303567084513035379 0.026931400063531812927;0.089680274120461478393 0.066942361276423084648 -0.084178238199673155462 -0.019666210482505403628 0.42485746510572658385 -0.072282455502968398497 0.27639370294124182559 -0.36957036360789852214 -0.029968289141358912808 -0.067230675474279300019 -0.048659013421138930244 -0.34615775181278257699 0.10046002578444844511 0.11010085909521247216 0.11399067406028945415 -0.016746625918494684182 -0.17601117485006673169 0.42203955694550815414 -0.20541234523865045669 -0.56049381685455956781;-0.22972793073796024532 -0.38978595743197286261 -0.50856077243632291651 0.055618028011498905905 0.092512933395162685879 -0.4163553336412635919 0.073156221431682322276 -0.13556008631786772844 0.04574304806587575073 -0.052949588492233606862 0.27044711064009918644 0.088586732664650780222 -0.12349507148083008201 0.060522279940069853565 -0.12827200221010448544 0.040606496384609259975 -7.5816214477129884042e-05 -0.023037684973731951954 0.022501362661942400645 0.14830559741350038405;0.026529177705902441675 -0.7180494314027371372 -0.3256609419779672443 0.15961731556754804595 0.0095635328817030539061 -0.3307729879269343809 -0.05495322633514825722 -0.31765285012406330178 0.21707150565412641763 -0.5649619169515839312 -0.89960758020848130556 -0.48533937915301922361 0.7291358619707154487 0.046757829942537652845 0.41577920459618739057 0.49416992130814690887 0.24293782350500919831 -0.71156388674921555726 -0.091690416270896218931 -0.16203424913573469257;-0.12972105372244815968 0.10650425946646036035 -0.016243384732535341014 -0.092037757306552128722 0.59715170426549712968 -0.13558253090420682718 -0.78351906378980085144 0.76210258741747416433 0.18688125907588179486 0.28226182495325596866 -0.86462327365164592941 0.30823645607798083601 -0.001136535073131111559 -0.13823583035710004796 0.018928209360302195724 -0.14669135159659327239 0.11517334848544007186 0.0052169037726250431022 0.048857128645353985197 0.20651765492307508354;-0.12152244527654983142 -0.4862029015477263294 -0.21068629790500872923 0.089829445854582024023 0.0070973817233881582311 -0.5954040096630708323 0.035803196162612065112 0.04219697956797768823 0.13519767127083662239 -0.48091708618588563384 -0.26315509148305088472 0.20272440249024545333 0.53986403592566367671 0.12250346715132050257 0.61681177839715495281 0.24276011580997622352 -0.067678168222052068059 -0.43277121519041816811 -0.20730486479460485949 0.0023452157771407522446;0.051881319856311634842 -0.027498091778852536832 0.016974390167992250977 -0.14368931101727550059 -0.024318817987817518272 0.076119766286198972671 -0.17326004729693908479 0.024820088280501386574 -0.036895591586812048757 -0.064823054247547570728 -0.07353383900473201007 0.077679530259071177811 0.058890840213583275919 0.086454091094674584417 -0.0010201650692023048715 0.0018425961353040472106 -0.021643677069819292763 0.0095566316666982793759 0.040036528800056356281 -0.15669882579389315946;-0.23209971103396279113 -0.45306967425243599434 0.084556567931691681284 -0.035560993730115328382 -0.22751924213775032158 -0.12287304730443790457 0.16298710599622243111 0.076021049099656803905 -0.061749826311342785601 -0.089564339924872893306 -0.29674048914058026583 -0.34495315221063532762 -0.093987933783368796115 -0.207956152667684524 -0.54840503404889828776 0.081729636386370749235 0.035387356452560192466 -0.021044605403679177841 -0.10233573468187033562 -0.013146911717775537631];

% Layer 3
b3 = [0.11162609564375958193;-0.11921411821211673476];
LW3_2 = [-0.48215865615424302604 -0.92338712748205475922 -0.49208391579413879313 0.0090736263210256639516 -0.11183455927147811781 0.090435622668293844106 0.29500929960841004718 -0.79999668915808264114 -0.084365725530356192041 0.49146746497348381411 1.2872715349791197248 0.9413068662235660744 -0.2641673661295907416 -0.56283638339819708207 0.34510747261767338312 1.2788484510558142393 -0.26543058041606365505 0.030424679495742547319 -0.40734159248312257207 0.27399812394196682019 0.30630965922420355652 0.0338873244080699354 -0.69428283079322583582 0.73255104847818808267 -0.33710553612305887983 0.079516166120398801276 0.40906242979382118063 -0.51073289031256541293 0.23662040657028196589 1.1690799419767705647 0.47140589270456867421 0.50945226868351523031 -0.56507201357545489007 -0.1842203099434543967 0.24457178727844483546 -0.65948650422308574548 1.286313626476777161 -0.23312440349647764459 0.31386330511146143252 -0.16165224873377279091 -0.024383696947319288828 0.056431806048531187037 -0.17754156098273413122 0.36786164292607959059 -0.93211868778336248731 0.54133561930118401229 0.016158495637644008924 0.045142359856067612589 -0.57825545068775252577 -0.76394803101664221501 0.75365374894706615994 -0.63960967130724177832 0.077176260758800491191 0.42195801637136087781 -0.089160949589252330716 -0.22790834112669311473 0.89716439405161807485 0.4182573940617118069 -0.85834462073150263883 -0.0083937396721700512775 -0.3267625857955164248 -0.60727481890481893601 0.041233695097120041939 0.36472125330819993305 -0.8323153204967533858 0.056765008791186358228 -0.25428813980693731889 -0.62540139699414298846 0.24991504220683441462 1.0490746968511190929 0.20241573262136522415 0.92563091344705361596 0.41104468596859172758 -0.21308424719718485618 -0.33011523309976797957 -1.6206711263040416426 0.75861146073031449077 0.29578551595588886691 0.31654290108070920473 0.2657047551863661039 -0.4003324690857430479 -0.028402207370051599233 0.039087603062342747562 -0.87046152573885027248 -0.10243248677417578218 -0.013860447677361192875 -0.010220366062403328858 -0.16184858218904932259 -0.86850465418590405697 -0.98972759306129542978 0.12530687180622210319 1.5691319383678665744 -0.51724649376590980943 0.26898523879637648015 -0.49207535709299010662 1.0178027415225006092 0.087021795440845817193 1.2643714884811667609 0.026289071345005854408 0.024021429782442552114;-0.17770890259635446773 -0.067157064034895769256 -0.068722660925777223628 0.043466828335642859749 -0.43796503661694236031 -0.52166799217218673412 -0.35065620084546111901 -0.39806318995364692315 -0.51194227988512430727 0.11801428488741803891 0.51671527869383193643 -0.9015375700364256506 -0.66332910207245876499 0.17719328070347345472 -1.8157360787670884239 0.78974237575324590654 0.32980885562194328653 -0.57407106422061215945 -0.30192290968789570194 0.24973174175842655087 -0.10178497175276482456 0.7187678308197720245 -0.42637121004557221315 -1.7888874246139638835 0.15922434326294129803 -0.6294649401437957259 -0.13688445953747974126 0.046616462467882376075 0.57774281551545803026 0.16436047737847195305 -0.3745500293979971973 1.9974897999084506584 -1.0715453508937333726 0.95522048385897695422 -0.08837667430453781392 -0.24993737766185480931 2.211720587770638069 -0.058650590378465483621 0.54717194718464134962 -1.4292416277492649979 0.13302099529948469003 -0.64495716294773042243 -0.45451304228095867899 0.36763258348116473195 0.080505266349127926895 -0.54989003940882619226 -0.24977597888867153486 -0.1359624965223784343 -0.056529164031571134397 0.13794032909306933044 0.12570121793446273339 -0.41221541025327496088 0.047749808427221838991 0.55208990357065046428 -0.2817339447453532375 -0.51067480013783039805 0.17234300496508009326 0.35228431738426269071 0.46034686438281785525 -0.2533973059616600465 0.73851234107597762968 0.16493342509015337938 -0.49613802950838520323 0.032235549061820974182 -0.41700272911003005705 -0.42952021063938239376 0.32423533282318295345 -0.27225672254934796257 -0.60519485596585220755 -0.58937045085853367876 -0.85831869216322842497 0.79936303831756472249 -0.21250333345586838729 1.2695669994340554876 -0.32126781839030815746 0.18507184474201934798 -0.87356642403145445819 -0.66739368035915036526 1.7204357399624619074 0.7586246545708605904 0.03513389336935612145 -0.16126641619483045309 0.44053289155835140267 0.79521704004442117508 0.26290915846620360741 -0.47527153517903003577 0.70789923235520946232 0.27756866069159419341 -0.19968715941823969584 0.33488126531188544543 -0.37316836087260513155 0.1740164038906254762 0.0011435588549976250308 0.40674936782850579231 1.0121134421085486998 -1.1510989676403793336 -0.549095883106072713 0.28305803962411313357 0.38448334197617495267 0.35723905798594390859];

% Output 1
y1_step1.ymin = -1;
y1_step1.gain = [0.454455079955691;0.321912002778744];
y1_step1.xoffset = [-2.390888;-2.799727];

% ===== SIMULATION ========

% Dimensions
Q = size(x1,2); % samples

% Input 1
xp1 = mapminmax_apply(x1,x1_step1);

% Layer 1
a1 = tansig_apply(repmat(b1,1,Q) + IW1_1*xp1);

% Layer 2
a2 = tansig_apply(repmat(b2,1,Q) + LW2_1*a1);

% Layer 3
a3 = repmat(b3,1,Q) + LW3_2*a2;

% Output 1
y1 = mapminmax_reverse(a3,y1_step1);
end

% ===== MODULE FUNCTIONS ========

% Map Minimum and Maximum Input Processing Function
function y = mapminmax_apply(x,settings)
  y = bsxfun(@minus,x,settings.xoffset);
  y = bsxfun(@times,y,settings.gain);
  y = bsxfun(@plus,y,settings.ymin);
end

% Sigmoid Symmetric Transfer Function
function a = tansig_apply(n,~)
  a = 2 ./ (1 + exp(-2*n)) - 1;
end

% Map Minimum and Maximum Output Reverse-Processing Function
function x = mapminmax_reverse(y,settings)
  x = bsxfun(@minus,y,settings.ymin);
  x = bsxfun(@rdivide,x,settings.gain);
  x = bsxfun(@plus,x,settings.xoffset);
end
