function [y1] = NNtf10100v1(x1)
%NNTF10100V1 neural network simulation function.
%
% Auto-generated by MATLAB, 16-Oct-2019 00:48:24.
% 
% [y1] = NNtf10100v1(x1) takes these arguments:
%   x = 6xQ matrix, input #1
% and returns:
%   y = 1xQ matrix, output #1
% where Q is the number of samples.

%#ok<*RPMT0>

% ===== NEURAL NETWORK CONSTANTS =====

% Input 1
x1_step1.xoffset = [-4.116737;-4.414833;-1.286626;-1.32087;-0.9986827;-0.9993171];
x1_step1.gain = [0.237677350382405;0.228848138663664;0.775972176741631;0.761305867955304;1.00099022958462;1.00085057285934];
x1_step1.ymin = -1;

% Layer 1
b1 = [0.75083478908831269294;0.3053536578513815769;-0.0088972229737164145597;0.40890995624594228541;0.065102923719722219364;0.21927604811346182445;-0.019815994400904774625;-0.74475403139378892892;-0.18271430934938923119;0.30745495019758833921];
IW1_1 = [-0.23044768604222695685 0.8142479827250196367 -0.1160244319264715912 0.48562559151292777893 0.014855068672508579125 0.26539701896799772207;10.23346289529810349 -5.6689534626809816587 -1.0455807981224329861 0.37528352305414097723 0.11877710237228571166 -0.060547522297947208025;2.8030546386013033278 1.0353320920365918223 0.10015876797128597797 -0.42771479252138600025 -0.082503696909600368614 0.12721844703445611691;-0.37823598560537136093 -0.44249774031374383698 -0.14443488246697322452 -0.3158310910944897576 -0.18331664100640021609 -0.13208368140815454628;-0.19891152147310711684 -0.32591473528958619932 -0.20684503211006116663 -0.091324854641117753085 -0.015601618600901385331 -0.063935263293763158754;1.4391532422551185366 -14.437867967325486163 0.84162204042846811003 0.91068204867991575657 -0.66360639541808430497 0.2383133302547474075;0.011950177109127664565 -1.0529159490801320853 -0.051900025083794758263 -0.30522407274538132516 0.29916862786961473386 0.72788154502309576621;-4.0643269824422674219 -3.4973949006828983777 -0.32791151075730701203 0.74265957800749682338 0.62115661142734091005 -0.29734240363316322142;-7.435116660709460961e-05 1.4302708626100699707 -0.074574596606457044246 -0.21971171791729990352 -0.084672694897874684061 0.1952629850728737626;0.57334964047929570796 -0.33219510331778018264 0.18095783118148842106 -0.16016009385560453504 0.19006535440638613887 -0.11477013235470713559];

% Layer 2
b2 = [-1.7125940220416187021;-0.5287612498247685755;0.22879565018025238565;-0.19868745939488519081;-0.66210077842583270336;-0.12109262113654925552;0.17030585451588114987;0.066749567337185372606;0.11319648469602291985;-0.10009841633995918142;0.15891966586321895627;0.53590226891736136849;0.36596090853627949446;0.33580312531396516729;-0.18836662232154835483;-1.6417768583121645776;-0.75453659476894030522;0.94927200941932898814;-0.073953040310068218766;0.081140660134752157218;-0.072836815413858696511;0.77695785474865286524;-0.2412574339630668141;0.39235059978725100871;0.21587166293494741698;0.066690747266239011615;-0.88753403286127197092;0.72062960785307672573;0.40052033522076435634;0.090783041268938616253;-0.31845132994536068383;-0.36172729101027695231;0.59923528740728293496;0.063966273469857601319;0.058268467881991026225;0.064132449238183050766;-0.043064232101900336291;-0.54140827643379452194;0.095209791845333860416;0.11850649951701990037;-0.5924868877630038444;0.41401899889526444509;-0.03024560538997157072;-0.1765594447842629422;-0.31143692391679633769;-0.59261392085587627498;-0.53382948331681101539;0.84761611399838343583;0.20273431972926453382;-0.10660975119238162712;-0.05161454171801791585;0.074023604553338284706;1.2098166715374203406;-0.053042076437954777113;1.3802282961876943812;0.30274797093119337754;-0.11493820332859591704;-0.2313959819987860822;0.26503539030727540915;-0.060465573752262601059;-0.20259159530401091298;-0.36763159090352737213;-0.6339983583197164041;0.064516806432992027109;-1.0208320511510660111;0.035743496437506697139;-0.035648637755264500626;0.3602963675744502714;-0.76146102998147402463;0.7156646745555412803;-0.65099310442320346137;-0.15615704636982694065;-1.0760840808002944957;-0.38564596510730470014;-0.19070569001845330548;-0.76789957328748648102;0.077244397568048892011;0.53866147241903905574;0.025832160471285940673;-0.023869720198513272313;-0.029067208452293057802;-0.10341445706815265149;-0.0011234569963170337563;-0.53593306441356480807;-1.2271190312766666608;0.74119478361172452807;0.4877137646742980559;-1.2121925796174473078;-0.060790345597368039554;0.035893524940686247215;0.08462934283472693664;0.1011727924380044219;-0.2994371546012972729;-0.00051652657125778218827;-0.078623529345785800326;0.82983708685354162782;0.12056103620766567275;-0.093451847525783088289;-0.091163981172168728762;-0.62256168092503205713];
LW2_1 = [0.71948044408078692946 -0.26007785538622307797 -0.78913102148219604892 1.0109962096217439687 0.4378532802319788364 0.90394793130983375207 -0.13055863626201935634 0.05483554190319030186 0.33081082649435372689 -0.13207672760266900291;-0.75838150871269061071 -1.2062278388820393271 0.78634158533808284908 -0.15221027878930551425 0.6305698627599732875 -1.0855689757635222925 1.6672801750836392376 -0.9739516114204120889 0.081630174448613757043 -0.20155190519902688173;-0.8584407268393320356 0.26109301422733649511 0.81829758965268273307 0.16530477403224222432 -0.19638385001241071004 0.086066832457115577393 0.14582907088208613144 0.14005384177564517145 -0.70129018484523009125 0.57615049233697301911;-0.62736220654520158391 -0.21823397987624593153 -1.0447348148259909539 -0.57682364195701985032 -0.11643958404888429814 -0.57779715981847556971 0.01865299861764450548 -0.52632665734563599536 0.65685280793754574624 -0.74326844241938361257;-0.3870665537907923559 1.3914240608173433777 0.060971892134171618016 -0.16761753923415625978 -0.72304631308631439612 0.87246010464025758324 -1.4800767310664830756 -0.45771512337341474508 -0.45991083599978066498 -0.40844331425159907667;0.83350508884063290171 0.20336865935553666285 -0.25261530456837566483 -0.088566688939316171036 -0.34818301891214947785 -0.56645659207299481341 -0.22103568144471424928 -0.75179275511905219176 0.78462798015728918433 -0.18776410057647255347;-1.2120750951791205985 -0.16554688486649354884 -0.98087298746269135918 -1.2777202391830788653 -0.30238968200564042554 1.2022858721374438673 -1.0717526144373901165 -0.92128114789437787202 -1.169616500781586188 -1.7871273349252405627;0.23089195126853800932 0.44702836487536695698 0.78865606237974283932 -0.1865327446056646854 -0.64818607647251735848 0.023536918957805182812 -0.055092522956905545795 -0.0047220151962805261003 -0.22745284071645560653 1.876489249756218447;0.66484422114466124043 0.24975084542808198562 0.20303285635057830016 1.2109385532271794705 0.033552032213672949856 -0.076867050736283901169 0.15219835929127931151 0.22401179609112004121 0.32940982311627553525 -0.43329361787476072809;-0.073604056108753715404 0.03911420373053402233 -0.086412123801705098547 0.016954883998415014312 -0.010670816243245586502 -0.04788861075567433373 -0.054821746549482602839 0.027142205723814861323 0.034018084121666590514 -0.051645851254183750001;0.42717440074742418776 0.20117378220768433739 -0.27787553116789098784 -0.57687303433451264656 0.60222904633947715869 0.56941967043221597411 -0.094963917704306066714 -0.0355497971458776027 0.3932426625698042244 -0.052599039579166798064;0.081809898742219208656 0.21751343029684280794 0.65779977407974465908 0.28397890566125272294 0.25708600586306995517 -0.029242525000710763161 0.23084183514271069959 0.31986600895599415217 -0.41287871279781412914 -0.3452198011139689382;0.35266767398384829546 -0.21507935214932738521 -0.41484593485090431875 0.0056825278675048818827 -0.15598420095292497844 0.1603040459136459428 0.13498176937170616729 0.45479151471674428286 0.030934076418349686077 0.25433957755146402446;0.086141397150874265964 -0.49500541764934707922 0.07169639314360187754 -1.1957946795998635192 -0.12753392156521647927 -0.75988832753574997447 -0.14779077706222909505 -0.088779138860979864289 0.58674195648822502491 -0.54559934001642207413;-0.086885738764216985386 -0.18425630657417890745 -0.10831756447044943448 -0.011885436035507169344 -0.19832366394458808556 0.099304996956532567975 -0.085109507412675727833 -0.10517437134598058013 -0.11697284745031764908 -0.059317506765626144827;0.13210007914045765465 -0.76366483463678680454 -0.76280212706353800467 1.0105677455389265873 0.4533732685077672131 0.9249830057337715683 -0.0027718891479051677509 0.16459779895978762787 -0.22257575099537718621 -0.52127075353413765413;0.024353382999590517805 0.069745220175385605477 0.36789434231745260506 0.64969813755221139662 -1.7097095050586841314 -0.0073992147215635305918 -0.010015181533930639021 0.11525735770660051893 -0.41230648825847887595 -0.14089201637569284675;-0.81182800531638343866 0.24472428040142116257 -0.98559870551012584983 -0.33260993379218467547 0.59884043276397125322 -0.18375956755063910242 -0.045330485298879757972 -0.00070026890962634081444 0.65210262231922944132 -0.41808126209713070143;-0.04164187755794802881 -0.0081727493073316271471 -0.030884652434289588951 0.029688773614825466479 -0.015770983234302760057 0.009372167533694315128 -0.010381289627997822289 0.055024797089155683127 -0.067120029507415857051 -0.095367386876492085679;0.020088983666893815705 -0.025962405825505251861 -0.063431670725358588192 0.034738906187742460419 0.026224252765224262407 0.0072994074324400299095 0.037684868112617044 -0.029079389922187285494 -0.049025078976920002938 0.015782774393028851934;-0.034549677627057608087 -0.068042010204226122116 -0.06168716519627249345 -0.005235516678619753228 -0.08404094867319399087 0.03378871452344915649 -0.025740971748120237278 0.0065825923649731159226 -0.043025126219298374941 -0.062011355334673626261;0.54411314415662281885 -0.9219282363769455424 0.56885700075211109716 -0.53133494299363304147 0.48447502985436635692 -0.071350431502708880349 0.25397957470165860583 0.14542078132909225241 0.037409534912238431859 0.19557845206352655887;0.39264880562013732002 -1.4515225032769287772 0.44232840674723633567 1.4911945182643471242 0.31580641497826655861 0.50230434284677294432 0.32034677530994520867 0.92471717940363695742 0.095725662241604669855 -0.31920289256377359921;0.52987720602685783877 -0.71119606928935819035 -0.68429749458190691769 -0.53903191953557805238 0.19178212946118577964 -0.19640187733981537277 0.0045141299071455977601 -0.29724845408746963793 -0.18023101284816006595 -0.4031506448489468597;-1.0663097861007626577 -0.34635076545910675749 0.087853121317923416056 -0.39786988411580864744 0.14280304501295743025 0.50064545893975564983 -0.033654106568481306772 0.17571245730973669708 0.16343501431604431917 0.056994534231214991071;-0.10526689012368450893 -0.1753534849703731191 0.24746018712965900388 0.30224778864634904707 0.2108306897289685955 0.35530743722271890261 0.38511082452923223185 0.54024397833246107226 -0.067278446088723214968 -0.16924054637274324464;0.19504418756081298714 -1.380403816107907522 -0.81155651258928174219 1.3213003608196314254 0.15264694268507947306 1.0385478915035222247 0.30379869549068694301 0.16714686286875379828 -0.6508872035939312628 -0.75239193047827634953;-0.26323174960656664512 1.3214782203997612609 0.16583489315368074579 0.3546028024572168702 -0.1172272216004710127 -0.68949348213439420885 -0.21580385980977728755 0.02012000431241167675 1.1442021570875067216 0.39701530275996316233;-0.16989875666912371277 -0.34448611773672405123 -0.63499770491100571146 0.04927047912782195338 0.13782131310495207566 -0.00031935103042567115038 -0.20448251611499634883 -0.36522951283623650287 0.66861148612214815756 0.52442733479832648325;0.065533006384298889135 0.012583966305027933716 0.029309050150737647744 -0.059934889715268786781 0.030889431836102081846 0.0015389671836484181133 0.015484194670200882374 -0.04904470267733748029 0.056717738601853119607 0.04962823704181015122;0.22770183752399167365 0.080894811695066820567 0.20862944377913653082 -0.72864679715589031339 -0.36261109924724455045 -0.92022183178427385819 -0.2487056778602891316 -0.097226988922326104681 0.16553177556890291688 -0.26991724033892477985;-0.98777196020208124505 0.41912900049384671508 -1.4527780925192941286 0.062180639521265838876 1.0883451820162979296 0.86491507259171662714 0.46730651683170026933 0.54213920691679196029 -1.1849304613648050655 0.71925536350507413008;-0.26534143928809711399 0.47980925904842253171 -0.11478837913294194506 0.20996254846588546794 -0.065648395781587515208 -0.47412810013503708939 -0.14267629814699409052 0.17532427004784101321 0.30592269144210343379 -0.23203852225030324741;-0.20825923432778947753 -0.068504041768551890423 -0.20790911250301596924 0.043705195438511500183 0.15012278178745114277 -0.46987090778017309711 0.50656879433570578541 0.40510270326664027385 0.27450772231697379011 0.1639935947314825615;-0.014775782988534063092 0.069526379733739901434 0.023942031252408676328 0.051426973268382546178 0.077388353410709584401 -0.079195658110921468564 -0.0098457154185994984891 -0.016808268287187479867 0.054986496321333448722 0.030320370184533342733;0.075998176736469996717 0.023894192394100063209 0.044784168973095034305 -0.037703914503566825223 0.0068379781330791550992 0.046601647598596848687 0.059612896019961565675 -0.013009962324402586306 -0.0037734644753943226772 0.090524949353036079924;0.19794768357201222853 -0.40412227673621831103 -0.74316891606905188805 -0.50384076241039021937 0.040321033961636387755 -0.18939555258701676332 -0.0010327442608535123379 -0.25315695122789821925 0.52596241451522152133 -1.0021639564386353172;0.30620847208982476806 0.62625577954325706287 0.2466726408814985394 0.52298299114215418548 -0.03113550133624285593 0.33544057377700148281 -0.10321578354361291008 0.13440391471066850948 0.13008216018105700496 0.9501035426741311074;0.053344672599915807232 0.047474616619714894716 0.011228098421287071793 0.010630690830040669809 0.043755333261649556609 -0.10596552104167834829 -0.015189084782190689221 -0.024628319219018136171 0.045817488314963177032 0.08111614019678606291;0.053348007816078645005 0.079438879944349727324 0.052405554745109286796 -0.0049272544658293332756 0.0961765504984167241 -0.063423436822815967839 0.015796053275527768139 0.0069507793490434450004 0.080398223742087632226 0.056359816484007486947;-0.0051725289333542714965 -0.075068938366204346346 0.61657866005236139362 -0.47051883626639062763 0.54611743999276551875 -0.36037402552336500472 -0.39058608247441684025 -0.091560483286620863996 0.89197932628250675702 0.075240761451479357125;0.059606992742060833923 0.056319651924305394464 -0.055962907783080356738 -0.92473619846329146998 0.037865658756319711675 0.521513584272646602 -0.20457654142431061506 -0.63662416945274558078 0.27411237972287005871 -0.40353409339296525404;-0.017129075718800207406 -0.050671671889118141685 -0.072424826632114330804 0.009119814396976403531 -0.064961303972679823593 0.014186345905961964681 -0.013605020455507091034 0.038404378207324292582 -0.03881584786503133877 -0.031533945752312428357;0.1652665472930832935 0.75718020085505211014 -0.78782956299042128379 0.68757829655448254869 0.2960286906747616742 0.70975692421998448634 -0.018885131339067384726 -0.16625756921280587797 0.26362823073798385964 -0.20670668657289148484;0.072581420445134700592 -1.6762950426307767771 -0.11684374721591880841 -0.078976626014684581101 0.56644906202875189294 -0.78924190800403748458 -0.052783427728060827722 -0.21777282288362698193 0.17570212036539564759 -0.97194968835805428675;-0.024551025266656509999 -1.0859558551134591564 -0.054872824253707444542 -0.3183234297377574018 -0.11170981101716222217 0.46803508008548594388 0.60444901536326700597 0.095029504839806822059 -0.72838233600231716558 0.022081335014629509955;0.45163050673824794989 0.78001331729676126603 0.20641499698166188015 -0.8704135087688479322 0.24140490111512605265 -0.53432584892628631756 -0.25447865770432293031 -0.5005029606406815601 0.68167256974402279379 0.10737698342349323577;-0.709172189184568591 0.096913752120268148449 -1.059764155939560748 1.0197107730906329603 0.63519910470844420658 0.7147075445764202728 0.038525379673659432278 0.19627260276204136491 0.80157408584436617982 -0.40812708636069322532;1.0719043314776299791 -0.48542457288566986939 0.79642863555160625655 -0.6247867763164360877 -0.61322362316259315662 -0.35935034030069523681 -0.077019200645405683225 -0.16564908090312749356 0.31227486158874989686 -0.068836693436278406644;-0.043896987486572891513 -0.14249506517824864216 -0.10104279607167357402 -0.01661141734682007598 -0.17445414386696370124 0.086302703834958055529 -0.06392018180173444919 -0.062024366165233185688 -0.062004975835201571466 -0.047851356428838857926;-0.028287769540572806071 -0.052095904348602152523 -0.049800996817242509929 0.0029458077127383292329 -0.06024482270707733067 0.027345672615080952872 -0.011670683817256043494 0.022604820861571790769 -0.03550161864016171398 -0.049170971083150369352;0.026260387653420740744 0.048804897960049400951 0.061117829358269676332 0.0032768950588520596653 0.069560502795761661177 -0.013707255954338333839 0.029222128342629320741 -0.021210139111632449194 0.045874715637793557488 0.064726020151567004168;-0.46790825042837058678 -1.0343710785643762673 -0.67812157081730584096 -0.17584453700526470055 0.43888414532848513128 0.78472492206074506704 0.13211850750840783975 0.1257523648692583651 0.20685863882862101648 -0.71423794989458611049;-0.40881700558969935599 -0.23598637925563553663 -0.17853285669945856418 0.032834127343452743086 -0.47095435044114802858 0.059477515808603234615 0.47978810859534004596 -0.29141574611569548425 0.45493485361632018948 -0.25659560309713747017;0.076992011144239230758 -1.2147243595325563081 0.19512821662354645769 -1.0723758778182339579 -0.067412998655004482962 -1.1616548424319550481 -0.11782105500364327411 0.3701447190859629699 0.71601659712892873344 -1.1263727433438017744;0.24944471930684170013 -0.017474624206373318841 0.032570719553841130656 -0.2452561155733805065 -0.059038468362655201205 0.12919293377048962634 0.1082962638782870024 0.12200251403782322313 0.025228163800582476678 0.14774085648098411738;-0.088698888989150223572 -0.20346751264011056493 -0.13686679728023273817 -0.097691491364247387552 -0.14477027122006136395 0.063915974704814831897 -0.085099911044005591143 -0.084996232973708771286 -0.037660112302859115319 -0.020974443503270264605;-0.45574166240764735214 0.44646674229860383587 0.89734353518497866897 0.71789113460683273704 -0.26654112193965723288 -0.4805130385162936224 1.0706691588206214139 -0.41095838265015549595 1.0512831249718173066 -0.5638902625499713217;0.37765149025745170519 1.1627520821339756285 1.0707510187721194228 0.58201644076484548851 0.32611231129264450779 -0.51835921206907653591 0.55981793133074653213 0.2815767651703046659 0.44311092299564486252 0.44168415652809134286;-0.029295643690911019053 -0.041567032910192397432 -0.041331441058090404028 0.0026320054392305475277 -0.047654233454765229649 0.034176021784881945031 -0.0079395116871340924714 0.028221341263976851277 -0.039694016306576367092 -0.045265123422515408935;-0.34965162604435029436 -0.31947932272334050863 -0.20827778461420992651 0.52598973113174896099 -0.28232673135280927923 0.056253841253633252162 0.37827486792157088979 -0.63476904483077445374 0.20567060664633998734 -0.15559088434336967866;0.20821996747832841046 0.059830008425833178243 -0.61685853127103873472 0.15442080130107208036 1.3509564203075170585 -0.2671415912692627348 0.38066421606728079174 0.6688037057433631194 -0.61720116099785626851 0.72232946787142837675;-0.21179315368798237729 0.061729712089043028977 0.1435391096973535896 0.83396170987110795902 0.15663028910362955526 0.59961772601325447063 0.074176380400618413535 0.20366749395419278534 -0.32115944238227317475 0.60267942959352649446;0.025819963291231057961 0.066577068254201579589 0.065143611791282585166 -0.0040227155341723353291 0.087764740572180977018 -0.043158775364422446996 0.020073185401843586517 -0.0078042162268512514298 0.041267967687208112482 0.04797620919816780044;0.59005225902593028131 1.0020058659278803237 0.52720375297263599723 -0.041686996255227606878 -0.41146761601105663608 -0.4904800376901935488 -0.20230200681471915969 -0.20678348560849488247 -0.17671144240933850389 0.74274573530103049634;0.019378228350833318072 0.03225368950336889029 0.05077664919356564277 -0.0080163246723285782463 0.045509913233704943347 -0.022757483864489603392 0.0058081559103712486133 -0.012781009850365111086 0.023592584589134126677 0.033594536087396459356;-0.014615364740508630589 -0.064310516484527013858 -0.08000859082174960335 0.040068972706707874087 -0.13080558550945239893 0.051578681360554427815 -0.016636818486080735824 0.010301176715160996825 -0.048292235156989632427 -0.045579757776854905316;-0.039750490556393229535 -0.020072770449294296408 0.78922303194787213343 0.17913630798981045045 -0.55182465705106453768 0.35542947590891094123 -0.44956784711420727518 0.018071610984612095085 0.75986267223791381653 0.41404487639598924753;0.71934102043875813859 0.67301111963918081038 0.72589750111943929234 -0.79984699631998668057 -0.11989705089551340456 -0.74484891260465713181 -0.2730737745128965499 -0.51133167894933873043 0.61588421230776413395 0.22367528833367150698;0.55408505094081572651 0.49550431904736630395 0.30737273058075004206 -1.1168532555029728748 -0.19467493208725786258 0.65097520837899069956 0.67212195050579570665 -0.56351368408609803229 -0.48544755458541483106 -0.43864048567622987429;-0.53673697967005007392 1.2065684281404682743 -0.46574011403763770911 0.38682403541547238923 0.068609606858689636821 1.0948059181775222637 0.10520380954052530043 -0.54265166983125645572 -0.58595755100794177928 0.57189468730805026464;-0.64770540047021685215 0.55359457322423311076 -0.29688095748072962365 -0.26472114328165580188 0.25732310360707577601 0.19352659932709051493 -0.28443174643390700673 -0.1738950992459929179 -0.46523840903810914638 -1.3255553462171634216;0.348418865568423608 -0.0070622311106250945656 0.028544283009366681197 0.48493710093982123066 0.017285642602740271256 0.16755158150310936471 -0.00046996678813178622593 -0.12649461459330552104 -1.1958183757406404268 -0.32851524524463882049;0.32993399927196132015 -0.17428102107927354036 -0.30034001922390080042 0.2285315165296823714 -0.29773483275738449327 0.15121959559147257757 -0.1401847318431209688 -0.25840493780285433978 0.7833041686514011781 0.64049447123701064299;-0.051434517247536594431 -0.041463492256080584919 -0.051505105354994779043 -0.16433320013122215686 -0.085570408609603743066 -0.19883174733088115893 -0.13947705166309759539 0.08071966471181106495 -0.16740826011916748461 -0.22583669838154074583;0.90051763202806645037 0.082794835049509407643 0.94604405070505381836 -1.2375505985629209338 -0.73248385376811364633 -0.49169115686292608203 -0.094481493924890067038 -0.22708750411884398579 -0.52139447145049866439 0.24367237746392719777;0.030188520234870817177 0.067057424752917399458 0.047764332163606537662 0.017422128990922495367 0.076597970793232786346 -0.046039500233100494331 0.014056855087508106708 -0.014204006179254425463 0.0474751307118144103 0.051676304910135084647;-0.43762624877680167401 -0.87426834726818480892 -0.20362747288898824793 0.93844090086394660322 -0.66067303837817814571 0.8640409230610338609 0.32203573007443958565 0.096810281916285781389 -0.90802709476407839073 -0.60406749349693755757;-0.011170309005452468132 -0.18981681600755964667 -0.10150750628822280408 0.15154198306903818305 -0.13002291844936492149 -0.40242072043254212277 -0.097934959034857160809 -0.019033347305500443458 -0.17961089180108538721 0.095032708679568811405;-0.042891914858263963106 0.070939955031510945616 0.072361368167142101071 0.0026678851580027884184 0.15245419432554446759 -0.13406407581058038536 0.026979798126037936312 -0.079276841924699067987 0.040495046050419203354 0.042878006903484797152;-0.024153852072787022898 -0.019216931762848537407 -0.025066880725102935745 0.0007433428608348001702 -0.008207876583448875385 0.0050190286252761251787 -0.0047977339854086576559 0.026654549768332660986 -0.015225840903501692766 -0.036179205217996716903;-0.15986911195489092452 -0.1245346761894604859 -0.097674238695135862098 0.044627235820194156857 -0.10783511308182615329 0.071625519567789647235 -0.044054392920882375073 -0.069468026775450220089 -0.014299356165419854076 -0.06259031964159411654;0.074044872699268821092 -0.016233352606806548957 -0.11243688211914958097 0.071909587568027802384 -0.23933862962432178589 0.11157730463382248276 -0.046850605162843554641 0.051965441506069194599 -0.037048222079811690688 -0.075164442883923252015;-0.17712081356502520912 0.29153528022119928886 0.26277238862426677279 -0.38828161704283148392 0.95730692657915084087 -0.29313354416946157954 -0.20820749246787687015 0.0723245960384765324 -0.20767339961333677878 0.44233590776990605598;-0.065596271432011188374 -0.46290022925055573921 -0.64938387916598827587 0.054346773001275591741 0.20226119249007601386 0.19432630750802334929 -0.36231218342235910201 -0.3349748831632327617 -0.48003723664801628557 -0.75606142751841720617;0.06516890144061730783 0.26044368308147874957 0.20309969924183207679 -0.11364877841339576792 0.63967918351112018627 0.085508538266905076419 0.28137626571304824585 0.52344992561186720614 -0.51027472193287637392 0.18970865890760785222;-0.070795134571807624702 -0.76966561888529905211 -0.26834600117624723969 -0.1786781196406548311 -0.019572549066569303738 -0.48690441318459404263 -0.7189856214644213539 -0.073430137403779668914 -0.46643545493473592689 0.24937197794093840519;-0.1482053714410112577 0.91781338523663713591 -0.46331222716251596605 1.501922303697692973 0.42333013647663830792 0.84169018884526680679 0.050233754204093733486 0.18019483994989421438 0.12868446863257385071 0.50418329359380276156;-0.037627772823279038994 -0.054101370712636806526 -0.036238998622336864031 0.029503065653394448115 -0.061024915696645608276 0.05478884812606795579 0.017387805513529183687 0.057695308242915910313 -0.072548454825616393027 -0.047764705965488298001;0.0085188591546125919801 0.063047601123025695524 0.067099488295081569089 -0.07171422042328551294 0.086067917054254483578 0.011466170618978614379 -0.007083150565594636093 -0.0089259393117455225475 0.025141641743006336307 0.0032115881655366907213;0.042011151107112336411 0.073749083460864020556 0.066176297039512985143 0.0021067834410524130008 0.086807247738521692293 -0.035696749734722255099 0.02483577196507508883 0.0023604306946290202693 0.052763800880259448256 0.052240056914685285838;0.059036299355038221459 0.089838561215730944332 0.076071497589624226254 0.0087468833219323666173 0.08919148539691738875 -0.030914412737108785956 0.039418549161436500228 0.017792312961233722191 0.039460085239015986469 0.056532156044106995907;-0.012065963531386352317 0.10286754460073223305 0.036633922087014089697 0.10038467236924075721 -0.089577625429827681391 -0.12734287998783197504 -0.030204315287248640481 0.1972114523136929698 -0.18841399906172168199 -0.15843338603252721253;-0.034102722328558050802 0.03623027516485426841 0.014081485146698038621 -0.011876677870985384924 0.066265154414714561026 -0.029585769039492650079 -0.046253569144904277399 0.026543668660137922921 -0.019844085803848131311 -0.023937661589478159696;-0.044466117969640332752 -0.086495143096349036416 -0.072314796538666084591 -0.0027446516277701508285 -0.09928110666560632791 0.051417386177209985221 -0.029211763078217555661 -0.012831681358883370234 -0.03654846801774835896 -0.050912656926296130655;-0.054401142883980700693 -0.10347911414596708268 0.39606440144149779314 -0.40039265045371691398 0.22450765887544010813 0.10371397696718780146 -1.1479200385847578847 0.46711158912602235294 -0.58080896275075732937 -0.21258374770413984711;-0.1297802126453832805 -0.50892300244840638079 0.43313761773311509895 -0.024581947309739168167 0.067456349190564993124 0.31576334911157116769 0.12757328120002237037 -0.32448406086906844692 -0.21217741737077594477 -0.40410629377945855856;-0.4215538093309869061 -0.1604762065410932359 -0.013023175543102944243 0.2703122560215762693 0.30817321270235253916 -0.53850490001341089208 -0.11531450478846388963 0.42742131675641537036 -0.11697100373774349524 0.27635101125979449899;-0.011648262200254473966 0.042709874537087508251 0.016927596926615252892 -0.13249433270143862185 -0.074116663795514597934 -0.048834418519373097578 0.067549492129245977678 0.027572307447601217267 -0.068759441967150294883 -0.091931560300310397049;0.069070120466141540772 -0.4480129184719912061 1.0532014878640987288 -0.41003980471122769558 -0.60402420181392280085 -0.50294311667927438236 0.040464128348865383011 -0.12064487989740892149 -0.85126643601218154878 0.70740204805065443061];

% Layer 3
b3 = 1.1550578826044197722;
LW3_2 = [-1.2814746126451945774 0.056426272046942331506 0.76381185134252194135 -0.9306693482156727093 0.091179955908785012553 0.81488092975541714935 0.087211878434307790742 -0.58550736228511834902 -1.2361201494283660107 -0.13900630739216532361 1.0525144867403999349 0.72266727517541062831 -0.47149865212976477258 1.6925569309286390141 -0.4311192182331124445 0.83568931010125369063 2.2213069662597431098 1.0116588734232774272 -0.1648893111357475072 0.0011002902096849897194 -0.19213305251097378967 0.76693540486485189955 0.32963883346940681118 1.1470358457429150612 -1.2864867426510000481 0.51621535423597242342 0.68615317140296550047 0.57456517482864122304 1.4688457161450481081 0.149575657013166885 0.68915789938929539193 0.15697973280749863423 0.83726277405308802138 0.84843142732885734603 0.11744026966784841537 0.13485933660624033203 1.567928001574832475 1.7575179391218664904 0.13554223586219765751 0.23971380182909293732 -0.96290768433637818902 1.0521887088075303485 -0.15580821965889429803 1.3348125068985010611 0.23906459884138239746 0.45896624719990314345 -1.9723441146551135006 1.5664479979548480149 -0.91474910255961072725 -0.29504533538795318925 -0.14517929842300217325 0.18593547825046827238 3.0809506523731347016 1.2426994071172439149 -1.8028970268157766821 0.48495905904447333956 -0.29323374065736479421 0.11827001592983137079 -0.34623088656580275346 -0.13456626674551205869 -0.52636781178458047492 0.39223230565161115724 3.1424613937367937844 0.18147673304477204836 3.1431727702013505521 0.1020862344124074117 -0.22779513778454393846 0.60913800264111084282 1.2615754163614605332 0.16885294552596949447 -1.760982992776999545 0.83870494799456740687 -0.66652284580546528048 -1.7287226086755509424 -0.41553715106985761318 1.2199177947650521325 0.17211548526832753936 -1.5093270345494436135 -0.33496253957560567782 0.21670979729109707268 -0.06705252981217925401 -0.28422749223549470532 -0.29298878058673072378 0.88649826759952710109 1.1808017477983951959 -1.3419352273540383624 -0.34517023572267069298 -1.1684328963293744152 -0.20380020182395741646 0.13337888417034815536 0.20416467153993023143 0.22650565257591784296 -0.46276381316084236328 0.01497707275256698542 -0.20268711150393659004 0.26863175168878361543 0.87674101333941900638 1.495774786008552848 -0.12099454438562744218 1.0626776102596917628];

% Output 1
y1_step1.ymin = -1;
y1_step1.gain = 0.274263622742708;
y1_step1.xoffset = 0;

% ===== SIMULATION ========

% Dimensions
Q = size(x1,2); % samples

% Input 1
xp1 = mapminmax_apply(x1,x1_step1);

% Layer 1
a1 = tansig_apply(repmat(b1,1,Q) + IW1_1*xp1);

% Layer 2
a2 = tansig_apply(repmat(b2,1,Q) + LW2_1*a1);

% Layer 3
a3 = repmat(b3,1,Q) + LW3_2*a2;

% Output 1
y1 = mapminmax_reverse(a3,y1_step1);
end

% ===== MODULE FUNCTIONS ========

% Map Minimum and Maximum Input Processing Function
function y = mapminmax_apply(x,settings)
  y = bsxfun(@minus,x,settings.xoffset);
  y = bsxfun(@times,y,settings.gain);
  y = bsxfun(@plus,y,settings.ymin);
end

% Sigmoid Symmetric Transfer Function
function a = tansig_apply(n,~)
  a = 2 ./ (1 + exp(-2*n)) - 1;
end

% Map Minimum and Maximum Output Reverse-Processing Function
function x = mapminmax_reverse(y,settings)
  x = bsxfun(@minus,y,settings.ymin);
  x = bsxfun(@rdivide,x,settings.gain);
  x = bsxfun(@plus,x,settings.xoffset);
end
