function [y1] = NNtf10100(x1)
%NNTF10100 neural network simulation function.
%
% Auto-generated by MATLAB, 15-Oct-2019 21:06:22.
% 
% [y1] = NNtf10100(x1) takes these arguments:
%   x = 6xQ matrix, input #1
% and returns:
%   y = 1xQ matrix, output #1
% where Q is the number of samples.

%#ok<*RPMT0>

% ===== NEURAL NETWORK CONSTANTS =====

% Input 1
x1_step1.xoffset = [-4.116737;-4.414833;-1.286626;-1.32087;-0.9986827;-0.9993171];
x1_step1.gain = [0.237677350382405;0.228848138663664;0.775972176741631;0.761305867955304;1.00099022958462;1.00085057285934];
x1_step1.ymin = -1;

% Layer 1
b1 = [0.062477924524367241255;0.092734189868739089202;0.62971045027190508669;-0.052189783130621503204;0.1464230112712019416;0.20990398461197742885;-0.45067037183276337231;0.012218606894509384878;0.31634614233120628146;-0.099070259781132513632];
IW1_1 = [-0.44165086352369004041 1.1439571550426432811 0.26099321676793418856 -0.064955491119780384146 0.16558280475757172767 0.15003036272777720006;-2.9540578930862260165 -3.9493389765400812585 0.029012267889145654243 0.33796298204707581059 0.2392937749421570337 -0.30819129505338876962;-0.78566612706831606694 0.21932713830539446453 0.92218680268095498676 0.016782697940249228369 -0.52817925756179584518 0.0084681599833642921815;0.54109619996504576545 -0.47546192387377622657 0.098138836400620169109 -0.037800705138157399132 0.17085598020687550735 -0.12429396975425351102;3.4167994938311174735 -10.211252457274941463 0.044558739068146238638 0.33418891635785946681 -0.10905831829898240959 0.4933480261261061206;0.91470059717786567077 1.2011893942857703177 0.70595597190301950796 -0.20260585942774078649 0.26497192305305483639 -0.086074786170882738867;-8.8358350905869862402 2.3754778249169743454 0.75266316981728831337 0.084400885922297039232 0.17185635112617336784 0.27026531849892437842;0.37590443848641591496 -0.28553214764356943389 0.063599133972369700785 0.38364646220235781859 0.10625971996779755291 -0.17792195518666190091;4.1649066200170032914 4.7108403139583483465 -0.2508984535141629002 -0.89221681553579079704 0.11320966145259667157 0.31185179802622853273;0.31233407644442490181 0.23400267167945681956 0.034558980695005299399 0.12522623312382621941 0.082701654889178549679 0.15372249317653996492];

% Layer 2
b2 = [-0.25815219500330005564;0.022874400364300481736;0.078564701762910416072;-0.12020642120433824851;0.019530257365746414577;0.07905743598458572774;-0.08502181907504294256;0.38966432764061192939;0.34126523845789091816;0.080791822310057923029;0.076708504373531175013;0.07091616445242948652;-0.12095929536539452853;-0.11644440395123466236;-0.068137207644086178471;0.087594478513916135265;-0.039200182028815928892;0.2321932632661802276;0.12973240819209219676;-0.010103504571200912221;-0.013755033181211896026;-0.15353703540727384191;-0.38038910073380977073;0.095543496290878632271;-0.069504131678215660961;0.43210491260274636049;-0.14777894235405972245;0.040738250779314186256;0.46630752526267338354;0.046478250261147859013;-0.080020757284155835665;0.25172510404621628588;-0.10057900503580394225;0.081646343663378279087;-0.72481822947026586235;-0.12817412418168658284;0.10795501921951383695;0.27624093873235333607;-0.30746303571385025233;-0.76774485408060788583;-0.013561945797754623375;0.17023640556785707423;-0.27701013151278547353;0.79670363045438508109;-0.015832790261390988079;0.24398105366613584422;0.54727944162514885473;0.50919282217102557198;-0.19569073388868332697;0.02718624258803072069;-0.90313984836910787823;-0.11634040309979536143;-0.42038439810983646572;0.37194222082915501248;-0.52535327002933096541;-0.086181580499192528277;0.81726479482738456639;-0.40842882887158982186;-0.076201384021763726717;-0.033271125111983948508;-0.63417313706394973227;-0.1409739508676663422;0.35938633092549948644;0.19045873592784562378;0.59566047723399329072;-0.35018899170358397388;0.21480516954872178048;-0.15327759688994799236;-0.31712575680506555065;0.68735718567242631849;-0.0040277476232435426365;0.12541621883819897842;-0.11236319402118863375;0.64444934683000365538;-0.11898010170215365944;-1.1310833845068266612;0.39429856291988063521;0.15071128180791973361;-0.10676759949566226593;0.0083846001837277230051;0.34917670045835597081;-0.34087925950364267313;0.21907283964710014268;-1.2802517437093245967;-0.23710893447262748612;0.24859772876272467901;0.10417866797863911676;0.33835899378106087942;-0.39442953235229960551;1.0983013525321276838;0.24971881111454907742;0.73098473908511485408;0.16151961748498022686;-0.33019182876690833517;0.02427683271280106983;-0.099329119020264242113;0.03329058813747615142;-0.038421147652764164881;0.68457064898368458206;0.25297319597478118425];
LW2_1 = [-0.010527772066297805265 -0.47610038311019831081 0.29461206516779497866 -0.46947611610981282437 0.18324451949874762113 0.096043220013858732198 0.12102686447657801105 0.00184958549334218042 -0.35032579217388520876 0.13524722845968217833;-0.31395822909708132054 -0.44601821769480931579 -0.13884514721527904668 0.31139970275200207217 0.36652656201157823856 0.26142384462390005906 0.48075014283963268813 0.14523951825769498836 0.19473425897676890917 0.31926678765910565527;0.15084723502158384201 -0.43532213650424378404 -0.44065776900503528246 -0.020687199634867044218 -0.55086001402706263885 0.4151633985606176247 -0.085445046510871702772 0.36815046243816051952 -0.33643386322756324569 -0.44799991622249318857;-0.019527368340120334483 -0.11300923318141507801 0.0041405408402266745405 -0.020680173876070830075 0.041627915965966606759 -0.018722485095625469864 0.061454542875102116661 -0.016000619499164057957 -0.014396871787224856803 0.089644104220028261731;-0.4020681171413902355 0.56923886276107493742 0.22789419159130175352 0.030985398646438195441 0.58724677756877630141 0.39140424525514067033 -0.071068280880508413744 0.29838353313079252205 -0.32582138821598172207 -0.34697367640245169174;-1.035060494718664445e-05 0.066771709410748461555 0.017537857952793101807 0.01623094761997452562 -0.026800713175038515246 0.010141156989751343512 -0.0079355483495248992087 -0.0041421786689637826381 -0.021714010811353871844 -0.056002393688535490046;-0.0094412170864164243755 -0.084020630840572999021 -0.009127726977999291863 -0.017145415633322513144 0.030703554260523041597 -0.010258308854615516212 0.041432008151654174666 -0.021188886730453868057 0.0074079428415618460771 0.05942877845111405738;-0.10669278069149945587 -0.77143831098961646031 -0.35591772980841107632 0.26309700719205836306 -0.69464593173617816824 0.073258461918950107394 1.1329386485339880686 -0.50910019767696401694 0.37886290020928925504 -0.91681704024005783449;-0.15952869863998300759 0.2926631583483802479 0.23014725879129871444 -0.14703344089742076406 0.24740058294756475665 0.16310133707993454411 -0.30515002113478867374 -0.042372781085673834334 -0.27028299225698637631 0.55126993671114077333;0.055750822173206739107 0.15739929475756406219 0.043485537209970462347 -0.073796876290918841934 -0.043110002191701989049 -0.047596614949865591326 -0.13663419646611829616 0.086597659539984897514 0.048853804641759285277 -0.029433563688967823158;0.0067642371385403512671 0.057225380422927699109 0.01105750712524920798 -0.004140222473662292374 -0.013643374812730780024 0.011402192740814148103 -0.037986999760692419237 0.014905102163209105887 -0.0069821434958561466241 -0.052410611669327540618;-0.012376119722734144762 0.064723721773995712692 0.034770589424741316087 0.00013894738308093993145 -0.0098229183290619685731 0.0060036834618471604519 -0.0070858692907817101905 0.022062853621926791642 -0.010285684145996110833 -0.047119092513082667939;-0.034343577101043951116 -0.15427458817860076334 -0.06374144441602833111 -0.092599248266618236491 0.053414760204952997646 -0.010995215436313973689 -0.0029807461644890684629 0.026823825898375099064 -0.074791134912235171517 0.14817952357571642641;-0.12106513039172459023 -0.24176754318699328339 -0.022820875671308960692 -0.15737486732562835923 0.082730366994216972265 -0.07574852882785806929 -0.10603544960612470982 -0.037747926366502225493 -0.22337199728685591671 0.17312768660679644928;0.014645300770975209007 -0.059226157201568645216 -0.0032299789264703337131 -0.0034444805757489140204 0.022569302103142344779 -0.014873864768473294209 0.035095578152967495111 -0.017492864329012345476 0.023762910726412782292 0.055865908006380013417;-0.0051273829335388623057 0.081343069653266431018 0.013276148391966363649 0.014876147245071049546 -0.024355960923271909729 0.016832111428915490225 -0.039039958947983968707 0.014560867445159929659 -0.013575893366101789844 -0.065762564492568759134;0.21752127080561345362 0.67478510528334900709 -0.09549457488405187211 -0.32587445222992783567 -0.46561225602187017447 0.18566051359101845564 -0.69353765505541953296 0.34336228189198847449 0.65625753585585910876 0.67021489488294105907;0.047407382315386499549 0.17864812044597686014 -0.14166517565884881313 0.057531678879992213804 -0.12638766137461435179 0.08088045185232069223 -0.092471356568139081999 0.0032423223658782076781 0.10916921328037232364 -0.1269933120289818973;0.019061171162220211239 0.11507904507433261432 -0.010869609335562782984 0.020686758335545396559 -0.044453341918354663531 0.021937455293915043147 -0.064150462251228002053 0.014466225272179198541 0.018309586159933673166 -0.084339891950066650517;-0.0095970422975823407863 -0.001496898599491140085 -0.013551281201394354409 -0.044947868515298493308 0.10888527704211715952 -0.042803160844824460207 0.054558105244627438934 -0.0059828353707430037209 0.017132904727973866099 0.072534760889020208352;-0.0066145306537683705786 -0.033304752308432793162 0.012014142426920724691 -0.047033120391016612627 0.10111298121301701136 -0.0096789722543032044588 0.054508628788036923851 -0.033755251024272500682 0.064496945145249576226 0.060430610609951376788;-0.04473543820785055164 -0.13081263231121509349 0.019927170757512113058 -0.032100750322550927751 0.055476657096606249442 -0.029664947308470728665 0.040334830928917243809 -0.02391853720206286657 -0.0666211980131132947 0.10410641172644213848;0.63288907993870524571 0.36489860801839935078 0.24356527269593911122 -0.016352574305887077749 -0.60386506254392036119 -1.0084868726928171156 -0.5037213539890287306 0.074170316797228144634 -0.21226569695434216456 -0.93656017619699305499;-0.022035971030178503477 0.12560318127059241777 0.022157766355742548881 -0.015864114585369015753 -0.04137677628722145895 -0.0012690792614906023887 -0.046414315557344411334 -0.0034538102366272649575 -0.0014252966806827173808 -0.060656079413231325792;-0.0011194281352082339348 -0.04982789129353616675 0.013967916060368339159 -0.030290308900168389644 0.0078352559121646122436 -0.029453596521039310946 0.02044218805655231494 0.0076610191801175907961 0.030408184867055765288 0.025836681805954615776;-0.11083720735379774813 -0.3857896958564850376 -0.28675966263235769249 -0.53201711060642176143 0.6225012375465409642 0.020008321141617407823 -0.55371907895932903632 0.12223411149516361096 -0.74423951258230724992 0.47507261854218280073;-0.052248856457773065753 -0.17953136648703724165 0.067609693588896555005 -0.056076678205806668176 0.097907209756396385014 -0.022732542640495283226 0.10573757728389115984 -0.022587842962466207763 -0.079239739228958841477 0.10102085173936209417;0.00095129920845332812621 0.04940210276537838896 0.018229797236071817318 -0.024180124784771994673 -0.01949966380977085148 -0.012819645090310020918 -0.023429865998365700247 0.027479057120403799219 0.033970291008374155217 -0.039715767496875706288;0.19503783730422530329 0.086069907367987877334 -0.020929331596725414544 0.25017207608304870003 -0.15323202528219753704 0.083731213789771066769 0.14217016089687586899 -0.11092106176338968615 0.22899631731303846105 -0.22422998733999588428;0.030918148070845606623 0.12341948092633131528 -0.065916685107514597086 0.058053774593863280429 -0.094316956264231310847 0.0011323695355416312641 -0.15870329168372604434 0.10411211591746198646 0.0098005632524151703455 -0.053895688805245804687;-0.0048260418612142965897 -0.087876499057968668338 -0.018256035738180874384 0.020926793643573162601 0.0080897134308094732769 -0.0051305774294767153565 0.061247185426309212752 -0.040841825066043703496 -0.026249537984384049838 0.038547416871840843589;0.033657190205949531758 0.31089123417175784647 -0.052346075597633386078 -0.6907415747561141961 -1.2746597204019900484 -0.10032317622771437515 0.85042951278365019885 -0.218999980104729014 -0.78755411419104970339 -0.80472739374605373186;-0.0033650893635788080467 -0.080684145437236315379 0.0085462999532342834308 -0.0041608665662457673326 0.027219653101597504619 -0.022266902660885046217 0.049133548307119100096 -0.022426078375159422956 0.0096360161683774411823 0.06615808030516456828;-0.014461378587753391523 0.0055317629473103984913 0.031425272698662312654 -0.038555241132159405459 0.02646001358223514302 0.040469897247498942683 0.014675802314393545864 -0.039134199721656916238 0.029679600867296408728 -0.02263022853801115869;0.21490510780793706247 -0.7032996251628287343 -0.12219707257793099853 -1.2352535901861374512 -0.47883135227490969399 -0.18293905874077517892 0.17672944600624704292 0.18207681557815472151 -0.11231956083371123778 -0.99484903187443007866;0.86972726002650768695 -0.32992928062526777344 -0.22122218014839312161 -1.1050297470948322598 -0.57149702209913111339 -0.52710863338055535809 0.66112057189900441667 0.62501455936402361413 -0.52672528913983085452 0.50128702052742157846;0.047266212825310481571 0.15497502191328246801 0.064795698803962381573 0.033091590913640070437 -0.034114907447448696021 0.012244614364952759872 -0.012462174953686724552 -0.0068721296204973768285 0.076567025943989092118 -0.079968147444575476968;0.074950554952176451362 -0.39596154812685968594 -0.41937216277823097244 0.30755344821482732964 -0.69356011076699353168 -0.32843998803597818092 0.10040441008356784658 0.10298235092376528677 -0.26231144838879671966 0.32233225777656093758;-0.11053687247612375977 -0.21447755711918381483 0.017332545168853043943 -0.2004160747034220702 0.06867190976219604559 -0.20739477911302109381 -0.11068166061084137863 0.14706082918688298533 -0.2503185468945262615 0.15610190146859082017;-0.83756226892883400836 0.45389898674008966051 0.016951378789505863048 0.42302729513827785901 0.59891757247684229704 0.21582281956622911823 0.086062539106990285087 -0.71375095755761019944 -0.14730031955735795046 -0.70929750718980588697;0.012088417847901112775 0.046259593918430888526 -0.03491695250131843925 0.028898454033485065917 0.010912689093195950679 -0.007866842111766541093 0.03776821546379786898 -0.023517076486163475402 -0.045307769124043065223 -0.0055188446364079143946;0.043214804023702445279 0.14026792234708229667 -0.050358766139154853558 0.037088470124328455635 -0.072350318906093821769 0.038221011883186509217 -0.080089070634406900329 0.0069474862109277944408 0.054937296545250008384 -0.115609894018262091;-0.13631889443582995147 0.54698675073490754528 0.038314391826253915707 -0.28293095616540658854 -0.40692484554196389768 -0.61032822332301106538 0.15039658944070832813 0.1027418777350995599 0.048989884935004564259 -0.58129110684639873075;0.11718361431823268171 0.34130384569284638596 0.2015137971541896833 0.3595272719120514715 0.63588827875403430845 0.29057090296337340085 0.07515229179041048313 0.4913191632149020438 0.093072272537326805608 -0.24837103076873848218;0.011888557586040397751 -0.014025771218796140305 0.0084916868759701523428 -0.012503500783240917293 0.011665543576209037521 0.017597863448434843126 0.03998814096512531141 -0.034997884400295289908 -0.030049984043615227819 0.0043533525663120038046;0.81885640810123871969 -0.70120133666512096671 0.24260007706812805606 0.41575822171172061026 -0.77049216458962521692 -0.49426673736780407653 -0.40294621017636123028 0.42938467605405189476 0.19675892139482298315 0.19142305335715761871;-0.48806061844245984815 -0.28573338282531135501 -0.31124642103992450348 0.24406204383496429844 -0.61770142965500107746 -0.18385783972086428006 0.06083464833984159742 0.14909816696201022568 0.15172593399040842921 -0.081807897395780829197;0.50768548163554405583 -0.73427588972570045911 -0.1002021581469745154 -1.1932310359967597257 -0.60292616234572926626 -0.27824245343803921671 -0.88815625577022250248 0.49773531630380746238 -0.094066667021344155253 0.17303482475065776192;0.22243914641823667178 0.043210820312319098147 -0.29850193289030341193 0.26002397727801052074 1.2318251756320424128 -0.19777526936480260833 0.05959392027192099428 -0.78807183612466868983 0.9880357808979447487 0.46910008989640489263;-0.0094459236474648145682 -0.017799947015107245307 0.063248066231036709217 -0.025437813212041086169 -0.040966782616025904096 0.0014806372543410160555 0.042345745017361921536 -0.013026775712217187123 0.049657589969981527633 -0.012402714283164563425;-0.14344768297423762804 -0.58069903313122817057 -0.58601152742850104449 -1.1970393119444362462 -0.52936763866316327576 0.91340659384587030711 -0.90645891454017257782 -0.15767088576469870387 0.017264650604692972219 -0.84577566342125454213;-0.0472534239987433477 -0.12710866209962337625 0.064412179205853237196 -0.059736713247965353424 0.087543060479115891725 -0.010232544876483494825 0.097673171883689069439 -0.030747278029292411661 -0.030966581000185688238 0.14222262699420151755;-0.34775439483751180436 -0.42970913407447053345 -0.019281870450572197173 0.34312517935403652469 -0.41151636258292373372 -0.15659391773525618841 -0.78279000478223537129 0.53799114514529400299 -0.61902074217373181941 0.022925229639632650758;-0.3375720497111967533 -0.5850811864968036291 -0.52550619056827319042 -0.31364670476759792805 1.5102506593498270515 -0.65502271669253087083 -1.0254361527981625812 -0.28072928078137832086 0.68086445923339988795 -0.88480629584952530386;-0.69082237005023394705 -0.87356076607007915324 -0.2806913843932656305 -0.56881221006095272763 0.011212928160999764346 0.16763926283582891719 -0.3983523083322854097 0.22745124526254309472 -0.23348499951634826832 0.28189104692498684335;0.020360381299551550544 -0.113638795441152754 0.0063808009285007492167 -0.045274696806787743941 0.047543284144259956303 -0.032014465901974334394 0.018198763741156462337 -0.02907299536575648144 -0.015554229712822774043 0.041391942654941546453;-0.42178597150472457722 -0.21976737606490168164 -0.67059792372406290539 -0.01026171326555174422 0.073248365268431439579 0.32629225358471469765 0.16828936405026703738 0.090337384345209770231 -0.67625845429640629725 0.38395224484568696299;-0.11167233804286640086 0.52120696261222221324 -0.0066352278023875371077 0.60122409013645727871 -0.7797309109284552564 0.51545805017336987497 0.50218407658191843712 -0.74002687436960290501 -0.62792754695924968278 -1.4119519213812057323;-0.018708663752925062951 -0.23597143895774819189 0.023604003074936076578 -0.12485372525070149996 0.089396973097185597479 -0.05156960216605324665 0.056108265875662026445 -0.062472252278932945135 -0.11473503225592152077 0.11195347457915341693;-0.0096439091646451386569 -0.065216852663431426618 -0.016694503703368467062 -0.029803516482793550313 0.010987103037954110141 -0.014594221686413180739 0.02828173901880260549 -0.06981927554768220523 -0.030242813070448029689 0.010718327769067840377;0.0096784752699646831725 0.50239797166325439459 0.24043769281350593769 0.67854185521455234742 -0.043400037214847281275 -0.15773065335170965984 -0.28968538058441084537 -0.90355031106202188251 0.2762174828917662861 -0.27787286407229683238;-0.83767130248268106829 0.055621741194437059053 -0.37018592006012812634 -0.67067475109653318377 0.58820803490007256276 0.026585880747765994192 0.71331961280281663829 -0.10869461544697363309 -0.46476176345300063142 -0.19557077170614919903;0.38691438693478497068 0.13377193757364333471 0.19899343709732589258 -0.34685396131078272131 -0.78700553760896918565 -0.42703845403470053199 1.1964052970639322826 -0.14781773756147575938 1.0431231887982110873 0.30700005219432052739;0.42681049643762475343 -0.32796887193854806775 0.028506349840631408504 -0.29119368599863615366 0.12741857627920064044 -0.32153395302217629981 0.39370425195613545366 0.63313473466187097927 0.22902124699236772742 0.75310521447505329729;-0.23321957379252017395 0.51818238683469486361 0.24697913486709055508 0.19181583509763452944 0.13862476910658211304 -0.75006557174221855089 0.4883277492141127607 0.16216421899358304803 0.040938435946319323699 -0.26688909262143817314;0.69188611605092209533 -0.001961362692363871011 0.10796448655555652973 0.62672467222938488263 0.0087412967098315676184 -0.1376234491730365106 -0.38129690594437676276 0.34636635237750723615 0.32552577126550852338 0.81676528051498054062;-0.81509444308238510057 -1.5653274145889843894 -0.42678059746067448232 -0.98043489214526902131 0.31425373160094216551 0.50105908977687785288 -0.82558005073464335588 -0.071025118287181651655 -0.52051541997806061168 -0.29196147310817671672;0.331041852886002963 0.31132592803439645968 -0.03867931513573710095 0.12910916873587677256 0.82136047541839352082 -0.25295219763162746229 -0.48960025054991235249 -0.55662112377584438416 0.81677551421407856846 0.27207471055365761714;0.043048410991876021048 -0.94270502999298133595 -0.03747648842157836474 0.45080645287939608012 -0.56585792062019169002 0.032606119626173740711 -0.97170464640936793366 0.41052255902120476927 -0.11871647838591038726 0.51775329585813256728;0.16856506464092271824 0.14464063129979665145 0.068853927282730417736 1.4226399350984737513 0.097936406500787900886 -0.56071635121936769242 -0.098391039911110811378 0.066869774124704975393 -0.056249943046242215083 -0.53463926416926899066;0.05188174914639612223 -0.1017646530208408534 0.15647472440806622918 0.009483009515138571266 -0.14559310358947158415 0.011632624382913771266 0.10516235653464336974 -0.051830976594565834892 -0.069919170470798902572 -0.025652265007762388438;0.070455836072801911185 0.19415333162179809756 -0.077144611841366034222 0.1146941261268416834 -0.11883188405005741528 -0.014761998231415414742 -0.11732168074713843209 0.022436819266410539669 0.093588388140500078372 -0.1502283288360024005;-0.032008622588774314488 -0.17240151886998483777 -0.066686156116092812352 -0.061489205745086858435 0.031852307590164816165 -0.03939251099587297994 -0.015201623259487932055 0.021371222971913388794 -0.084980107590711326249 0.18264450544606516957;1.0910850163161547322 -0.65819312140492347574 0.23693980547458767805 0.6077463648581341582 -0.77259539059553528073 -0.3113104108482199206 0.78065435210770495189 0.8746524942292841498 0.64584945199409915517 0.51792222415976996164;0.34595327058381880603 -0.071601298115178471648 0.57966700166528117855 -0.1270844460207142812 -0.15314503978071242196 -0.13489503163253860341 -0.029104653684951947018 -0.069763497823900774697 0.16282298330361047456 -0.41806675417978450549;-0.23470592756366634446 0.51100961106276698853 -0.24591420089662072157 -0.88198403055979635035 -0.63630727570713707664 0.31236470051256148839 -0.86308163963901229909 -0.15644906263408972502 -0.12640869782443045488 -0.040598532984961077652;0.61416188252323866692 0.42675671381042079577 0.1292192397494364986 0.29488241813684135106 -0.38915338380243580385 -0.42393753213697116244 -0.50089335765842168957 0.52966177333873432076 -0.38305268510193701825 0.71925875172004238856;0.053407496457031258807 0.12104267866012193011 -0.11854946376994343615 0.045322824462759425668 -0.082769283763458267877 0.043291631963049741205 -0.14895979686242075135 0.024157081649421340008 0.0080872982848019369512 -0.1577066694441991157;-0.068052029284380713414 -0.12570201512361214857 -0.13432900998139937765 0.084241767411883383687 0.032078039655336947067 0.1259229877432431477 0.13979740776014912274 0.002471873847585622213 0.038608051781919623668 0.22903628205738787993;0.22484952499059671083 -0.041505265341737887508 -0.23605231154057904064 0.52203172420073473692 -0.04261178082147056706 -0.24296088902865387027 0.50654138569440310125 0.43481228788717063427 -0.47302917121319698612 0.27482931621093675822;-0.047648853045421574182 -0.21470525315449945358 -0.26126363284991904745 1.1530757547817684916 -0.56227279568815136113 0.41691032161894103769 0.18052029629076207784 -0.0088567900647623931665 -0.17574161236040189427 -0.56662800319550310491;0.23387024699854816467 1.6244309546714981174 0.096588520110930373153 -0.06079169029574498645 -0.15725345589926584267 0.20764353636519325419 0.86081902241990182478 -0.47769562718376962218 0.41963737539221351858 -0.3362927381524314363;-0.17225628872532849911 0.30096146242778121227 -0.24159064960657827825 -0.80301643112363807475 -1.4614709694622329827 0.24444163629195805876 1.0751925675966580442 -0.61338391358372190698 -1.0665424579455720089 -0.79192454559930658409;0.11205563532100872026 -0.30086621763217680225 -0.053338105953850335761 0.035268256955233230621 -0.58366963879934097292 0.24648489445065063785 0.60979189529136568204 -0.38003998298066848927 -0.47269176596224676823 0.7063586473436609392;-0.27085499624425046772 -0.066250807292443703034 0.036211303965292769569 -0.066027923301836988212 0.14023058579731287332 -0.27060582290680373907 0.62724720899590469259 -0.38473502067895987144 0.17818648668995840101 0.44892525233344188207;-0.77149128430814495339 0.037095385252179709223 -0.3109838686228323934 -0.51307083240633166721 -0.0085477082494042552763 -0.43712189088715291962 0.11453000885148352517 -0.20281581654415689608 -0.3198846606109821411 -0.21162093065310422224;-0.61875991818983033799 0.5870738290001653592 -0.30139851980758336492 -0.80949523276587398435 0.57703273752073147573 0.41806605345367170434 0.87824693699419076331 -0.45958669999562840047 0.07107299226394771241 -0.54487572214842738827;-0.43337249266572980266 0.60515784841389452797 -0.0083248808174763259948 0.22970235139677869229 0.15723282955066736344 0.5282812232444845657 -0.61643092007575228664 0.38070444871635172879 -0.32224595985768439421 -0.80199634047315737639;0.96898340185772069422 -0.53082732713713409733 -0.12116522969089393857 -0.84072670112750558236 -0.47682453971010035909 -0.76673880780566161519 0.53206478315568139781 0.40604509425373025433 -0.31428714942959457002 -0.039981375403729681184;0.014046216597649001726 0.32965677453888814208 -0.067667757465661892979 1.534258228195717777 -0.13112860698355124911 0.35157434691425010209 0.16548095244157259853 -0.26734789960837845868 0.12634009182355088186 -0.92996485785206262076;0.11003959179817840441 0.14777797451009347385 0.10435917935772223708 0.022979512666290783512 -0.031135915306188935436 -0.13961581073525711205 -0.11980349609508074427 -0.022482035063663714097 0.058124691039607635779 -0.18209126985582410607;0.079699390939253267341 -0.035241008117971865665 -0.41866515476966048581 0.44967578896415388856 0.16663113368464679831 -0.095890315432578851484 -0.024024521713779698612 -0.062962017792610042166 -0.14267697204007609435 0.87954261561621638332;0.07141744510829203807 0.14903754943260022481 -0.040082346754228934116 0.040890657793243051499 -0.067038070951942932418 0.037122549053150190324 -0.065148335833259074512 0.027805558417560688467 0.079198574934956272875 -0.12553045287290234833;0.25082555481268292707 -0.29475838534574805294 -0.28081512850392031933 0.15768737256227913224 -0.40555946314526991614 0.083888610841195504486 -0.22834354987635346879 -0.59583305438354583483 0.15232333098188879927 0.5557339771556654151;0.00199939941725270744 0.012147579687026878459 0.00346560322866255573 -0.032768563277283536961 0.013074439782675745594 -0.022461730036171405345 0.035380320206384374693 -0.015656842552061730339 -0.038624547331891585789 -0.0178395892224487429;-0.051070898574625676891 -0.15664732511902756951 0.09834175639453501816 -0.063974817316348381313 0.10959035671022379632 -0.0047738490755621443631 0.13993776352955408782 -0.05515258393306082807 -0.042005114433686402409 0.12711966518818812455;-0.37033817877720137668 -0.70843092732832846359 0.69624272701569756006 -0.76755418083704074483 -0.91437932675787547687 0.021159304317645177829 1.121896558169859226 0.054680467846343359939 1.3386097395444449543 0.36329709644378599398;-0.0045079229659914510364 -0.0059398602529907489414 -0.011673926341536950899 5.1576782819831603591e-05 0.026086295146641392401 -0.021492244194863809742 0.034188054646080122401 0.0038636811801571429963 -0.021478412807471494728 0.024064102732246170357;-0.34063015547698377583 0.081178365947987843332 -0.26260686824620510516 -0.76517722997491599557 -0.21392831117261498775 -0.02002322925945562021 -0.18570539783512479692 0.18144485588070702331 0.088363967733408071981 -1.102090909590444312;-0.17461871175388782307 0.23317423190255087695 -0.14656430087960883868 0.020204699806791858591 -1.1488767888308144549 0.1129174560729157839 0.44516307870674826086 -0.39370439159714037958 -0.71725223350339373241 -1.1032070072985196152];

% Layer 3
b3 = 1.3926181681409677271;
LW3_2 = [-0.71800377628703127009 -0.70371538105959152709 1.1517725484100185263 -0.23160292090847262036 -1.0199428169586814974 0.12893274716149111248 -0.15882924893870872807 0.7449242653691334759 0.73503206012135902103 0.19760306442292813189 0.12121965693495836969 0.11900245593937339161 -0.30306308388329761261 -0.39361830376202522341 -0.12596856643383089192 0.16275875281143736828 -1.3472561306692791838 0.43877138332238241336 0.23668093659580996535 -0.07693357473004891478 -0.11334500070130204552 -0.27485384257532918806 -0.73311718325790453665 0.20653603090433167444 -0.094950636349109010514 0.6742460608688874979 -0.33138229343827951823 0.07812121575424126052 0.55098406123583087979 0.21842498488712444593 -0.1385049023344430974 -1.8114234780871163455 -0.1734874172166745443 0.030623336215185967268 -1.0472402561979461399 -0.85707098888158306238 0.21197680560181927922 -0.61082159096788346542 -0.56403139788127720777 1.762028734248882289 0.0074794509854216656083 0.32358766086796048045 1.0779904375401341277 -1.3073676638673381589 -0.032743368567715459838 -1.3099397432678083764 1.0591611812407051296 1.0557295343876547111 0.35348420669493868518 0.0060387944477602777463 -0.94251499997419918575 -0.30907921235104784952 1.1790831149878673312 0.17896194394735773225 -1.0986394510683510362 -0.17605421997400749756 1.10538002209841002 -0.67314950145137619764 -0.24586539273796970129 -0.089241510873074039734 1.3918012361942537769 -1.4086243249276853007 -0.73878927059388976861 1.4303791100699700944 -0.74743396189699462528 1.8649633243906824642 0.68457295593844369463 -0.92052067997691722212 2.0232862802119808698 -1.7509910399707084849 0.11909401094319481407 0.36793679555421981986 -0.35456071327492738599 0.69561246393550091316 0.6627783827078536083 -1.2487029772832607399 -1.02263608412817808 0.30125999247841056539 -0.36936359887131264834 1.052318606002736967 -0.84348376842627814653 1.0272036790551157814 1.0480194103510194203 -1.0794130749408985537 -0.65737878519767001251 0.81827750753065398026 1.7949124376887701793 0.51223022895777348129 1.6774199740437070183 -1.5656912923231736112 0.51503796812846525111 -1.775373127792956307 0.32270398077498485545 -0.65264601082780127062 0.015272913249908605035 -0.31025098821630126 -0.13039913027364474774 -0.049502935887906815426 -2.1547781861798251946 1.092328029403665024];

% Output 1
y1_step1.ymin = -1;
y1_step1.gain = 0.274263622742708;
y1_step1.xoffset = 0;

% ===== SIMULATION ========

% Dimensions
Q = size(x1,2); % samples

% Input 1
xp1 = mapminmax_apply(x1,x1_step1);

% Layer 1
a1 = tansig_apply(repmat(b1,1,Q) + IW1_1*xp1);

% Layer 2
a2 = tansig_apply(repmat(b2,1,Q) + LW2_1*a1);

% Layer 3
a3 = repmat(b3,1,Q) + LW3_2*a2;

% Output 1
y1 = mapminmax_reverse(a3,y1_step1);
end

% ===== MODULE FUNCTIONS ========

% Map Minimum and Maximum Input Processing Function
function y = mapminmax_apply(x,settings)
  y = bsxfun(@minus,x,settings.xoffset);
  y = bsxfun(@times,y,settings.gain);
  y = bsxfun(@plus,y,settings.ymin);
end

% Sigmoid Symmetric Transfer Function
function a = tansig_apply(n,~)
  a = 2 ./ (1 + exp(-2*n)) - 1;
end

% Map Minimum and Maximum Output Reverse-Processing Function
function x = mapminmax_reverse(y,settings)
  x = bsxfun(@minus,y,settings.ymin);
  x = bsxfun(@rdivide,x,settings.gain);
  x = bsxfun(@plus,x,settings.xoffset);
end
