function [y1] = NNC203020(x1)
%NNC203020 neural network simulation function.
%
% Auto-generated by MATLAB, 24-Feb-2020 08:58:31.
% 
% [y1] = NNC203020(x1) takes these arguments:
%   x = 9xQ matrix, input #1
% and returns:
%   y = 3xQ matrix, output #1
% where Q is the number of samples.

%#ok<*RPMT0>

% ===== NEURAL NETWORK CONSTANTS =====

% Input 1
x1_step1.xoffset = [-3.452089;-3.577856;-3.605311;-1.181081;-1.194712;-1.161459;-0.9998944;-0.999858;-0.9996955];
x1_step1.gain = [0.290560924960026;0.286311695517819;0.285295838232695;0.85309419396888;0.850694230293987;0.840531787651411;1.00091358387368;1.00062243718705;1.0007487602224];
x1_step1.ymin = -1;

% Layer 1
b1 = [-0.943631120664350731;-0.032515892423900419339;-0.025331118670751544275;-0.022047623702709517879;0.0016463593524995200415;0.15015879348459157394;0.027480517333235338073;-0.25613813474741625731;-0.096412604637600513025;0.38831681586233934844;0.022214721851439144656;0.032032562079669042732;-0.62053106983765338178;-0.020893173668204458038;-0.37454100782478200182;0.12437815674960268908;-0.030657436603224449273;-0.016655390515274044738;0.82203190032287587474;0.010599549522528199305];
IW1_1 = [6.5671589644514369866 -2.3409622939935674779 -0.57428707907622633666 -1.2808700077400563266 2.7087448396717834775 -0.057576801684087651478 1.0194187487615438137 -2.2692903991275441555 0.28400325591213398946;-0.35785655779431896351 0.66173111619086621982 0.00064726079582046918207 -0.29688912342142131928 0.54465910644602666402 -0.067394659730273670517 -0.12043927404146705096 0.24323415156499555989 -0.013407162269657576029;1.3026822735113126051 -1.215517309054164441 1.0713000062529769441 -0.2274220028819418371 0.80536170840973664298 -0.039368552811608413522 0.070331909745332807371 -0.20061964920145489155 0.10755182170523028273;0.37383408514659405286 0.34968213060958813765 0.4389581939389248233 0.46193290942650250264 0.29163216652855905586 0.19330956418158673493 0.1525227380459830695 0.14543913623592036322 0.12037931666542293907;3.9009948458497989421 -5.0401173501048077696 2.2506505000974228459 -0.62235806906484836265 3.0206798195241435501 -0.081895954827965605771 0.82751063472365671281 -2.9510090979822867219 0.14421318146361544743;0.83551475501793481815 -2.2976587006770290422 -2.9139743220336646878 -0.22356291854245075035 0.584056913711975767 -0.040566319179869303468 0.021176455313367929106 -0.22228147011717452886 -0.13516692232569202381;0.45403822380484193388 0.28737771191481115141 -1.471217926012996724 0.29076145596867436494 0.10683380052577504116 -0.26876904914714505601 0.10414009524695584663 0.013337848428909905227 -0.38697638099621378682;-15.83158144454839622 3.1763322845839208064 5.7476531715476504303 6.7794754408908683985 -1.4238532295947454731 -1.3707582020419064595 -6.053010396830274864 1.1729806253790404647 1.527946529774694806;3.4864948554010912751 3.6179731025747350337 1.6750717282014815357 -0.72426424638189190741 -0.43680206748362215841 -0.4628450522941191525 0.38889842226107862455 0.37516450395041645027 0.08833714444933858656;-7.680052943577360125 -8.5300829665201067797 -6.2326434231236893524 5.066036557025896947 5.434488032361790566 3.0395843012419136997 -4.2210709616803034905 -4.4805046335099820709 -2.7434383637864407923;-1.4839107783207232671 -1.1204454780066306352 0.93520641909265256331 0.0813103333341844009 -0.0020207108533954526094 0.1351050985182942199 -0.47724722337821384732 -0.11922833105206301352 -0.39328239141385890054;-1.3814015457329003045 -0.17466357807600194074 -1.1645607028003339689 -0.095349860640513622867 -0.12086410572268659058 -0.037348052377396800949 -0.67059946862569785875 0.033368717922739141168 0.060803247490993972413;2.4749341804149675994 -1.9331465922595827411 15.06176933416242214 -4.0999064583589674982 0.54882950164792010384 -6.9512672868613565313 3.3399127127663255088 -0.39378630432689887275 5.9853147997229747546;1.5997284158783109387 1.6224084692236715455 -1.704160075609871372 -0.53456693846147740334 -0.42876810342748250537 -0.33550251511543738303 -0.018480297168479205977 0.14699384522830677424 -0.089991322230428300033;-6.2207435871893084212 -4.986941195163307583 15.23668626494024636 4.3622702342595660596 1.504486622462269052 -8.7003080202449947222 -3.7318397852476934418 -1.344369824656171275 7.3516790919465133669;1.875022088887208449 2.0163353799838983349 -4.8852543248315170032 -0.89256540694268493574 -0.43370413689254261325 1.1438296091038502311 0.35421953409243533972 0.28707765157187770111 -0.6253832436564666919;-3.18204222297413164 1.5682844801670972057 -0.046655252766861644853 -0.41675811327612266588 0.29119357582471266932 -0.083929736283810840725 -0.45642971534615500717 0.0057304947099769271146 0.03248619350805181244;2.1780653921798358574 -0.52914378636231185205 0.74536783013181573398 0.16683930315411260592 -0.0076358143731582971137 0.078862491005529680721 0.33654723179694434609 -0.53683909590075806761 0.095887364676678008002;6.6110124009776889409 5.5821055076851848753 -15.686105512193821099 -5.0119881000992663189 -1.5802158248661575257 8.6832002404440800092 4.2910525268719670322 1.42055965930544148 -7.3314111784447710818;-0.23306761197712011491 -0.015599176373865845588 0.41583674541868625996 -0.2375925944006910262 -0.048185948043925765083 0.60495279429300496954 -0.10629478716359512525 -0.022309636175862467694 0.18912866381366655322];

% Layer 2
b2 = [-0.0023337940935463682805;-0.081788036975083314162;-0.04397667514111275322;0.031680538310528742751;-0.0040690868179774648122;0.029625468947537543507;0.045770825718959975981;0.0066756987586917629351;-0.0050786166776753292537;-0.0002760883042390605566;0.0055850246918541573624;-0.027152141608154878316;-0.0057706649418436265289;0.0062982957248228117753;0.02345788609335144187;0.031108678391136065228;-0.017957532967669217333;-0.35098874333610435849;-0.011571547096877016561;0.0024845220972277066475;0.0101065803700529349;0.012056093722069748109;-0.0027872422815126353564;-0.00032480018990561931348;0.0084480225885558077326;0.53787466809561235159;0.018891645895959246343;0.0060178485969904641287;0.018616742285145041619;-1.2385414282986375589];
LW2_1 = [0.021171676123647384382 -0.47906222600752845775 -0.20432514502663676192 -1.3456560023198997911 0.0077430305985271520239 0.48699696884212778647 1.1093120799300730805 0.032680490003037701574 -0.50502203184204497166 -0.0066261754249308680437 -0.28455810683500448732 -0.17048279119632769874 0.046523328306235990637 -0.35296549166905077932 0.021116153525255861728 0.21403114605666237469 0.1816214983065680133 -0.55335026419781152551 -0.094052524803586556867 -0.32738579570350140324;0.25169985690657570299 -0.67530221823216651789 0.25651130415294737253 -0.91706174487777236681 0.1122049196998840398 -0.074846032025972147883 6.506798641893941415 0.18160662417904899213 0.95657672241572089256 -0.042670732139457136223 0.54173063024632628348 1.3478096392577068041 -0.44640115773633953777 -2.2617269702754323468 -0.99754505501364654219 0.20350997500993794898 -0.06909843529968748288 -0.33447295197886894869 -1.1294341772509670641 5.0587969314007992239;-0.3211663387828644356 -1.0624017051404324175 0.32107371964513192752 -1.8676241719631543337 0.30249549781064599685 0.29592664764808834788 -2.8543416344046614874 -0.25811068220163818632 1.0536128385952467923 0.68520507351970638688 -0.53369744127646312482 0.079018613540591933764 0.33107286461018137214 -2.8198269930067221267 0.041580962854773459436 -0.74107718211405282371 0.61591782166009334532 -0.59347425909168438629 0.16945792686687011219 -2.0739460785908461204;0.03879424864434796727 1.2910751042301533698 -0.96605578485316778714 1.4121452050190563821 0.29000674601647152828 -0.23131623976354698247 -1.447307768820703 -0.039760909352065311462 0.73536769489693720736 0.11094389004054337755 0.51476407581205418929 -0.057155244844819375061 0.0030344108564869143492 1.1290071695987693445 -0.050610608688830924229 0.12055650043364102286 -1.2701752125374734526 0.074618414632683260912 -0.10447213065544418142 -0.77229854207048409531;-0.28556976366206388018 0.8546890764763369619 -0.15517043232657412588 0.84703962514352704183 -0.080336363047857003994 0.083000916534483840103 1.8879111948242279784 0.18395041464271413845 -0.34029044028051685933 -0.73121126687454651716 -0.27137227173654782098 -0.21912621900988693557 -0.40787143254055380215 1.6848839214270310283 0.33556286765020354457 0.98996073869645817567 -0.39969489442604783092 0.36659811771028921745 0.1762522556756309644 1.1211908510064017008;-0.16911159869652139798 3.2344617110337834376 -2.7337849334146762104 1.3660669438517949459 0.70275000536196652323 -0.89677196169191375485 -0.42841265064349165481 0.06769524693469806953 -0.12278193560449177091 0.12084668740684782751 0.90665631823756498431 0.83366244302321568238 -0.032475686506666774644 0.78517861475970551766 0.087787457376550026567 -0.17212370929924974972 0.14759978249774233228 1.5872585941398165144 0.14620156809711487567 -0.1976233361461464666;0.14395889559810645664 -2.0824977768337626927 -0.27701588291791245933 1.1985648071375265555 -2.0612970717629486295 4.7064095550035620619 3.9145138349333374883 4.3641615119237764375 5.7445753138494097811 -5.7095070439426320874 -10.833103370373898144 1.0680951820752020431 1.0081558508291101894 6.5713116649686478254 1.5520434175571367064 -2.9095799235186303733 -1.6481667885488242575 -0.37986760221821230799 -1.455177236331150592 2.7545188330597381032;-0.043012837132725981193 1.6670260367191271911 -1.2729125223156800839 0.63630432186237295689 0.24692150799783632587 -0.69068170130563188991 -0.036312292816437746756 0.034904546848169168416 0.042143595346520693057 0.0078021879831441029451 -0.18972025460481259374 0.045132308173847335286 -0.0031986626859263080601 0.11522269267063947606 0.035259693650554958799 -0.011758104657719595926 -0.10125687389995718934 -0.10062931582154258092 0.054067013985056130987 0.12811610890530311657;-0.012208962440701708052 0.24417849771877542242 -0.1595437869466675429 0.29449187988227421009 -0.0064568467085460816424 -0.058159419952458726866 0.21015016364975799834 0.02404125075947186746 0.082002547292577124272 0.023769622537888890346 -0.12484661584841075244 -0.11251442534146650909 -0.014925790052373629282 0.11041737760570141669 0.01197927616553819824 0.092822280143290664123 0.07201864874575211739 0.065873530098572150027 -0.0075534149964627704185 0.04257134411664343504;-0.011454728971408969715 -0.45526457001436154703 0.52859136301228881738 0.050825160069068633928 -0.15973843410395852094 -0.24503151801870495796 -0.76166470386443330121 -0.012076877016350247296 0.04255191854193488693 0.0052844907209300328796 -0.20601517941230096387 0.20457415579929780214 -0.071745274360890939902 -0.28985852201385975402 -0.054916358313678081959 -0.28577059655673164862 0.41472258500533187853 0.26385195928559967982 0.0496353899303983645 0.030066887617179953451;0.0079940413188777890985 -0.18745311307144743584 0.15643695334144447351 -0.27705400216557746207 -0.010773350722187765433 0.087362216748687965273 -0.032496215493993584056 -0.043584485083322244137 0.0010688156602591352123 -0.009189191589879968855 0.078120647104523474602 0.049345987476076227929 0.015610639268741776167 -0.017565915746088775484 -0.0019135926756459089963 -0.051633460473666348278 -0.18370407274665337405 -0.036298188516453819275 0.018952607344897398622 -0.01694537136459232235;0.4788362738957223641 1.1667908870727288217 -0.80333987749397683942 1.7629825591290684272 -1.6936133998745703799 -6.6390814713939070302 0.083255081352236845471 -4.2191904365159560442 5.6804864495448263995 -0.83350295316559641634 -1.3020689864060703833 3.2057564018411484064 5.0534273437547723162 0.1607511050177985179 3.2940000769005433057 -3.6493793322958101299 -1.3500532965921401285 -0.026951999787487211646 2.5976302378569013918 2.9372473611410936378;-0.00038641139859376880117 -0.74545638309471384808 0.22757146472558345551 -0.73487938278106235135 -0.012455179758235367105 0.37698386039480064058 0.30265734303784375125 0.0019935057346276972325 -0.039478022225572791115 0.017974979770680243885 0.0093781706800170616667 0.048665054175327682184 0.0087517850797594227974 -0.12885015502814026189 0.039684659046077562505 0.067416275057979188623 -0.12573669050902300248 0.030521729285410904159 0.034022290171828298289 -0.51298612936496690295;-0.034262746335490493199 1.8786763578482104098 -1.3797371501676694017 0.7179923503842072785 0.2339218994960488851 -0.68662065248123926864 -0.23380957448373093643 0.037211739965728865553 0.062725425916044269536 0.023324703933788729082 0.19560911522589530254 0.068079563154859343288 -0.029879813593316369852 0.35848948680793474297 0.025815653815943414434 -0.0022395090914486283883 -0.1227005799100117367 0.079629862604676721061 0.050458168743950357338 -0.019379108285112307819;0.016705709002030413174 2.1422723762329254349 -0.76175889350391279287 1.2429460985563944853 0.12561747169699874482 -0.57040627781202668523 0.0062379487219203994322 0.27368369719935503603 1.0097263271049341515 0.022261441338307340343 0.3458868878036274741 0.83498342855783236338 -0.06588178167488217829 0.66516272466493053805 -0.12027869524490555908 -0.20958443014993638487 -0.52735665835217926389 0.28310098304236952504 -0.10754246360364522195 0.21343098202923205253;0.10703941026891668209 -2.0864722029526769909 -0.2470342106842817187 1.1496330622226536011 -2.0256265639162593928 4.6885278030185508769 3.9520056394034392966 4.3517305629168170356 5.7131665534002182838 -5.6853753525742236619 -10.791852910416228184 1.0295904269587243807 0.98404971536465113413 6.5274635088273456063 2.0437953394123824502 -2.9140609943753865707 -1.6277565369758555391 -0.37895924726654439674 -0.95463643594680280824 2.7791389705293787493;-0.014193421874435070695 -1.2411515785472257978 0.55666487059724545361 -1.4325828115492102999 -0.13099479115779066873 0.26179635159706848846 0.9146421696734532425 0.020464692564708654443 -0.68229811694970887714 -0.10024698703137238653 -0.33859053347908801834 0.11881245619801447666 0.017183344734798888104 -0.91438071144392141232 0.045855501262833171794 -0.13944971145429263526 1.0145538430582099476 -0.02516162453274745775 0.074404451125893389385 0.54381269357230999084;0.5960847323257999486 0.010577647655472689064 1.7510861199563896307 1.0397727033670587371 -8.3936690735028012256 -4.6721704037095719286 1.4623200840315173643 2.7666355959488755367 0.949329727793519762 -10.912201124013211739 -2.7590717221692182548 2.7379433750834643035 -10.705315658385094579 3.0139278763676569106 -3.7204141635070464567 -1.375929046682806689 -3.2609846570559284373 0.19120442006821652958 4.4651214320784005096 -0.56913852730361325083;0.03672967174206315244 -1.8367519214726077958 1.313244103651049377 -0.67496865537716521644 -0.22887748067382224226 0.72924978023177078335 0.2467248830983790886 -0.045142088791458263863 -0.028471531130583864477 -0.018546816771887499053 0.00017467439092426115775 -0.24993942470203300843 0.014033432706960826883 -0.31136501470518462842 -0.029762949326509732795 -0.023745305025740504751 0.13117252528962763947 -0.11037057558186326445 -0.036883566253126054413 -0.14094058885246782409;0.0053665612458118237479 1.324921892778718302 -0.92381113233531586548 1.5677368151961670328 0.12546338648499685831 -0.3230789014819542837 -0.17585124735635596083 -0.043859728408833120739 0.66390515443664099848 0.059785971042157395883 0.25374965750607381132 -0.37678795019698957391 -0.011425492890461299081 0.76560750399059407378 -0.068913322638623528138 0.15952861859813205481 -0.63712274857851181054 0.66684954306257837597 -0.082374833502483063574 -0.26521736168921028476;0.013640429576771142053 0.51784209639027900529 -0.067641552436247628921 -0.57114129779248168362 0.01276821205346066225 -0.028940986989692916304 -0.49686735644946727897 0.095322871205854101118 -0.010489664858418276672 0.010784004766997297084 0.084761279073965967168 -0.0020144371459531965757 -0.02049130750225756567 0.045135688458901916664 0.0062361411782715769209 0.077166093510967134761 0.26019059771098884681 -0.059134360371473904117 -0.037113555900363685847 0.25518951786422927608;-0.47294897581476186277 -1.1764847090264567431 0.76759194292438115426 -1.7509808360629348645 1.7027659395973298029 6.7074298149655460222 -0.1465911861962115037 4.2720457820525572501 -5.7149561812867801791 0.84180691060004331217 1.3130839020545428397 -3.2284499130539154876 -5.0882316733797496866 -0.10510629887434376484 -2.6870913613087958893 3.6256830049886126233 1.3337811558234562437 0.032363807748664631669 -1.9670894761519333027 -2.9547410288051736416;0.089164926296995752897 -1.1167129781233808838 0.33085378291568240394 -1.134534356983484038 -0.12607213982702053512 0.4054531123787274427 1.1920351584462274275 -0.026849349134590839994 -0.68950549116556691942 -0.060366213546785063571 -0.64670172038573259243 0.23091595151358482174 0.0107654648712562067 -2.6378490963398903979 0.095012562366582620221 2.5644156509110760389 0.38389282330115354069 -0.52611826311371412412 -0.0069726646169546878037 -0.58770427933338431625;-0.01128567861317913805 0.42504761394233031568 -0.068166852530865254534 0.34079121668196821204 -0.030643003450914349517 0.020895492765613327829 0.25949593450459501609 0.01665386831872021911 0.11573219554724344105 0.032973980070712512191 -0.12452844654280048609 -0.13450608410265788017 -0.010521371357487610543 0.13998167944102743454 0.014388611172778953406 0.11757175453436841117 -0.049645471024838780383 0.065754356628932544848 -0.0057619089781719458332 -0.14435107983296235901;0.013801790460863822343 -0.20173475289861231285 0.055482069529787167439 -0.27554940118214671374 0.014463886498067147005 -0.067272278841418980955 -0.24248622995633564714 -0.029052214242661255489 -0.0065715547728393032545 -0.017974621469038817856 0.11885469836560472179 0.076887331389718080454 0.0064259155164759522091 -0.0081637761826467980519 -0.01513527666475127445 -0.077892117521265971658 -0.050040829748510692876 -0.05140696452666922156 0.005691856248412160979 -0.074313110945442698019;0.94519355619450784456 0.69775821483851474536 1.634315135425487453 1.2381638806180756962 15.910171324087022171 9.4572048451049770534 2.1754128333495148517 -4.8621548923347424065 -8.8011500764943715325 8.2768427475901535928 13.587553464486568089 -2.1948218568249853178 8.8778003589917382499 -3.1826781755655080275 -0.38636622276789850394 7.1617848140146369573 0.70278534286618243865 -0.77664585430508914499 2.2482129093804301689 1.7164148831314045562;-0.016367259434411723928 1.1946607944833211867 -0.36940393705699714477 -1.087326353251668376 0.084443579191457535105 -0.027527239597391478521 0.53279818837598202919 0.0072501670957700855083 -0.12136845321023782829 -0.055487676467929181179 0.16971328305453689533 0.12603344050098785889 -0.0040988594400828528078 0.036499380800966700622 0.0036175171466822047921 -0.0070470706707612485245 0.12408328677924580774 -0.067761600982301148366 -0.012132308687757104373 -0.38498001926186198318;0.017386853384377506243 0.97324418312492999572 -0.48984462382717941509 0.51805672053185647385 0.096529198461180881763 -0.22568081789918434388 0.91256398473363653512 -0.0061659410651045271079 0.12364019339663280539 0.0080996707026250464728 -0.060266359421096586668 -0.26705758357196091035 0.0059133811622799469648 0.34892319524988446577 0.022739679839138368656 0.19518326725971490987 0.34330241127640720444 -0.082816601563434927291 -0.029731528978824695031 0.022582578613531519712;0.4991549174052076765 0.12915368395508317056 0.25759257127631807194 0.75573951509652226299 -0.31686124082674949065 -0.88435505982967532734 -5.4861575972712852689 -0.24908415214481788302 -0.73204569394833174378 -0.1377368392598792568 -0.010620464712589971004 -0.99620619503209051349 0.41043139934870398466 1.6309056216026249775 -0.010566280706940834808 0.0038143567523160771399 -0.049306747756772392743 -0.29799974032942921909 0.15843156384209328147 -4.7580965354941735512;-3.0080431875706854505 -2.3426751427465402067 -4.2611035844562064057 0.8909180844590498527 -4.7665968275469516868 -1.2513075105151463262 1.9583571413565001862 11.548890898223955759 -2.479160104974182488 7.9826703504332581218 1.5037587172429467408 -1.7075367969641814803 2.1527597900962067712 -0.82471259615745684535 1.4609054287522669213 -1.6362546112816829247 1.6359105360399119888 -1.0507389733473346816 -4.4750094954396741898 -2.1672726551842376175];

% Layer 3
b3 = [-0.007315019285361489508;-0.010970485284348727162;-0.013707982823289383348;0.0032763187274046151262;0.0057309909037080398672;0.0061520257976258223634;0.0073487811644589572796;-0.0070697007272908108516;0.011141601624839223006;-0.002255359449655879988;0.0088124493797705379106;-0.0019197429400803084094;0.0038082526913006493549;0.0016754477523737922214;-0.0055458450869688563634;0.0031836942329626321917;0.0033170021204424813936;-0.0044687619851276434366;0.00087020054137774689555;-0.0002321250042226468812];
LW3_2 = [-0.19542945545994472312 0.18739809775238891465 0.30191266005966072017 -0.16525140045104474984 0.19897219902479990061 -0.062524218612847945464 -0.59018018002112881959 -0.10568444219963327169 0.84826195793941305823 -0.016410263183981563945 -0.070974983221190154903 -0.3896869408845843874 0.05241203678670405125 0.99362953918670304798 -0.15237771932801943975 0.55491268419208639173 -0.15349749591868361298 0.040400335799552801463 0.86240167778490417483 -0.0087550288429604043727 0.029626847220623388907 -0.36343312453709858412 0.14804144722639744902 0.0096271569961729631243 0.89627017940076991742 0.037508654903477274545 0.10283207423957017868 0.014449659470762557523 0.20320316322115594687 -0.057284362498175589451;-0.044753772284470902387 -0.055114774712638668619 0.37854388933935317896 -0.31469426191016280914 0.3302589610273924392 0.062048723311411833892 -0.37963459983432074063 -0.16813304690566169275 0.041976873742320612581 0.12062000456391812342 -0.48073689014837539535 0.5929890548918113069 -0.016397107679823632459 0.84841397970955945151 -0.14630717038208920777 0.34402883150239649268 -0.35081025691427009106 0.028254543105369019085 0.7975100052076838919 0.092684931253603816681 -0.028443320460008220119 0.59398561730337284814 0.11145422048377395807 0.19585163282977161026 0.88275959603603404435 0.030696458294401419292 0.12256178663019155761 0.016256995178325524265 -0.11408024496977162143 -0.044658910115338679159;-0.087030536035892239188 0.033625931958093754903 -0.0034117603855600949284 2.505084882185537154 0.073517327962907774719 0.42424065607936178868 -2.4842616439387810168 0.90421745500988470745 -1.3874112207082507364 1.1103931060432798983 0.34964602034210512382 3.1779515656213548347 -0.52718973402346036572 -2.6032166881513627565 -0.15861714700622112084 2.4753410377253630692 2.97946353060076774 0.026334619173276840876 -1.2487999081012732816 0.32846200841657802183 0.17310737035251197447 3.1405560313832228125 -0.3365954485292227405 2.9351684223354195247 0.34427285656682066195 -0.04019838967478397973 -0.30228342409216552022 0.91824080461282175936 -0.02494150251823043854 0.021698305851224557184;-0.26881752894848470747 0.10828044863704647249 0.10660601287132917547 0.11726626416456358004 0.069311614528175219396 0.11528764079532236031 -0.071667230012384910975 0.68781540347163805382 -0.57093742605335717766 0.43858594735686173838 -0.42438215761994907416 -0.17573387982477442493 -0.1979481531294187413 0.41224114221102864386 0.069746383447199772343 0.067841053721782021424 -0.071401102573251079564 0.01070415861458686585 1.2740682649537051763 -0.36854644507677980503 -0.073655336935138482346 -0.18251154036720623752 -0.44328112104346717448 -0.50324216762992246554 -0.62957311546673211389 -0.0083166532102657148018 -0.13786526407333027366 -0.22799137650822973167 0.10883828775807255496 -0.0076471577171133243642;0.10263499591298214098 0.12605355501532261586 0.3217033575399354528 0.14755816105889341117 0.23020702344419652352 -0.22939883463425614352 -0.45719372409392677881 -0.40485102636534453513 0.54664208573183914464 0.15887781532725189781 0.42165494545116488645 -0.41559008514291390091 -0.015038695587712730406 -0.099321604292620921384 -0.16520592357710470188 0.46988996684697620365 0.25586391302975219908 -0.043879105652706154594 -0.80077052909653057 0.13721520205976198148 -0.084284795244998045316 -0.49975129696069597873 0.00013486181467043479925 -0.59683165122463965879 -0.36036967631165989223 0.070202954476786899596 -0.043174607620394198082 0.33335993629637605817 0.12086571038904214692 -0.061444892797518593786;-0.10601849490357452555 0.071236984433817415741 0.062679277963544430263 0.066871429056152412174 0.027314574830022957802 0.095641569992468519756 -0.013352387345591675352 0.68903981673674907782 -0.23696188807800241949 0.51196912151335804975 0.30692523131443127937 -0.12389677701578770408 -0.36956074724160625777 1.46547073764178859 -0.058534070687981755443 0.0047225102340507753643 -0.047207420484790624249 0.018958512344581356784 2.310229483507437287 0.096776422869453704312 0.15708838582672643436 -0.12589739145709799573 -0.36285572936820853496 -1.1317672959567228741 -1.2555846456979045112 -0.0078213225567476795524 -0.17196632183504684255 -0.1590811626983398841 0.087301836122267009732 -0.005218116433902062791;-0.004991576359623662619 0.026585168929031816054 0.1193992370761880889 0.30743980542838472703 0.16161908816800751865 -0.16405584355211610958 -1.420383155907985584 0.33062677456204442317 0.14400849230844001148 -0.27154939333155125869 0.43014591504517712961 -1.448008830397029767 0.11787572649157643245 -0.61801387660880413577 0.20662386226177861803 1.5028141663261693761 0.33404930247477032657 -0.037461413681694942512 -0.48109315276510783432 -0.10406947366828572799 0.04974757371077925816 -1.4540896809580918791 -0.1143415044473014841 -0.41140846882031978371 -0.70828949278170716397 -0.046379807693252436684 -0.17139896147830882556 -0.048280699413512970231 0.082931105911344935033 0.062310464074375834787;-0.43218939554079294219 0.10893614791984815304 0.056350561304699738063 -0.21899647728914814482 -0.059021173101967396024 0.057550516088967079709 1.8483092845719313324 -1.055049751560908966 -1.4226695713743606753 -0.062517449319150666942 -2.4664801001925766855 -1.8982915025319562208 0.18328205598820335176 -3.4065843417652059699 0.10997678204053831785 -1.8371605024952353258 -0.26037009755128814881 0.0074640956611467515133 -4.1856367015925011188 -0.08797686611021951486 -0.44666191928749310325 -1.892301285729679039 -0.45101696812519465052 2.1535785260920232709 1.6906169519856359962 -0.0079959035548443028324 -0.10715650298165717291 -0.20489070849673282626 0.076793898882936306727 -0.035930416738507400809;0.092365355754447681091 -0.096667360415214273472 -0.092908982483453916856 -0.15592022279199979629 0.057833639771623382431 -0.01441142930089411682 -0.59616402658427058991 -0.37370860616155493483 -3.309736981175613213 0.11035541172615796757 -1.4623974095438752041 -0.87677193577296752558 0.089142971910580473538 -0.14098906637276578668 0.073011415146828309575 0.6343919478613613272 -0.092463715232445606307 0.11785439630710750625 -0.38376064402759241245 0.25350113071389185349 -0.23449409696180284479 -1.000871833832470692 -0.034967234905171180881 0.070591975200231624199 -1.3226017964312839492 -0.11827099204954005796 -0.017589492717433714841 0.22313871074292329633 -0.17168933809862407802 -0.10853310724971212964;0.27925615735493192204 -0.10665606697595657326 -0.096262475221587012753 -0.17629080347066863887 -0.048817946728835159842 -0.099999807383789898751 -0.11542854097106336475 -1.1294037236035763261 0.64447287186580648477 -0.47103938774993325822 0.29967623714314595151 0.11887415614545872311 0.21997512619926290478 -0.098080357301448123364 -0.036393382835684363885 0.11901164207721158517 -0.020182065398993986188 -0.01000099630586684038 -1.3381623049348592147 0.29848335374361861794 0.057702288151996815324 0.12233937632886841829 0.46240518019712067987 0.53636520742295146214 0.67849793642084199607 0.0084449066668355089738 0.13890412297813531373 0.21044487011189336179 -0.10480528663761233543 0.0043846855272788197097;0.52284694593557368147 0.090493762820882825415 0.070064874879025421106 -0.029055463830174294015 -0.062268610025255181906 0.22336705186341979101 1.7474041757486427073 -0.12527213703473180639 0.11627395071979229613 -0.12341939142639689331 -0.53361622753589921242 -2.3511321422018394145 -0.25068559871559187302 1.4718855034996765063 0.017786362142144424708 -1.7422770328748411472 -0.13403426328763565212 0.013171633229989036795 1.717985233832351355 -0.44786242211691063009 0.054846376194638557511 -2.3596547026187648655 0.17733584336827937222 0.25348967371099789814 -0.29911918697756484375 -0.015178019091254036504 -0.10509894311439969827 -0.40925516344367957045 0.087652313179263280363 -0.012550621623089423459;0.092952014121712764338 -0.24416622748410024557 0.12740821572004668027 -0.050782230774743669643 0.20123623051636588266 0.066668572046247265295 -0.40932349151265912113 0.080132020793654473723 -0.66959268057399046192 -0.04735433315244388236 -0.16285900269531211615 0.30989710841275736053 -0.038465050693032638851 -0.90606129528147294483 0.11705380059590762831 0.44826070808760820618 -0.092671589714300672824 -0.031684957709870446851 -0.75448653622836348021 0.025396777894162985562 -0.02246925881205312503 0.28700341689995645389 -0.10653704455131195183 0.044870299324824933218 -0.27854401431739367334 -0.029168508456693970077 -0.056952240441866940068 -0.033673712452493467784 -0.30185541912113494911 0.04456580541946036228;0.072976859178127156946 -0.075916278341880027991 0.42409121943657179798 0.081864247779659532478 0.3991653625125640148 -0.10674752570910750471 -0.53834607832841663289 -0.25367562719144504113 0.054178990116294484247 0.1630444763818238163 0.30550780119665316148 0.14905918141735999272 -0.066668422487908718388 -0.11645831642226597835 -0.10170111872540038567 0.54891079281323018613 0.23621832462024025534 -0.031130017619710736998 -0.52485815264403246072 0.18648992017707108348 -0.144885672805830229 0.077938348660947093238 0.0043878760271245107263 -0.52423305552473153934 -0.36662338677059552738 0.05019711516936013751 -0.028503578198021926882 0.30534184081667764543 -0.11772633351963342208 -0.052048138492827591972;-0.61453651084606109034 0.038148860950421539795 -0.016372007066715949658 -0.10108816562206625334 0.007885273441467784139 0.020505594392501227952 -0.15459318378436631702 -1.4725152737313416118 -0.34808420084901281477 -0.79266653897043160004 -1.2560083663755108319 -0.25498832111000152567 -0.10701637928802466837 0.43948976464755495908 -0.023540891693885832026 0.13905974446810756562 -0.077497047467526364306 0.0070744667821136556982 -0.82304871619586461584 -0.026676032430517818139 -0.35683295201689002596 -0.25349811705977881582 -0.046264712592041803974 1.5867461241068498978 1.2543856141000375715 -0.0077551282851481074046 -0.099057819230100110919 0.037277554837393124532 0.014349145417889962867 -0.0052677973814016110926;-0.11154342827682373063 -0.27130231485453121243 0.055908489840195987886 -0.19919005740952747119 0.16451275660906261589 0.23404631754570554003 0.049184096838826900366 0.1502364203611092075 -0.59922993850089423251 -0.11325289238009018933 -0.20836216140504101868 0.4247029142059950968 -0.080316436165614291109 0.32615299096913824561 0.16849211621079013268 -0.054802595688168490029 -0.21393093368012597311 0.020085442475951436475 0.77740150489369352904 -0.07795473708386418954 0.029366013018915101962 0.48888908829234301034 -0.017821521448888443667 0.59184453894750899128 0.31743190354856382074 -0.04560352875842017123 0.05059638207462122117 -0.22666792343344868699 -0.30007542113153451435 0.049390331192654346459;-0.25879265907726850537 0.099213634875196340945 0.10262861302053985502 -0.18553947590533470535 0.072759204507622757263 0.041562900718104943409 0.079404409948077778192 1.0242156199913661219 -0.57862630914303292418 0.48762865566896101965 -0.30536568200279129437 -0.17548389551774959405 -0.17978693716557625493 0.27790018341222827436 0.076609070594357009387 -0.082852411474245130085 -0.55524742263632853589 0.0088221331960646846848 1.3509339350590705564 -0.46879178284449901648 -0.082547286252207890955 -0.17872255376879203626 -0.44527877642178304018 -0.67899568439518387386 -0.70029934913602620572 -0.0074841047836019004846 -0.14045788610105458538 -0.21981567959950334967 0.098849238412854117941 -0.0063580607793022603236;0.0046396879488477026435 0.28629369145025235222 -0.17267977594798342156 -0.11801899952991140585 -0.056995512379833301875 -0.2056032561593579 -0.13798397823680352836 0.12903562829934753231 -1.3174729521983987723 0.029843780451779863827 -0.39961272042428441775 -0.22403783999430840201 0.0089426001317913852984 0.35331761519617116418 -0.040325480455811357761 0.172268575874235913 -0.30409749332309465863 0.072279426015444112052 0.36632949719298890656 -0.06686325683213180382 -0.15894218890210370931 -0.26926956139372332233 0.039882027624847965486 -0.58357066384000855219 -1.0201914569777763564 -0.074609764112973264716 0.018597939111079670599 0.19831859573091237259 0.35877584533463302563 -0.065789190329225463727;-0.0030362248635795803693 0.20747781418125585406 0.23880645512197620772 -0.063110490145262251871 0.33357881885750950701 -0.19391023018328576444 -0.15651779087178463445 0.049314508086364818029 -0.7129447708593146249 0.079929311949905323953 0.0055626294466111763509 0.32670478353726278842 -0.08381602201013825526 0.82103973896873261307 -0.1041203571606208883 0.19015816521758510671 -0.17258875262949005536 0.066937811033940003425 0.75348866400929315201 -0.054348344539431214795 -0.046224488085924816949 0.28577126648092759931 0.049870656462404128195 -0.28860021411636632704 -0.61383053515766472508 -0.067255439530901239831 0.019581550035794710596 0.092666342567435167066 0.26321797314944089807 -0.064509646747465995698;0.77405247264792464978 -0.056131706410253313921 0.020867107917861976718 0.16908040630532006343 0.020889114868991923851 -0.038262697074793489138 0.23869417470249476576 1.4553476235536644268 0.36318203307573593275 1.0274738634605324883 1.7350037845987273943 0.071913700435578001291 0.10630189332843963113 0.74010263221950389756 0.057354628282205423473 -0.2255075971507564947 0.17065424453499400403 -0.0044006295406507920168 1.9503876804400137601 0.10268804210659056297 0.46563742401352703482 0.069179282401214112208 0.0020076993012524378679 -1.9771239893059353587 -1.9018102860940704346 0.0045696211530855575245 0.12658293791544192319 -0.025943744055717511687 -0.015141924642127553569 0.0081004531996585159292;-0.035673013195445107959 0.10522867454818042587 -0.26840198590882424767 0.128087059762419464 -0.38961705270103719201 0.093568375077619239666 0.59156269875696776417 0.1013645371463636341 2.147645793964756411 -0.19048224055743595562 0.45247944637612752539 -0.059610232901967402652 0.0077658421123465567679 -0.50308187812335880551 -0.0085035137838219958945 -0.62673408719908230147 0.04666662564748680353 -0.08130804547585591957 -0.35677923549164947126 -0.21691866700560683001 0.073620628608087906875 0.018101336879959576548 -0.0049095573713327676432 -0.037327224801336718329 1.088004777056961192 0.085362364602529619551 -0.0040970729701387898283 -0.15386200224574192452 0.14357903403422908606 0.072018007572282424777];

% Layer 4
b4 = [0.11292060396485803508;-0.018021757295152131262;-0.072910736553265784177];
LW4_3 = [2.5093780248834582913 -3.0469275396242276877 0.091061272424410394377 -7.2984220403088535534 9.6939559528251226794 1.4347795348003833382 -1.8434497261941678037 -0.52698378289334468771 2.7898059946992490588 -5.3545259140107193119 -0.69018306797262385377 2.6238798206303046712 -7.1948597407935244163 -0.79760638369712311135 5.8731273085347472929 0.33366673169811278399 -2.4220326930045117386 3.1352233371254882854 0.45849110305337281712 3.3699558285896018539;-3.4104810211326137548 3.3099678835461840976 -0.51527783877368837917 -3.6376005006572773581 -5.6342541574840065977 0.35196621214247419962 2.5571487216179749069 -0.10574335278473488697 5.2721350334666290394 3.3013894987293683769 -0.98589947889273576997 -3.671546537883655148 3.9676199006391126289 0.19109080246779971968 -2.9955359858288348462 6.7211197286488806313 -6.7219769949810128651 8.2107339869655682207 0.53877624131557544374 8.642393790513381191;-11.306550702660956631 11.207501547400630315 0.07449596004222273915 -3.6848181674140505493 7.7177987725836469934 -2.620337705872760381 4.7944121708698013151 0.53574027765625409359 1.5420465650789365597 -5.6173347614812074724 -0.788911034143399581 -11.074665549725615676 -6.0057660553729599329 -4.4880309546351409011 5.2510415396154357381 -0.33609585407176556515 -0.94910360779620395189 0.91273575435188702976 -3.5303531651622166443 1.5028046299015154208];

% Output 1
y1_step1.ymin = -1;
y1_step1.gain = [0.488157065512143;0.548488133596352;0.526756879049773];
y1_step1.xoffset = [-2.28605;-1.810442;-1.770418];

% ===== SIMULATION ========

% Dimensions
Q = size(x1,2); % samples

% Input 1
xp1 = mapminmax_apply(x1,x1_step1);

% Layer 1
a1 = tansig_apply(repmat(b1,1,Q) + IW1_1*xp1);

% Layer 2
a2 = tansig_apply(repmat(b2,1,Q) + LW2_1*a1);

% Layer 3
a3 = tansig_apply(repmat(b3,1,Q) + LW3_2*a2);

% Layer 4
a4 = repmat(b4,1,Q) + LW4_3*a3;

% Output 1
y1 = mapminmax_reverse(a4,y1_step1);
end

% ===== MODULE FUNCTIONS ========

% Map Minimum and Maximum Input Processing Function
function y = mapminmax_apply(x,settings)
  y = bsxfun(@minus,x,settings.xoffset);
  y = bsxfun(@times,y,settings.gain);
  y = bsxfun(@plus,y,settings.ymin);
end

% Sigmoid Symmetric Transfer Function
function a = tansig_apply(n,~)
  a = 2 ./ (1 + exp(-2*n)) - 1;
end

% Map Minimum and Maximum Output Reverse-Processing Function
function x = mapminmax_reverse(y,settings)
  x = bsxfun(@minus,y,settings.ymin);
  x = bsxfun(@rdivide,x,settings.gain);
  x = bsxfun(@plus,x,settings.xoffset);
end
