function [y1] = T202020(x1)
%T202020 neural network simulation function.
%
% Auto-generated by MATLAB, 24-Feb-2020 01:20:35.
% 
% [y1] = T202020(x1) takes these arguments:
%   x = 9xQ matrix, input #1
% and returns:
%   y = 1xQ matrix, output #1
% where Q is the number of samples.

%#ok<*RPMT0>

% ===== NEURAL NETWORK CONSTANTS =====

% Input 1
x1_step1.xoffset = [-3.452089;-3.577856;-3.605311;-1.181081;-1.194712;-1.161459;-0.9998944;-0.999858;-0.9996955];
x1_step1.gain = [0.290560924960026;0.286311695517819;0.285295838232695;0.85309419396888;0.850694230293987;0.840531787651411;1.00091358387368;1.00062243718705;1.0007487602224];
x1_step1.ymin = -1;

% Layer 1
b1 = [-0.43831444282773973642;-0.10591520793119280075;-0.095482496658416210478;-0.48256069706783882856;0.26891577041174835605;-0.24098191799083718001;-0.59363609543587292361;0.13529672176468743316;-0.072664860711275161553;-0.70845205728372506737;-0.60576764037493646686;-0.1119765546118030447;0.74075614876415074583;0.50090040982472971987;0.12276204025056523805;-0.57521512275955810622;0.51383282949014552621;0.76235169275865843908;0.62039678786078322759;-0.43786963730917793924];
IW1_1 = [0.013823044760004727163 -0.031066890200334686123 -0.56060121321763500823 0.0053767063457476954244 -0.034171057434233917394 -0.31793964272628638668 -0.02299993271476272888 0.0076333416095900547341 -0.24612782612682862493;-1.5433258799265630046 0.65481128573135405357 -1.34172918006143016 -0.083681932415052784346 -0.019896293313729176977 0.049276635513572746017 -0.12442892884869409531 0.025923639552466608976 -0.021864508258203400881;0.21388688166927985468 -0.01170224203792985182 -0.178477417207231287 -0.91429310289754128771 -0.93830549216920400291 0.27928530267253426356 -0.19884143679760141188 1.2555870776825941437 -0.20937587355676942624;-0.18003438267599627953 -0.18029902229757333032 0.23287480014423786456 0.0077573097101177662313 -0.16166474126240615306 0.09065716750405032609 -0.15055867928066796191 0.0019744281206197727106 0.16903433958552069316;-0.9267634255835571766 -1.0015236824438338292 -0.075886945507715394821 -0.25280158500324978466 0.18371135799391383192 -0.0044801957439678553874 -0.25234708648478998416 0.066402011649959624684 0.0096451731934803670854;1.6286007263020554348 1.8059046925254025329 -0.038419626516203259081 0.059205289266610297561 0.028268235315674777181 0.02966919246746096625 0.15855555814522703795 0.13932493445356930462 -0.0026367644822196268511;1.7003212908489506727 0.17054442674483372144 -0.58371076542552613464 0.30392203183854454851 -0.15400930901785245264 -0.050161861131792537249 -0.81803686729963820401 -0.19565252688426690297 0.43289708139750432414;0.31904513424435765323 -0.27616920477977369153 -0.1444758825867818175 0.17106304500521532508 -0.12234539411552805555 -0.04657689308189482541 0.10724969306735547547 -0.073888556830910084861 -0.027386533272082864282;3.7789944861236750562 0.28375900463094683168 3.3380158096083811792 -0.47035075086532568411 -0.0050009027074966452484 -0.21911166758467887083 -0.25255065008363192236 -0.18028989363447500693 -0.10534589667578653227;-0.30457844087234059449 1.3319433010590711053 -0.96523303484647759998 -0.059556237738192019382 0.2713033385815901144 -0.29937802020549525439 -0.080382974561470477148 0.26584526679798059501 -0.23765421514850673668;-0.17846091247884135478 2.1151075400379637514 0.36507623412905748639 0.01265644603255407924 -0.038934868720167048473 -0.052295222108932906679 0.090074723193453831716 0.088364645569851019147 -0.10180043778666932053;-0.93559168357044775188 -1.2464289977577760471 4.6645361264381977051 0.31377585109722544443 0.44013540525994399033 -0.5041324606890494886 -0.0097201801118468132007 0.044189856486304288086 -0.19627495000671404957;-0.015489671371711904307 0.08012901851031019318 -0.057456343658265698893 0.47563684582629861541 0.068224647313569017348 0.023778161076116934719 -0.30647678196390898409 -0.0056328076637667456525 -0.097842017620799859312;-0.3292744645976758977 -0.37198677619458048182 -0.30395032621949769069 -0.18850124209692670219 -0.17080291340249623144 -0.14750002097770753551 -0.16011345070095636678 -0.17936073905194327427 -0.11640045879788098182;-2.4947392793982854364 3.3198959970545751652 2.359550904786819725 0.065626618106417511367 -0.36066781422282390146 -0.0095152737341605026639 -0.033616094770542476189 -0.062955211872013458474 -0.036239707414383967587;-0.42549010028141348583 -0.14502745408494302493 1.0690342418794254176 0.28827335457014247044 -0.28294555471719773365 -0.22798194533429497199 -0.13981146573858244109 0.54445178873733535152 0.027764721629983689366;1.5160661965691939468 -0.72609774288165451761 0.59979840441717802157 0.1053429926639384423 -0.20386901930304957009 -0.69289255248256431674 0.068484553153406554915 -0.095639705299723279386 -0.40036362656483570621;0.058439150090682144556 0.065511873798841269156 -0.051726812754659963478 0.057837977011226927859 -0.051786741673130881614 -0.62538911485013881641 0.02849189388082749852 0.048390965259689201761 0.36092021765806397982;0.066726860317089575769 0.08156325505287442823 -0.11261590731451114056 -0.042244582755615441017 -0.40849437640399061111 0.061427473853349380539 0.022386618654286229851 0.30318463156924568835 -0.093393870443074275545;-0.34260268857010167665 -0.23748805196183631061 0.16934273687582382384 -0.23718841071091872896 -0.14578404044238138515 0.10838615266661412451 -0.10110369909588703963 -0.18414814184661737473 -0.0081198308412193907768];

% Layer 2
b2 = [-0.57594717624431879255;0.083040750996235049297;0.15747589404098369381;-1.1751200855655412614;-0.49159482447502422797;-0.35557771224504586272;0.32612661958449734589;-0.59954601967565768206;0.55591454187440370038;-0.24313567354768678141;-0.1319480010764851885;0.286720552742724899;0.092377072631435686034;0.010999675169003540753;-0.013563290860144039743;0.011370378765176250915;-0.74387229024804946143;0.17138757520540082169;-1.3428277134141330951;0.35822841447096631651];
LW2_1 = [-0.42240289200097358435 0.12866587231131731972 -0.00010353286667464773566 -0.54106759440134544192 0.03733768512402841494 -0.058988593591288780715 0.036262532109683359716 0.90753704263267098717 0.0027047196924087045511 0.03722895919152919425 -0.027020702904415563883 0.07514636345872550971 0.025312636621007737758 0.79319358658160377118 0.021727099530875843003 -0.036597216528225375021 0.045204182541332842138 0.01528460744591390863 0.15535223416510457461 -0.44873257911198866088;-0.19782293837447889606 -0.1137916889205169424 0.19469571832978113668 -0.29591960737571926243 -0.58091251556434819747 0.863526563837571981 0.025860102137163564623 0.31862032069714651961 1.1390000036755121293 0.647785408944225094 -0.38721826536207448743 -1.2705135206846325246 0.36549215054860262342 -0.89250524526622121435 -0.15226625551716993501 -0.39937771411249489706 0.41014500306231521654 0.19066340801508241398 -0.021631798395035206628 -0.23095474003736699009;-0.21819394467231933987 0.88336643025343641877 -0.19818385019976730854 -0.45114256245237743803 0.3558353246627777855 0.92633739576134666027 0.14255604478176012173 0.12243052081107266837 -1.0078365445734305261 0.39414656378811235848 0.25944618783858330868 -0.90543541500241575548 -0.47423934413354446038 0.65824629524995281749 0.80704717705475437217 0.49635496218154290249 0.15437398069567906389 -0.16489342892579478272 -0.056772628347175446706 -0.14815133543947783812;-0.93111021554252582089 0.73263523510640704561 -0.016004550757308548536 0.04020401350365688381 -0.39699998814205272879 -0.35331091221704219452 0.011959265075530458797 1.0069183296679373729 -0.58803034988803015715 0.21479067182382793888 -0.069410718948308719467 -0.19160388534955835604 -0.25733659426804050829 0.79521517987583090203 0.034864007330084330338 0.070693575943809899842 0.25046453348003816508 -0.063182656802837258714 -0.064047950465697722766 0.10579334687528060832;0.65412353916631305051 0.39147673993121118174 -0.22004373413659844561 -0.95499432348742518961 -0.8289086250856155802 0.16268618042613372521 -0.11247269769838996734 -1.4597091050730828243 -0.78161638987028703163 0.67356002717668106428 -0.53022825696866116019 -0.82556131110336372636 0.72169071576588883499 -0.29264556354501941593 0.8913290000805782487 -0.013810078756051745452 -0.33582018095168753025 0.76488871790025658726 0.97484752018058151712 1.0133559612763556324;0.092523065299570939057 0.08265153891396144481 -0.053740369294440294701 -0.074422473587674314865 -0.16285523028932033518 -0.44769507178266360059 -0.029540970380246469457 -1.39028590609912861 -0.28801622359808848328 -0.24473777147309025426 0.19012667820963438658 0.18706756857719791798 0.17798796086216006618 0.090509170899148838618 0.22626682224907831986 -0.02854898781728391205 -0.10769726637532468783 0.13702374321722896044 0.31486413789708284083 -0.027467424092389992191;0.27365139617700207086 -0.046169719730195200869 -0.19371929310402194457 0.3546132982930186861 0.47480462035902476492 -0.64952572127842655991 -0.1151823450673090804 -0.40990240299636609977 -1.266760730136978319 -0.016458857928778859725 -0.79277338394151319889 1.3528967639727305095 0.016544641592390565976 -0.023365790978334993744 0.70217405150302314443 0.23973382752971528209 -0.28637744328467651389 0.022274894923525592749 0.10953915222738223878 0.96654865077012241947;-0.37497322745167438462 0.960082902718723874 -0.054251019935202288158 -0.36872136147648648663 0.13944606615754120971 0.66196351897125293995 0.0013547157015610022598 -0.47010805880136141699 0.075555857213260510519 0.051151948156195573003 0.15267909943879998114 -0.24325136625500362597 0.075989874738813384392 -0.18313056721780637814 0.24091961108306073069 0.12594433384483194605 0.20306522128656037673 0.031485374439807242708 0.0075323826330938098081 -0.36311676672414444633;-0.11669750328855402199 0.84161796238449015917 -0.054925282819783878552 0.024287890167044138418 0.43445472958602604496 0.80737705645887314354 0.022996270064239796721 -0.39029330099975501067 -0.067651011266796026722 4.5888897050457331346e-05 0.36503972632291298295 -0.19978455543939296901 -0.3353924357160243952 0.35190217240702814649 0.10983570748202196865 0.20091779546570384674 0.32305783821005368273 -0.28002795060053253806 -0.22883835643843083996 -0.71073349377304995134;0.74345674680283468927 -0.61329389971832282136 -0.042547192177391043866 -0.32063197168208795729 0.4137324472551962562 0.0092172848342009731232 -0.057776056779328378854 -0.31421095518985420192 0.39960561483126838533 0.1119808731117413747 0.12106943471085285235 0.45901074481790860027 0.46217183912953546665 -0.80231536778485945671 0.17333641487906537026 -0.17335475066418143397 -0.017030497738455850631 0.36040046340156772775 0.57708356500455926241 0.6910890913489856624;0.40101792942480041226 0.055709682441628743943 -0.0088480505628316316602 -0.18729422954530172696 0.034172178302537346839 0.13055754563388835554 0.0085632422926442495342 0.089174138397371746634 -0.10022730690923627173 0.26997748669483612183 0.0027862968223665109981 0.12050369866262232443 -0.11497574349224938539 -0.28621590649589667699 0.049796805167168022022 0.049714653522557751553 0.031991380994020920947 -0.13229952842472492147 -0.11260122194981021793 -0.46461111193159870814;0.14572750551566804322 -0.049771378975325804295 -0.19662119621708307182 0.63305289367390349398 0.40560440521701329741 -0.31853923302954784136 -0.088184139201296599109 -0.58141156527598358839 0.25334051709999777513 -1.0209456995342733876 0.42213536665314477236 1.0708591981568051921 -0.69262994859710824702 1.0246192956943707131 1.4790795938886118766 0.67235723001878633376 0.050562047183295245889 -0.60333148051733731521 -0.67003934531925302132 -0.55693346613956362656;0.97799046679038492691 0.22502749366718655111 0.031610372688654506113 0.56925390466305492154 0.81210896229327722562 0.29438288215921781799 0.059608735078389415984 -0.24087395177908160759 0.072460320552864970756 0.053697365215546827288 -0.034517976466119065782 -0.083928112391906617429 -0.059785005954156929253 0.25111122459420548436 0.25235343989794151165 -0.12001912455973301475 -0.02431339356642700858 2.6155976575240199276e-05 -0.035629377918228608002 0.27579062795584891044;0.022237966826372329576 -0.35691542371566675751 -0.045959319866348838368 -0.47757363597825031043 0.46309450319910711036 -0.056045385172006544072 0.043452131775392990876 0.31779887903084463874 -0.42251811076383410937 0.35702246888931282731 0.15429624494656543621 0.4290349512982708502 0.20104232626023560426 -0.085028395834172570966 0.15955546403060902327 -0.23768255788138326068 -0.0071282369908171033107 0.20147970041730395296 0.57392348784443014686 -0.06364307660711066017;-0.95778511193899640297 -0.56035655509776216565 0.0024858933860864656194 0.013384775866898566618 -0.067444440285766460441 0.12302693530407511624 -0.031368896158276961261 -0.91620840620130750143 0.25864389867170162196 0.14210135260834594328 0.064778880727125856542 0.20887655555735962221 0.25297925846209906586 -0.51925322553406039194 0.19317730026707047308 -0.015358935097757469429 -0.073270301388504960327 0.14778889368087888556 0.16223406245217958377 0.33195701539595717788;-0.25891521684967411243 -0.34147657029088945846 0.024704003126296992382 -0.56483923265739144348 0.0069803570589918812264 0.49374225126743437331 0.017984452816886188631 0.81313812895393455804 0.22437702969090336791 -0.026433590640412465977 -0.21311512726909911941 -0.095327216140504156261 0.14537899014338548365 -0.43764052723769747422 -0.13650081438350331053 -0.010561585745404897599 0.013621041195173880928 0.061960694043349445748 -0.011544221916612461623 -0.17303971956524380471;0.085978966801776829376 -0.069598081492940111481 -0.038552222983019461544 0.020971047155302235954 -0.28987451258716773195 -0.22689859025169625828 -0.011082294150251088827 1.1369426951300085626 -0.10531081367997835452 -0.18601879156093509282 0.02700465569453992451 0.084377007871652129345 -0.0093772703705016224873 -0.22292238045988796435 0.16170725712189887302 -0.021268702234780383076 0.0054132096171175241722 0.039549370672441477859 0.095357985280568505204 0.36825238083601896655;-0.784277718615759456 -0.48574599150590763719 0.0079832224267465997508 0.38086798208621847062 0.19466695568463554533 0.50116916883775208813 -0.012617154789816915211 0.51111847524365749962 0.32272445796469934054 0.39358446386650169924 0.0099338993393987256447 0.12893286837216993979 -0.12594550856018738028 -0.29166245159829690126 0.21364867111790603049 0.096820240643339411379 -0.025814622203751056567 -0.16130231748616180587 -0.21940882241925230289 -0.048356501223942555123;-0.31129505981313337903 0.038466128712794513123 -0.031226267459943328475 -0.070453933086726441837 -0.73641210353591590732 -0.045384476963088414558 -0.092009059038092602667 0.067332464583027232252 -0.011823121499903312126 -0.25214942496438502717 -0.056753968610134569728 0.5114641360500399303 -0.033498409867083515923 0.14715123958671669224 0.70513702782793619139 0.24243642117674540915 0.29346150014135052864 -0.11856905977969374455 -0.25840593622038326993 0.26861345806357389554;0.8370016145442250588 -0.59642864949873686253 -0.078690244624612770696 -0.63476428498291925795 0.10009450532513886056 0.15639712406884895279 -0.091541848694308869394 0.37624758460694041062 -0.16122399603971421245 -0.57164003133357998987 0.69049298366199984844 -0.42414500479575834024 -0.1624212884734745066 0.50104041654705788744 -0.11862593549610321586 0.33735019722320552793 -0.30944614820012011913 -0.057104989435389476304 -0.099938496322514266956 -0.10275613672453727532];

% Layer 3
b3 = [-0.50338997023042231227;-0.22226110890547401411;0.53118210168977397778;0.57376859377192146461;-0.084464460515042583122;-0.19590218822632854412;-0.0096427431646196552079;0.24483889003806735829;0.41741349963738910711;-0.56475751179014188619;-0.088223298365481775396;0.05851027734147235676;1.4310775776358661826;0.35866159053887780583;0.15040327752495308289;-0.026106818926721703233;0.054993745590610994267;-0.025123962462350560298;-0.57901776505891955349;-0.23459242534814075953];
LW3_2 = [-0.1902347638696307297 0.19623876274309806633 -0.25343439759312014203 0.039444194807833635186 0.54172131867506456704 0.31039461184392380666 0.47921698080281532883 0.42179547140304318731 0.11979403236969374258 0.26947233960177618961 -0.29925703358522520725 0.46421070289022742239 -0.25549296914359553856 0.27794331148234596718 0.20871849529024494307 -0.74353755691004763673 -0.070934313361051673508 0.097605706745097262078 -0.14725463489670187478 0.052356399528351721395;-0.54711986084972352717 0.37906290511134593801 -0.50122940006915250866 -0.13348417080919602884 0.65022987564316991893 0.26863871399113781191 0.094931480835910839189 0.3047096316541104688 0.28545989728049542267 -0.14749101068753767141 0.20982233506323050287 0.22624224751526225696 -0.12815995432242011098 0.23890709453531325246 0.36610098678229135993 -0.31890534308984302969 -0.16739252730808606984 0.45573885224345789258 0.079284353936384596717 0.040518124618479173238;-0.15098709723557818263 0.094007428526504815958 -0.50876981017100830762 -0.031765899040575723555 -0.0087113020468196494805 0.05181812560057466599 0.46104638234155870258 -0.70089451552645309906 -0.13333373215182053872 -0.24298090911060238328 0.79414179340375601335 -0.96330659680960717406 0.19135500189837245655 -0.32620521667610091754 -0.33337450311583799456 0.060395160832104909099 -0.068390269427942323999 -0.5184120832103634724 -0.13497147742271284332 -0.18775314348304097956;0.23591016244287851822 -0.30295718055070025576 0.51736718153085281546 -0.5400119230025886008 -0.57112516623601461419 0.14655525211762313043 -0.067751708453555908873 0.32715929841521373955 -0.65581445363382062652 -0.33134911133691835605 -0.075602403472997140033 0.15114980163545282954 -0.63441453766116484569 0.06432815384561042793 -0.86290852785605842712 -1.034410407235608842 -0.28420677249934417352 0.63861035531824972278 0.11621919336880050244 -0.11137134829414137294;-0.056757082330616805133 0.48853162518366427536 -0.29816299345854874181 0.051727247666599446285 0.71966814486204722101 0.24296073070262971805 0.046965899282746643995 0.64906344395974824302 -0.020916200368598078518 0.32769279592417682734 -0.3695153785728106377 0.82270347027205359414 -0.041382730688393563889 -0.0018343361980921587748 0.40927332820236056454 0.021191505077827795661 0.31825583664897721947 0.25137741712939232208 0.012275468510657047347 0.2499448992339703135;0.0043238542681184911898 -0.5212182614139160286 0.15202922803573301613 0.05946552016130596946 -0.11832136505734219822 -0.23924161631199922229 -0.35008952655212322025 -0.2523251123115611283 -0.30673835176972941152 0.31790992144377988593 -0.34884249021855234796 -0.089842921636585859613 0.25068152609135013753 -0.39418062770610168277 -0.28539473793378600242 -0.41574719942950605356 0.3692933156102766179 -0.33317400127410490285 -0.11820856291642178881 -0.0070046259429555760359;-0.25370829738098671369 0.47512292565211466933 0.2512973478582686826 0.19155121349044029744 -0.45686131507178445732 -0.23129997995450995996 0.27132688838004132004 -0.30957167475966057557 -0.11959164735094764132 0.0038417327010832440226 0.2336003666810260726 -0.096947905266283884718 -0.27843313276957226687 -0.15519056398711958411 -0.094975012396253444269 0.18965383771477917207 0.47115896178537974848 0.4776651427664535543 -0.0018292602569461929255 -0.30275788057491609395;0.1862215903535963113 0.15337461563927365371 -0.049434057437887125863 0.16371251546866627535 -0.0068326709161837927836 -0.62618278859903631073 -0.0058532868913168528691 0.50789445616368222858 0.40490762283391806831 0.24807241651952977035 0.33300097563296615633 -0.093848662720006498228 -0.26794072869225499245 0.094067909759739221087 -0.26449574026075250988 0.15660921298469526741 -0.02339328288898976857 -0.53715894602502078925 -0.23492711041605643385 -0.088625676391125465803;-0.30975957527336778208 0.0290207021726079685 -0.48553115811661434753 0.30394634442458812185 0.47985505186322535698 0.35695853752604134179 -0.15705085491115594598 -0.2051619313440918857 -0.02100589101648564494 0.18348296743557451771 0.68295466551100303398 -0.064899781090260677541 0.58811747507882683461 -0.49608600782347866964 0.50498279279849711543 0.63643982936724863286 0.92458928831662257064 -0.32471040255465877244 -0.25395444571277364654 0.015534580533518888013;0.15244391228601700261 0.77079975711045967124 -0.026886213452709223359 -0.030924819242282540477 -0.24817335276121538223 -0.46402884952583284273 0.50653022783940393481 -0.27534107855896089445 -0.36020417851854513724 0.065969924400006277332 -0.014493138835749149601 -0.29063529938604631964 -0.30110998051390192032 0.024720588148938044126 -0.40560601972031362639 -0.48558099243118196808 0.51555095606056677848 -0.079694716438580517903 -0.39459139003055526684 0.21807785360530482222;0.26132452249843785008 0.05433834534978002756 0.18960953355740703397 0.17307016283078094365 -0.11285196450321541284 -0.124876097806801728 -0.30829731790247333345 -0.085580644927750942896 -0.031839870295367111996 -0.13190208337210604372 -0.2503403141910208185 0.26795489615976875175 0.16085453051360923404 -0.1558666714862728675 0.45020780887261468983 0.28784253629087280801 -0.15599093364233423964 -0.27129726782563873266 0.038633812346553622619 0.22175305973944453575;-0.60587062367161936827 0.14719638178550789598 0.063150362219177108569 -0.015130858854572524358 -0.001949191284799296417 -0.29624198653433758688 0.26262262610157105502 -0.16464495378111695945 0.3989972160955757019 0.26627231802777434622 0.59346793901096484003 -0.070699343127154937183 0.23365332987978570944 -0.22967188712850739041 -0.05354651703488590847 0.13386300309009122045 0.21840997552068056042 -0.53397291585474770947 0.025837792156956074924 -0.30731739023343113137;0.44598296011793420179 -1.2402061194184910153 0.9176602961130054803 -0.39810425134749172216 -1.2423517359347862055 -1.10729384240215456 -0.99151197670843704834 1.649133683604589784 -0.83529264274229120257 -0.40931202879469513745 -0.92420747615638232375 0.162188962406400905 -0.53275074962934265699 1.4687151362027519585 -1.0130383903598072504 -1.6500005656240772645 -0.70846486115253959337 1.1432310741456821468 -0.052671598197599561741 0.37966224856161334689;0.038495878192889750047 -0.12371732161864439081 -0.1159662072713337766 -0.48495520968490724023 0.56445522996575969721 0.13087518566174757839 -0.10454709411138650432 0.40680100237318383982 -0.041708799943267815813 -0.31310795241018130053 -0.32829542306779746497 0.4257289010118227579 0.11544946076529728762 0.28337847829888423989 -0.22725148521190449702 -0.15297367128954963977 -0.02056954242533190827 0.13730254619429790863 0.42040636497138478278 0.16540328739331916497;0.068125866289587139191 0.27440187475341254464 -0.53754386733757852923 0.46746015181589273269 0.8450724113598198084 0.47281412245651088799 0.53013745169352166631 0.29495650486263330636 0.052098861911190293139 0.5338973016339748634 0.069692319989064624441 0.52262583138825891016 -0.040310970859159613033 -0.064871425646948963073 0.33544561808717632267 -0.49519674470503499686 0.25743501596260975894 0.082634316290167222907 -0.12406783930693264517 0.093115676079553427735;-0.11885541541731443893 -0.037132489168852998718 0.057516160202208510555 -0.043172711659634356585 -0.093606349857535450787 -0.008943386157787943519 0.12331249945496541853 0.057797281695657592993 0.012259086482024086212 -0.20989520908545683531 0.031388596805940874312 0.03457953752110216189 -0.057530980368885500931 -0.16149109377479894945 0.10990791249236721294 0.0012274704425004384547 0.032375643277270951814 0.10749424810839944278 0.010950319776067869715 0.042093355009778489484;0.47730636534814341321 -0.32081047648188998345 0.14161833434006432242 0.35629603579677299185 -0.10690580330784540952 1.0537288805925042467 -0.22587727911414465232 -0.58389610155946114478 -0.42453377048298296392 0.37865811800056237146 -0.10486664096493765463 -0.0062803504171912525461 0.41139121136821599212 -0.75113452974471983659 0.7214767207331213017 0.75127709555127331065 0.031809398449522123531 -0.41461293833690310295 -0.029292063084177498433 0.12031532357163507441;-0.018578362917933292919 -0.20281586240801910415 -0.16314880665683034744 0.59208294802900607312 0.012609998901803433011 -0.14076594578723267137 0.080140748917330903445 -0.065725324047924416071 0.32638451920596184275 0.51827003172823604693 0.21333101478720009614 -0.15700152273936154868 -0.069226386795393890505 -0.0033125626294710128726 0.2948256524223623054 0.15340782489267362765 0.11126124668544108698 0.087894385444703002075 -0.51142930218605420212 0.21341139194245134503;0.56054613198039704436 -0.52569176829605379631 0.97821591649786021616 0.14410707220726343136 -0.35855483848633662447 -0.18300269579639527606 -0.8896079114054576964 0.66776599949527470912 0.12511077096842423972 0.27940873340204624986 -0.81134652308136057108 0.97983368661351177842 -0.24317121891646914511 0.30945584653830776611 0.49869826832512331727 -0.1832185643838616651 0.020332158665120940444 0.53032914007717613103 0.25454548796081305495 0.18976753530602719078;-0.21042139071081791823 0.08878377710947872592 0.073395775598586829314 -0.25665480676326196674 -0.32282937798792915585 0.1677705426189179394 0.44658922801219469445 -0.711647950286196318 0.039931290016284745614 -0.37665554228706676909 0.20152665316176368582 -0.3229846873432513088 0.02701851900471011203 -0.58230469092697501043 0.047864963938438184754 0.0032633071337254595384 0.72163481349245350849 -0.17345735864628025746 0.61534444490200268518 -0.59879586707639143039];

% Layer 4
b4 = 0.69064100187779853268;
LW4_3 = [1.1129132386550313338 0.76108230592677761361 -2.0480535536924566742 0.84866950752220060572 -1.335686227499673695 0.84464966838819577344 0.62953968013234429257 -1.1336295310397617175 1.7988183351501139118 0.71222580414777325597 0.80350769886283579524 1.407701328861779233 2.2804430592768460961 0.79986714856328366974 -0.97410269748966160641 -0.38062811139612723332 -1.0416675738877443358 0.86222700724863299282 -1.0982367422772798538 0.56058479371320035778];

% Output 1
y1_step1.ymin = -1;
y1_step1.gain = 0.273888710252586;
y1_step1.xoffset = 0;

% ===== SIMULATION ========

% Dimensions
Q = size(x1,2); % samples

% Input 1
xp1 = mapminmax_apply(x1,x1_step1);

% Layer 1
a1 = tansig_apply(repmat(b1,1,Q) + IW1_1*xp1);

% Layer 2
a2 = tansig_apply(repmat(b2,1,Q) + LW2_1*a1);

% Layer 3
a3 = tansig_apply(repmat(b3,1,Q) + LW3_2*a2);

% Layer 4
a4 = repmat(b4,1,Q) + LW4_3*a3;

% Output 1
y1 = mapminmax_reverse(a4,y1_step1);
end

% ===== MODULE FUNCTIONS ========

% Map Minimum and Maximum Input Processing Function
function y = mapminmax_apply(x,settings)
  y = bsxfun(@minus,x,settings.xoffset);
  y = bsxfun(@times,y,settings.gain);
  y = bsxfun(@plus,y,settings.ymin);
end

% Sigmoid Symmetric Transfer Function
function a = tansig_apply(n,~)
  a = 2 ./ (1 + exp(-2*n)) - 1;
end

% Map Minimum and Maximum Output Reverse-Processing Function
function x = mapminmax_reverse(y,settings)
  x = bsxfun(@minus,y,settings.ymin);
  x = bsxfun(@rdivide,x,settings.gain);
  x = bsxfun(@plus,x,settings.xoffset);
end
