function [y1] = Val2020(x1)
%VAL2020 neural network simulation function.
%
% Auto-generated by MATLAB, 24-Feb-2020 01:24:20.
% 
% [y1] = Val2020(x1) takes these arguments:
%   x = 9xQ matrix, input #1
% and returns:
%   y = 1xQ matrix, output #1
% where Q is the number of samples.

%#ok<*RPMT0>

% ===== NEURAL NETWORK CONSTANTS =====

% Input 1
x1_step1.xoffset = [-2.999466;-2.999316;-2.997951;-0.9986092;-0.9998595;-0.9999033;-0.9998944;-0.999858;-0.9996955];
x1_step1.gain = [0.333432195979441;0.333424914043057;0.333616852054771;1.00178849299655;1.00040101074516;1.00027532578342;1.00091358387368;1.00062243718705;1.0007487602224];
x1_step1.ymin = -1;

% Layer 1
b1 = [0.011367911236751428866;0.6977539502352354539;-0.0052350745565066612169;-1.0833869519784884439;0.81147519246546306881;-0.46379085580433437874;0.058238103663399633236;-0.60342364767861733643;-0.6792283752728087709;0.71656147820642213109;0.65676786893821770263;0.56178434321563897047;0.050108130340291566485;-0.51485279482320789324;0.66138135425496802355;0.31348201423745081229;0.65446685308491658883;0.68094565114057969968;-0.58964340038341467309;-0.63179749705290322304];
IW1_1 = [-2.7396300547601621922 -0.2951866155559739191 0.62120534731165344411 -0.63369843629219524406 -0.05755303689636422082 0.14681105657657844699 -0.76376688702741124537 -0.10755240416751939148 0.082184346777228425851;-0.2291164842680751268 -0.080705237174310676118 0.13124410449160608949 -0.30410565052312255041 -0.13161307493732835039 0.10669017828768666278 -0.31614153046212906117 -0.1317073279520571405 0.11197054226836167246;2.1594252404745919449 -2.3861536891258516846 1.5505915720056415719 0.44830230678823440593 -0.64261580336335988317 0.4756482985166372579 0.50766951870214027664 -0.60538274348467535635 0.58525191515762320371;0.02304097915783581349 0.094055317532942606107 0.2034187363607988519 0.029675012623256218081 0.11032841838329542072 0.27265238271955444249 0.047295529016743019513 0.11623911132540365454 0.30117356155378349758;0.093877202486009711513 0.059674844370006363548 0.16865167332422612012 0.11585501076655707609 0.06329762867177289587 0.18585841435950833933 0.079307779532495334407 -0.011256684745070848208 0.14975468302301631063;0.51694644743391460207 -0.46174349382954482657 0.31287411289045319318 0.22278332970076858421 -0.23570650602873619017 0.085673488205693315578 0.21971974701477853253 -0.25900172170068991306 0.085427529660146245272;-1.4816996042259846789 -3.1867875641385938756 -0.72341966278027147741 -0.28611741544577395935 -0.76250265553506457739 -0.36034785273652286675 -0.30255071519768589328 -0.83125315333169025322 -0.38112189278873237486;-0.17346864632594066746 0.70512926573496748084 0.28454209431866628321 -0.10549712727063595419 0.34817934732194283365 0.095587994572642595581 -0.10291945319341021248 0.32826879061648417402 0.093507045051114609513;-0.022328785284336582356 -0.0064727958156105408483 0.0071351408536172861163 0.035855069701481639965 -0.028766095128416289961 0.2157158568150294442 -0.072052169280144059971 -0.0035793861239935475735 -0.23164612708596213353;0.18735723213925567499 0.53840363574801630708 -0.35686905493436121839 0.091555345414435176932 0.3317919041434694849 -0.16508013579747987665 0.094461367637329943237 0.33023664948790215634 -0.16498480878987248355;0.011078532087471608392 -0.0089571521572605807687 -0.020119385935465763926 -0.10943572029712059224 0.13770151068747552014 0.094989975175488280956 0.12045453612813156186 -0.11566630753325517211 -0.10596405727133793861;0.11769857886712396799 -0.17164356344281986311 -0.055601625741891445853 0.2097497179012746682 -0.24026840158834664174 -0.069866337882344656252 0.22462759138875415532 -0.20119329318860962319 -0.054148468999332712015;-0.92118924435343352286 0.28784198540793559662 3.8585740790674210032 -0.03673265795236024811 0.12155366245274250303 0.94426724612667278791 -0.18014447921577403378 0.019403055939881910796 0.78549361000588335813;0.2419795027905153606 0.016389153460760426395 0.27904631858277539891 0.062388089945840011219 0.02441898584980283296 -0.13844571606046182644 0.044487755792654654075 -0.044791644015989416638 -0.16876911386099605061;0.03170167374586194825 0.021576672042148838104 0.020922319565888702203 -0.012107378902478425561 -0.16906530373654307664 0.094325388359792830539 0.064648664814399389722 0.2235452779601291573 -0.020865486707942915157;0.64939806648899334185 0.058231082630658882737 0.17926473317525767892 0.42276347791035273627 -0.067139187155366431004 0.06044776930613564303 0.40604177246876638208 -0.076897483786341702672 0.046877873419939791733;0.0099220582520770945339 0.26719482218346046754 -0.092021964812088546948 -0.0054893853012705513122 0.32348879657103624119 -0.098711509778386441472 0.0035972449704225789753 0.32701777932363224055 -0.0857385531181197591;0.02076908719561248659 0.001742957359419639073 -0.010589433469854605402 0.22769038776333389018 0.058366703279321231757 0.017732379856620787695 -0.20862942457673619434 -0.018001803870779684719 -0.01434817226226154166;0.52767518802987989357 0.2376659177416040325 0.15396397549875892596 0.28283862530535219815 0.1827153579689311802 -0.018224762208162045146 0.27400079480625277872 0.15720107594970558762 -0.037544129725022440391;0.2347129580868914378 -0.10712508291639315228 -0.74954321515515176522 0.1539080826999167928 -0.062673077245333441709 -0.37365911711725896538 0.1631302451187389424 -0.037580100517878849142 -0.36862286671126415216];

% Layer 2
b2 = [-0.4141066148513260492;0.25829630363624228595;0.24098232066093186465;-0.99163512518202401314;0.15975864697460126496;-0.8789584719069110097;-1.0981072734483963149;-0.53643917810978125615;-0.94277518259694381708;-0.82767824626098107643;2.2388339677916420101;1.4153651482017040042;0.44076516950276511952;0.80616791331517401176;0.30600984604275727197;0.34855677578354848922;-0.69178454326922544926;0.77709733119943602553;0.39471908483208345553;2.217897793973362397];
LW2_1 = [0.060320534949573373362 0.41631020992050482565 -0.039460819783388133286 -0.21187500439819531572 -0.0028329532678434991497 -0.2644956333155126238 -0.0055225492212511145124 -0.164494264072142099 0.26933506639872795141 -0.081016510688549953079 -0.14450056210067546703 0.72731813660505451047 -0.0087924644691335599594 0.74431313309652935573 -0.22723859557651496233 -0.25018751894460894425 0.46928764164417202664 -0.04830460328992848551 -0.53926784097732649581 0.50724075280492786355;-0.097792222355999686156 0.2240842298789937348 -0.0053879705517342812646 -0.062755443157703386103 0.70954846403722837689 0.42782757702650103804 -0.028006723061724161233 0.13554605994881063769 0.097341829706257224086 -0.15591800847994027879 -0.13927464020543434131 0.72860770944477470934 0.011098791419788294615 -0.18123787435441265914 -0.14122619609241413019 0.23615123924224165619 1.020134904450140878 -0.10329144482647988068 0.43697431904574307593 0.14652341778077659917;0.045444843670245170519 0.45666353532030634632 -0.019674764299472510126 -0.26703257175017058866 0.19948106124121897653 -0.34124180245457724769 0.028371076990385386829 -0.24670898759144721524 0.22605349397921936649 0.067162826011379031521 -0.25047976573295283043 0.45809944612230418803 -0.014626988966925384 0.23668523268816096805 -0.233969121859003093 -0.2941810704525288922 0.50932500019976512107 -0.22018038730620470567 -0.1843178944368155936 0.34245926265657794518;-0.40675214850902052799 -0.62967364349316001793 0.33490704632917950301 0.27401369479278359087 -0.33081311952524705688 -0.19763843472523162648 -0.33268277625806474962 -0.21312843906100092939 -0.63084717277746371611 0.31236986270779792951 0.82040624303806097828 -0.40648550422127749382 0.35951887789317760191 0.44243307904692663612 0.74816372849950207868 0.19821671802102217019 -0.59478600211570231693 0.68389428795274909145 -0.57040807303094076541 -0.42215385478527628349;-0.071255780852608335829 -0.59276593875370886533 0.029512132826617944181 0.52404079666915293068 0.50063830489312366456 -0.5476645345925753583 -0.0025223492654450558118 -0.2154758155271522535 -0.2225513773429546871 0.3389638920973181424 0.13711312403248779312 0.048487485131997742904 -0.013168640409888120527 1.0104478806493331078 0.28821455039771859408 -0.12528568888562771622 -0.081439127520815099426 0.18413632071560553927 -0.34844259432943242016 -0.2792787446502436044;-0.019996789545276706657 -1.0280824677024904545 -0.029023764942035304437 0.39317244728036310208 -0.64049324130498264118 -0.71460821325405710081 0.009650856502228870662 -1.0052544602945798768 -0.7769098787823849328 1.1556872855415385448 0.87679890290620710047 -1.1043967815637230068 0.030782355331996826692 0.92468485126115684825 0.87518383813858346976 0.45247005146175472978 -1.6593765033708851586 0.75466862055673822329 -0.82240526729827367891 -0.86341262401428520157;0.38150007442341199448 -0.16677465091988982748 -0.26073862484931131789 -0.078605886788449569336 -0.2806510780991520182 -0.52985709044932360889 -0.27898096497821339712 -0.44956757464324687001 -0.50801531837932967228 -0.0046549937891509508142 0.55137717357343996039 -0.62743596193364703506 0.22867944347277213701 0.240743976261150322 0.55093296018037174466 0.34865309502737512615 -0.27975296501055185727 0.45001904641401418994 -0.037521685877892889394 -0.37050440107914150989;-0.40577581264444190223 -0.70260286355598966512 -0.3331094533228814436 0.45893092218548670047 0.19554629339365930951 -0.41281848458262859758 -0.3293699032335989374 -0.33379470820173734458 -0.5665436099301209838 0.59980030111957594041 0.55934901159209238219 -0.46263506045915309128 -0.32822421137690949156 0.68051124011996566576 0.63435630082643423844 -0.034416533191540921166 -0.96677942572114494713 0.50579872909606882203 -0.49032100232812675378 -0.15568250069473446584;-0.48951625541974236322 -0.54113815403308407337 -0.44191646388786920419 0.15432676688579335944 -0.21615446553113676353 -0.16385233942362958937 0.43733653970552588408 -0.2030955607340576563 -0.57876401837634505743 0.25591691596772880857 0.69591535449128005819 -0.3088014095435476225 0.46322781621684827602 0.35930616875097032281 0.66838229207738386606 0.10631428851943922065 -0.49400941604200204749 0.60136078701141482128 -0.50136712190780985399 -0.20306782770622200385;0.37162723427647909036 -0.53024855294260353489 0.34946260969866910218 0.2536723912759512034 -0.33870260781862521204 -0.17205284754755723053 0.32720051783226178355 -0.4091791656145618572 -0.52776354794009916471 0.32850452837466426192 0.66669998124697293918 -0.39623113201518367354 0.3504345400048815562 0.43687532448514670991 0.64242462051621329611 0.093144082328273716809 -0.56858260998546439335 0.57023531218212841765 -0.50471989128030958494 -0.39719475271063992006;-0.082953897096486192697 0.22673950479627255628 0.018620473899731083273 0.42550979070675926108 0.17892103010261861673 0.60983393647241235236 -0.04149109144164887103 0.60833656398025792722 0.39126036002567826655 -0.66831324111676082556 -0.44769458792348065801 0.42828252898827767758 0.017591673283891322288 -0.39666109115171671595 -0.45983640225843536165 -0.0040024189947395084205 0.64015881790264705931 -0.35946483271931567449 0.63668998151377587114 0.555030835173759729;0.041718772986189943397 0.75756137916018440048 -0.024155736329498384007 0.011497891492392890017 -0.13678419251301482396 0.52208574775277716284 0.025654486060067864528 0.091223693144899503649 0.26216391824114138043 -0.53161087737078127624 -0.23593597570068114422 0.16222286532568747086 0.0092598335737109696564 -0.66996763845832774109 -0.31310110256391149308 0.54319496395863153815 0.14570140758649588464 -0.2934931239571355599 -0.076877947799995113853 0.045171137553885451488;0.42031109700535279616 0.6077758024099036982 -0.34597321707968980986 -0.41930140079777156181 -0.078966343555367399243 0.30136619987651769303 -0.34370873104974108969 0.48614320811639438746 0.44479991249120665042 -0.42300213116556711901 -0.46158746424544144782 0.35800360999992369981 0.3393041098782527687 -0.62303706619183973903 -0.52623630382340558231 0.058869179630813735227 0.74399416498804593623 -0.41929582953776473042 0.43567548628634517049 0.21737176220197743093;0.052731380160095819853 0.83838292982758100269 -0.034399659152581210653 -0.45780304620167994178 0.71506609937732934501 -0.17645628349508216126 -0.0056824550529557572853 0.50392050088457773782 0.26545366034127398924 -0.47525615244126578895 -0.36508356371854128186 0.10629683750749779891 -0.021106635031751131565 -0.24838635492217225886 -0.27528787259735620907 -0.42534470084735825912 0.82418738835715976698 -0.38170829404515521643 0.49251939603376759802 -0.072222064393621013267;-0.0018520567800858315794 -0.84246605268464691552 0.018422217416918459237 0.71195927288185989479 -0.27481466823301181623 0.30737558266365594406 0.011029255790802933515 -0.90263040475881828328 -0.34119442567731977922 0.52413439008349249626 0.44692887040754281092 -0.28710005314221653805 0.011437061445484120181 0.29775791915105070951 0.40805923222592471733 -0.30337674182631146902 -0.054275592010857964809 0.44090609141419945249 -0.47044369289257892408 -0.026001492583561023469;-0.41638733459173843388 0.85612866760852057713 -0.4437206332853713131 -0.6770636604145782167 -0.089215956447630764825 0.42956353281465936567 0.43722399845881415592 0.5472486505241050958 0.5661851922062706155 -0.71159755753787756749 -0.5872844015687938013 0.58045720377001353008 0.4220999307269318046 -0.87351059995720825579 -0.67400541609032604828 0.083223836054890421021 1.1465510022294236325 -0.52776599842673443952 0.66537643172149729676 0.35594414022942588716;0.3698937933720585769 -0.76117926339163533012 -0.3694613520039474186 0.43388916886392669969 -0.1915268765409972318 -0.074846707974804915775 -0.38241142003598016519 -0.060887273617187230579 -0.61544911846628247432 0.6103030225180310353 0.77090110032632797044 -0.32341727587644114594 0.42008911282269523202 0.53336230579408838715 0.73118393319956775933 -0.01960615136045781165 -0.8475084672649756401 0.67158301479056914385 -0.80084287952790755849 -0.25241299979931369757;-0.12787465635223252414 -0.41208380458082494169 0.066588097207181520809 0.42959392465253798399 0.25276855668654946152 0.3191098101987724367 -0.056510680197313846451 -0.047725220372137604208 -0.0016701516243504419337 0.34654559646501942316 -0.087484948159386372035 -0.26847493696374336025 0.026378523148255082764 0.057261750003567993272 -0.035239115428977819955 0.17829717252558632823 -0.12538534656941205392 -0.054859616950230560839 0.076391679513980639826 -0.12313803712360209264;-0.34571354509379037534 0.63519009642351353939 0.30604246193595613379 -0.38096444776229565488 -0.13648044352725979822 0.40615317029067471433 -0.31153873381754315641 0.49850030306791626167 0.46719428031839677073 -0.52094255609328998791 -0.42626461875025489778 0.44220951760820098597 0.32372930070187883045 -0.65649988972398665155 -0.5356848607676950591 0.13330545502200480401 0.89121241791345051642 -0.40423574903529763125 0.47935824460945758441 0.14274324902659871195;0.056931403458954886465 0.33448611791513477298 -0.018747429345663264855 0.34726572415585682529 0.11657288901757315025 0.037240843290905628615 0.014503121462360199501 0.48863486458769400667 0.47894475351680837472 -0.59090622041724050195 -0.54037215116798820169 0.46622663120706098194 -0.020340590977898972275 -0.12961072447843463573 -0.51929582473860003144 -0.58125556728894056668 0.36703650508372842598 -0.49460307652848833904 0.12828750876065980746 0.58118498233528692598];

% Layer 3
b3 = 1.7241320757249682938;
LW3_2 = [-0.6078552748583432308 -2.073840568492865355 -1.8345603750901577911 -2.4213481772596070485 1.3126673249681350963 3.5058084887175486877 -1.2208337407896729943 -2.5363633323083889515 1.8743924338372335292 -2.4999740453808874108 2.7750096533184893666 -1.4493599583756497928 2.6175588149188158127 -1.6845426143907347161 0.91024915957210816853 -2.0448016531920325534 -1.5872903570599155021 -1.4759087170197291439 2.664291782059826641 2.9910531995674509709];

% Output 1
y1_step1.ymin = -1;
y1_step1.gain = 0.208146846767807;
y1_step1.xoffset = 2.226429;

% ===== SIMULATION ========

% Dimensions
Q = size(x1,2); % samples

% Input 1
xp1 = mapminmax_apply(x1,x1_step1);

% Layer 1
a1 = tansig_apply(repmat(b1,1,Q) + IW1_1*xp1);

% Layer 2
a2 = tansig_apply(repmat(b2,1,Q) + LW2_1*a1);

% Layer 3
a3 = repmat(b3,1,Q) + LW3_2*a2;

% Output 1
y1 = mapminmax_reverse(a3,y1_step1);
end

% ===== MODULE FUNCTIONS ========

% Map Minimum and Maximum Input Processing Function
function y = mapminmax_apply(x,settings)
  y = bsxfun(@minus,x,settings.xoffset);
  y = bsxfun(@times,y,settings.gain);
  y = bsxfun(@plus,y,settings.ymin);
end

% Sigmoid Symmetric Transfer Function
function a = tansig_apply(n,~)
  a = 2 ./ (1 + exp(-2*n)) - 1;
end

% Map Minimum and Maximum Output Reverse-Processing Function
function x = mapminmax_reverse(y,settings)
  x = bsxfun(@minus,y,settings.ymin);
  x = bsxfun(@rdivide,x,settings.gain);
  x = bsxfun(@plus,x,settings.xoffset);
end
