function [y1] = Val2030(x1)
%VAL2030 neural network simulation function.
%
% Auto-generated by MATLAB, 24-Feb-2020 01:09:18.
% 
% [y1] = Val2030(x1) takes these arguments:
%   x = 9xQ matrix, input #1
% and returns:
%   y = 1xQ matrix, output #1
% where Q is the number of samples.

%#ok<*RPMT0>

% ===== NEURAL NETWORK CONSTANTS =====

% Input 1
x1_step1.xoffset = [-2.999466;-2.999316;-2.997951;-0.9986092;-0.9998595;-0.9999033;-0.9998944;-0.999858;-0.9996955];
x1_step1.gain = [0.333432195979441;0.333424914043057;0.333616852054771;1.00178849299655;1.00040101074516;1.00027532578342;1.00091358387368;1.00062243718705;1.0007487602224];
x1_step1.ymin = -1;

% Layer 1
b1 = [0.46364465692119954943;0.30920967456703907228;-0.76635698344617086963;0.69359116267420239943;-0.9085716402612843412;-0.38259676056968228153;0.30444746672256883802;0.47997148613228907132;-0.26695796781082054006;-0.52547606366266907951;0.0056875702483800945689;0.81433978232368720018;-0.18197303212320842247;0.67798194265958700022;0.25917771565942893108;-0.62518881355553468371;-0.83817473103253459232;-0.68510494970273128068;-0.67026219356002425531;0.0012022703883922396684];
IW1_1 = [-0.010508197742881997608 0.077717443665371407913 0.36466351990368417457 0.0020197021778511638733 0.034507936675300755758 0.24979579284604863654 -0.00082064716361436823404 0.039680573713178228512 0.24850490871071223564;-0.0038234810862664662945 -1.0508817817425228913 -0.17419176266413835541 0.0042105236760146633884 -0.37453171782338978701 -0.096842799701717177663 -0.0038499355834232988974 -0.40487392044059000717 -0.11385144171880870467;0.08213697631083563544 0.26641287742011959816 0.016306993381778208535 0.063252410428424693523 0.23610331027183278918 -0.0026840109729510059147 0.095031392212128293351 0.24878844263024457728 -0.00086137698915772324681;0.0087219059509181118967 0.090501712139645820732 -0.015545182106829796148 0.15164203392901884349 0.3057140565024041301 0.0025369531854810855633 -0.12295326003945365734 -0.076143272238800630003 -0.011931865882828414371;0.13610615687778521155 -0.032391386467135192817 0.0092523508340314839643 0.28520252514833593915 -0.060825096353532448479 0.092556775317784042989 0.28651948465885856976 -0.072850529660149501709 0.10252390720716968164;0.51838427448796464692 0.68992311918440230034 -0.29696349805688954104 0.1283466194060741139 0.22298403082462470159 -0.12575745735216853349 0.12374978446885807892 0.22754064725048839257 -0.12291838789760252404;-1.924432753995275247 2.8751523023711365035 -0.41200608323541620948 -0.45759694456794464124 0.62726003786341999469 -0.15479827199003040605 -0.49861156313902843529 0.57920320997985264011 -0.20037292190513730783;0.23067163994395509241 -0.021067685159959537861 -0.26060267696329098008 0.17523847578171630746 -0.049108804000473897655 -0.15641710401278177689 0.16954571312573737951 -0.04891182172233951575 -0.16985896130513702951;0.95244393706305352509 2.395358601442167501 2.4263163262237155138 0.20295048098462625807 0.52039072355758075883 0.6803426666562852887 0.2153270854983270477 0.53282747699072519065 0.69869822098166478597;0.038147565013373727072 0.1153392898967497554 0.0084719342686234953843 -0.036917723397545648689 0.060460895734442687832 -0.26546796030067232319 -0.053279045892712900701 0.052657111562560164619 -0.27646569240770418885;-4.0717972381512046454 -0.69725342923524513683 -0.30247586668517939534 -0.7124181318222164716 -0.2266859903682035271 -0.22226601529539577462 -1.0470962236990062344 -0.22489110268181453089 -0.30187860816547967824;-0.032523825505948039671 -0.18590283496368897875 0.096955351890256696867 0.075830745598268023411 0.32332740129792059136 0.0079362998365291818198 0.076071024883440627185 0.28940313800476774597 -0.023976365099055770014;0.062717948841716844588 1.5586777011588626163 -2.9627190809200878441 -0.016568583592694710593 0.36268050063727896859 -0.65127642167435273457 -0.04981688448895089244 0.32998870432904470196 -0.71290258541349338373;0.0060030390392129913055 0.043096100342961130014 -0.044051230621598526371 -0.027140191580291930101 0.014992007212743857156 -0.25594867828645639918 0.050608229613579171213 0.11770220881745942221 0.20551455832489273767;-2.0877076850564586508 -0.84732154145486249242 2.1327024494416400024 -0.4589859641391595968 -0.23174862513588684321 0.54445903705766651726 -0.49905426404908276306 -0.25653346439432800352 0.40317123951416500294;0.45750729752002960993 -0.26290268970298191764 0.15500136941410808111 0.27381140504027451366 -0.15792011767826880098 0.10203432403058314282 0.27506239506287805119 -0.15509955299346891988 0.11332220549954390154;0.0010235643604557696437 0.087069718637385384863 -0.089996022101399564264 -0.17372786688433861091 0.097672152734476685998 0.15627686258223461024 -0.18896513875718309872 0.099257572817253378328 0.19432372320704496826;0.017769393070469974988 -0.014657571795461716777 0.016163018325684768567 0.22343695627083701161 -0.11978912596488976161 -0.082512819775394999344 -0.21307660286973323371 0.0055392030070805968814 0.089956059105974831014;0.0075278129863835295879 -0.064349604705846052966 0.025056661348943708167 -0.078881202018964355349 0.068502158208038663179 -0.085513191498591725748 0.06382341800937169074 -0.24967915568884513355 0.10649666272663700639;0.87477882397876083331 0.083764238833701765152 0.43814985464589478736 0.38169749196230451371 0.022406274474887990372 0.10061943733655365207 0.36392203046401061517 0.013261178655540007895 0.094716134008566973956];

% Layer 2
b2 = [-0.79316378333697679093;0.47445818226658281747;0.40852813260099457571;0.43814826347778579319;-0.29597015237939772181;0.72314674353298957765;0.6525971769597777028;-0.29952569507646187308;0.67168306514852338385;-0.98076368085284648668;0.80262977316272832162;-0.91016954674348937715;0.00063868999400852827578;0.55036382050805998656;0.67241903738173369742;0.85537992897303571915;0.30126116550580289699;-0.8659170075089833718;-0.21946818839809811852;0.63362079067912124852;0.89878351556718238946;0.14748520578641213796;0.39232844034438901781;0.51147429840678138024;-0.097012560446375531442;-0.32255402347978590072;-0.050449191582278000989;0.51655664704030734846;0.44738224614473032226;0.22732063596441040576];
LW2_1 = [-0.68364320642340759004 0.16751061016567783679 -0.55499478264979429376 0.22882113612058380125 0.23555583597509671678 -0.078362559623464778102 -0.30275185109012925366 0.80310699283827302608 -0.26087593213776333334 -0.16875264605770057269 -0.034996944742757829516 -0.11186987207161090685 0.38194287141471033875 0.30612467366269385805 -0.11838558611198821136 -0.35437340166891928561 0.44687173022396198263 -0.31147533520789860706 -0.37177832433018309644 0.017786969905283001037;-0.81320890453318539492 0.24945882959276666213 0.079513260259157697574 -0.28805413327715162497 0.064856192708756241205 0.41260285498953092054 -0.29242885806451046626 -0.1563448826386772128 -0.22958898654552795104 -0.63324261289916050632 -0.28320180286622509414 0.23697838460926806681 0.27328111037998470412 -0.2867969439129621767 -0.14605432445935653818 -0.29429229724338662466 -0.19159943876880597413 0.26266768482379060368 0.37570355003057298582 0.55788990992816434034;0.18157878515641706629 -0.36073376701480197593 0.32014743034436593527 -0.41600826434923682262 -0.65842535089067422138 0.1658869590623625323 0.24258484108535174895 -0.28292383674222887358 0.23557916264608369517 -0.091243547906083577459 0.27145029725595276604 0.33735178118854181051 0.41914990473962027151 -0.40438319577734882504 -0.11822345224595424973 0.2485141365752613074 -0.69407204688509782642 0.45077743816166482294 0.58274631050758296524 -0.54861797456847094523;-0.39745081829376455174 -0.61077929376571549192 -0.15875639382810735611 -0.23684366834791970025 0.1398575714983753826 -0.069564377115317238554 0.074529170846965073216 -0.51672541883691058828 0.070908304274399536204 -0.10775762078370915154 0.11076661102059071062 -0.058746750726374100116 0.11549377474051238102 -0.16020973560298706895 0.0510918670397421254 -0.19133182086116079512 -0.34366314254958446606 0.24314794943199144472 0.276578783309186782 0.27984024076951952154;-0.24091108423835044805 -0.36570724293847534092 -0.29735358265415412493 -0.41251871988251892498 -0.23347481214168364083 -0.59565566335493991268 0.098271874771368603052 -0.26375398747128026011 0.01627988487037737575 -0.015636071328116993295 -0.11480110297978599054 0.31777355187726469277 -0.035158193547042748683 -0.28064597865485990669 -0.23790085677447317392 0.45278601764777792749 -0.5720738316791807998 0.3661924002010980006 0.49005615589887285832 -0.022297784985693118454;-0.40466144855755487031 -0.22208779050130600385 0.52729830869224669776 -0.17050068272388063662 0.034842354628641089564 0.44517047612510524113 0.15056143056408663461 0.56928569157861597105 -0.087430397903697137929 0.086080961259481753034 0.079794605500774426488 0.012602757681776977777 0.065915477186491558403 -0.16796146825194802066 -0.10403361208811305605 0.02654383587869657557 0.16250103923874248402 0.16720579299959889563 0.24719104788572590636 -0.62817702332713065694;-0.81510672283478369238 -0.080962743694488928381 0.10884118478998960899 -0.39233045984636844006 -0.91114129069972349395 0.45260123220218795304 -2.7611110375560556085e-05 -0.5957067205893404882 0.0025069396950266210206 -0.46245958218330751599 0.028808467636088044145 0.48493490490422763717 0.02257434387246856286 -0.3808232271998953089 -0.013902361018156811356 1.1861568855466133598 -0.05417306783634073114 0.39850513819844107788 0.53357235162551031049 0.013192277628858559493;0.18857716458022494299 -0.065403367238284937368 -0.10246875234138151656 0.41930312528408114625 0.43537625018349096484 -0.15923719000365021969 0.27246190481824028584 1.1613259195920566658 -0.34332312436098716413 0.50128392240813757219 0.28772519110819028132 -0.44926629003905088622 0.22633404857622838047 0.40134979481505861365 -0.03885111079755486363 -0.32819842228034762366 1.1126747268098124977 -0.45811898318770816196 -0.53179898317238705197 -0.1669933724742063974;0.067496447960819133671 0.033772210579836453581 0.32370161672782538087 0.20029605967141500544 0.11183378516980624351 0.034151082475012209394 -0.012643724995506217673 0.37464331894037700144 0.19695489216082709416 0.3044589349488721064 0.16446115069254971242 -0.33629095939481229438 -0.22053346697496986617 0.2031129280634266232 0.039925998560146183647 0.27462007300158275402 0.59910106647832572779 -0.21884563769870352123 -0.26909603772710688485 0.36540645664592613651;0.73404900607264988999 -0.28117354701258040484 -0.26436629700322339387 0.43086755095316614517 0.0022356500739905528843 -0.081531690399966216809 0.23050968004610494777 0.26520536239105818588 0.12331684160013048346 0.56753237970036851667 0.20733064254070773802 -0.19791952574746127236 0.28295513496693253108 0.37132328452939517005 -0.062876893256285232292 -0.0046360719530558472043 0.19556332725237884906 -0.42876073049139939997 -0.49852201994747008529 -0.38343384641202565843;-0.54370607716380869867 0.089892589782326517978 0.18642687306968297456 -0.51596847302745019181 -0.45506699161408697973 0.14142041023709658876 0.13458204556123909423 -0.28756722408477564112 -0.31865981387688324666 -0.33905712932653320202 0.27802402166733292121 0.45845435133016276819 0.38827554458441349006 -0.49564077764235098256 -0.0089368658179051398832 0.17093037243048514462 -0.4375108125260487868 0.5421207559722771574 0.67842776779328295422 -0.39776510801097292314;0.77481670536136060257 0.21798881138668710356 -0.0949252446934626265 -0.086398194950110931978 -0.017902152195570161797 0.19314606804827583186 -0.049391757288319126928 -0.8988566447034103124 -0.0056337642461038268601 0.27585841585706882828 -0.08223275126072619734 0.13286063220662672202 -0.013108131667557509567 -0.06861461622014546069 0.025934947278605256782 -0.50802413761329501263 -0.68285950056979993761 0.059027988095380387601 0.10381146763982117276 0.34198938564134778728;0.60440097583032970086 -0.21414373867870106771 0.15286860108286784432 0.13230804483445496311 0.50888814560303285983 -0.14010967806511218092 0.052469698370683166833 -0.72855239408916594446 0.055956951030179391537 0.44647335939893728618 -0.03889959308174850694 -0.11632347291108936782 -0.084511875840015113215 0.17014877385819640598 0.064786838750000172449 0.12114035788441700203 0.21448970780991125085 -0.20715689854600238817 -0.21546243306467310896 0.60081703156276144995;-0.51639701124676240518 -0.36669078947334410312 0.34357801620834915735 -0.36351735505557181138 -0.30234755017796394183 0.04370613121457154332 0.28953543862032382616 -0.67030183646415641974 0.32876454626056256236 -0.43418688193099225225 -0.32920793904003420316 0.43860476698866623924 0.34533604856979899234 -0.38629586647691110946 -0.23773560613328392765 0.11512832093228798913 -0.84854161294364960355 0.43174849732483749909 0.49242690132959315852 0.18087875875460965314;0.061190754186939935733 -0.47214477656145648066 0.22727877313266514614 -0.47392033184387094558 -0.66823883710166431804 -0.22702661636334015016 0.27716571050510691032 -0.63199261843566134633 0.28678409027665141551 -0.05716771219713416563 0.3001301637953757151 0.38794350910191333082 -0.27582499019577050303 -0.41938324570380786094 0.084901009247607225894 0.63393707844345459357 -0.76483818431625227863 0.5260694860098118486 0.58626883002081464635 -0.70508123167123404329;-0.86073992131536469774 0.10729584799767591385 0.45349378154673808394 -0.60210753327658295131 -0.7958855559325784812 0.38942057799123869222 -0.3255948364317051702 -0.90776489446919372828 0.39320233154708211787 -0.86646919297558455675 0.25678026772800599531 0.56200889721107472052 0.25301848107877811245 -0.60027900263125877345 -0.0079518922129202564142 0.57426607388423289713 -1.1519269867617420999 0.69772944845377660172 0.8240246807664165507 -0.37113706519839956277;-0.3238034166846807671 -0.44561046435835771629 0.13259373267473550939 -0.19605941278491539892 0.25659749421479349785 -0.012511413312475093418 -0.31610422961660944452 -0.20819567588502349564 0.23298708972805229345 -0.29102398903421816678 0.28841027071621949673 0.21162604657414638143 0.080181268063460153783 -0.23849737177920990461 -0.25255555971337462218 -0.2946111282192249714 -0.28266724383407493271 0.23598150628430680786 0.25799841616873225858 -0.19124137821153702754;0.30105024072674846369 -0.20276826508589140818 -0.16332665081187802691 0.60887448988058856525 0.5278890254941195348 -0.35049428722465392205 0.30500480648077471502 0.36034895919446274792 0.21736978126353925789 0.42405745366435781962 -0.2917842494343692028 -0.38710986733424151973 0.24513201196728082176 0.53248118283154710628 -0.19311984497168940833 -0.33272256945104333736 0.53028199403454145955 -0.60724169190286259035 -0.77333315394085044847 0.41603586797044173062;0.1924230069602045623 -0.31341262190770324825 -0.45858790430353124634 -0.22112832527880932343 -0.52876303284440928643 -0.14573516583871157226 0.0049477196250487364554 -0.49629591326813521368 -0.0064822653596000884973 -0.48494729270548753153 0.073933208802485453348 -0.088347933105093645612 -0.023658296608224670815 -0.14240250176224431011 0.02370453422551301037 0.54955997311122672944 0.06365112901240602139 0.19729065162285502888 0.24811224375493221017 -0.15650141449137738858;-1.0026249133726647944 0.10013354610193138383 0.07753180214121152547 -0.45000647969863027953 -0.36996161001652400069 0.18734794017080974582 -0.3536051134685737618 -0.19668881653493880401 -0.32151084019030418126 -0.59144495096402349699 -0.24383712016028352698 0.33980890210960817965 0.43520467118483208147 -0.37724540687472152278 -0.15478702223675108729 0.086364707531449994016 -0.53249861461156156039 0.43344513282343521965 0.55695966370132099499 -0.28714757935505486053;-0.54354287665846823252 -0.214863369401909865 0.5067763789909014438 -0.14242922907403757216 0.09451685394964093323 0.28026646691897133534 0.022753872192886562265 0.092111949346368987568 -0.019996816608020995254 -0.028499663852478526738 0.0033893135716943356694 0.17830806519363406881 0.0062942401804806430085 -0.13997011994765329312 -0.068539997471538161022 0.26072078511157364966 0.24312409741356696968 0.09912702884503181433 0.1782145029485842358 0.29355651128320736643;-0.11157096052756515503 0.029919287928379445507 0.24533308468710945949 -0.011857085575100324848 -0.054840572260004112615 -0.24491295045696570565 -0.20885846924531012436 0.28042463684887031228 -0.50133067383651264137 0.051214452544625047037 -0.40249940034804404521 -0.04327414016654943657 0.22529111165694018504 0.012061675105993815288 -0.27205735908629163911 -0.019449114086415583008 0.14763058941019566173 -0.010640381382053500786 0.022191066797868141958 -0.31475623232190258483;-0.36369284241150928727 -0.023826815110053193442 -0.37637327628662647916 0.15449642032306143413 0.46864922447744111755 -0.38420210432411960877 0.025952407733698182324 -0.5023410315829848205 -0.021073707013744478328 0.63578735658663543262 -0.06613490186878746846 -0.30835392554827623091 -0.016396769377142055707 0.14067447981133335277 -0.038343346820080795312 0.51496803106794963867 0.44382461541518225534 -0.18372858533099215017 -0.24493600081310692995 -0.33747055114179180801;-0.77894871111710228817 -0.42083258775456788836 0.089091851449707132327 -0.048055608148176699734 0.38234655214299234638 0.38222119766373974237 -0.01231084617405407873 -0.69113239237834367401 0.1638791037620595803 -0.24177510501515309116 0.053683782214548635137 0.13834580901496185135 0.043975918851030353085 0.060685345017383707233 0.087745015560976677427 -0.13828479350182507068 -0.067398006825083678351 0.0037765023493509467661 -0.021187736219794923997 -0.4226158398227236046;-0.52085196936533195711 -0.46355637626068890711 -0.070528108928779281728 -0.4011558760405115609 -0.60097353370055395239 0.33548404688269012341 0.026708297820904180336 0.1150556303985341422 -0.2964191363682841529 -0.65550889184192617787 0.099125986397713444775 0.49287093503648554682 -0.27086832509037811478 -0.27895425140264051844 0.10117628572268097531 0.36930960214480013093 -0.53637750191394073518 0.39308231509504587553 0.48400989802507793369 -0.12703243758533711016;-0.029601804066866167775 0.55378651421970503943 -0.13372395355156890817 0.29252278143500498597 0.0073595810686758293684 -0.037659461684600041564 0.17509634329512285822 -0.07808916017275918664 -0.37091040758345589223 0.29747794611290501177 0.31509197511503295175 -0.021159801844973444296 0.37484895069974938364 0.22078630392960740814 0.082218898206852200627 0.1510646226962823746 0.3283061994317262311 -0.26112490322481685112 -0.34042916975955006542 -0.49849304447112435801;-0.038460751882733755502 0.012949620734888105458 0.22572612496940649973 0.40382585590237440876 0.40461103170932888329 -0.25644582500932211477 -0.26900336118571815947 0.48015836912738663056 0.31030893507987777902 0.1767544188131939531 0.35379155296277509102 -0.39626457479724991328 0.17001619774855752931 0.33445106234605270767 -0.089465284196756214574 -0.10671320899338074262 0.75315299068385666015 -0.35878297012175147662 -0.49129574832276556862 -0.042699388296459937775;-0.31641644180365008365 -0.37030635229073444181 0.16271053548668948374 0.14034300915056591164 0.0094630462177832646437 -0.42434773748386733772 0.11448487228409648386 -0.935580582440473707 -0.095399665749796941361 0.46874453027294460394 0.065102428164470191319 -0.34550170592956047644 0.078608197302044713339 -0.037937843604232482364 0.13789678011462241924 -0.1545970514201051027 -0.19656732801212453698 -0.006774456406059311056 -0.012694436083071330978 -0.017773984392649266884;0.26338364839618205737 0.053752810319890965973 -0.32750534123589608582 -0.16357473801481492437 -0.10421271065526058197 -0.24265532339057457878 -0.032107967879197285566 -0.58814750014361616426 -0.28165790795009532088 0.38846659696438207154 -0.013226360147857529545 0.085058816774713802422 -0.036154693409733082432 -0.27078067385184007021 -0.054598549686567195149 0.27012437570651448571 -0.23800437247676639596 0.15619338633875159972 0.27519785854501471745 0.59420741732541182412;-0.19993546051114993722 0.073313980268241485394 -0.56026880615755381143 -0.1481027995506887518 -0.16451507222481570603 0.054759385744108761418 0.069828134534038910353 0.014274649897758361072 0.49161274728285203617 -0.024812561173440342288 0.0010177411105851740056 0.011410225244455852664 0.10864177823347540008 -0.24986595120348722987 0.028527485627933835133 0.012492730169747801386 0.04507899027705862538 0.12604859606352608603 0.27410256955133260881 0.020892383350820574461];

% Layer 3
b3 = 0.22294185827548687606;
LW3_2 = [-1.2076376168175095849 1.6004333652379045816 1.228876977902917389 -1.2526033579742867907 -0.70021653869852562568 0.80683442782675829363 -1.6039340782197943902 -1.3295584961871658169 1.1656054227374452736 -1.7274200848947625087 1.9722697633958288232 -1.8026015882904811161 1.0517958434862051398 1.6301086720504247563 1.583733331476796069 -1.575651200847098643 -0.83959771302032248919 -2.2753749426742211348 0.73009655124962091755 1.6663895577752843025 1.8451224304049356206 -0.68832976862977357513 1.6273243205044347626 1.2792448270662208909 -1.5449347829952324584 -0.67816901167839183096 1.3549960742842634964 0.7927475663160336028 1.0802355628719420011 -0.39505224581799719408];

% Output 1
y1_step1.ymin = -1;
y1_step1.gain = 0.208146846767807;
y1_step1.xoffset = 2.226429;

% ===== SIMULATION ========

% Dimensions
Q = size(x1,2); % samples

% Input 1
xp1 = mapminmax_apply(x1,x1_step1);

% Layer 1
a1 = tansig_apply(repmat(b1,1,Q) + IW1_1*xp1);

% Layer 2
a2 = tansig_apply(repmat(b2,1,Q) + LW2_1*a1);

% Layer 3
a3 = repmat(b3,1,Q) + LW3_2*a2;

% Output 1
y1 = mapminmax_reverse(a3,y1_step1);
end

% ===== MODULE FUNCTIONS ========

% Map Minimum and Maximum Input Processing Function
function y = mapminmax_apply(x,settings)
  y = bsxfun(@minus,x,settings.xoffset);
  y = bsxfun(@times,y,settings.gain);
  y = bsxfun(@plus,y,settings.ymin);
end

% Sigmoid Symmetric Transfer Function
function a = tansig_apply(n,~)
  a = 2 ./ (1 + exp(-2*n)) - 1;
end

% Map Minimum and Maximum Output Reverse-Processing Function
function x = mapminmax_reverse(y,settings)
  x = bsxfun(@minus,y,settings.ymin);
  x = bsxfun(@rdivide,x,settings.gain);
  x = bsxfun(@plus,x,settings.xoffset);
end
