function [y1] = Val50(x1)
%VAL50 neural network simulation function.
%
% Auto-generated by MATLAB, 24-Feb-2020 00:58:12.
% 
% [y1] = Val50(x1) takes these arguments:
%   x = 9xQ matrix, input #1
% and returns:
%   y = 1xQ matrix, output #1
% where Q is the number of samples.

%#ok<*RPMT0>

% ===== NEURAL NETWORK CONSTANTS =====

% Input 1
x1_step1.xoffset = [-2.999466;-2.999316;-2.997951;-0.9986092;-0.9998595;-0.9999033;-0.9998944;-0.999858;-0.9996955];
x1_step1.gain = [0.333432195979441;0.333424914043057;0.333616852054771;1.00178849299655;1.00040101074516;1.00027532578342;1.00091358387368;1.00062243718705;1.0007487602224];
x1_step1.ymin = -1;

% Layer 1
b1 = [0.31735177120114882454;-0.74013323861604873866;-0.68918988954973159355;0.55707247438596974032;0.5934945432752515293;0.49850198946194440586;0.54425507425000951844;-0.51911760445817078935;0.7522883425881025099;-0.69734438121646324937;0.54775001374486209649;0.46115311929915808742;1.3651895045951802921;-0.25823062730729451353;0.55790346062571727348;0.86081841850739382327;-0.76531600863853599392;-0.67314153815515809232;-1.0923400356572223746;0.06756829633614377939;1.5357520212258963799;-0.60648553594851650761;-1.7704490425863581571;-0.81801224322792243093;-0.58171162469910997483;-0.72005293857233099164;-0.6359619506916329712;-0.68750090299850763476;-0.58063802310976264653;0.60627667813906738203;-0.84380789268916511769;-0.48983143724247857342;0.65830746773956094753;-1.6182026718414406208;-0.46746701831389592119;-0.669412925687602689;0.94565651376682802187;-0.71804815716367864642;0.76178927691958975288;0.6430238697814272264;0.48889161825233873326;-0.92306855429514422795;-0.43768929241368714766;-0.62913789305701450782;0.28814948843494569974;-0.61537320038482690165;0.41382070570803197729;-0.50477712853217804323;-0.60485585757707738264;0.51226406624188636219;-0.59299151955774676015;-1.0906739575997066449;0.51253530725792462164;0.69076743294585085664;0.66357686655401970643;0.1462082690298544263;0.45306280911991858584;0.49212627846580703217;0.49452881288210293054;0.93203273836711741929];
IW1_1 = [0.60768968328756878261 0.24735397104771408849 0.21000776537991761028 0.38425160877190456254 -0.017313576266896488209 -0.0099006492413344776571 0.25972720706889146358 0.053675218781221965825 -0.076862091099283033624;0.53512706324571568395 0.28598515851751388217 -0.64362504841411716239 0.35514720171560432149 0.13832206329077631479 -0.16908316375426649114 0.12441687340638145354 -0.024237963722373589287 -0.42028130358875803729;-0.23527875378177023902 0.68085119947053196476 -0.765683570930677182 0.10702283599917529477 0.1055355831711014547 -0.21422680988958267556 0.089661965860780637461 0.10138207189085364501 -0.26675450555577373546;-1.5646965143935886999 0.44327056444181961448 -0.80212783803806231298 -0.42930063007197621916 0.16920735439661577226 -0.28601122863388434014 -0.49456115084033763774 0.11066144587703151403 -0.3702928004318005728;-0.71248978405574925343 -1.4143587459050501742 1.2922496441062474304 -0.073450965364849379879 -0.3745687450386736006 0.26400433201448469944 -0.12336074693297764682 -0.52642488633225559269 0.19384419529448393416;0.11255341311042649233 1.8921771711630270829 -0.020969876498576102419 0.055469493802826168316 0.62615664968951545433 0.003861035354029351916 0.048322577609973701995 0.58909358059515226635 -0.012211077803336484876;0.27401878155860620589 -0.57750809976924444289 -0.37502022540671775541 0.28427742001415828854 -0.16249165887210709203 -0.082640734675720306512 -0.16334874121683742865 -0.21191127574442547576 -0.080368201284520240923;-0.39106486349386848644 -0.53801866292826638905 -0.16496957695457242776 -0.27903169818077244724 -0.14639351046720647243 0.052219904487482503297 0.0048328684830944365625 -0.082310008334137804709 -0.22443959418974249176;-0.88221625656237712132 -1.6387235076361643671 -1.569622480221452232 -0.2563181464881850169 -0.51738953999501657854 -0.44807082352277205484 -0.21943325681382122583 -0.58302727291027378609 -0.43048092232220919184;-0.17798250785970409771 0.23371969356096278236 -0.1118620979364165352 -0.28341673649247067779 -0.061910265459067533034 -0.10628448735877440989 -0.37377545394480266028 -0.11365917456193218305 -0.10332096024152809255;-0.59167238356074136618 -0.65169692212702801104 0.48955359617248117576 -0.16130266751269861647 -0.068350668182233426107 0.24772688025849654014 -0.18767715771308857153 -0.072559913397894332254 0.29332964762070429243;-0.63469260343511646472 -1.0959303620920113342 1.0279944933328319934 0.047570919519246593343 -0.31057344864680586083 0.12532049245830886863 -0.040041487748566667593 -0.46304085270901634841 -0.034544704885772471725;-0.97776638004850224828 -0.093556107615080208451 0.84261112706016727536 -0.34133239337711207551 0.030494578590806679236 0.25319739075298397513 -0.29325903743179565497 -0.0038404628374965120267 0.2650935139924470163;-0.43325036334744865263 0.26737892218967057589 0.8361606551604084947 0.12873558006746768645 0.22019095717115963473 0.12067457326175733134 0.081875672679218775007 0.062749005521420181397 -0.089177190513379536729;-0.4371642423425253221 -0.25164846877059759978 0.41801966379576399602 0.021432692182002562042 -0.0527661746110071328 0.13330073880825657473 -0.30038763483657526798 -0.12157858828918645389 0.24250115566951674362;-0.10963848043836320334 0.45244179055235389519 0.23821748399932501927 -0.012101422725993835061 0.16505639127848503733 0.47257425446992629148 -0.12393078218271390278 0.26544732747507704396 -0.12600729232814356084;-0.11165112703694611562 0.30118254099726460282 -0.22934103557456464451 0.084750379271964007555 0.011494358402062121102 -0.15102908444086313167 -0.052879831333699355012 0.3963180700278491897 -0.21671765733611117466;0.42663921962658474252 -0.2776145166613014359 0.42890176370969240738 0.58754128507656933067 -0.051088079924961296574 0.027953135876115260683 -0.093962936807106586801 -0.095660943456728181333 0.15444106651214531412;-0.48293438088657347773 -0.053120732704838080629 -0.68169179385881373268 -0.090754713608497072919 0.064291812769623021828 -0.36744103501885383434 -0.15452199683887152259 -0.10721773024238419325 -0.35797325880884967031;0.22895844180254493194 -0.17976613809965594215 0.25968763435348746205 -0.50033298848289176064 -0.0066451699528300685674 -0.48164121681795912799 -0.18968475165847251129 0.2592489540113009916 -0.1126597254219427191;-0.51995753902162022975 0.20751269631710156371 -0.24866605541756064968 0.71753057091988536875 0.099637454144007708834 0.38682461554683400529 0.20175999780942421857 -0.32590938862087226457 -0.51164203523630147341;0.46829852887210615675 -1.2319048628633322284 1.6463626662466612771 0.13829394543254938665 -0.35063020214576878786 0.42575188648802664293 0.1178884198886664264 -0.28978274380501295449 0.51264116829751593674;-0.30930982081061153544 0.36527035672560959068 -0.5640742616428411349 0.78851040323653065478 -0.022462197322976364122 0.81451835067778999289 0.33111120346459893549 -0.46426733639366379869 0.36556249663816603457;0.86124421100237213977 -1.0651208902206241724 0.98404342023256963223 0.40077777050661761438 -0.21448991699322320081 0.078215955046232771286 0.30500977059593664675 -0.1811352592667246908 -0.02403554577717070817;0.076192681961801234092 0.36609566971524371004 0.54480977710275046988 -0.026086572977929513989 0.40469668421694221516 0.28653884008518037962 -0.032120158038673664314 -0.11823010788094055756 0.23972229713440790233;0.10173348614237590071 -0.33137368757489898963 0.030480429996381178809 -0.080699293085091536315 -0.56650781671880612311 0.030049282301729457467 0.045157458872129484229 -0.15657113303411449023 0.11912988216697918686;2.1014281686263478477 0.2082655041561271847 -0.11730163909095511765 0.59805854036902572624 0.015414896362580008532 -0.018936924235410285827 0.72833401098689820596 0.024788156121661440029 0.070615272284636487754;-0.049730271474653524322 1.1560562310183768453 0.9981154061811071676 0.10122585684258746108 0.49697001944366719917 -0.060212969312772070263 0.097271931286845914055 0.35307824082414762668 -0.1105796247057959647;0.43900932621978389081 -1.8216139867926985918 -1.2923965029915369662 0.096332686401089842598 -0.52202324064486660404 -0.40311277912742343732 0.1270003797213369312 -0.49123523894941634182 -0.24084721959624941223;-0.51493688361320488767 -0.33523142247114895431 0.73067860218978508691 -0.14766952784688813782 -0.082340146808644695819 0.42721212757995080667 -0.2071610099369493585 -0.15814072720805780192 0.092929656687667658299;-0.63239314468901008937 0.56309046763673520353 -0.29371714074199684053 -0.41470549394672262533 -0.12279407087832666656 -0.19066950154137748963 -0.44874175319781733906 -0.17621717407428957869 -0.20902596054490665822;0.82947847042422417907 -1.6845977020189299989 0.11665057247244124683 0.24188821454411690848 -0.52198208937888590508 0.01217472254795632855 0.32085212474187302378 -0.45133647344276228708 0.079502011812520520517;-0.74633631179672499378 0.033886704067556734643 0.35247992663295030225 -0.27449970014675645347 0.26104108405732734388 0.10715373632958132 -0.15720972416996362164 -0.21487818995301388725 0.13370356561922708272;-0.24442481358150863757 -0.14596850202877098557 -0.58709070380513683762 0.0008519449576584179392 -0.050922360437561091373 -0.095945666219486927528 -0.0141852245062920896 0.010823308954877200114 -0.095324677641009089579;0.029981254485243590685 -0.11149173799661532547 -1.8968899888663415254 0.013778874841560647541 -0.0045871215809791523674 -0.50430968679368881613 0.030808928782749180758 0.21516467451789283993 -0.49093305671536496826;-1.594374694757311417 -0.56646277557955548865 -1.0006579397673340814 -0.53291861590110001234 -0.077785414434844948883 -0.21566350211304580187 -0.51198161347280701783 -0.25112325000610619119 -0.2598112088706000522;-0.048946101752883483527 -0.032361742404520180139 -0.11360461120295362036 0.19963515817720128842 -0.13345254931947300725 -0.12594178576572981343 0.17703793027617423239 -0.30236616666968618716 -0.35801004361069321824;-0.26753381236759093964 1.0991979130222884198 0.55783879278897385845 -0.080124225688259970157 0.17969326335004892625 0.18025458884791153991 -0.05166433624989544976 0.19320467586134926208 0.20083281876550826417;0.87197450558157862943 0.76283116919946636347 0.45426430313185023335 0.037766355710440110971 0.28072190640434319109 0.21556689298398445942 0.080105646525995541363 0.24341988882535742222 0.21222866491921121845;-0.66060743060767235235 0.50140007540624353943 -0.44967314055667112482 -0.2278345596865144207 0.11016678366065216221 -0.38782803747612715206 -0.21758867769606488052 0.18885081939619619007 0.11087140249079072141;1.1346971879936820216 -1.3310557456487766004 1.2493776760498518374 0.35061327221465854453 -0.39892007156778863664 0.2884461967433195051 0.4340269263085895779 -0.31437902126216155096 0.39194004521403824626;0.78791092936114848211 0.11071673714024442281 0.10961032121835566355 0.29604359207548419652 0.1615044984787878668 -0.15977027496583992572 0.49805544585988492656 -0.08091485995906040618 0.158049050243925987;-0.61999401573442391999 0.21744550371755971829 1.3192297657706972824 0.10531961792459798577 0.19726175165532980338 0.29861562301086047588 -0.0037202519146345798193 0.10671562353522151545 0.054347497574750228133;-1.5810423078606994363 0.87115218520291781701 0.55351322038525652136 -0.40796609601682537471 0.35264568461494399942 0.1331827038565986665 -0.36599190641919260303 0.32161963038295787731 -0.03052677211912549482;-0.52864589328191480266 -0.79870971678630087176 0.85053537647410271116 0.15765242339599061516 -0.2977332052187491862 0.026488827147054975347 0.013458201418687138276 -0.47633978902170670544 -0.22252031387891352265;0.11586049920174594507 -0.11029756753198462216 -2.4446693391184837196 0.0019744288929601570663 -0.048911516950072210508 -0.66244621715567442166 0.016367735203522672249 0.2280544832851037762 -0.68385216649303215419;1.5059719005094560629 0.60508522859465485588 -1.0129127413102256838 0.36198313159988054766 0.15993979043726280764 -0.31296972243788806489 0.47216366667809289703 0.31852695184803908601 -0.17662751054224079539;-0.99829850262468378119 -0.38338892505166899394 -0.71991586863798884277 -0.39738215707547341893 -0.053156435602888581216 -0.060358594836765283587 -0.35205836191730338625 -0.10136440310393729503 -0.069414655870693828255;1.3483937720215841694 1.3590075302886446273 -0.089407141392409558711 0.41543413434345949353 0.38336374951325180582 -0.0040859162176743622427 0.36466154474178902323 0.46797377235334769452 0.088160799725472235866;0.52239157573417072111 -0.73757407363911986486 -0.61188609728057108406 0.047550129651283884469 -0.24627176232991487836 -0.015103793267995572688 0.18668628639815598724 -0.32521924093923726407 -0.32943541300677259276;-0.81872413906592067523 -0.65591107669992387841 -0.36022664476029814251 -0.21838566381197921373 -0.33288804305080077484 -0.30224625206786215337 -0.22372886948190656708 -0.10967672033345229887 -0.02767298398207627616;0.028548493462340073651 0.045228198554320996061 -0.14272487054289353936 -0.14870023546660149361 -0.084504157018657766187 -0.15239986062297036784 -0.059695814848572614775 0.14244417005700585332 -0.08464893909766857405;0.81292996831036212768 -0.40106105308274847543 -1.5235776277098651565 0.043735339297321935981 -0.17864592156336228657 -0.51235049359563911153 0.17455127478018186982 -0.16329414430056984897 -0.26086267263275275674;1.0456770796807772772 0.20680697587807703175 2.1361566900352020326 0.29992523995519931868 0.0038048810791898716489 0.72693161425440588896 0.34171949443594956675 0.03047301899610781184 0.74467597318889444669;0.74002778455142803615 0.76811978132364400196 0.022384183583575904819 0.30679346505595561645 0.13232480850493225089 0.043226487052534068312 0.27881510969484241125 0.12024881379146676319 0.17137872276512930436;-0.2079467878190418284 1.1685633559439851936 0.080500177196311653582 -0.015994417551622182316 0.34465501604127979363 -0.0092926861893742190857 -0.053290616798064779913 0.29807708418502759651 -0.049876177195532715725;-1.1636331665322794393 0.21462794292349809955 -0.50879887406457868781 -0.2232154129320996494 0.12378475880215702998 -0.2471123260104893804 -0.2618138581209222826 0.0697896773713483215 -0.2819135010518921125;0.47510274230971155651 0.67726521126925565142 0.15950152611516119072 0.050586233026992534489 0.16338620174735485335 -0.034584999265762472742 0.24363414902102401016 0.24402715361634549907 0.15172757968783556759;1.0914024719371588912 -0.62603838127572497552 -0.46382226145511662452 0.16229047819221328885 -0.28050689573687781486 -0.054344215307596581421 0.1338955992524379357 -0.23792879534640645756 0.044270578188822719279;-1.1812465588975691322 -0.4375315950627406969 0.80543410778708135478 -0.23423147399350408016 -0.12030795162900023709 0.36749958161795504008 -0.41460248926627468746 -0.31352333464232023941 0.1432801692247223091];

% Layer 2
b2 = 2.5124718397315670693;
LW2_1 = [-1.1486406205676831238 0.790277929753566033 -0.68842688616496139353 -0.51172809042788958145 -0.6984958343206919551 -0.35874296667947924711 -0.76672112519032387112 1.0326613491381106957 -0.16693180734013002287 1.4710818822389539751 0.82844728016579349816 1.1360743807015527551 0.76509471045799903877 0.85024641268982581455 -1.4593079162147906125 -0.59029661838242852845 1.4157902673771669555 0.48174438916266348887 1.1590019172259591329 -0.38699835579509961336 0.15860508951852519965 0.21475665938976362668 0.25929066278318874117 -0.29096646807809606328 0.45880340109286332773 0.97919010084127278137 0.16764854118012162409 -0.22761087059877072036 0.24495024395437833831 -1.2014483563279965139 -0.41266432048949353018 0.33721378431243015372 -0.5780143543888524027 -2.247930779016096281 -0.64666785556827477421 0.46137020377936521776 -1.099369254695741871 -0.65983201528518098389 0.7388368468048683857 -0.51128452535390112033 -0.19605288658995229101 0.67779831811167068345 -0.74058170789677335577 0.49152500383522268468 -0.49762859584821578229 0.45426190373210262319 -0.36509222557723797209 -1.201636868764019539 0.34322507266839774598 -0.56214058369695263373 0.63486783375816846497 -2.1260307698253915198 -0.48205997110183401722 -0.16794252802573908512 0.90669279415418835288 1.1804468651798116774 0.93740083896578807465 -1.0445569126982083841 0.92407242465584782387 0.58617150880435631155];

% Output 1
y1_step1.ymin = -1;
y1_step1.gain = 0.208146846767807;
y1_step1.xoffset = 2.226429;

% ===== SIMULATION ========

% Dimensions
Q = size(x1,2); % samples

% Input 1
xp1 = mapminmax_apply(x1,x1_step1);

% Layer 1
a1 = tansig_apply(repmat(b1,1,Q) + IW1_1*xp1);

% Layer 2
a2 = repmat(b2,1,Q) + LW2_1*a1;

% Output 1
y1 = mapminmax_reverse(a2,y1_step1);
end

% ===== MODULE FUNCTIONS ========

% Map Minimum and Maximum Input Processing Function
function y = mapminmax_apply(x,settings)
  y = bsxfun(@minus,x,settings.xoffset);
  y = bsxfun(@times,y,settings.gain);
  y = bsxfun(@plus,y,settings.ymin);
end

% Sigmoid Symmetric Transfer Function
function a = tansig_apply(n,~)
  a = 2 ./ (1 + exp(-2*n)) - 1;
end

% Map Minimum and Maximum Output Reverse-Processing Function
function x = mapminmax_reverse(y,settings)
  x = bsxfun(@minus,y,settings.ymin);
  x = bsxfun(@rdivide,x,settings.gain);
  x = bsxfun(@plus,x,settings.xoffset);
end
