function [y1] = NN204020(x1)
%NN204020 neural network simulation function.
%
% Auto-generated by MATLAB, 29-Oct-2019 18:00:32.
% 
% [y1] = NN204020(x1) takes these arguments:
%   x = 8xQ matrix, input #1
% and returns:
%   y = 2xQ matrix, output #1
% where Q is the number of samples.

%#ok<*RPMT0>

% ===== NEURAL NETWORK CONSTANTS =====

% Input 1
x1_step1.xoffset = [-3.22336;-3.058485;-3.251364;-5.629747;-7.902363;-7.630164;-1;-1];
x1_step1.gain = [0.310235282438201;0.316868377153853;0.307563225772322;0.186375103939066;0.135346064660906;0.13424887486018;1;1];
x1_step1.ymin = -1;

% Layer 1
b1 = [-0.90904876287723435091;-0.74806256265896031721;-0.064491888563064217466;0.33510240317799200316;-0.37326135132737131572;0.053795865202077824963;0.15056479670659589365;0.063629389629985058652;-0.54400776500605307895;0.10677728011701677346;-0.1751290261532092718;-0.12561724476649802074;-0.21108633337551463427;0.038033028594654197385;-0.061751756173867758393;-0.054516215249296798295;0.41276361258195759518;-0.088589938124317188506;0.06818775872242478775;-0.0016566627970706383766];
IW1_1 = [1.9552359993208248135 1.4834056441035059493 0.26077031559775615266 0.81203339597858237298 0.92686666724071253842 1.150526174196500051 0.50638036589423551792 0.050398494905860194426;-0.11058679642598978621 -0.78589022345979753226 0.42575126218034087255 0.30009643418037568185 1.2433276066924838776 -0.083790563709873075449 0.077593815671018140367 -0.10859613419000675727;-0.12808688032744744434 0.12408690267622332626 -1.7187234088527705289 0.35229134809627588032 0.039308838463487337511 0.69147350503845883551 0.20909926996261415932 0.21007326001695833528;-0.020397231129138059663 1.8995017468360619883 -0.73362637567316546505 -1.2702239743346266376 0.46895094096026967989 -0.36601517754020695961 0.67308700649875075062 -0.081070392900738572073;0.45265020246164638928 0.093183208339786965935 0.41901343653805056544 -0.78306773176407173942 0.96140090752062978829 -1.0596954377594556274 0.15993468005937711007 0.13692211838018375492;-0.78127251376459749821 0.36079579956553947673 -0.34911837076568308369 0.51901464428727062117 0.31481773796236611762 -1.3649076173509437915 -0.15501941521529213897 0.06637983899116252362;1.1252899850538968796 2.2482400663540329511 -0.3094123520722386611 -0.73041549943464023631 -2.5045950987561131917 -1.2027760478903029018 0.075913335912108484416 0.34253085935906885107;0.83958040637306052822 0.28481634159198376821 -0.045763384149515654031 0.97123034622629933477 -0.074754720504948454773 -0.56836015734083367157 0.38074296394542733735 0.053462934245190163463;0.080219609171465533493 0.46877328516629152011 -1.0895377849546938887 -0.47396325734367295013 1.5542025061339943548 1.0768282070624941582 -0.042494657965172426273 0.0017305403440708792395;4.5004883500478074509 -0.33547063313798530793 -1.0112505884307922965 -1.7751465436502733564 -0.58804572587614345469 1.6385829799121571781 0.17231534530807343653 0.15650315834251973812;-4.9337958442959672922 -0.1081986077552790082 -0.32326856957623578692 2.047059164263767439 -0.2415455037469076971 0.70049798204145274916 -0.13227408549655558789 0.12609440581622979871;3.63588880377917123 0.050795510867753544682 -1.5307979502696484886 1.6463849368535188322 0.13926995832853564239 0.17200557930491738867 0.35410795197289779423 0.021526966223815769547;-0.27213136815994370954 -0.12413563296000929004 2.5497070300643716045 -0.3738843327451327192 -0.20228672904960220968 0.81024479001398985734 0.0067821704894092914306 0.0038925495385006628202;0.42984452735091693842 2.9861221398521062831 -0.8522426206410378402 0.47549768533366387757 0.078551218203579117882 0.17775436836540753349 -0.57555280986529444576 0.14167162272050776162;-0.13023036461330220193 0.088896006621274392678 2.2488467298894900814 1.1846204051847664118 -0.41570725168740019217 0.63924527328448899066 0.11951467298858545196 0.13550414661649709536;-1.3448530649442280716 -0.84656156651462211027 -1.5177207688510616634 -0.013997706755931742933 0.2293623976062895975 0.25663641787784957637 0.06872037747854445322 0.011949015248325024069;0.74975834843368560634 0.32626599422425600627 1.065581374922194291 -0.20018889523829236365 1.05042536556169952 0.71435910704074512267 0.021895797623698788625 0.0032752634007872354766;-0.37546649707599560886 1.2051190134934450793 0.39225914848325282858 -0.23052364872654376726 0.71996110130117974002 0.29868125264087125315 0.025821329606977701243 0.10294695826244405767;1.2761918242516525623 1.7288228184042748747 -0.092401363860752788737 -0.45472249215509596976 0.27654275987518855962 0.13572775807524814495 0.80862655693043350436 0.21497775229949983578;-0.080609825656516614911 1.3424471959160277912 -0.92919794106947706247 0.07858742857909448154 -2.2174555657386836316 0.96731159682850176296 -0.43663003061588440135 0.046177532434531064209];

% Layer 2
b2 = [0.095898042395764479529;0.060553985994179292118;-0.25189996606201714435;0.12329013793686396938;-0.059830584800667656331;-0.5981614559690909827;0.31823396437524437141;0.087605037460572784958;-0.59228529047305822353;-0.39716013345098982734;-0.31610001547789040588;0.25151716256766398772;-0.26057714715777779979;0.48258268796944947532;-0.48766863865020099178;0.092777487822577747734;0.062417275444488440339;0.12509027726753801923;-0.22674029551188409903;-0.32293291857821437851;-0.10519493847884001103;-0.067524423770013414225;0.1853549802885872122;0.14403436434712355019;0.25907989150404758805;-0.41921995590620186878;0.19647583744896648938;-0.62649498600924868885;0.031800270813460089492;-0.45311500375724322875;-0.1108206690421304208;-0.045731354459911735533;-0.071281778158417199998;-0.39593594170981183389;-0.63184459847325114001;0.11576763219136426697;-0.29604972443429478091;0.14587940912933766713;0.1948859043059633922;-0.20622802618651725481];
LW2_1 = [0.376321885417476798 0.11678952719776693192 -0.39550969972538807529 -0.28376075653293630907 0.23203413512181933487 0.78208562035627915421 -0.17050057053648490224 0.51528693254029467319 -0.48947962918616588768 -0.027253062952057715423 0.18653896318324908465 0.84263137783541997017 -0.50994373966951289656 -0.22622997158002217111 0.28949176722460023825 0.32494782620230328041 0.045148927638726230049 -0.14881656112450092344 -0.030416041889950496541 -0.11879522221050006769;0.50331889591745759827 0.29378655058180619397 -0.14418648745758477769 -0.1691669567171818489 0.44522174232165268037 0.060088561720823052692 0.025291901882311736138 0.064274024040433919147 -0.089716640992138621535 -0.092188216626826316458 -0.82917973846316617159 0.39647197487215918299 0.29494488422665116056 0.015370142008367634542 0.60820836015910528793 -1.0010178749185074665 0.60222686259350521887 -0.54367490673922425071 -0.13045504282506215077 -0.1720601076077487579;-0.065236283683865040062 -0.37865647425091070177 0.3762954997664260115 -0.30467261334738882095 -0.27206220006639669773 0.016953627147599147074 0.25694223568912810673 -0.049891943914088389411 -0.041542557304743828184 0.59841241432313951876 0.10205584510397137932 0.078083368753581142152 -0.88568459925089582097 -0.25496136725767232223 -0.19003365040396313912 0.30230904750110093593 0.1283142658822740978 -0.082457894508432078018 0.11864712193995852196 -0.2008189721781883097;-0.0075885524644842567571 0.35892644072892510021 -0.25271011917914609768 -0.055438730848403512674 -0.11757366365149495013 -0.0016137981548718345962 0.73794566660166915906 -0.16250429077379827114 -0.28721479962511037298 0.010798833887266500592 0.051891685912835834593 0.30098643787000595173 0.72165664814269880889 0.0032485967941114106058 0.37606640439721306102 -0.32392426620817232896 0.47685432430474994359 0.071591242043450686872 0.014728980332586918967 0.10690447946559583636;-0.85187253496599502078 0.025194576253096845342 0.50359149121856205955 0.34119207431495612859 0.050083251603526196538 0.49170197804690618515 0.10345980041292646145 -0.61785588766091026347 -0.23140563907680014588 -0.26925570534719733828 1.3803953288559709378 -1.3916954435287096636 -0.055654427246166746079 -0.29096886659659476626 -0.21775749376997557971 0.31979583573372616367 -0.8706451199959046594 0.19024387412624135796 0.1548934400776017517 -0.20596380207626130421;-0.13496349055611844836 0.16694810609916488353 0.49320892200099669678 0.01707255792321241139 -0.26800631557066800781 -0.10483810116633439369 -0.016119749737407974149 0.079767075088441330433 0.19711113979201938529 0.13321638665539276003 0.22386060657167261567 0.27006998929910253082 -0.47934929282098792669 0.10889041472725749515 -0.41694965207013534592 -0.1160623544850415273 -0.14125153748081586969 -0.14015144607148488642 0.011601644604885125861 -0.055321276402791830229;0.12246095031006547227 0.40135935979742320967 -0.22914229945057226767 0.27493751032157964787 0.057185905528002921316 -0.12240363737313796066 -0.2747010225652725679 -0.34320291399467239835 -0.16641866429309196129 -0.68397822875140756871 0.47025212569050567346 -0.08837970518501810091 -0.12971066858431318236 0.50682878674005826802 0.58837237476135295644 -0.64427287899990748343 0.14815288024110540022 0.053762635086667787121 0.13428181079378528895 0.065640820122959103733;-0.059526435083798484582 0.048958355997691403727 -0.089003711498986656792 0.009202127060000397929 -0.28074443609975158198 -0.13737193708385991853 -0.23174977184410322506 -0.13558594533413609318 -0.3102717943264872158 0.27424045937835533904 0.78237009166228643764 -0.14140130149813470717 0.24438868999500998336 0.15021236399902779257 0.18906672299814633598 0.059523586145106360812 -0.4054357026570753475 0.14896190320866734003 0.49225732113070053142 -0.39950280717821301524;0.30798635179148464713 -0.15799988999048283911 0.12382836741762215382 0.21476902627038974014 0.1590491816212752374 0.07844797262802280513 -0.076030295870780167933 0.18498967927484158413 0.17198313626651995367 -0.006846383586395514767 0.64063081941673383213 0.26346047122741617086 0.28043174822779565192 0.28319691837073923679 -0.1075190755162973022 0.3067969525585101942 -0.20881933736719993089 0.04731563505920915319 0.21721896888081596022 -0.196086689544891557;0.17998866271900554326 0.33951430534972215636 -0.16131821238961038811 0.091096649247603300736 0.29844130928491485744 0.51363758092819622458 0.21718923004019730083 0.23939955810506666212 -0.028717472638416115943 -0.080613103714929121302 -0.48884567152926022837 0.27348542926519092688 -0.56061476346317495878 -0.083954723889736002085 -0.20618894970234005748 0.28887132245850327683 0.072302719824798106218 0.20561231828685422318 -0.040801127377067758495 0.18103701292167889703;-0.38125666746293801479 -0.14286991944779112163 -0.43451296091441660163 -0.14820098312824983577 0.30749201708452050807 -0.02955281771291114884 0.027369666782746077116 0.28322799312175522823 -0.099341889226138971325 0.14639239007417714777 0.099414350321808536703 0.13458076638236704525 0.8233095957613593141 0.009889041866594529967 0.2650840242073688735 -0.48293262086438337732 0.12202810772343612722 -0.029961117640465512874 0.17919654649890306986 -0.23697349760001609753;0.059453424311105736166 0.12064985260169062975 0.56591834167092991414 -0.15655782438901941211 0.10790492968245324334 0.091679889257288010862 0.32325026841738269123 -0.26056011082642771548 0.19406573099774918068 0.58205281263109798218 0.077941181665516473531 -0.56103146359969024992 0.023858606919653788103 -0.20404360729821194309 -0.57790460800764631433 0.2117337003128650641 -0.036322060483347261284 -0.058734768766551322117 0.12434831470204921189 0.18744466812669988154;-0.11312031399381242136 -0.071114427527149567942 -0.25399956451364108512 0.066751653928165552432 -0.094218911269480232207 -0.21444788855004257022 0.5796482229850978829 0.42761608708597670381 -0.090897106597464305544 -0.1122651754772800714 -0.25038227349966174495 0.47715966076514149119 -0.20425688983100884211 -0.064596683809690025324 0.48727052641624518659 -0.13543774539113759281 0.32033587800883467356 -0.37763798132140430353 -0.031460342038495257844 -0.055443878425678896904;0.13670792312098681287 0.057462754565395034179 -0.28291115762403068468 -0.0077101477072115728179 0.044183434258674561534 -0.42743815464746676147 0.096228421874586606011 0.0039465231799773112242 -0.53667357689101991003 0.40872644897263554764 -0.079669146251464401098 -0.21754798312577236508 -0.16262590132320120517 -0.05439107588265214982 -0.24237315419929916782 -0.16161343261983932007 -0.3939788409540535552 0.61322127696795425411 0.24479207093271093676 -0.2474514938285566068;-0.76090769687186698977 -0.16950361539180433534 -0.47389535707266833287 0.59066924478574223123 -0.29576761009465879493 0.47501403096890343347 -0.050665448701550735988 -0.96629882250256160514 0.37046935252889462431 -0.99135094893795272508 1.5240520026342787574 -1.4216977125439431706 0.4533396925733543803 -0.29565288043239978943 0.29699952413832420017 0.29291086109254760306 0.13155349391972107065 0.15579483273986871605 0.6524492979859218833 0.49077674659036496507;0.0017518086997086526613 0.050356654961399259507 0.09092473043588607251 0.091975597125376340468 0.22957827011265297124 0.23332148135890401486 -0.11125479833387283413 -0.31482882121750654925 -0.39050106204266415988 -0.58261003356379337248 0.79212516983990444164 -0.96513941424720928186 0.79123199382316311556 -0.37004587569243946321 0.69409802140047782704 -0.039394349016972078636 -0.23069929397675600913 -0.53667482756037188096 -0.17659459881682454396 -0.17363066424771078644;-0.72588908849237732124 -0.085870155839697745459 -0.016484893832372709416 -0.54727268593835731725 -0.091623357188836018761 -0.39262336079102949649 1.5802028494315616403 0.22870959440220892112 -0.10600737457170825162 0.93277559088586481373 0.90955995704195902185 0.83148357462371824678 0.32179795652271730999 0.17743657619497035793 0.1111918049824607152 0.25003999420290445865 -0.18136426073060746278 0.018834767625539004798 0.18820753283759131258 0.31600354019902338054;0.21002167800248458529 0.12077015668946024241 -0.23685776253169676941 -0.03495506333849089653 0.031168894389290206781 0.032975893041878312495 -0.26850994645720044351 -0.19698521321371739723 -0.18877426669144875548 0.36282028740855243321 -0.60170596705347778599 1.0114987275298772396 -0.55463307876270995234 0.29259292738640452214 0.39392655062003978372 0.21922276405463711479 0.1422983254067744785 -0.96473714967557999689 -0.22411008127727646833 -0.083448232033472763414;0.21563750201621700864 0.23035878288818173454 -0.066019334434818346957 0.70630756430105690047 -0.080650722683013625902 -0.51178584825507822398 0.24348068316262905242 -0.14431373213817638712 -0.15709748280561811051 -0.31494708695527962039 0.25448726929135551122 0.28250822262475694391 -0.35208637430369371657 0.62111300110345268877 0.50502706321333512562 -0.21011663328918214755 0.24908287401276393846 -0.14106379815362035668 0.63544136391874284087 -0.6539915855419928814;-0.27587715816582919492 0.039149340334953555698 -0.3967355532079967495 -0.12818838706008359174 0.25566603940472959478 0.21427314118889365102 0.11657194586994004681 0.16613632224044999619 0.96357228371526326693 0.048161129355535611807 -0.34399225709038994125 -0.51344498146460759713 1.2482094509385657233 -0.20109916340783767774 0.74843666044387047176 -0.32241586636540053856 0.4150667197620859783 -0.13801517373180940962 0.25778505884393387859 0.10675475855113458756;-0.32028203305625385644 -0.053972695418578291171 0.11091658391398261096 -0.37864982583392964299 -0.30403038188318798341 0.17893798259147411511 -0.72933185468983552369 0.088565413398160069969 0.20764151715316972457 0.20640309979370638493 0.58614721785712253777 -0.54345165169824671825 -0.033397146841064817568 -0.38591001880998060392 -0.56374547461875101906 1.0643674976640045138 -0.29758291007623327573 -0.4672555467716801858 -0.025402145550903074134 0.27812525918787123214;0.3985235509117928121 -0.15022911023305079992 0.39419873138708577676 0.1374771832542346639 0.19008796705596128773 0.32719559690706734312 0.17408314666843180407 -0.042560174927362443009 -0.73051836689456162155 -0.15455756517293128827 0.97340608928265603961 -0.50336716528870362186 -0.92852001767771497054 0.39541550354149729296 -0.80764589872177294794 -0.35556562459820467703 0.42019245188838294514 0.31271510730125839927 -0.26531246478545400524 -0.44256000485546886924;0.2866249369729088059 0.34327755231502216082 -0.68916433154624157087 0.2471759659531666542 0.19445792052829835583 -0.91991575868825048445 0.32620098621682674933 0.28763163854928752716 0.55317015542469838429 1.2339601904071086924 -0.97641018897735687432 0.61087819237943252748 -0.39517010008398828491 0.45297349430833711015 -0.27363657674776364903 0.43518841534707519703 0.6659094993133967133 -0.45361667562323981784 0.28326350217741297355 0.70359874192597482434;-0.26112065736423140105 -0.12679320349126177447 0.34013653394761583781 -0.034218109098110641164 0.41299351498641362346 -0.12750287084086289746 0.36906434949686944824 -0.1282761261772418504 -0.4103489090414404461 0.18705580139330538203 -0.13182198675877132565 -0.13550811070320070706 -0.35051331581247036073 -0.22417761245842568463 -0.54123505328147147875 0.10472114668684628924 0.045566003273357670589 0.34736595582695928286 0.0819584214237760178 -0.060378561671713945613;0.46819431429756924734 -0.16067295650676810537 -0.29038180735284141454 0.014214498925394114526 0.036580614390706804595 -0.22043800858864812109 -0.22936112047818099646 0.017589169551930697311 -0.2275648706625708062 0.54513997634686317539 -1.0982718886626054999 0.45871339568685709498 0.17840385470599456896 -0.76151388686938059625 0.60826387446538698889 -0.1332270389890358453 0.095155027973716957423 -0.13970183791218751534 -0.050609926547720104906 -0.40616049718898727949;-0.63559681764713760188 0.22280982054253598013 -0.12929727454181882962 -0.65467984104046816896 -0.64990394362322323474 0.30988252329609056179 0.76515084271282429729 0.27648662385663230756 0.47620662554099257857 -0.95536491821009561498 0.40208708248841057431 -0.97280556015560859517 0.33903038894531145608 0.1377985532809337943 0.5188796613373339861 0.073505617767576886257 -0.25385441777458234158 0.25450083412480201117 0.11851187731678476667 0.29718814109239344301;-0.0460691270450389323 0.0069504629424742099195 -0.22666407773330654596 0.09869695886636627169 -0.27952820831294983295 -0.058858786151770640938 -0.37886730076736002681 0.010373037231981782624 -0.16126482574746900389 -1.4106548504119755805 0.45328335615551801352 -0.017736967962316014386 0.81369925250709085329 0.447386409388321582 0.44926137685444261782 -0.26663856411709968564 0.4479986866509010901 0.017952977730062137651 0.67610587444311232019 -0.021257624524198590055;0.9376148606023314569 1.1563562434550780367 0.16487157998526963398 0.090388432585641886874 0.47093731982912651057 1.0009037466186316845 0.10450845897349467228 -0.14506225224383065275 0.059217521439081759194 -0.64413161570620436347 -0.50907789579173168271 0.0048353424681522230028 -0.66129500310257172124 0.80103053859397943537 -0.39503857329343150528 -0.047561610042371839369 -0.33926452340580437461 0.072400459271927120053 -0.14835050381232176009 -0.39284578342901910197;-0.16727311602191582973 -0.18702023394672778744 0.4347605894867382359 -0.42079124293239272836 -0.41908535872171481795 0.57100485192621264208 -0.32853027293860864733 -0.35604840514581703736 -0.98681867395488631622 -2.6913102181430215154 2.2175311976486140608 -1.6571463019443315456 0.90724857878106279774 0.17753565299753978901 1.4962411907907589015 0.38898612639075480502 -0.51296166496237971533 0.52245847195344430336 -0.3334819171617566802 -0.52504772583951819787;0.049383637678329102283 0.36266450171486652732 0.28424011346246358389 -0.11704637689367962394 -0.14583020759405426747 -0.26368759333656344168 0.1164678545082899197 -0.28041388349816603887 -0.25515777727581923084 0.37496732900260359989 -0.14540731218849289874 0.58358217285456359669 0.21259363179869630867 0.18739790702035810654 0.15016958736275692887 -0.14927969674390781374 0.23128712621721325693 0.32779575917401243546 -0.039827057450414003748 0.081907623365998882825;0.18299440573350428396 0.21084553182635312751 -0.032505143922587825811 0.1675753580082310068 -0.087543084134569973398 0.11896342372192220127 -0.78805846748354846376 0.25149810658799981455 0.16221730897090014256 0.039998354560327450957 -0.26516982141687839292 0.58624818161544733908 -0.24551466767565027771 -0.13606456110462020193 0.14657144247040271301 -0.026822123364395645401 0.30916209494964008719 0.27544268466679133756 -0.49082281351460388397 -0.29041431045426163715;0.4499310878025497562 0.30061445420291127428 0.3513407190736059782 -0.06391323387391220634 -0.59902403111085811283 0.47032244737476686103 -0.71779050700297652998 -0.020290052308247649021 -0.086804787964136029266 -0.52387952686224881216 0.63572753238695989264 -0.22784193103059197094 0.45936831321840121412 -0.17585209634707929527 -0.27256904620819444318 0.30021218573364233384 -0.71409973001271109805 -0.40731018458904472146 -0.19140454251383626216 -0.635145374580212696;0.18553801210519910159 0.36948068375894083104 0.12725406965220414923 0.14836957413603710232 0.025364597451536963213 0.073392890380628864055 0.073450338439276049995 0.17404562038719156858 0.37303687090572079654 0.15857391687224414722 -0.10412906645825095731 -0.030151894075978961235 0.35859255950972240834 -0.29384318249862401151 -0.21793772455776108665 0.13392117593965802147 -0.018810262812111795683 0.066166568490949706494 -0.031191481128588390004 0.44931289802180696125;-0.070061960728754230088 0.18403920979454999052 -0.28859731749924200095 -0.008251407632529739189 0.17325191747735493863 -0.10183832244346713303 0.0070544149668630160357 0.05033949566230105227 -0.33163210854381491854 0.32423217817813249075 0.25044277989764296422 0.51344818892319055159 -0.89598249777433303098 0.016389446963561725423 0.48059449805188247939 -0.63332685165276325634 0.18723071155606899052 0.46354535201983154691 0.13707579743575282194 -0.22625174299556738422;0.043445930562972662203 -0.26912367323265556918 -0.023254223399206883777 0.28941570512562719841 0.10943226271310339814 -0.63733774395128428569 -0.64499113078345804428 0.13214667846383118532 -0.25076714611402250998 0.1197064823412620771 0.20684238715573546874 -0.088799691409585074231 -0.095728419010183099513 -0.15786082512527249699 -0.31681113734684074323 0.42676294964129701803 -0.62851129411726958107 -0.14339466913359383282 -0.17080240565662707652 -0.20669330079938139089;0.37441591092783071959 -0.33970347615753543336 -0.21815370144731455193 -0.010472078312307205386 0.40820865248136006809 0.34079811233881884824 0.13686595141848023616 -0.15752956654112454382 0.45585468438360532417 0.35684984691835658355 -1.3182093289152760907 0.36261309325936313952 -0.19353597887200552075 -0.77538944057838188328 0.048950243646088756333 -0.28540146727873150212 -0.10291166627913368725 -0.44368621714472805673 0.32114364114209487111 0.04223194333712142895;-0.42308110506621859903 0.099076958105819928901 0.4529280218190297469 -0.0051312551515265208621 -0.24005927539837665363 -0.54362296767260787078 -1.3080021478991199491 -0.078329387765939798016 -0.73370210469630370298 -0.84235223673241343967 1.3942157736848976857 -0.71932198294578697517 -0.112716646817491703 0.28739259318307619484 -0.41321608072479204532 0.85132201773282600854 -0.1731627950491237411 0.071999303407482048711 -0.36587122507812480654 0.051542390585306963047;0.012058424861986953916 0.13558350418026288153 -0.11137661227845696565 0.04255739541616261612 -0.062037369229710502549 -0.085430691681199488752 -0.15504531142481617345 0.066778309337712324356 0.13612357373588948595 -0.024701218353364164798 -0.41126003956650625248 0.33704611452420973894 0.73195836415368120687 0.041094763116234153677 0.087188998101479828207 -0.046426404543080994347 0.42097062050944267231 0.028112464756205955696 -0.15267683392604594617 0.040746987869654478776;0.23186293564371227016 -0.26231081118799409735 -0.48955538972882678417 0.01324112523457309995 0.19629374274238561848 0.27568355854051129761 -0.13386526021749681203 -0.094949344996814399877 0.037611887102487383261 -0.33872088769090602511 -0.36986708342739293975 -0.29856584889198206634 0.72542408084570886295 -0.17470491969980025959 0.67376928822636117378 0.025280968182498132074 0.47801495680104350017 0.19210873383376328438 -0.08410899026629493902 0.030252645870500881331;0.46825587328704915135 -0.27738025146634681661 0.11577170444577758457 0.29512163366304799972 -0.1886663504764708732 0.44470201221024840965 -0.37587620389001641374 -0.18551510571464990829 -0.16028394747952429134 1.5159229188468179572 -1.4182393565220019482 0.38847359243743179169 0.13786202152855353553 -1.2061732016243345011 -0.12103857742992589486 0.22365698671099051853 0.25626697848315405093 -0.23403086162808225956 0.20284283957876675375 -0.42956618602898938297];

% Layer 3
b3 = [0.58091908394501035051;0.21563384386031902995;-0.08886119462663644164;0.069671443649367684192;-0.15436720927960667638;-0.29994763243405136999;0.27202613326957314488;-0.33705671024264410862;0.57411528940327583026;-0.37851966160200134492;0.050574909500897900771;0.25446347885442710535;0.037200038029272727846;-0.59969313890372644149;0.27500274534599283838;0.02062202120739321104;0.13713696773545552832;-0.1415960651460711206;-0.19273913984129992238;0.32199961371186563985];
LW3_2 = [0.026599857141348177275 -0.088661491901835101648 -0.16695544043063612061 -0.06489417225081361984 0.14751652599708015012 0.3053793326309670042 -0.15053066402145215408 -0.11269927505987878402 -0.024601195633373554306 0.24336511562346621607 -0.13247959925252145164 -0.13420206806858492321 0.28883484330543462981 -0.5229081077366234398 -0.7220441721576605909 -0.33967520230764269851 0.13441810569414081034 0.5634084561442830319 -0.069223427620381000613 0.19671195090070692224 0.18168671261878491241 0.14028903676587653471 -0.14083436907933427618 -0.21647400895416094024 -0.21105050648437106986 0.10130558574416882733 0.13195724199407063426 -0.2216113002448595326 -0.9574633206856213441 -0.26990452661137143142 -0.029225529626660286253 -0.065484918392485366723 0.15149954722465572288 0.55940325071338137253 0.14565081266797846871 -0.26922777432960703914 0.017653756017095276198 -0.42959931206322093944 -0.080045677494216954662 -0.54467044235462525048;-0.0330354736183534059 0.12893671074853121916 -0.017163230223531302648 0.44727217330042279286 0.02844022614739525126 -0.21740164080431254034 0.11704727607620211971 -0.16471331384433490763 0.52623307737532631911 0.38091428313774211567 -0.40177173968256579828 0.30478101362940623886 0.46623877080968118003 0.81444460778283278568 0.26022535891253972817 0.54405610186536346173 -0.13625946594410229262 0.20253838498749240915 -0.20917970851600997673 0.42040075907736851324 -0.33488562147377687328 0.32602096667456137435 -0.74054141111433291478 -0.17057299608983242378 -0.1769082882765303788 -0.080265021264352795494 0.075059248129852110254 0.25508650384260944666 0.58337873497405379197 -0.1321863116324245857 -0.094268857488924329147 0.40264490091521926152 -0.28960645827626302351 0.19719611494991665102 0.03866066364445150394 -0.55944375031601178971 0.19962302417059996085 0.15066088626282508889 -0.16413855839165605865 -0.088030235345085527943;-0.072533545104317365126 0.50306329909059643857 -0.081032984649874392757 0.17452946769532143301 0.39800173774620495326 -0.0058133144069933972986 0.13009989141917727151 0.53044237875690902762 -0.012085279925540849677 0.11351573981531984381 -0.059204176062738665676 0.38104328727554009903 0.33158777548686813041 0.38683016589143998099 0.27412457022462149991 0.3116456980309249003 -0.015214509097695163783 0.040463432220931967731 -0.19121695630994559045 -0.25368824547477641929 0.087009670440801378799 0.094666707775633587851 0.18116852265272803679 -0.039575165422699828954 -0.084353808143240546769 0.18887091703146269284 -0.17294480318352573045 0.23309724559628114404 0.9492601595505268941 0.049579068283054680832 0.24894453365991905947 -0.10383349241520241357 -0.022491901326897829894 0.17553206380506777839 -0.33739737921722406933 0.32140925760509142517 0.24334535377073945872 0.62020504737770987269 0.16927260378256983597 -0.20707917313349888389;-0.042609394298110586652 -0.19537186288784452737 -0.091778982816954929325 0.36421634708158395766 -0.21652478954726825378 0.053719280396136215305 -0.0032038502781138117684 -0.11480039068929472068 -0.034783568533413827817 -0.013240207664618414488 0.19072855694032336826 0.31089507117562964478 -0.047473771352754982888 -0.067702877235861907979 0.12712527647261817609 -0.20718426508695428345 -0.17329045626148933956 0.15964368335388864906 0.045764619005458757883 0.070166525267310680958 -0.11244741877851623102 0.1924808063957573756 -0.070238932649330176883 -0.23351535298895717552 -0.23231142335073345917 -0.15307972898580748944 0.098925449924497491083 0.43264770046809686299 0.41012771593748365007 0.13209323932497096798 0.28125908518891568066 0.024985900186371704651 0.27296398460265314245 -0.09440950302934128513 -0.36355566370240260943 0.82007723500007467798 0.026109554765817884897 -0.55684336916432364273 0.13087752923845968889 -0.36870498411806568173;0.03258473049209772987 -0.45084388814211828755 0.023656793635974608658 0.089050916678676914073 -0.045310754901104199899 0.070624938245436516548 0.55677305925114028984 -0.12729296791499883357 -0.14631026958169754404 0.15857519913613951634 0.035022432109319323601 0.42242155629532995853 -0.18918442363728041333 0.18084404926568775629 0.53729969071594774199 -0.033518197705798245811 0.024103616954991215898 -0.30097822441648880432 0.1089184737702217215 0.3235791291158074956 -0.095908996784936431657 0.15419632100850169665 0.040607445289692831181 -0.19722842192988171428 0.033626206945574360629 0.19029098193141849582 -0.085937135186592697456 -0.2341821723861725324 -0.28172424021549402617 0.14309557572505776646 0.16778272347864742198 0.16280893187521389143 -0.010466089029207623767 0.051776475653040256175 -0.097948741513760401167 0.13661306645745102673 -0.16378007226370530636 0.181914731679901992 -0.1283274204554314124 0.19922044871675345656;0.044460960685429866401 0.082573731762834168268 0.50121969359909512853 -0.15286768507827255825 -0.29551804274458803867 -0.5927976014173806929 0.19799539295215329293 -0.013404326162022427854 -0.16541605586954488682 0.39286301305848830845 0.10232035397688912792 0.087466091961391323473 0.50669794989514560513 -0.32866915090385551146 0.057597913112345987263 -0.13417497010052761852 -0.25346663283604398131 -0.14052104229336487284 -0.021348147777564958211 -0.15299668572243765863 0.50245033769764446685 0.42928233772590362882 0.65802063885711081781 0.18392959077451315197 -0.10279999914431599273 0.24686479232554256469 -0.30933475970474305639 0.41676366014125215687 -0.7566200620510624697 0.031038299894944765961 0.22316791593836504681 0.44852586370427166562 0.076297721092007331212 -0.067807297118736301056 -0.034095616652181588713 0.047249541131704701769 -0.071582018421278328923 -0.0060226393675090429333 -0.12717424159219595237 0.47766316823195725805;-0.085611110007881144335 -0.25768898292020631091 -0.0015670463229187298407 0.21538589015342815558 0.27326564364209832148 0.036681566332791071261 0.036513173964626825796 -0.37599671758401348454 0.035476563911811559437 -0.12406671235800655062 0.16255031784822257523 0.16445679895817152949 -0.56730746122214070759 -0.32123670096522721762 0.25349120265640834315 0.4961226225690493763 0.040616210886891240817 -0.51158599724367381789 0.13699709265082224419 0.7673498540437195814 -0.15233225473082800949 0.30478428703566207147 -0.019864068470737572536 -0.43044807472147278427 0.26298020072332856101 0.248664914397175002 0.15272633291124557142 -0.84552549756868933262 -0.38580225730729661437 -0.32031717387654418117 -0.15075137274715755265 0.2409906956346368756 0.19783727510714338438 0.15782301070991555658 0.32408282656392256582 0.65800792156616050299 -0.45450663239349314848 0.62239912545912268182 -0.36222825885400605772 0.41039743811376999671;-0.067391511709388965401 -0.20313159672902381114 -0.037491725983359841523 0.46591432685164707594 0.73003682467506325615 0.22402417690877671208 0.19583281507409525113 0.18843161439460492934 0.01068903491602483935 -0.32007934321996200921 0.074251765999425192732 0.90930284221668988831 0.20770827073952807806 -0.019388967670070453991 0.53399387830550193446 0.71585182655139356633 -0.15933876648273631593 0.21588173135746430154 0.057472362879701192895 0.30090689583414448327 0.12805010432705810075 -0.2783963497573727075 -0.64462248817337508555 -0.48768137088418839209 1.0422658197590981555 0.52835477671916719622 -0.0042119577980442354098 -0.28244307726447537288 0.75445987230506406096 -0.11552873519155068549 0.24276643668486738714 0.13405944289439031269 -0.36667244092388706633 -0.3744783244899980712 0.20608557269956742641 0.033771906926649983283 0.2536033638012462621 0.092667923512093658411 0.38164920961980841607 0.79065267345454837145;-0.18126216870494243905 0.3643285613622590513 0.15268897559487726312 -0.21954031903921356061 -0.17486525731481838974 0.068129579792220923418 -0.099008949275204302665 0.093654478004310301453 -0.092844151772006389134 0.14120088610878167579 -0.74948057107147880718 0.1796989194986877425 0.84775133689964732309 -0.30774969283964720423 -0.51310979584617188998 0.12159577932742064721 -0.4275372897114712023 0.033211503145023406336 -0.031504598531746016987 -0.19791201456573109807 0.88355470343834441316 -0.19594593304617047291 0.34038937100477312248 0.43322451004624540349 -0.16506459063325737424 -0.13667936973182631677 0.11032286898119456064 0.31589775659951579989 -0.92882063418565996571 -0.052131698199437581653 0.32395587268544595583 -0.67033743454394378869 -0.30820705722582175667 0.37051941219071582445 0.043684813808701226934 0.065608577759962524723 0.17602347550255234565 -0.24861938134407948753 -0.17609757892026742243 0.019896557536117038395;0.49798122375122594319 -0.8116029236387317658 -0.55670372819559532651 0.368149916900239349 -0.34532883415984183539 0.083276371835115367559 -0.29070978010009307368 0.31713743548991013554 -0.28996761063941350889 0.35937034866226258423 0.20314971409960302928 0.92104900806485912046 0.097311927255889815735 -0.35622055807047253717 0.28039652996308328525 -0.5551650141381059278 -0.21052644171093537473 0.48837865725260765082 -0.34024945584030258372 0.096653021522218038331 -0.029009442939149393537 -0.081032399771204355332 0.73840809281616426318 -0.19207289467306498665 0.61107093367490272762 -0.35500805024638365515 0.019256226211852446595 -0.036258415304443736282 -0.77447539610311999514 -0.38662001383636368512 -0.28133640102182516651 -0.12777755934001019944 -0.37450645717314290373 0.38858001673044079149 -0.11539974347675348298 0.11144844949776314125 0.24834202607089245207 0.26413933214269808003 -0.053522150046778946275 -0.17805055680623213532;-0.049786755290177113487 0.15076815822889366725 -0.22094470244074207455 -0.50859532344754587729 0.37785482396940955896 -0.027513654028592918199 -0.11510394941558388382 0.0022602996316985917748 0.0053536826958925573527 -0.24651949793199695593 0.12235420139964293951 0.27899067248154624243 0.049094605492455041518 -0.51450879051982334467 -0.14993105740401099779 -0.053353798615692824003 -0.11688902069519994942 0.5839108771865201275 0.30247971116349603449 -0.17274141679855448128 0.59574315451031900626 -0.084018231433490228599 0.051406159945569768199 -0.078835267968453970333 -0.22805663459084130062 -0.074790546035183771978 0.028616701360698715284 0.33134600454096857503 0.28411594910351839482 0.074869325094669481047 -0.21770065580405695282 -0.038548603717369331334 -0.2695485221428803313 0.24876636830230944297 -0.62345560874653704886 0.11480409807657772359 0.39499060817911152421 -0.037240544919045229233 0.028498612492199180274 -0.74839467079819554929;0.037783581988457583256 -0.29569850836743349909 0.14811824991325722722 -0.064122965777243814967 -0.0072606806895702214952 -0.16206690015187386056 0.43128949487544976371 -0.13279333760702921596 0.1632606785706453012 0.29450352238367932811 0.39186774252089567883 -0.054322773148909576924 0.16786244002302785905 0.011481336157134119924 -0.82268144924521846573 -0.37562113825620779828 -0.071045696496564364475 0.39643827568323597443 -0.032528935247503318329 -0.38778275777248638612 0.19105076711458141014 -0.273836891694229978 0.18902114352196308644 0.015543659872903920621 -0.17345442766335011919 0.0044628627469558927038 -0.23739503775108930506 0.11002022835796493316 0.150348113979727388 -0.36949492119045829197 -0.035612142838251578669 -0.39623797583294029234 0.211486085273075608 0.077670716425294245022 -0.22152925087725364173 -0.08392969646645992432 0.57684889476621681315 -0.44935788628280759482 0.14962353709805806257 -0.1765575191758555762;0.13597782677573255761 -0.089306855507110205483 0.31936856843797628569 -0.24002434030344665938 -0.31655427724063772699 -0.66542732095544854243 0.37060475657297120566 0.020020605948057868667 0.021465055009394589519 -0.042420391451341125932 0.054956010487514972418 -0.04176512980215885823 0.012864968372046245437 -0.43309809749737060436 0.27563121325412198726 -0.080042382235661430068 -0.077846231644730756738 0.082242351306235597641 0.18844126807203806506 -0.25250304629934938738 0.3140419721761825711 -0.013231927706174512194 0.15417174481306747391 0.0002341997779403831581 0.061209593082320795654 -0.12517282481737207478 -0.25382266658132873749 0.40050831759817084876 0.21975983545164165522 0.040846160768838769839 -0.16896083285573690325 -0.23083196608834222197 0.25513330773742182167 0.086742104326524391289 -0.3364128892467487808 -0.30560014695636372739 0.40746730069578945832 -0.3599958649464226057 0.078472912598158917064 -0.28488088121876747882;0.022224088644125155473 -0.30567472237958620562 -0.14716440026571628308 -0.07673506371636286405 0.033399883309667921516 0.16493428571680079919 0.27421019115312184056 -0.11620808334632355685 -0.37550351247951407885 -0.16584206418001612438 -0.22906485563107920056 0.51814060579255916128 0.038245369898769088213 0.21375861595663661618 0.26945132999572118937 0.057792649532906276155 0.00095592889869954098675 -0.24956438068926936613 0.078697978269525362127 0.3236441944945360194 -0.012607445839338236176 0.24899795380187303429 -0.10373031583347348816 -0.19347113379377417486 0.062926035999733120896 0.44530570775037148223 -0.10418713262888572302 -0.32369686778208861533 -0.17167379114339151314 0.30783942615934506426 0.20267407022276665018 0.24676711388756550347 0.072711495968213885055 0.15568156220171797122 -0.0093761909252464657738 0.29258632824066727052 -0.032883338971163765529 0.02045114279550439354 -0.25104510365949028738 0.40825928085309215465;0.0079369285596310838737 0.22232110929055454163 0.20231067579940914536 0.23282691833759774913 0.44964951556894966478 0.50958149050655721091 0.22792688716196010668 -0.16582140663426039873 0.13292985063746515229 0.42391041664852086024 -0.69673484124534823536 0.048014210133942900049 0.3758868205633711379 0.01062619618802487266 -0.30957497794142296854 -0.49641392468226247514 -0.14560590468151357602 0.026529609867957465452 0.37424955205313686912 0.33682692636013583654 0.047622017959934072329 -0.23192067066185401147 -0.022980939918042092573 -0.13029594562031826532 0.14693565295820334993 -0.23424972308996661052 -0.3985828785465447277 -0.29613918111146830814 -0.8356080307837915333 0.41909641455397861343 0.096975890599919789548 -0.43151601503572561969 -0.34777526398468444624 -0.29085383321291741199 0.53061584562615937699 0.01775235761286984848 0.18640521318785116534 0.42434868132172970379 0.12671955335037007884 -0.26605200434215675598;-0.43023773336958870406 -0.0079186164818440124558 -0.12392537654455890173 0.21531660119528897579 -0.63386403520928946698 -0.54098339701623410214 0.34104715413913000432 0.46125409535849470899 0.34596965197846252238 0.25793180053318348621 -0.058400400989555970033 0.46520728774676556316 0.39111252950713276677 -0.025374633834483066586 0.2368045077719858893 -0.0093346716610906328715 -0.037630147496115047556 0.16997496812781240361 -0.35920316614726965909 -0.15447958140481424238 -0.34842938392614780652 0.085268458655584272732 -0.74101283814571328179 0.81034697095588947846 -0.098173867203998982367 0.36404031316096796544 0.39759198550808472206 0.44477158364432389792 0.90034107716201494664 -0.31789441514218458318 0.19486875289356869745 0.49122278618375508907 0.030428197723269070213 -0.19690047679647773582 -0.07670635836002279162 -0.13708165506516956089 -0.18035444608363576657 -0.34415695042772487255 -0.30069489146824113224 0.37024307268177497621;-0.046696543366464504654 0.089574983600923752114 0.22736058375417098065 0.15373118169102178987 -0.13565443722504197388 0.051050656669769392537 -0.074129588542755933678 0.037743447306781946482 0.008841595545930919231 0.20766731202653299082 -0.15241687432197628671 0.12497519134566738297 0.21957768543165312458 -0.23397539270804906808 -0.12207975907986325093 -0.31081036422318902845 -0.24625135453908747474 -0.099849837419437023622 -0.058500635234462347589 -0.35224293694722402792 0.30429086800508070576 0.11461288758211327088 0.02003168826405513428 0.18127660657554595103 -0.069754181774301593499 0.066919534991621204556 -0.2801071280736040503 0.31735261214761617543 -0.45970906117590426554 -0.048570675964362319821 0.12300298529103274869 -0.057293046058077348737 -0.079574198711068397372 0.27187497519557041192 0.017636498257929476841 0.38035395412476746824 0.53682250664179853583 -0.022661667926750200808 0.18742330165905723982 0.040372326074857245448;0.066439668044561833726 0.11011808164323498571 -0.3280303024104801457 -0.19104397061279670966 -0.16634922251760655976 0.80212201687939876926 -0.4032787879857033797 0.14170235791018165328 -0.21299788610137510014 0.00048517076785552362217 -0.17690948059054242836 0.086778785786894893639 0.2676363222354728455 -0.085570135153129500694 -0.40373461308612951237 -0.2945936359591027065 -0.028575914880547101382 0.33669446506694905574 -0.029038153139138586645 -0.052532156058397713738 0.07630073929925569598 0.12567955200038136154 -0.12825328512981409856 0.020260166934302742403 -0.15012943688292001987 0.055183768707828761979 0.16682387896121100845 0.30789285114021708312 0.018138020386445366516 0.21663627079928482466 0.042549833245854797037 -0.151788511564893841 0.013252746587333724335 0.014321551839926267499 -0.15427412779915306018 -0.21052071747114350919 0.2882573812299171756 -0.54693664920676798857 0.5112895787519192714 -0.17426636871600981182;-0.46964770182962967127 0.058190986457081150807 0.32309570689585176417 0.38231789289087081407 0.7886671393032056443 -0.4796425957894217551 -0.50769804453767297669 0.089777023785918813603 0.25306463519661975825 -0.51604008831895464837 0.44307829402872700442 -0.32750517066369172481 -0.63347775641895587295 -0.34591602378605551538 0.20333382064387955923 0.90946393538787251298 -0.059200279770671382362 -0.098821220582357247042 0.12340320550499156438 -0.028749922036236445072 0.5328814797005597681 -0.12708420081033372506 -0.49938228146704333188 -0.021089084128525656392 0.41010036674955263614 0.8090137576315206136 0.31709239989804699489 -0.21736386661444939694 0.92916533128997036428 -0.071719770389158915558 -0.1743728554833450517 0.23347630369216379465 0.32111427231752875944 -0.41379218543203138969 -0.040539729364952217794 -0.056119970852270849304 0.069958501090084737606 0.33070762032094286331 -0.15209933834379013584 1.6673316687689632154;0.013839219305884347191 -0.22699951054305511633 -0.027353889715737572663 -0.23235627222498625444 -0.25433090817028392028 0.096662759438222806141 0.063936054520376525701 -0.21500426649679288404 -0.01434880989818243871 0.15181608796568094033 -0.13569018857679396306 0.043305828406320218127 0.074772410490702934105 0.0038969325702092674768 -0.31792735618186251934 0.17744198138378541874 -0.048349726086317372509 0.033442508349053781669 0.016102391641109794346 0.23637192762521574974 0.040662607887351431835 0.13172061325909570351 0.2340322356228830003 -0.15296256249377604419 0.12055675528366860405 0.25485923118638448281 0.10116521487247254196 -0.31823572067257072105 -0.090663307928961947568 -0.25963227911986314078 -0.01808502407504531187 -0.29371327045800804667 0.28070560031804847601 0.29624367902978027134 -0.22302002930055842 0.072312549091671562973 0.31306085450879855836 -0.35457314108932058705 -0.011961109843507695266 0.3030685777574739781];

% Layer 4
b4 = [0.2863697129071129388;-0.31793184015425357547];
LW4_3 = [-0.47303170029584901135 -2.2761426161563260706 0.95776064965111473715 0.22968995968429142818 -1.2920501492717144654 0.77497117318433283994 0.77738578189966722753 -1.446049593813728773 0.59136397200605106406 -1.4960804766592628035 -0.67992273848335416098 1.0995958229780113946 1.1916911732105361921 0.83247686996447212149 1.005633730254912539 0.97043746811517950235 -1.3401803257208171338 -0.13691529839243118949 1.43397242298666594 -1.1382853042814455868;0.57641056007069635392 0.15575917452595783308 -0.71633260433501422249 0.67445603980741875016 -1.0357214942068353469 0.71573369828232580314 -0.74905869047642992253 -1.143196976762248962 0.609024537967059576 -0.92928161539506470845 0.48438437518440891072 -0.58042740076924914661 -0.088880885907098722276 0.96541361153992610866 -0.99127636222547776956 -0.98579614403820725599 -0.95531809546066837058 -1.5785766997832930691 1.0246440709316855244 0.7249511680523188506];

% Output 1
y1_step1.ymin = -1;
y1_step1.gain = [0.138182927665106;0.127988868040213];
y1_step1.xoffset = [-6.586265;-5.796247];

% ===== SIMULATION ========

% Dimensions
Q = size(x1,2); % samples

% Input 1
xp1 = mapminmax_apply(x1,x1_step1);

% Layer 1
a1 = tansig_apply(repmat(b1,1,Q) + IW1_1*xp1);

% Layer 2
a2 = tansig_apply(repmat(b2,1,Q) + LW2_1*a1);

% Layer 3
a3 = tansig_apply(repmat(b3,1,Q) + LW3_2*a2);

% Layer 4
a4 = repmat(b4,1,Q) + LW4_3*a3;

% Output 1
y1 = mapminmax_reverse(a4,y1_step1);
end

% ===== MODULE FUNCTIONS ========

% Map Minimum and Maximum Input Processing Function
function y = mapminmax_apply(x,settings)
  y = bsxfun(@minus,x,settings.xoffset);
  y = bsxfun(@times,y,settings.gain);
  y = bsxfun(@plus,y,settings.ymin);
end

% Sigmoid Symmetric Transfer Function
function a = tansig_apply(n,~)
  a = 2 ./ (1 + exp(-2*n)) - 1;
end

% Map Minimum and Maximum Output Reverse-Processing Function
function x = mapminmax_reverse(y,settings)
  x = bsxfun(@minus,y,settings.ymin);
  x = bsxfun(@rdivide,x,settings.gain);
  x = bsxfun(@plus,x,settings.xoffset);
end
