function [y1] = NNtf2050(x1)
%NNTF2050 neural network simulation function.
%
% Auto-generated by MATLAB, 29-Oct-2019 17:05:46.
% 
% [y1] = NNtf2050(x1) takes these arguments:
%   x = 8xQ matrix, input #1
% and returns:
%   y = 1xQ matrix, output #1
% where Q is the number of samples.

%#ok<*RPMT0>

% ===== NEURAL NETWORK CONSTANTS =====

% Input 1
x1_step1.xoffset = [-3.22336;-3.058485;-3.251364;-5.629747;-7.902363;-7.630164;-1;-1];
x1_step1.gain = [0.310235282438201;0.316868377153853;0.307563225772322;0.186375103939066;0.135346064660906;0.13424887486018;1;1];
x1_step1.ymin = -1;

% Layer 1
b1 = [0.36035959711032516939;0.3812173846312146841;-0.059794072895797051315;0.06573133120182071687;0.49175414583499343912;-0.65935885811947847479;-0.078679150048943061191;0.46734341582192323594;0.022257569332548163971;-0.0883072512973650664;-0.21387582396453641564;0.26321577409094365496;1.0179244497054797947;-0.74001136511012410857;-0.067094540327418031311;-0.05112398832869465698;-0.54118539470877147224;0.044836776507598680164;-0.027466259204142685207;-1.116587804389032712];
IW1_1 = [-0.12906504588046127657 0.17215095983932582335 -3.5389579193625042564 0.21026883375503044316 0.019030804908428150535 -1.3595277860604395581 -0.021122338532230236496 0.036502469668382692136;9.4988459827615567832 0.041672241932101276862 -1.8365895134709084857 -3.6412431107124270113 -0.89203324861584465388 1.2836550462264377792 0.30952611098795301814 0.087006219776894655471;-0.4714022264958406816 0.061062903378009951438 2.7861019275820386731 -0.53337904382592393748 -0.055452508998423875874 0.6743982791614743233 -0.093233972608325332843 0.0068122767620815349518;2.102894266697250103 -0.24089066851411472525 2.6817409454941318891 -1.4188537267153966681 -0.11290024199394831095 -0.20999518792989985139 0.42532987085909174096 0.011236863227501588461;-1.1425417758570119986 0.080120716248413659244 0.57718112351219463818 -0.13456835493868821163 0.25964174748813445559 1.1270865648388559421 -0.24753313406023275123 0.025206905393503471063;0.47308330769266820903 0.79864391157218528328 0.95160256411767085716 -0.4264361723783594571 0.43817439276752950805 -0.2783137652915146365 0.061439941368389101861 0.045601512946695184347;-4.4202227144249919277 -0.10643546138320489347 3.4940290928491095634 4.0178742283258346291 0.57397636787658856683 0.1684261632217233795 -1.2194021866219733052 -0.014976853529677409613;-0.46476374038860712723 0.80528971829253725989 0.66333403803773505203 0.52178975511955294486 -0.13217203980591299417 -0.047189790289305935667 -0.02718704623780706861 -0.031637525847867713213;4.4995266739181669635 0.33059568440391101651 -0.16230677795800382834 -0.15784471332702443291 0.080161593827689517355 0.035516100301306925691 0.73321530385974176269 -0.011767497685583659314;-3.1250244222838938768 0.0024489547563565283381 0.038173653695636779182 -2.2388121681762913617 0.31429336413443953457 -0.18745975713392759587 -0.22577542592452090608 0.0033311694981300269541;4.7139435228677157852 -0.26992296937328663642 -0.40091647426575754976 -1.404041675401249023 0.4513792111606872437 0.39117599728804053338 0.28784481499944680749 -0.089340755404069174817;4.4975300667845772296 7.511056411368761232 2.3848326489941134021 1.8123350732063632229 -2.3436931335220907435 -0.45885579988804708895 -1.3695232837166619877 0.27693151410926636347;0.60706124415907736225 -0.11775469198179927544 2.1981573674171968058 0.29429027277025815446 -0.39828602615201419423 0.9481408201682938186 0.078134856020331613924 -0.02634623461667823241;0.4710392085757855174 0.45863563397166323687 -0.15968630700595601302 0.59887711335628712739 0.29794638034126236237 0.43165061196129650423 0.096010485360603456395 0.022072238150623053193;3.4504467531731473073 -5.0838941598341769179 -0.30992146636016437711 -4.7480652067115736159 0.77682659087210714777 0.29009507201907314133 -0.010460797759301809773 -0.077608086491473687873;2.5583830344075275676 2.0496965849611221699 -0.072687695671907387451 4.2103926752091069829 -1.4110541987515230478 -0.31595413727660065506 0.24568344845551004507 0.016071797969661041211;0.019037936791923209395 -0.64893738472653095251 -0.13713942612102489327 0.079544955125691874098 -0.22812591537755483317 0.080779034835607971266 -0.017944524314620409478 -0.067834974701441286271;1.6003023991729383724 1.1361207941274518163 -1.0241464982292689534 -3.5207744142372425777 -0.36901546083910979901 0.96975681417605341661 -0.06648326790120753782 0.08520054494093473596;10.823921788905716213 -0.087289377902729545222 -0.46229706613134269322 -1.9323272712460746181 0.83440339693356435635 0.72906015074388264008 0.30001741867682490961 -0.0012997176213475551514;0.2866754609550703492 -1.7964215399703498122 2.1037807973004496453 0.43345741733959042286 0.96424928991811287293 -1.0631456977824900179 -0.31933262484182928231 -0.0088540160285822070568];

% Layer 2
b2 = [-0.4601018844496284621;-0.010209820816217823891;0.31224941944613732181;0.11825683780590304228;0.081288715582135878668;0.27512375872041328062;0.48495473935223532003;-0.22322367635631307214;0.15620925785301520428;0.1903284227239654125;-0.36475708513166510416;0.15680661618406566138;0.36971716193379755566;-0.13043235529606200807;0.074473667159411810479;0.67385044384822667674;-0.20085652247101407064;0.24699791716587221613;0.09137694432837477343;1.0312919828588897886;-0.069002972374654455989;-0.92383550097354483199;-0.02530496427942339685;1.0574884436521694298;0.45856065678725882462;-0.60504600703426547614;0.23800207559093020104;0.31242774982237642156;-0.081969418924491499467;-0.37511028173225424709;-1.007456330165614089;0.2556574519038859461;-0.45825335190564014942;0.38816686434895031343;0.54885623984394871222;-0.49547735348777610653;0.42236441624542231388;0.10790740576234132686;-0.093285747939277532947;0.28760507653816913542;-0.28618012799375858179;0.45205246033777402026;0.81732864220685874646;0.10834125990435787557;-0.52191303682896905691;-0.048278763993689140233;-0.76769064882609183709;-0.13618112639394991392;0.52873628504740355361;0.39369724206679101997];
LW2_1 = [-0.20259045345519408055 0.12227498243913506593 0.16378542996393705145 -0.0036004207980405355735 -0.025833958653974090774 0.071503624507915988784 0.11227074067430668769 0.28241329532343761866 0.51984621272958153604 0.17974560696115399194 0.07486888805565602989 1.0365634067642797156 -0.33927316667643492298 0.088259691547505361719 -0.64012922389312576499 0.32554344649670113876 -0.33729155082235112717 -0.34302958756461088274 -0.56655233506528646092 -0.088744368762561892661;-0.065507209518971765139 0.073302779185845517995 -0.040386967773911403023 0.020038166513571941535 0.087899867982022497626 -0.03612807611170831823 0.039762834083774283023 -0.072294497604242211053 0.051969786187919086995 0.028324965982001563958 0.13105103000053072715 0.01155726253112046055 0.051509660340113609667 -0.074402649786578123337 -0.0048160655803333599426 0.04683954549715472343 0.085173966913986390304 -0.016229865990473008736 0.026018683442179932341 0.11686888968332577454;-0.051378287281120267604 0.30912622342088119654 0.16652222435989488813 0.37562048963633137832 -0.017367187552759261182 -0.05563536386833677766 0.0072958002866058968561 0.070776841325587064313 0.027019396041157404953 -0.16111704755919895038 -0.0954613386424641025 0.22705481461910559382 0.10369349332866537039 0.077719570980812585637 -0.35171759651199957508 0.066050689885668506518 -0.24945667754553749185 -0.090323757056574208169 -0.0015407446414771215626 0.18075376069677656643;0.050416823159796071707 0.12031829051920156504 0.13218939478005484189 -0.015675372768397040357 0.33651331273461321247 -0.0025740844049963081119 0.21572395482781595022 -0.21991364461044973777 -0.22490236888967377049 0.080696026298086712125 0.4488146799351911409 0.16943190714426237253 -0.22591042053445109516 -0.45297287412490155889 0.20920451515427571088 -0.053348542767251344587 0.20136757867124374655 -0.12833330571980453017 0.48939530789512358799 -0.29621149994672085759;-0.49585239319805290981 -0.51637999175156990006 -0.20855461322999474527 0.12567476428508683739 -0.06973065737911182671 -0.54504937029272837457 0.058558292412090845458 -0.098623218336177112531 -0.55395432684301793014 -0.093173712302085695547 -0.18047132920135433576 -0.43813458443965591638 -0.38102659691687368326 -0.26725072007523453799 -0.1082921245801442417 0.057206201584725342724 -0.30331964036145009356 0.052735103856394113797 -0.14259575612782993126 -0.072542253317513599731;-0.37397982582752165026 0.38699014439912027274 -0.30252004032512891385 0.19143090162950271438 -0.20376935759810199666 -0.024004942336841743333 -0.09019525768657082887 0.011977371368166879473 0.24479133534248828652 0.1052638337892968512 0.076429318219803421552 0.29371646871501250198 0.36524709345771239066 0.13213551734375475477 -0.08177243154914591583 -0.093359055894965445321 -0.059040491942334780151 0.1659725095168625153 -0.032145516126568518533 0.11021999284270179997;-0.11120420994545678062 0.0068362309252216453895 0.27468771594722585228 0.0015832649126243010258 0.18953070633996393912 0.014806543534877075058 -0.034475797302120365917 0.90889611025497174523 -0.05900180940361928611 0.94283936411687208068 -0.12821877516008178821 0.22095769368104825614 -0.3775568350820257546 0.97057598087455554392 -0.1971158280094809645 -0.10720750700429841629 0.185109632041145028 0.15909590475763940587 -0.88110555340523033507 0.22704615991093310412;0.13924590749013390778 -0.13379335503014297415 0.14771674832985087766 -0.19332415449753637127 -0.29022452226344697124 -0.2149330010974389582 0.29649545538020449786 -0.12930354329110183009 0.42471081260993209794 -0.050222925598413924175 0.39495388208600912261 0.56907414194431515941 0.1531470749415856647 -0.25425011507782507847 0.58492011680109778915 0.25760732138439401684 -0.064501198596852687972 -0.055898994959794445769 0.28544341602152673021 -0.10458017424262348871;-0.40874635676228104897 -0.31082552532402679679 0.084675648670864342438 -0.61902046134224497642 0.269278507978512327 0.25516481441512128825 -0.26187473579564135573 -0.25297518479553443571 0.2181961055859284182 0.33965992745185691337 0.067729649738525299352 -0.191838344949066264 -0.33430294421766709734 -0.2121867354398123684 -0.25020161021300163506 -0.2144608814278645692 0.53034803519057138743 0.0037004829935481054967 0.50540627344608979321 0.060741193727198113106;-0.43431804533937884427 -0.46865319859892040633 -0.73956334237473764226 0.14226560041435903914 0.2807839497217921032 0.17309171210645232786 -0.3175822206541515369 0.043978371210517883116 -0.085367469889504846159 0.21552168857202005925 -0.0092296540117459205388 -0.12613364669449994571 0.60421734408219240908 -0.22440225513482534025 -0.16167825843511107742 -0.051323408607789978986 0.39457589195657677417 0.20389180938689438483 -1.3318472768019380403 -0.35949006278606349118;0.48876124332344911272 -0.25425182190662348747 0.36465996120805682645 -0.41921073468283526209 -0.19816924401310190285 0.35678550580717804941 -0.43073493685249092389 -0.29236604177963654294 0.96649278275291716778 0.27598167939305495722 -0.49235002331259219988 -0.25481988664369786823 -0.45022254677029488468 -0.13220451292430782098 -0.34480133435219506577 0.29992579561783155873 -0.54352459438554856508 0.11167529388254196498 -0.54200389477854471476 -0.090746328948596938213;-0.1540180563854953999 -1.4288419424376765932 0.72288733412204975171 0.74720159993128387743 0.074691469807010316129 -0.33651285155403182214 -0.10541505474943789478 0.23187263408940553266 -0.096729256393932996905 1.1251195201577939287 -1.3129381010338352365 -0.89593967454721645804 -1.0478528740237693651 0.22235293960114244083 -0.04786197978161586819 0.36921681442050841016 -0.25976404830530486212 -1.0458716663565221783 -0.23752398347641587306 -1.6343420002712247818;-0.49278708101109530704 0.64989854623963527747 -0.24939272814347243634 -0.49700363841355987837 -1.573856183584514179 -1.0209509892550541199 -0.2301630169248844171 0.43080574140013427886 0.240490942600456864 0.0088359467081479854678 0.04320207432459415714 0.80936382620125391085 0.27318336993378433686 -0.19564103162696946936 -0.95959524350954195082 -0.31914597227095237164 -0.39415461801582624135 0.2866633191158575733 0.53474076345411081235 0.38951830264961445627;-0.084918061387788068561 2.3224778016084401955 0.42545886493862139499 -0.68684258182715496321 -0.012686426238007001907 0.48500893905883579738 -0.77312959722304930299 -0.71090982625908449855 -0.6962809103736949945 -0.64051206915006420051 -0.073914372349173154686 -1.4021235109755314507 0.274490993779161363 -0.22144315724228846864 0.91609308797904931421 -0.2633587281529021773 0.46725484853958088038 -0.10400221344547895541 0.45386099569565391265 0.37822607842732591799;0.50285995161034124923 0.49189912874569791112 0.6634897181591391524 0.12813289308350878093 -0.16234265338344203156 -0.086979967910179797896 -0.3869482515498535169 -0.31978759474276580166 -0.052864308087838512984 -0.4472806673864710425 0.11617677078062668694 -0.17915031423358146467 0.0038112552328992189456 0.3626027890813537935 -0.030502050676007093355 -0.14161960816499977178 0.21760166668895522535 0.12044648175980060545 -0.1746657020057545695 -0.090553316078192877536;-0.023548878215608581854 0.19146635531543415576 0.12246532137485223457 0.28121561744350459522 0.38902889629896264534 -0.042895248325660037536 0.27113966385563437189 -0.16280915960874167703 -0.57577236032831047297 -0.092906071960634120654 -0.20031677311633686034 -0.24091158127716078008 0.11315251852103604124 -0.045428528625746825154 0.28726566098855421671 0.031533875806784794626 0.46282617131053532811 -0.051893663196813107075 0.43695096623645474088 -0.19795185223613498415;-0.04119702544802213845 -0.036599290966597218533 -0.021566129659350691955 0.45795675739644287061 0.44082979600666227782 -0.1416036866475921252 0.078330593539805551395 0.023269940799907618684 -0.25313151247795684373 0.086520651158151787308 -0.31983853304277193308 -0.30753807898702606449 0.13925695158674886165 0.19614740934468485878 -0.14768443418513002574 0.23953563868751417965 0.18293188947934690969 -0.36026817327711824213 -0.25518995691964874162 0.041262190581800070599;-0.073405758682940733251 0.10007422760570629239 -0.30857066751144190953 -0.50256326342565904586 -0.1595468659636927744 -0.36974396271758314114 -0.22692256510987698914 0.1316027965465904892 0.15271856719303006367 0.15803607590191165455 -0.33105548509864884954 -0.015784483226849058829 -0.055175633634560093677 0.054707279724357939232 0.24917651026432929839 -0.2557006400378984412 0.36074678163065126979 0.29193407787009184595 -0.37483816601784675226 -0.2209293999082927451;-0.0085215517106654418977 0.24997290697596907805 0.15045197406453464373 0.084800437373237336214 0.22030916776323525297 0.11647210692385816244 0.13064120931682418614 -0.095802920279171310813 -0.36536493992850527235 -0.19771032014590189663 0.16280108193981834841 -0.19703336048271596903 0.15411643446096706667 -0.11493955960730639632 0.35216500868262523571 -0.1380225388565730904 0.49959933746583878866 -0.17692693226480391 0.072483478071558679612 0.18347702928293144198;-0.093002531357776196952 -0.2272881395355079992 0.3989215767917298483 0.55352286509889969679 -0.40108152058935880868 0.55791393223084551067 0.39040585701787150485 0.26015259547659563832 -0.11709357398105059433 -0.121972772439909935 -0.15870681210592707533 -0.089846119254631248707 0.19436899214866040775 -0.33878327916887440718 0.218417976072066089 -0.019833218445418170778 -0.19674533125269866307 -0.051018797009119785935 0.57603874415970868217 -0.063567020761107095872;0.21533141124961752144 0.45955150201089695061 -0.32452623855668205621 0.37371688837306671349 -0.13773266780517154362 0.13349578267230702289 0.37535807034209167643 -0.25213844440597582564 -0.20003852598386751005 0.48519243799383898752 0.038613760898238327912 0.057174491508821326247 -0.27396410931370346331 -0.11458069910620213849 -0.031820152714858641885 0.0067338572766689223578 0.32601240795217262258 0.056837094111342488512 -0.16709442509611996397 0.28863051323630262157;0.40800703650800601574 -0.85539321968903647697 0.50221307375163681819 -0.2477476330574679142 0.84139283200004943986 -0.23501292462223422053 0.35352334315719136093 -0.51167981794252659355 0.42363957275346941778 0.079940488461757636118 0.036224100655116407699 -0.14304411822187798609 -1.1663492241380517545 -0.69928299662688320204 -0.35705256038345467573 0.66072844039172662356 0.41562597330436107379 0.10734058382734652792 -0.90015802121377352929 -0.42341247303577628225;0.015695245404226738917 -0.25143395050022110393 -0.36723107018684758573 0.12324303723054633175 -0.48153702414557175704 0.29148544104691964662 0.57715852941430556555 0.10211186302235122914 0.55438068946208307608 0.19239362179476479642 -0.21252585066427204241 0.22816633133713318249 0.078941310649170759461 -0.12537852564238868847 0.096470815160648829001 -0.056574325207885522993 0.64479363677832901569 -0.34340656057586804728 -0.0031775521274205768482 0.051325844752636691493;-0.58066282344077713162 0.34440469710055343633 0.06863584284005874725 0.05415125772534570836 0.4386300743371009947 -0.68368516829644487842 0.23335488189224073974 -0.40371495158606085507 0.11885108584429138201 -0.024762450993548349581 0.28412808437471648304 -0.82360795855249646635 0.86844394036419558791 -0.30594917162058754556 0.55074465800257321746 -0.34062595398714529127 -1.013558929194280811 -0.25820561435670691397 -0.17429237209069606274 0.74090797830897747733;0.48399309679214408408 -0.68883039464245532368 0.046104138903053717979 0.11138388028497259175 -0.1653705910098414722 0.10781724932176173226 -0.24627512777138993449 0.085993293705709017427 0.43285348956331798354 0.20334222115470040881 0.032726199452101596699 0.074818150289024817901 0.14935033693838489777 -0.096573164532137698024 -0.29709413729266997972 0.22834947168196803591 -0.20867087174482767953 0.22107939571974008497 -0.29286999390205414873 0.1300761474754474345;0.55086981027802905952 -0.051205435122981111939 -1.4822780256234979745 -0.86627016576156967709 0.48438101729615551383 -0.29288836242131438548 -0.23046169546110822912 -0.088425881671333597667 -0.033728547037943104603 -1.3934386227815531711 -0.4509823061039758274 0.074913219574248499089 -1.2855008251203725589 -0.40346733157607916898 0.017797333160734399998 0.14141970403030565406 0.44742668947085639797 0.2155539075504617208 0.87417978773342375209 -0.017967341084667062812;-0.2745686993329472525 -0.63494057513311497054 -0.12369423699900122804 -0.31446761769440939593 -0.53206116706292738705 -0.15445606789119281643 0.099385934758523350463 1.0351885330463654888 0.37665240499707086652 0.50308805579542081876 -0.05103528349457437524 0.66525534256214780005 0.15855426146107537422 0.37537211364930522794 0.30229650205954150533 -0.14762760362796237268 -0.43739847183992452972 0.29814697463992467785 1.0107104238442476962 0.4722698742297165575;-0.4829328109906946831 -0.1701635565686285545 -0.17436575449305505292 0.5998116259387924476 0.016973343806655563637 0.16468104552393875162 -0.17073073470411431751 0.018552322753983632037 -0.4083929689016307929 -0.12778332717846110911 -0.10437763854332558766 0.12607298101450317707 -0.33588113824915716288 -0.3969667986504940016 0.37845464748340224004 -0.35874890799186887058 0.019481851725403419306 -0.040853894766392534477 -0.53550456975814897387 -0.24860908064048156674;0.74247375029546047731 1.2056162167020485487 -0.97828935054507493163 -0.85470501730212400382 0.31129924178468348916 0.79278458922420558252 0.54042492089947014033 0.36549213451487622129 1.2025768409661254932 -0.68319640639912360136 0.8874804927474984062 1.341937000207551467 0.6175831076452216184 0.17542050288535279701 0.56543232638744178598 0.71195330682052671012 -0.020428818593608594201 0.13393933074768313296 1.7948115899441983156 0.43915667770167327033;-0.50827585703978572784 -0.68750059195831347836 0.9434789913773805603 0.23049382618906408271 -0.53577222155719295138 -0.46580936241221498895 0.12141979123305263188 -0.11070533067677899852 0.21196748170832460656 -0.36866787365806724663 -0.042444115990158189089 -0.022907172890498445766 -0.42707182687451139547 -0.082806696599991250207 0.11447828502759944957 0.20292103992082219377 -0.39741556500095742699 0.076214360973015343736 -0.41176387489694638022 -0.0099664806114814069593;-0.059781913386309344649 -0.29489684742896460357 -0.20679986827838345298 -0.0011421212658378524472 0.44298356055020826627 0.19644205279293705524 -0.065354450382497153438 -0.088357066365341990766 0.09048498128676284169 0.2733117275735614804 -0.22145875819409224783 -0.58098270241106630962 0.064892961480050831424 -0.072077619207875961993 0.032948485691910958661 0.016310449788389302928 -0.51160548018101770218 -0.17875778948823689563 -0.15911069740841604636 -0.058531128697374819325;0.56566601381153758243 0.77362204209789275922 -0.23094783557917933359 0.35412311406691099336 0.31877219158221231643 0.1782565561193368564 -0.10487375109893555536 0.22390848775683477867 -0.16033137301067515446 -1.3312691266582350469 0.71879042932321757231 0.38926656033096035392 0.20881045436169184959 0.40970530166191176935 1.270014720091116045 0.316036511554913635 -0.32238889905115430956 0.89295595387012605126 0.96199409415982484184 -0.41790422578118618935;-0.029690172897612929215 -0.86960658092192988367 0.31098008507289737201 0.27923719138142810703 -0.32979730520205158273 -0.04262249504279580492 0.27622935721172714452 0.004460504997956513118 -0.0062902641849053456471 -0.12500537245230916583 0.29246669667556474126 1.114935254248213381 -0.25566675145460443508 0.13182132016842637579 -0.2436916672170020004 0.1655236128460546019 0.058870197074293931228 -0.25883244107376385257 -0.51563331377786270071 -0.10792481408278387089;0.15889417306918296457 -0.73031103593864987733 0.34491899113958002232 -0.026624569820632954659 0.2598737770725010332 -0.20557523256175058712 -0.66022130391207889399 0.44232322109598787296 -0.29588973744035862445 0.46271288456494225061 0.0136634278002770327 -0.31499648627648124677 0.4259394552325254657 0.44643604995496155574 -0.98581820816280385511 -1.0507321029833578407 0.25408845997406226402 0.54563398015477670988 -1.4981836771514582818 -0.20594273179709371435;-0.22925784192894849145 -0.12054448753133226169 -0.26436170267256919875 -0.02536756516858937674 0.36307153278286841136 0.29161104742958854352 -0.28218176968690333872 -0.20920219584436550164 -0.10395300955220951322 0.37401476361296626116 -0.24099614074931102747 -0.52801883227654322628 -0.18650119681659682591 -0.04701332866479996514 0.38079944991256481357 0.040125885639285069351 -0.2032857362779924848 -0.078332563216380143856 0.6489681151939328263 0.043491673841738340278;0.24138641761061679913 -0.75047820835064038558 0.3091916161343646885 0.30740211254371335725 -0.41740429802145062599 -0.22042159337347222436 0.40630252459255122854 0.2187638815305619211 -0.16334811241518015779 -0.41604649614296235205 0.1373392317548615682 1.0199992003063973467 -0.044576863625480023234 0.25183686729965776285 -0.51211724998872232284 -0.037334702028124028272 0.3307608712887235014 -0.015999474290500973611 -0.092416826967178858365 -0.055885264447613901273;-0.33689394358878405056 -0.2654103026539056942 -0.55464745775306489861 -0.030961232710199407953 -0.10037323773958645168 -0.19964216749699770226 0.35962467412854931537 0.11280703833282165749 -0.2989961088156780078 -0.28250689002675577477 0.14601619297783846596 -0.13392084596814493591 -0.05008638082742565556 0.16346823126247062019 0.088244530595554454555 0.039051961164368272084 -0.036982009304666066396 0.080243701685056151307 0.12696704514762113813 -0.013278621834870328253;-0.022286188614349947829 0.088666832982547516551 -0.039089199596176620044 0.033606819896631667799 -0.042251446667829574422 0.061671571667822271123 0.039243517075211196976 -0.03594034591644714588 -0.016681289964534731785 -0.018628685596152650544 -0.04586550625917798496 -0.0069220753938842851868 -0.023758877149831800907 0.079447600724371819636 -0.03802589688266575646 0.073827173671192042326 -0.080504647909567433883 0.012291800908882434887 0.0022351627054040543521 -0.0046609664785138950685;-0.03297366766671922661 -0.018540966803823579617 -0.028416747146095065746 0.25780570107028788485 -0.16383649764229843426 0.26082996432111216212 0.23901138806281044258 -0.36211011914033719439 0.35752140081494887536 -0.18440816122080930239 0.3266258764117752067 0.13701370361930564901 0.13115704155934523878 0.30436725335511599644 0.028367328324710255893 -0.054659860544625835099 -7.2409591793682476224e-06 0.15325412944414695815 0.13135486353739986298 -0.14297212214658239215;0.17453813795443356982 1.1221897383853904895 -0.64130673487082368034 -0.36119620216128800472 0.075527168278298348336 0.30501539478784139847 0.14759247472736836126 0.21790497717141013578 0.20542950902433015914 0.12949607966237658419 0.63918538522044099359 1.23978605905881345 1.0017153048061702147 0.28274869072668867842 -0.37590134293741850335 -0.49926018816759465402 0.26911348415097674502 0.74301263182538446195 1.2831757957614937649 -0.21834537496513875543;0.36947587063311321254 -0.32393100067230629069 0.31405243284868367137 0.4159136133465767271 0.19415345582979459671 -0.24978302144048569744 -0.43483213141223708842 -0.1367422831376061132 -0.41154745429083283703 0.40827226762447177411 -0.19588314897482592136 -0.081764730801724250231 -0.12400720975051439388 0.21020382999408562807 0.10709455766380594766 -0.25023123880183606449 0.85359059947409754443 0.18781183445347990335 -0.86813720616865786006 -0.27402507662454145265;0.025782171419349245861 0.34418287321226603837 -0.17034185337368498714 -0.18019543191233833301 0.1254746052085783381 0.36430874840128968373 0.2884260744087656092 0.44651086203771533922 0.21389143486077474843 -0.34025960825712586733 -0.044909018001385102303 0.84101946494370449781 -0.060830105176930236721 -0.49345948276995399429 -0.61273295862931786981 -0.01539575607636608709 0.1842785749253187666 -0.011485776588167287068 1.0328117404826235859 0.074218695544679871845;-0.2757987319286185901 -0.10478474695591878663 0.072278211029818517641 -0.18963657758234578332 -0.0089888505922085006061 0.24252998376981255158 -0.25337002491757587563 0.13545296962850175704 -0.050353471232115094847 0.24197927224877111008 -0.072993734037389693126 -0.011211093128280920708 -0.42688490909727849765 -0.37271364951467716997 -0.20513250749895925451 0.06158264182583564339 -0.19598778453252027609 0.32769533252301186188 -0.49603051554135846324 0.066122180971959973461;-0.21179567139005750498 0.043242318224323124387 0.050869827426216034094 0.0072505354891550860205 -0.46402471565217368044 0.15907322665248332938 -0.26634431189825563679 -0.23511055694044055708 -0.25745986543595172913 0.15833573575863160721 -0.06665117340239175292 0.045751806978954215333 -0.23835864083994015572 0.00018941856198280426771 0.14651561065493207137 -0.081335506048864247841 -0.18951067475820229657 0.13150605865681883055 0.0011787679414025746538 0.087803300451752677724;0.59488459159644690999 1.1935310251677058169 0.44688891116925871794 -0.78757785538142566217 0.013532148645105386564 -0.0828671344925271669 0.13408792691457580015 0.101982634161498803 0.86625485064292551129 0.12044953298384653007 -0.015025491308545725622 0.34341315629576735224 0.59254507070364959009 -0.13762116236101226696 0.8008745270132374694 0.085932900122298677692 -0.43300927258362215122 -0.028468848851571970648 1.0673854164179410464 -0.43694685790392046032;-0.10235334179831513668 0.078705353631191035668 0.0075680046540980861619 0.10207677596428889333 0.058869536042933524878 -0.010094039304031240251 -0.034419327777348393549 -0.088547163815542576093 0.071117752231726324985 0.038467450408339418089 0.09650164444114756046 -0.077313668196254708986 0.0059146503403733610357 -0.090665866550759352527 -0.013883512156301555662 0.062397913260115366041 0.1226131101672668644 0.0031197326269594852569 -0.025561725173937788202 0.15543313599148814164;0.014073488851239596489 1.0926277191405326938 0.068237555539161387497 -0.31373592658136717493 -0.099849864271037994112 -0.76225406386135530212 -0.52572332628357132389 -0.1546303797963129445 0.29071987905633861482 -0.098445098293207231044 0.036412345850804779535 -0.22499882262772727404 -1.4119145452701060695 0.43759017799907395929 0.21427853333969074101 -0.060204582244353412046 -0.46737840809498037986 -0.41207851435380077332 0.49052129314218090306 -0.19614355710117631348;-0.1673455845514450202 0.43563203700852948241 -0.10025370910499249721 0.13768709032326031938 0.32327295614682749481 0.21699646174528744447 -0.20876940491357956486 0.34689323375791741855 -0.10732959875496882185 0.34259570370899600222 0.13463173320044205528 0.21196623678606441032 -0.001026768100594478662 0.12209484242661096387 -0.40537643073967177809 -0.073875884668160460289 -0.15035516333265055988 0.10172365255753672286 -0.34737980535694357176 -0.01106797837951316657;0.70869717708192492278 1.0789201327651569695 -0.94026535536898070422 -0.71062784023491698537 0.1429309590589795953 0.82990072602608044861 0.43432411484340366359 0.17412158807070751698 0.74528162829592725647 -1.165514160511423869 1.5550218205499994895 1.3093456725280914199 0.38026913590845135005 0.65896285433932810793 0.63987249519695565958 0.80691845939569062374 -0.50839371466994520699 0.48971505971722023576 1.4685928291421381786 0.75761343739060460489;-0.094163862793173971899 -0.1929244593087177384 -0.17122334530960503507 -0.55442586606074972799 -0.085269808055767323807 0.025466923598157047148 -0.40762735780028208632 0.28040096864953883982 0.32239978299079435908 0.35673506035124230573 -0.2951042470136825413 -0.040973559580623465648 0.14438480802615089038 0.27603448522052559388 -0.024199978335739783658 -0.45970275180663988657 0.50210604488978971549 0.365897953565588685 -0.19102972639830242962 -0.044605232996775670551];

% Layer 3
b3 = 0.35148025132708071716;
LW3_2 = [0.33894518450579058655 -0.25959344622739538577 0.5793987554462477485 0.82309068150299491418 -1.0707242408299353364 -1.0250401802463298129 0.72922478476539420722 -0.85038202846453292416 0.55464041984941214736 0.88216813052292875064 0.40587150313523645551 0.16856316260225284731 -0.22300593563850854006 0.13262217405891998934 0.83477975425536121712 -0.62162932852137764428 0.81030440240775458705 0.8787093720796536056 0.89042422431216905476 0.54305803020291443239 -0.39508219963230206684 0.3245857936896490159 0.4184969238088234178 0.1792029603178208752 0.56994199657895827649 0.19553465565520461444 0.3775945448932284676 -0.52132973516312464124 -1.469321700034603051 0.49522043964583845055 -1.4673548087220249503 -0.8511258380612908292 -0.89955534100494038974 -0.65460678812628680934 1.0513377167643163101 1.0129108206997652353 0.81108022623383035921 0.044961397331254614185 0.52657763720078354375 0.21423939859517959761 0.60329895786893172893 -0.46134012869759805087 -1.2210578058873597929 0.81696749184201522542 0.94653101515639670449 -0.24264681005395596913 -0.29324862529039019687 0.89316929149032653346 1.4615936554730102337 -0.69930073451687679853];

% Output 1
y1_step1.ymin = -1;
y1_step1.gain = 1.13909747029234;
y1_step1.xoffset = 0;

% ===== SIMULATION ========

% Dimensions
Q = size(x1,2); % samples

% Input 1
xp1 = mapminmax_apply(x1,x1_step1);

% Layer 1
a1 = tansig_apply(repmat(b1,1,Q) + IW1_1*xp1);

% Layer 2
a2 = tansig_apply(repmat(b2,1,Q) + LW2_1*a1);

% Layer 3
a3 = repmat(b3,1,Q) + LW3_2*a2;

% Output 1
y1 = mapminmax_reverse(a3,y1_step1);
end

% ===== MODULE FUNCTIONS ========

% Map Minimum and Maximum Input Processing Function
function y = mapminmax_apply(x,settings)
  y = bsxfun(@minus,x,settings.xoffset);
  y = bsxfun(@times,y,settings.gain);
  y = bsxfun(@plus,y,settings.ymin);
end

% Sigmoid Symmetric Transfer Function
function a = tansig_apply(n,~)
  a = 2 ./ (1 + exp(-2*n)) - 1;
end

% Map Minimum and Maximum Output Reverse-Processing Function
function x = mapminmax_reverse(y,settings)
  x = bsxfun(@minus,y,settings.ymin);
  x = bsxfun(@rdivide,x,settings.gain);
  x = bsxfun(@plus,x,settings.xoffset);
end
