function [y1] = T202020(x1)
%T202020 neural network simulation function.
%
% Auto-generated by MATLAB, 24-Feb-2020 16:32:05.
% 
% [y1] = T202020(x1) takes these arguments:
%   x = 8xQ matrix, input #1
% and returns:
%   y = 1xQ matrix, output #1
% where Q is the number of samples.

%#ok<*RPMT0>

% ===== NEURAL NETWORK CONSTANTS =====

% Input 1
x1_step1.xoffset = [-3.22336;-3.058485;-3.251364;-5.629747;-7.902363;-7.630164;-1;-1];
x1_step1.gain = [0.310235282438201;0.316868377153853;0.307563225772322;0.186375103939066;0.135346064660906;0.13424887486018;1;1];
x1_step1.ymin = -1;

% Layer 1
b1 = [-1.254312790336045369;-0.19281943399428058683;-0.10603787025647516684;0.23392416348776629009;-0.01880573887653694265;0.22461684893811664776;-0.50585745941834270312;0.092302400223326336315;-0.30858793741294066049;0.82148799073148681682;0.46827877859558986184;0.23126111640264515601;-0.19002562253582344631;-0.14081809593589048046;0.9254032601633486177;-0.1221752769200538935;0.047251534865695721255;-0.21702488524047933161;0.6338161164097586564;0.96643189876735380306];
IW1_1 = [-0.39665793059647469487 -0.45631839229681880887 0.65514614368741230788 -0.0043664340754263498284 0.59312179350876692574 -0.95511493796481716778 0.105689811290293742 -0.037479355358389435104;0.070257790529846209093 -0.59291348732248938536 0.79812732853187484672 0.063671963356868352402 -0.72102801931898297116 -0.088467575897448080813 -0.035337715896515194125 -0.01406706115658414892;0.1228966601382833479 0.026421959172377350311 -0.92671613264539154375 0.52974359939468462777 -0.079067166215289114151 1.044083045975087165 -0.45150941020408724702 0.021702361879713204934;0.9305228529553448702 0.27559514251016309361 0.12015928073108825269 -0.038500955614257349746 0.16061782347356023948 0.25550195049314916584 0.071623690177686688552 0.019092008109909405084;-3.6749527157875441219 0.27827242353457548596 -0.76832950280784106933 0.13932066769901307879 -0.019803002942033930134 -0.31911144710856675921 -0.27343229913388950036 0.0038173301010139002246;-2.6104545802079206496 -0.11079802668622848461 -0.36216656419005255341 -3.9809210736275728593 -1.8066166023383543049 0.51482687530702420098 1.3691848997595705839 0.1920889781395375695;0.072419410360935076998 0.22061324564071363441 1.0255083829164044484 -0.89387522456441392826 0.65794786214256473222 0.33786316764670221158 0.15669654797039045402 0.015427829846476441567;0.054186476043789545687 -0.085450688124344822971 -2.2456268625065134437 0.656126072197233845 0.41590776711613808292 -0.33011856911919451596 0.020692292490228973018 0.0075062616370179593983;0.64033820224175042046 -0.22493484414401018756 -0.13061627493680227907 0.45227691469287240045 -0.20354734305339103329 0.15365077897190809741 0.2109130054628589046 -0.050259751705033647862;-0.43639243479074896204 0.19918710713256745914 0.13724921706147516498 0.23209832721246742571 -0.05383001536601907111 -1.1808096519857542717 -0.085352032515387490919 0.15835394679920752892;0.13108126984207757459 -0.81920932317781491872 1.195847845152423039 1.2438844174337453374 0.52898798743183728099 0.21769054867529691322 -0.55754869235759496604 -0.098662287670402831763;0.53619338252069348449 0.0035306820812327525602 -0.0681348594410348396 0.44259256531783824906 -0.38740561935349493439 -0.3636107367488635167 0.031273883073073195649 -0.013112637528824135427;-7.6539050723618542449 0.56279978856279777588 -0.45374655735858099304 2.6657062589543190079 0.22220194762033865232 -0.20182189261236854749 -0.14813472601092014802 -0.031545469678659163182;0.29083162274493667976 -2.2180191037271281829 -2.2290460161184824095 -1.2412212989565147847 0.49786334716554614399 -0.087491151932175187378 0.56437458686144781339 -0.04237214682993799969;0.66678458744944446579 -0.76982164596221769326 0.84970328591997901224 1.4259957053192038323 -0.13687565574719745554 0.58979340969998395039 -0.11979531525137999959 0.16799183745375012577;2.6577756792972326849 1.0431376779039831515 0.08272985521281436827 0.41895634265062353663 -0.84777675509306171797 0.26514050819500728506 0.21991531782163714626 0.021507610541408320876;0.4805865953340296981 0.20436591329282047247 -0.0067649516327875393318 -0.21366936319452309312 0.88261126365273290251 -0.052390542467744424804 -0.15990969010340974621 -0.017116854815010615343;0.22037247482845526148 0.062540276442830083914 0.80292801497864574323 0.8091311096552633586 0.31048660566952163142 0.48478621348504441491 0.28740024865495655826 0.040789585760760971311;-0.46674038048845656323 0.19816406903558689279 -0.29616212374369571547 0.28006656861894180244 0.13285691460935486474 -0.035572083832448295193 -0.32329415543165618274 0.073214311958211236719;-0.30720492171025370887 -0.86875880238922942311 0.54690420840264830638 -0.73374389709873455434 -0.30619064323205508193 0.46468711143681551423 -0.0091191744135131116294 -0.10100359600873563826];

% Layer 2
b2 = [-0.18507331241388849663;0.081917461170414762606;-0.19440780102624599657;0.17957974684885455452;-1.0081971985950162196;0.10013833709147450246;0.24741626684374215528;-0.6932271060104407967;0.39618455057483298321;-0.23650844349571553682;-0.42389738139315880083;0.13445703961156107997;0.41173813384298740825;-0.08872779669052355267;0.26257483860262659237;0.44555061239791465821;-0.60791215227956785228;-0.37177268375399669109;0.017661299953851638395;0.57350488207611660663];
LW2_1 = [-0.27125310538379437952 -0.23678518369093587426 0.092045251061320831898 -0.13537730090898075774 -0.23485432801936753644 0.10430113610699398574 0.29595670795004352938 0.39828789944276660195 0.0073681204995710665104 -0.20370635232843953277 0.014248533783051476817 -0.46203464433087487739 0.15896808781980900638 -0.26673812032124483151 0.099839357751543802988 -0.51120019941228789229 -0.31224424928734711981 -0.55403122774371182935 0.46444520417469281615 -0.26247495609683624274;-0.19402612512369149522 -0.59771422805427931735 0.20428698376589929375 -0.066632418759598632807 -0.052325148181875620612 -0.16961214548920600098 0.44617113678640152319 -0.057185548710829814389 0.51642826744564784835 -0.066472137998363323153 -0.1241743573947023116 0.0094016675200627661257 0.40678319145662372724 -0.37866796680606140679 0.1348407475228180219 0.36540639607037356251 0.26766571757858798053 0.36996941111916925582 0.015301987117104362199 -0.29255626316581356816;-0.53162245932261076309 0.2470153440868030903 0.299210532436543164 -0.42221250002379961952 1.5733832356034833655 0.99794920639898854198 0.8412171437144321251 0.91782867368440035349 0.012373102517606451162 0.066254590527487597362 -0.70246876985410322547 0.32187032267047493983 1.9164256245918052102 0.38588179418895796058 -0.70993088654376301783 -0.71337489722996472175 -0.1576726319538875043 -0.56081503139541077907 1.0055520762516336752 0.44804650642946342032;-0.42447405207859822962 -0.39855373088726148145 0.20262460346961644331 0.44873529121689842425 0.44123808182312607151 0.067860407352345525345 0.054594670797439966148 0.53155188358319094277 1.0139552599931822563 -0.26497377354963275176 0.24532733768836356703 0.098299746490620745765 0.73905985603011647989 0.2475712568086484433 -0.1901744277118863069 -1.1201090815132621614 -0.74199692344024159585 -0.28744709414268138081 0.044012356935199142827 0.052264814186480636204;0.16306182578918582138 0.16836882615978676636 -0.19262553015236269505 -0.43734882332705465879 -0.16507818092284434752 -0.008310424434864941215 -0.17789180726078299144 0.028369683548653025496 0.3338623343511101238 -0.14989373230860708608 -0.043681581631459923121 -0.037920798751071883859 0.3540653054973148528 -0.15740583803014199238 -0.063271052351946438508 -0.2440283008760549821 0.19636713409414183196 -0.20866446569665866861 0.3087584397424513738 -0.0061562385119341509615;0.20482689233784878713 0.2381061532740150477 -0.56665254534154185784 -0.14164117818762098078 0.17741856593011032239 0.022853768777748025703 -0.91339073883192423153 0.91605903607796779209 0.40032169259477157208 0.33971828470676146416 -0.30683137660967862992 -0.060986337036436438774 -0.74778902482090714443 -0.10345863783535728941 -0.010665611833432378855 0.18195688194853065767 0.72069058908895855531 -0.61850293181863014169 0.058790315692915082191 0.027051538355303297173;0.45645616542855865783 -0.65334887935716479124 -0.18484623877313691165 0.15938262015587678633 0.74723846819452299783 -0.030309320924319871349 -0.094588787691053610729 0.2658377093732649521 -0.084101899109388977838 -0.025337572818315137052 -0.44295318057984384152 0.017797562331929563106 0.56314411158701815907 0.31438123833390674289 0.045185699563737261042 0.15957089907224158987 -0.1458814362642961715 -0.44883638800662045698 0.22550231863185943304 -0.21484559416647244778;-0.1210334706429885554 0.18584649770520522694 0.21046012647232129056 0.20299573489914349289 -0.38736910264159313266 -0.095122149919034018617 0.40506153487539370284 -0.28464270149876852445 -0.061892340915615823294 -0.34583628554222378693 0.27038047540318532747 0.29187622468593626968 1.4105086292133859338 -0.14472637532399734717 -0.16271216466107518706 -0.27018419335899795941 -0.57762474204949421086 0.52296379262042669289 -0.023933703146247022053 0.14643495277493881468;-0.38243034611202553208 0.45665386671479796243 0.1681296859484808226 -0.1140729852149428708 1.1762397641912272217 0.63507099521334153813 -0.15660395505242122316 -0.40927539904461901488 -0.13411541087844280895 0.03463448677381142371 -0.98215907139331892761 -0.9579943490617405244 1.6707638397792408114 0.44768306867055851495 -0.039881219007136654853 -0.87242116336955610745 0.064974483053893916651 -1.2663433598023658977 0.61909871207375144486 -0.25655156076862944969;0.035774717435413334876 0.43620752253494132766 0.43710489287299386651 -0.084587243092996977634 -1.0028678679549170027 0.045404234193472434167 -0.61525049738297954427 0.51753083638860131188 0.62498097273256825179 0.34327051315475509696 0.184700194105404919 0.30100939836830142848 -0.30908389001341390889 0.35564942860886861187 0.093209832555957300437 -0.40810401203361484912 0.53794118086615194674 0.51455218383855372277 -0.45511882587992880111 0.57353323273766243506;-0.53883410293260758372 0.26665345184143635082 -0.35344405721436722434 -0.0033951308027099207781 0.023197342534468517322 -0.12893414281934464927 0.51614460518574800663 0.071882482072955319885 0.49734024284444960928 0.13890078991197749025 0.16103727633938383357 -0.056541682232686893417 -0.33259849245506295512 -0.21029646279156716249 -0.22902384925832541818 -0.011196561479166316708 0.032474858532946779266 -0.20506512210773297777 0.19931903212016913174 -0.53153566364520876686;-0.59990601127307052742 -0.23692876725922759618 -0.2399420497726120205 -1.0425966072366050774 -0.024831537070974015607 -0.12327033266385185872 0.37614471437079494143 -0.9819248415045291889 0.34287817080297944283 0.11249132831865195359 0.078125263247399379107 -0.4118398430929435805 0.41688207703161944684 -0.33314759627322049207 -0.1789302631605866889 -0.036345618907530720387 0.047178531847959379042 0.092865516718341575841 0.45981739836605489691 0.057823072304295716761;-0.097158870626496113276 -0.20142617190204062383 0.035582326636818213672 0.47733387638161894895 0.10050026989997049021 0.17064805778949906911 -0.23491514161296184193 1.1615634771047618212 -0.15991627440546057892 0.12266805643929387659 -0.23083629028054258869 0.80748740129057761106 1.2804610852735966997 0.18910261718489343452 0.14021258820021631486 -0.030971105357974385019 -0.12594939267693511242 -0.61579043631781771317 -0.47572510534032458329 -0.24818127848399476609;0.054613248318274049131 0.043638883695091994219 0.15390404240029040284 0.27242362344222315063 -1.0016621842714121815 -0.68682092099543567976 0.46801076701152294346 0.11664544461759836225 0.34321854399839657468 -0.73756022213866856418 -0.23035688541512153171 -0.13876082352438448564 -1.7356844367458237333 0.62736074708082956164 0.4821600693596599374 -0.78512182103594052585 -0.0092021242510987640711 0.35758747979894028868 -0.17867350165883963409 0.0058876930092288844165;-0.45744931395673127383 -0.9443507566133843012 0.25639705799721096424 -0.45523857597405542608 0.1152339398982904356 0.083619939348771349374 0.70463739460468077791 -0.1018587864316089775 0.29645616946183594997 0.14796467137735122566 -0.14708038684507676597 -0.19617248394261760369 -1.4104288583920316924 -0.20419645774919234493 0.2921665795732044657 -0.36637323240923330703 0.03181753248043735216 -0.11497422432700597772 0.35700874286239131505 0.019253799547836882022;-0.1184571590528773477 -0.61245063843902081135 -0.4414415498625965939 0.25180905697983979596 0.52070934644220101539 0.080444743054449874275 -0.09328592325727955159 -0.87164401037935046457 -0.56328396409004910517 0.069371461625900812664 -0.22694947758536146432 -0.0046402107367889532802 0.42119090948566889621 -0.34551413162803934487 -0.13608515390234610098 -0.32293500331378155455 0.3062812927480011993 0.28180918298017348933 0.19848752579518355588 0.42822981926669168029;-0.043583023821448033108 0.45119226305318210768 0.574255916487703022 -0.35660332448458281762 0.36919858472092587087 0.2738361664920050953 -0.38015892914087984211 -0.24214996777271768913 0.052930151507325079452 0.12957498998509658916 0.05540059673843923671 -0.36944557366461194814 0.098191568000138368388 0.57799467916225000241 0.045680532921219568765 -0.39133067132867144222 -0.55807828598290587507 -0.4265862663629797491 0.18213998520129628944 0.27548128915451386423;0.3669984838541622274 0.86457929851856518688 -0.2455005967975937009 -0.45159536051921483901 -1.0391441313009479597 0.046240385695373573127 -0.41487220015648368365 -0.41750316901574574535 0.012241378094234440371 0.2652406136181136298 0.48604663464722724919 -0.090295645061185023095 -1.5953111329176852262 0.087097523407469151779 -0.28552022392265108408 -0.23136997300254191767 -0.031337248004091183828 0.042480293711793057354 0.080617702965947488081 0.37165761242022687938;0.32324158572552080804 0.61999238223319252938 -0.47916613132770624617 -0.45922600456309858874 -0.22860024248453292284 -2.4034968355484673808 -0.11433968219386683729 -0.29887413573689625146 -0.22719844575200651149 0.80177412622926702568 -0.60936977901256395018 0.17048382918871879399 2.4341088382787061661 -1.8732898287311399166 0.63360301970528798421 0.87348742209235030742 -1.3275960630273153651 -0.043434278395053586841 0.16627347697128616599 -0.93871346469962679837;0.75321426695702276 -0.41291829646762179262 0.11810238766082092887 0.79016352064807182654 -0.80022137214544319939 -0.16176693735164096588 -0.74414474279869724516 0.1167102184323827313 0.5069795108607326739 0.27672827567604446619 0.34289492578111030463 0.38785390762372612405 -0.34670692544657250034 0.033739982214287859985 -0.1159047155661988987 0.55483002245819668108 -0.27245171416181690471 0.55534181463590570615 -0.46446402427643285193 -0.16021811537278929372];

% Layer 3
b3 = [-0.10665708097754385275;0.053338423695177633599;0.09880348328693092097;0.65858245582413843522;-0.54699104412560406452;0.72268042472362392648;0.3104084308223930555;-0.59523189324601777361;-0.57285826365480951861;0.052858381847342830739;0.28468375493238823326;-0.73461835722458435072;0.21129445068152161169;-0.05105660541240670397;-0.053145083318320511523;0.027243906853776572036;0.056443034098873294535;-0.80814438948487110626;0.20295560131602966014;0.35310247046604814614];
LW3_2 = [-0.84626153103320955751 -0.070183742432434567671 -0.15636235657648300812 -0.39395192924493527276 0.23001219700966360482 -0.19831992644056553599 -0.38380077832054265707 0.1348334321250169443 -0.39251345697021516878 0.22129344234867390218 -0.12087958835820783454 -0.64550849183641079154 0.19792761093240301973 0.067852863902519822137 0.21083835129501096728 -0.12248256415229473448 -0.41852169568990515991 0.19938201742386044146 -0.019945100177528620605 -0.32696076742758700684;0.24959757638460908225 -0.028976027880003456944 0.093747696149098641571 0.49412397564768489877 -0.21745680171362719024 -0.022036498238289108781 0.53345310389363931325 0.26910751436855273599 -0.44888572999284431786 0.13087592270621753454 -0.4325959051980683423 -0.073579398534036444257 0.5399655276780862545 0.18836609622738714753 -0.52941091411978780101 0.414622664663321705 0.46922209144287552185 -0.49970852530397302793 0.28781912435426570962 0.47056670614760293114;0.018257069024769652377 -0.07910065851820079208 -0.016325388098894784428 -0.19253391930543656274 -0.44373137126248102247 0.067484625720603264032 -0.35957172516514357419 0.24091787174572629193 -0.020178190311604646962 -0.056901416801601253925 -0.017191858581917490723 0.30551408957283349155 -0.4407253410274369898 -0.016492505600898318269 -0.083580941342994041765 -0.063552017123723159031 -0.14874700027087595089 -0.10468656857030701757 -0.24552091027554903691 -0.3563129867471428458;-0.54421119779967375152 -0.64099630002901419878 -0.059681907287210685109 0.33954912596727704344 0.46707775295198883381 0.82902199191661463118 0.10748650803203287085 0.19420324665822383259 1.1915035559885478467 -0.19580665280534914618 -0.55851517854685805986 0.46324303795058202615 -0.8353836966391434693 0.2845912307208666725 0.2021376044629038804 0.043142637166086794664 -0.046197091964467029701 -0.069751845363555886603 -0.072998688475010550802 -0.68421375469209333442;-0.2269089016870250719 -0.42144340016081383027 0.84650667910893895307 0.65774867190390928773 0.25995508912098425069 0.001340186005717127881 -0.18597274327969473551 0.072154067304381730441 0.41514913218176791032 0.21989589449794341713 0.50411987681204539768 0.3502972653247117818 0.13998799140140638642 -0.008243392898969423635 0.23261705256858680735 -0.30428065605821263961 0.31205952690104032943 -0.40088139585412024823 -0.38221596789517853221 0.0066180670944664329869;-0.0071576901235426470052 0.33389270645398627657 -0.55850005566850202676 0.40364943078812332011 -0.42173103535077588466 -0.13376568817825848501 -0.074038491207336840083 -0.35972507917521806542 0.30996021513069177411 0.25158972331590206961 -0.14642984661603708485 -0.1029083081441503067 -0.83544338452411937013 0.012034487950944293758 -0.40260896477286267636 0.32440526138524605759 -0.11229564606172040553 -0.39067973155745988612 -0.25968851675164189574 -0.0030096524619696984199;0.36892766507875979221 0.45032315285093232893 0.29553060000299863352 -0.080382420487808872722 0.26795308342849594174 0.26663294995975928003 0.44905967714174033212 0.13669286746116479647 0.16992252793456563698 -0.2887426807103303239 0.1547447526215371405 0.52905882859276809338 0.40098772448819652858 -0.14028218539266035236 -0.082646099321215235611 -0.29775927904715410177 0.30908966762772721593 0.076976294454453114691 -0.024305641869103208896 -0.12129206261637429098;-0.45979195246396126207 -0.076293988653476321748 -0.19192815460445145082 -0.048827769048882155301 0.20039135165593438548 0.58233891854324337789 -0.15329953712936519872 0.057791660556643378865 -0.19877147716322285387 -0.15552587058311267976 0.012147351412073242524 -0.84927648715543291313 -0.54116235979305682413 0.094294278859440958107 0.10367760447834228899 0.52899113447348233841 0.26850153541180815653 -0.68591314764101096735 0.23437086242421129034 0.32017114065232421538;0.37335000594855438649 0.035405409231850891449 1.0669434841553095961 -0.009287859944696563036 0.10910864674333752011 0.13596984759467814485 -0.3239422092521123675 0.098928270708621354745 -0.076946340293373938213 0.31621959212173927911 0.22534966108923895622 -0.11473414967311039436 0.63228401292733538153 0.23289408546188300475 -0.22478656583551526182 -0.078264468572587841955 0.23353767712368453391 -0.093341627653130823661 -0.20200159095352929195 0.080378573475472017695;0.39016804332377158504 0.4708250084000453195 0.53310099047346959367 -0.32594281633586413838 -0.25690240020929272502 -0.25784713808502723875 0.12299823148472370515 -0.055102504770351501406 0.92484717656582160483 -0.11953692543210402144 -0.26438814664170984248 -0.12262492530474901342 0.69374194367213104506 -0.4062445325359199666 -0.6152191790307109942 0.30723972574412811154 -0.00087086799736685576584 -0.53386761911203406417 1.2743771430794377242 0.0083472313341502839268;0.3317968076624093765 -0.014506962402194106126 0.87064242138820868711 -0.81417049833903365474 -0.21896927348781888845 -0.37015268716762855794 0.58614869920647505452 0.82475979901108709136 0.59191870090481979449 -0.12194958652279083711 -0.10617233235992473706 0.14750702037035492986 0.94550963439824109447 -0.17123034373763246219 0.25530011728666279769 0.28885105185744963663 0.28431358338847023681 -0.69186862997175901935 1.5103695343230951753 0.10102076072066799861;-0.20030785444617529856 -0.063369965115519580334 0.37136495517123185861 -0.5005172430427594632 0.18901192155445184495 0.28448493082577974711 0.38209865745310400698 0.22833446907531715353 -0.68436796623916262838 0.21304257114619160052 -0.1761208382842836262 0.35959691466901677614 0.31910959226213869711 0.20809526142830284123 0.65109550725702169949 -0.30814324864749120803 0.26457953976309844801 0.37726441661179194176 0.10052087902526880836 -0.057356100288495789896;0.15361513997512907248 0.69633383631737921782 -0.025155060401863243991 -0.68148919821730835622 -0.24574520681526215715 -0.16906074319006733631 0.070537788914276214336 -0.57966536832073800589 -0.16261155204160329668 -0.37218545692932991642 0.44462688532480060255 -0.1742172794930166857 -0.090307974134398838473 -0.0083117875239122375464 -0.2443190336431196874 0.03550445085912077442 -0.011755211114137928061 0.097202836251838384274 0.24839006783022019031 0.22137024930937548861;0.16867954504919319136 0.32597859546869301095 -0.43232428671337919113 -0.033963529243270847158 0.22682100197427568222 -0.23990134385752376334 -0.16587202690717728348 -0.2068737296919916091 0.16744436578776591973 -0.0070312928604725558057 0.3362096667633955871 -0.022113744460726017516 -0.28104358243522165051 -0.12771329074581574958 0.082025686416620210983 -0.12926580205758753106 0.39119075837181188637 -0.42430887328361510669 0.036765867305640770324 -0.26560038470052454995;-0.17438422818253920821 -0.40437650066467512033 -0.82290317195923179394 0.035126903179272347955 0.061275495835131137123 -0.24487551445297006669 0.030136223255285046752 -0.41286290892386795504 0.24828702805898777983 -0.76656775111582131643 0.056514907119889379317 -0.44857852101183065541 -0.64963780871470544476 0.050313446486093614529 -0.26595465320722139202 0.34053355759602010888 -0.087818211269077975367 -0.026295554562792408659 0.14196179343942555429 0.55828381927644943339;-0.098090275935052914646 0.3077401229000070737 0.18886742985828072761 -0.10566164903831742894 -0.21360594332499335812 -1.0974629737490046999 -0.16306267133525406687 -0.2412978676049720439 -0.89349296455026838704 -0.22528414547625519315 -0.32029759694683096471 -0.27433103566905658877 -0.11709169995069557135 -0.13777042269835473864 0.13568172807095621457 -0.32374078501039899036 -0.2058559167889670305 -0.30452915978242661721 0.06665560414896656849 -0.34123317977229267184;0.18855372405725609464 0.36313976250411250657 -0.039870902658748701153 -0.42417323305580056925 -0.97294089196597022262 0.14532301915990178398 0.36236727610576235925 0.14377944601902145627 0.1234830752359434014 -0.14899211207767709686 0.29928216768398424596 -0.39301866409074992514 -0.42406604888508864226 -0.14115971192098958342 -0.2217174515557149006 0.3056630206152286533 -0.087644216096899846269 -0.17359207245384392082 0.13885651426107145645 0.2360334470470611401;-0.57266169986591597407 0.010229679797908152947 0.30319730326340443849 1.2159647123202477204 0.28445513965116814292 0.13118982533880202412 -0.1674347842779130846 -0.19796846736617665363 1.0487293772030514827 0.19540209270738670422 0.75826022212894250707 -0.12639934015281673041 -0.2691452404373422258 -0.35435017548547326216 0.148522035774422273 0.34347408408834451121 0.31056033371092967021 -0.48105936091928092058 -0.43887303686418099868 0.23235941587063244085;0.27442072449194637729 0.36469055877056161252 -0.13492713835773048614 0.43815288230914078982 0.65157017881178147523 -0.36917052143170514533 0.042938488212755067386 0.24040228003023014769 -0.026563669824516442791 0.10908657096423510224 0.14321056976372337211 -0.031911888021115657199 -0.12118368227823493599 -0.029818901427423553235 -0.31359091439554992453 0.4284103080487929871 -0.048849467068478862053 0.15585562578830558511 -0.017887875745074822281 0.21774909367208833411;-0.031183176464951254531 -0.14040319411746390865 0.56487135420820333565 -0.3701961765541063043 0.046008165287760915962 -0.42964475996938766844 -0.069831752487525697304 -0.1509062698604852204 0.042785524461465981871 -0.23443711808748127212 -0.1261371058552688551 0.15563958088610660435 0.022253262756021120056 0.097709766355961416573 -0.2321291693832481795 -0.41495150311584827474 -0.45646688125254142321 0.46568343712475107621 -0.14094006349170692949 -0.39838454371015691313];

% Layer 4
b4 = 0.50816804885953548165;
LW4_3 = [0.96847968421241725778 -0.39416363116766250929 -1.0997777329228479726 -0.37422641000475553863 1.4706386541602440854 0.89240849878475514423 0.89475949498069029531 0.96516718249624955384 -1.164696243069660575 -0.50998189385195502599 0.44430802273203695574 -0.81506195964429883905 0.72603175315028922743 0.82501406951868316852 -0.98747647299611418514 -0.50078239200725616076 -1.2438119082819065753 -0.8970979381593519042 0.43790187668083829786 0.99907228679549875405];

% Output 1
y1_step1.ymin = -1;
y1_step1.gain = 1.13909747029234;
y1_step1.xoffset = 0;

% ===== SIMULATION ========

% Dimensions
Q = size(x1,2); % samples

% Input 1
xp1 = mapminmax_apply(x1,x1_step1);

% Layer 1
a1 = tansig_apply(repmat(b1,1,Q) + IW1_1*xp1);

% Layer 2
a2 = tansig_apply(repmat(b2,1,Q) + LW2_1*a1);

% Layer 3
a3 = tansig_apply(repmat(b3,1,Q) + LW3_2*a2);

% Layer 4
a4 = repmat(b4,1,Q) + LW4_3*a3;

% Output 1
y1 = mapminmax_reverse(a4,y1_step1);
end

% ===== MODULE FUNCTIONS ========

% Map Minimum and Maximum Input Processing Function
function y = mapminmax_apply(x,settings)
  y = bsxfun(@minus,x,settings.xoffset);
  y = bsxfun(@times,y,settings.gain);
  y = bsxfun(@plus,y,settings.ymin);
end

% Sigmoid Symmetric Transfer Function
function a = tansig_apply(n,~)
  a = 2 ./ (1 + exp(-2*n)) - 1;
end

% Map Minimum and Maximum Output Reverse-Processing Function
function x = mapminmax_reverse(y,settings)
  x = bsxfun(@minus,y,settings.ymin);
  x = bsxfun(@rdivide,x,settings.gain);
  x = bsxfun(@plus,x,settings.xoffset);
end
