function [y1] = NN10100(x1)
%NN10100 neural network simulation function.
%
% Auto-generated by MATLAB, 15-Oct-2019 21:37:14.
% 
% [y1] = NN10100(x1) takes these arguments:
%   x = 6xQ matrix, input #1
% and returns:
%   y = 2xQ matrix, output #1
% where Q is the number of samples.

%#ok<*RPMT0>

% ===== NEURAL NETWORK CONSTANTS =====

% Input 1
x1_step1.xoffset = [-4.116737;-4.414833;-1.286626;-1.32087;-0.9986827;-0.9993171];
x1_step1.gain = [0.237677350382405;0.228848138663664;0.775972176741631;0.761305867955304;1.00099022958462;1.00085057285934];
x1_step1.ymin = -1;

% Layer 1
b1 = [0.084926371865254535187;-0.021666886555257718061;-0.09657892601102829877;-0.13702884788175287434;-0.33238984064671583951;0.028475591985144634022;-0.12277554173475832555;0.011473402248638502748;0.01277618383245838346;0.022146167568423805877];
IW1_1 = [5.3157880006169113685 2.953248440046650547 -0.012594972512258889238 0.022246385504176676567 0.42096394617245291858 -0.1896639765806423239;-0.43717322928650631519 0.93136473425251065095 0.50351885323440093156 0.78287656069473954279 -0.29624586216164294772 0.16367667432065383104;-7.7204150813049361446 -9.7270848944979029227 10.928518031007827815 7.1917455659465261419 -8.5232722952034301045 -5.4604089169327894027;-2.8651665473390415251 7.9131615425891128623 -0.093884625073038047161 -0.15895399554958808408 0.11828045757868664578 0.34897782677491345771;-11.798784677696646739 10.131994473947573354 4.1104429786512719502 -3.5087298251907914626 -3.0667794696849575153 2.4991766386171296865;0.6066338165260587445 -1.3188497936784651099 -0.49059642649211754328 -1.5784861097511349026 0.31242084098363553935 1.2192471719316777534;-4.7093686223227733123 1.1530427923828139303 -0.45109693110274523553 0.074563045687508933135 -0.37226796079880841717 -0.044119488849473850745;0.75918661917325236388 0.41854423656621397853 0.058737175450062517612 0.48239655232161549048 0.40771754295777590249 0.24751492603554339778;0.17760508935063351599 -0.24089222660645609464 0.58265499753570582087 -0.25919558777375606429 0.0025702944292311114688 -0.14374158142865503529;-2.5671506088477222818 -7.6408964846277678262 0.26332620313434096371 0.30851916321503097818 0.32207722688447942838 -0.65489638787525927821];

% Layer 2
b2 = [0.015961483404877397502;-0.091811830744554207007;0.019306050431137214418;-0.046727992290332587277;0.0027401570155972730485;-0.00098262175133615251021;0.032992031629987372821;0.0091363940825701685233;-0.011231505822142438464;-0.028270338453910331955;-0.0077643144603955572061;0.05988151679665807553;0.0047831236706677411966;-0.0064487960709220110145;0.022440773142943310631;0.0067104673710754693047;0.004682302729345905884;0.0026452707261191959337;0.00065667236056926744057;0.0065669720796168729038;0.00070167473039266974391;0.013865512290040966914;-0.013968011089917973036;-0.021754727014048826084;-0.015054338734130187638;0.0020666835511024073471;-0.61636433689771641387;-0.50231499599672757572;0.0033594066647453127254;-0.010389072878550141554;0.003804247209651600084;0.00087092641814047163165;-0.016112894419286354769;-0.0084450405033817295408;0.01535932401689409782;0.27824324854616444558;0.0094125793241916933668;-0.019089896115497655138;0.0087360982987847810716;-0.0079093464498488832287;-0.0043001217011932810208;-0.02223658057960869322;0.0098991118539729534842;0.16214927797275044408;-0.01145079741592289202;-0.0077771436214034914136;-0.012390271950962712666;-0.0010811247891021229846;0.00044584010078100222343;0.0055234509735037065278;-0.0042496714211888017218;-0.0046465438138306976515;-0.017348135197093699639;0.010259496221498094065;-0.0063075085411851356323;-0.010835119309440416693;-0.0060280093414985819883;0.0059996866012647920297;-0.0025185753296796727779;0.01276629895561027031;-0.014982455071557761878;0.014606079669836569135;-0.029245355223933719446;-0.0079485350596093466008;-0.0018497017216779513757;-0.021606058708263081031;-0.0074550249727754194437;-0.0063780135625925550927;-0.0083595723684620135141;0.025866661051987847181;-0.018461429160742025279;-0.010063941444707227499;-0.022389547457621217924;-0.011403287090073103288;0.00044422238448433659739;0.022704346826029984246;0.023071765991159072506;0.023869273923684684174;-0.017533502665384403246;-0.0036205477100175174378;0.0045324488206853821848;-0.0097102631469221482863;0.022959105568471402381;-0.011935803502528657613;-0.016761545625922778108;0.015111113417468164874;0.005599937329827690477;-0.0029395910017331805184;-0.01592219936453105264;0.11755495496526792432;-0.0051217435455876590342;-0.0085346466289260916604;0.56686989481780192257;-0.019474130491849522134;0.0050754719629228384897;0.020724960861653304867;-0.0019969766111184767028;-0.015062347517035543087;0.0043692897255085518318;0.0047862204166904467884];
LW2_1 = [0.74898813043468737138 -0.34525327718301029867 -0.0097116225316573132759 -0.58228941278966028783 0.37600921124269315321 -0.29040550526375619178 -0.076879039573969326637 -0.28756513868353011931 -0.050677955184965248203 -0.26560002991504183534;0.43270640624047729261 0.34447863350779195368 -0.035525240959863778334 -0.27018199689379701622 -0.081417917421861454863 -0.03069875489123482723 0.44173924658820823419 0.028322291166097291609 0.29075167566684390064 0.62993071724405969025;0.28761595781878152023 -0.074945967147223915839 -0.033445161289390991366 0.30529691436862088638 -0.061590024839108400978 -0.32204317149246114438 -0.047315807605810548953 0.2318999595608169928 0.53532299546046846483 0.64096053044574408109;0.04839821422983654059 -0.2782278974991539422 -0.19663275699826845977 -0.090239740119925276884 0.30284521333982433733 -0.20598852616769922075 -0.34296649411561980214 -0.029148849837753162961 -0.11497031091320981944 -0.50086653410509718309;-1.1069333917068233664 -0.62652701087991768958 0.058306271642796884958 -0.6005966013218165811 0.031597813271592722906 0.095487460066806681414 -0.30650181018853622783 -0.47427775611282319002 -0.027703701635422576383 0.48570171778933085571;0.8668346032018166003 0.91809142993962078449 -0.044094778015029943707 1.2696345487172862043 0.31223653942289708585 -0.010532807480150127924 0.78221843170640692477 0.11195598505158642355 -0.4431944737993420147 0.50973033670757272873;-0.15371244423893171138 -1.0002958315112913112 -0.12015271010325097312 -0.31650785929245350836 0.28922120726533218082 -0.30400781840614993223 0.49352940718713023127 -0.56358311793152204849 -0.13148725014243919929 -0.29858510845469132811;-0.078859909161246757869 0.39557943182461235976 0.11020822297460781958 0.89625522704365923055 -0.34068696423300881548 0.027515757298894025912 -0.28439182827127074127 0.44643162857981133484 -0.68904103246495129742 0.29062391429830097822;-0.69664724979682235428 0.36372047084610170664 0.17544419021301138617 -0.79322168166405460088 0.59494486402898516531 0.46140551579708360963 -0.15632747435152216653 -0.18473934563361449346 0.16272430175967683708 -0.31059179706623712969;-0.56193245114828860309 -0.10810682946561105122 0.43194244832655259714 -0.18649745953433335965 0.047348978289935152175 0.16583883393522302896 0.21944043879038085954 -0.10820693747858678435 0.099188079610805210407 0.12238484433769525328;0.45933148967412568142 0.29261839227373270811 -0.017443854661413130819 -1.1731856370539917034 0.020071052129226739369 0.10383578321670487721 -0.87133683125774086253 0.62408392687941915966 0.33308452258617621267 -1.3029039532704493887;0.01596174899417152071 0.22627470882934302976 -0.064219846452909873369 -0.19414759948999363304 0.38167634601758299029 -0.11165578014471071178 0.25801015086592327119 0.51152846716366573432 0.25269020731012681313 -0.56304348385735925042;0.024191493990724940999 0.14708489950515668543 -0.44596057808470135342 -0.17560255723447212861 3.4759916708750533409 1.5443858768714364693 -0.22615230390118626347 0.22506946554706100394 -0.25969903933028759546 -1.0973087759716502188;-0.26216342594578051495 0.14251994562550157619 -0.0085504727825961197862 0.25640127251184624546 -0.50454882028116709858 0.32365641094595609673 0.066132187794705726835 -0.027543162939178241627 -0.09200421570795004611 -0.06943090546801014562;-0.50721466926621305848 -0.14067903348057556046 -0.012594400658602631152 -0.19193824971559983461 0.19904560130561660403 -0.25601090239928314674 -0.32758041400579013258 -0.11809390041014899975 -0.12122777090749392581 -0.28944162137309881189;-0.41034430363762164351 -0.076105722912359452526 0.096807134082222440208 0.025955935013397359035 0.3768684429433768468 0.0014481925848994598675 0.76114759379247054483 -0.22955817339759287954 -0.17973760510838587834 -0.34435911523597040329;0.19114866483003883912 -0.025511354955222709934 -0.23126369653308076479 1.2495596836141851238 -0.60136818252361468051 -0.54118405341582731527 -0.070883041713067931888 0.017023106279122769691 0.0020172800015359282702 0.048435705211083292243;0.4560950246981972378 0.51922092232577077286 0.26385555092079787665 -0.92630039340141667736 0.47276945473384596186 0.20972722420963041401 -0.14565428955213763351 -0.38501411897097786996 0.10288359419144454954 -0.59895055925816031994;-0.010889093991689999946 0.070244823436544506778 0.59089960650153738886 0.15916101099621537962 -0.0085525387573525766399 -0.3962974634084006631 0.096795093858793410102 -0.010790147475115922232 -0.23467313084121427247 0.43212848640669621059;-1.1720432944559697752 -0.25288849808415292397 0.078843514945502138347 -0.62841424212703167473 -0.28181294234046089242 0.068916625889566388019 -0.43177140527842267081 -0.41185659565576993035 -0.30520286949462122061 0.21637551905933824492;0.33714515077565782031 0.45061197423322441047 -0.31376480745676427198 -0.39817266085800634423 -1.0712642447435736237 0.046428136072172727922 0.022375112667809872458 0.70532319238506879788 -0.59563450718422983332 -0.70970292068627705007;1.0269897112091375124 0.65331776290194099044 0.04548897181340592899 0.27068702069251715514 0.094820209215144321546 -0.06315983451219614464 0.91935799717136457154 -0.12813490034859925659 -1.0150461943715782809 -0.82540328960216557963;0.12538147789337567017 -0.10513003028153551643 -0.18777215773814701083 0.77454777494893878309 -0.45744465002957657163 0.39755861298305389395 -0.63820538902834911266 0.64641954064845674743 -0.47617911862599082706 -0.43093099683478475193;0.89357851238937424654 0.76529732746808298849 -0.03714032921545723509 -1.0876104572830691541 -0.21396966441114353974 -0.22895548714584787464 -0.30783030307545461435 0.10551343802358635615 -0.25698491211670693168 -1.2552007459196461436;-0.22219773069540957322 -0.54990246965150069158 2.0965903422382705656 0.22706513523377547248 -2.1708384974010455082 -1.1796942876074538731 -0.068732680323765407704 -0.11382728515169142358 -0.25924312244443703523 0.90501718756464177851;0.61639486520597608354 0.78385041981538461364 -0.067290357068967257548 0.96105898508311371486 0.11322242679588885583 -0.070048160691048952375 1.0283665572040086023 -0.0054380297352165721247 -0.44201647577740854622 -0.0058528387773843252792;-0.19059619409758968289 0.35725763408500943452 -0.15693339776298284582 -0.050221602425905072231 0.16780545343782202194 -0.14750132755078121383 -0.10921444366061386355 0.35493474404837244141 0.56644039810424595682 0.71222636648242820812;0.13433193361003917254 -0.3427440001709673445 0.1674013432542202362 0.10386965505618768468 -0.16843667751903868002 0.17567989833373826025 0.061429084871464735562 -0.3637687190089911593 -0.58299100181709151425 -0.68708292398756554142;0.043574135700254951198 0.1154858716897685933 -0.73833807050164690367 -0.76001156346932829955 -0.86499944524926342115 -0.13172429682984920785 -0.10785971968584538716 0.27756420653445346147 0.10626972320925030802 0.21405534795875583165;-0.52178522850710584713 -0.037246785063416790185 -0.0054520068288049297611 -0.12876372823488410613 -0.86585002909507502444 0.43060508969657779188 -0.10394761266290968027 0.17561054254023836241 -0.19856186195154459928 -0.27081488416364446481;0.40869579443599723945 0.61250230348721335094 0.041262284118341936712 0.51299012922652686974 0.10884071201880593516 0.027545782231103089349 0.41026167748872777175 0.64440009843029000258 -0.65709809493649506962 -0.22270088515668395868;-0.13171701130050553208 -0.14276343274424593832 -0.003846014362478025056 0.78973141984723482789 0.061245473965182206655 -0.27957844078417154465 0.44158913053742121502 -0.31120888844816196883 -0.21796602616751342696 -0.57178040117618111893;0.4681722262093414022 -0.32352588612143917679 -0.08014198109707411366 -1.1957112616007370409 -0.088108124258107767268 -0.19826276720035493351 -0.81562568651288225308 -0.10578988725893127831 0.62750041225501784758 -1.2023032423747066488;-0.095362081456759659193 -0.26083185700220917758 0.88326074064177784173 0.2314425472902227332 -4.6839764852746990087 -2.0181786373886216879 0.27536747038044506741 -0.31594689162752409572 0.36400132761174786022 1.4154805374580994304;0.1256115468597745477 0.26851900800727185326 0.23867903286524422279 -0.25868832517680712124 5.4907601987973082558 2.4558480811795706522 -0.26567426869748483886 0.35280227187210411177 -0.31792640242858793975 -1.7108639985844542597;-0.0044068138337892571316 -0.63227558687050522401 -0.61025261283893317277 0.99794774902856664411 1.733624473919600506 -0.11795550761169222576 0.033503272325691640932 -0.17201541914102369546 0.47575914122777934745 -0.59151963671360030528;-0.18598892908357583797 -0.51681515272373201864 0.034401769491986554372 0.67913661189782237315 -0.52822982766071846505 -0.21060414030087457049 0.33082156462171569133 -0.1430135069178656293 0.041572833743183573718 0.71800587370030333201;-0.67521938874364295646 0.6800483997235873268 0.024451971089708344348 -0.55670148741609282173 0.22395944144448096114 0.34747871861855100795 -0.17478117312688368212 0.086478084440732030935 0.0067198590632941571435 -0.32315814970844963794;-0.58125993187876090484 0.68462363789364066857 -0.10173797711099250018 0.72828209392419507306 -0.013212930835378612973 0.12931061939985863396 0.88854547427233987467 0.52749308877862444156 0.038764855545151827299 0.12625325551818147862;0.05105774584951106726 -0.038011624575914532143 0.50692806064122142296 0.13339435466511215256 -1.6237081680935936401 -0.78411727695497024371 0.12366186249710164891 -0.054940948081191702534 0.12206151909655116317 0.59716394217289392454;0.1236917175637616273 -0.022542856191121937726 -0.072513473264652156258 -0.49560411678003074565 -0.22617101466246022912 0.21969768142019574508 -0.17161726383270789476 0.5305157002670480848 -0.50628942017196265635 -0.82631456635580224912;0.101919659625919104 0.12193956124811397568 0.063534875982483279833 -0.61969072844675743283 -0.12002128782900775561 0.060749487967503866537 -0.64514559321047038054 -0.30735420956980419316 0.81556683257453621572 -0.42328334458403538143;-0.3159429691554204167 -0.016375764235204297997 -0.11820074155134628613 0.42395713964896170056 -0.2011423936763567788 -0.064725607344097671469 -0.6275447533764579866 0.49864443720367351842 0.66402916272644985085 0.61711633669857335338;0.27588259999655140309 -0.19814900476317265365 -0.10823882682878326056 -0.18650487426181172612 0.01623207906116700891 -0.13593651088770764002 -0.45584867415907753818 0.09691836898700645353 0.0037594146027520036757 0.38789393953839196305;-0.10595587345161695814 -0.39821013892609918861 -0.32098686629534273207 0.11318792176124643778 0.47874579096764185993 0.060059709475595808581 -0.22502070367254484173 -0.22653879874285615115 0.097266183322393437449 -0.13845170710163695604;0.043746418317274521348 -0.46928975859152255445 0.10973366188936922727 -0.71076951928388354407 -0.075113985346112938091 0.085202701252328705284 -0.95959146480333479268 0.051536114364792294518 0.13416604024774611559 0.59007364309882970321;0.63271210440443015344 0.12367156732752729309 -0.031573939205447494605 -0.25499247667548141649 -0.068854035115454945148 -0.15208397830276043639 -0.83680402333758097111 0.28795278846894672986 0.75267017905352717744 -0.91323037110228189039;-0.045219652724973850855 0.57416059213835268782 1.0263327294335340412 -0.72432095748197233842 -1.2935455815510328303 -0.24463864926529685362 0.58683476735737827301 -0.25651430041797534942 0.019749875634241832734 0.69577228373186361665;-0.21567475009374798001 0.31405723968317300621 -0.028641548128688437691 -0.59428713243773101382 0.070982802631427893703 0.025785731589545609482 0.5285552780741967771 -0.35477796844008729904 -0.89363045375566030337 -0.17180817831635225579;0.028090750960459928004 0.89968749337420139689 0.0092919517003599242516 -0.38639469230379247522 -0.05300471539165792223 -0.070812353600705604806 0.45199911200295883607 0.18048358056401803129 0.26982620728504080887 0.67727522453905386612;-0.37181617131387084685 -0.25450615218301242404 -0.18709838330327063782 0.8774746695270656538 0.63315580539268445648 0.048003460894852321983 0.33852144894745300752 -0.064900708154558006679 0.41449207968207180119 0.067843638816257031965;0.87410061641935254961 0.7573506898565304235 -0.042227580542389640816 0.38241097774399313014 -0.24098527182240941924 -0.14315532676903330866 -0.062265268296612476251 0.15360116835929718548 -0.41105395342806316794 -0.72779945440570470439;-0.050745297373757929094 -0.17679320920247329485 1.3438250251861849627 0.20662445698730774746 -2.4005702338191099443 -0.86571105409368032113 0.14390331540376105623 -0.2116974961178811343 0.15321942164321183943 0.64121222555979162649;0.59962771057991037793 0.270926282487447323 -0.064303622588349027001 -0.18959168274377657948 0.16088561936970527388 -0.34800518462242402418 -0.19083014264145964356 0.13007656410714288353 -0.12756287669077337465 -0.48631737729304252982;0.44041521932900606906 0.34331374614954968116 -0.34166366892232025165 -0.018768612058766339507 -0.95014258781878224713 -0.1094899544160667787 -0.20085510096343400788 0.41620398852654755251 -0.67559815253740773677 -0.19633270895785748245;0.83178927662330137682 -0.016473035286823287798 0.0068039615552865527134 0.40155565785763336351 0.025155112312897957849 -0.17836640786030732997 -1.2957236085475114518 0.19627639602785856843 1.0386761103952582008 -0.89263805626901526757;0.58361134514079759938 0.63528607337521880716 -0.066000137755623619618 -0.54949651632527762857 -0.03118747831299406581 0.20627962150114043105 0.52000203234053909984 -0.094595688323154097921 -0.38117503395397012156 -0.67364694094282961956;-0.60003349773534242484 0.25256768035871068889 -0.13485692387014788785 -0.42749801788575081396 -0.10154834337235620068 0.14562850931725787595 -0.11626502262201351967 0.15095006198389460117 0.82844093743503433025 0.5454098476768487469;-0.20737402871471335986 0.44165126627255418823 0.24354461719214076654 -0.10077555307462311707 -0.80529257993659220105 -0.24166948087353917751 -0.015085716109354642411 0.086723973374257370961 -0.27154191829455032181 0.1511616533393545514;-0.276515105046393872 0.48620689256815385892 0.023937919741346146141 0.65406191132796520638 0.16606428964137345816 0.2221043094213114022 0.57746588383322905447 0.35378142797567768696 -0.010934196937164623875 0.90050786485131317782;-0.30644548417090661241 0.075850146809477159149 3.3064243797357963928 1.7494062588285295146 3.289166881965734035 -0.27716377610355485972 -0.1094559103332989336 -0.67087157715519674106 -0.13545502252369384655 -0.72826043199480661183;-0.053510077967614304295 0.19509152859318407147 -0.98694302836902059184 -1.0837046401800656259 -0.43934718963505564604 -0.12459085626859979501 0.54684787999928030633 -0.23609643036775457281 -0.062974137793830958776 0.26347502074246004211;-0.07077771817785827313 0.2685569171875079042 0.92474166960369386103 -0.30246279815626220255 -0.90522311514461539783 -0.30433886275313359882 0.30335690010004173756 -0.11836668187143774278 0.31394741165353423629 0.024884502792450927111;-5.6907355039681061133e-05 0.012452126316982180948 0.040706815916762929819 -1.0079787288879320517 0.012114485182711201561 0.35185701814834308143 -0.97448672332294272724 0.34718920985524154288 0.4256126040029052926 0.80953115986441226415;0.44867282389283402733 0.0095984145413019437976 0.032293591599134266468 -0.96459772016017975016 -0.45533847102349522817 0.15639820963554645905 -0.64012287080863139455 0.58413443579347890111 0.001471385320324231083 0.52570314710414323134;0.62895403192321641672 0.80157849237436029632 0.071136357444971626274 0.17889835749577626123 -0.16956746754210533235 -0.15960736059766819639 -0.4082182328764910606 0.15112076532348428515 -0.06998964072880398124 0.8203222592295803528;-0.15784007646418776738 -0.015216646578029974918 -0.75091852218465748869 -0.19417764377173588053 0.15494364951056768809 0.49930629323867198321 -0.49951380897714037221 0.23872316638978802184 0.10023915557404332322 -0.14018416145424955621;-0.93438224309964190706 -0.47203763052254682497 -0.28046397734055428241 1.4555888776669947404 1.0591907974109866508 0.28504810158503268713 0.23514859594246140251 -0.12420093744169856398 0.62984922944982901782 0.13468710944090306336;-0.2050582539035797347 0.21004938357541383387 -0.0071658501845275864375 -0.38519110666162631462 0.0086699126380594144364 -0.18647666553560832137 0.45900561444554383028 -0.63381820595586213507 -0.62022799708185116785 -0.15025755239834975852;-0.80635105068603840639 0.14017071813325873708 0.042361995152555620425 1.3308438359222112268 0.0579845610406782494 0.18637442014316291106 0.90818314306353609133 -0.19073996454352992735 -0.77787413959419315912 0.96661342569592945129;-0.11363301651340704246 -0.036983721767235508415 -1.6602649458232927593 0.2045499366462774915 -5.1342404325109081142 -2.2638232784703808953 0.38072401410055439763 -0.28307563206328317795 0.65297420591067911744 1.4800788386538068497;0.70315289515712142698 0.96545589591728275813 -0.073255499303416737877 0.44306576693647969911 -0.17117374421823466912 0.0090202268830339472905 -0.30999780309882352114 0.032049993373602904401 -0.3715224852056637217 0.18713330121102011994;0.45968258153273405808 0.76830171947659520182 -0.09595886731406905179 0.60889097520807489161 -0.31234175484573828419 0.2370799646193091359 -0.13827174145667070482 0.2708576066922113168 0.18085314292075804765 -0.25951084495819082276;0.99207596733617287033 -0.48715108453524602616 0.011919738012273136535 -1.8295607188170710522 -0.39018529974209931188 0.0088451565692687812714 -0.57616546535284018926 -0.078259371796295926216 0.012746807311385355624 -0.65931812292802705056;0.68226215791377853304 -0.21238546267444352589 0.099841282746882489829 -0.18286127502699425773 -0.36763919623006130477 -0.3650694293753376507 -0.53449415668951483216 -0.11480280831203458491 -0.13094518001563240639 -0.70665434549237238215;-0.0017604161687766592057 0.0018942367313861179987 -0.33875570390159459588 0.069125489259131922548 0.31423799939679686322 -0.71138007591038965316 -0.21420381412400582577 -0.004168778819751911037 0.16475267906420937303 0.49905443219281531153;-0.3932491721837027554 0.089901803021832288332 0.28878242982179513909 -0.46341736742785394343 -0.42412755910133864701 0.31848796085286118496 0.39239664228621295994 -0.098889786963035505862 0.15105812115357800107 -0.29324375210875891495;-0.3328041048803206392 0.184111281973458496 -0.20158570415208615367 0.10078948411622759562 -0.034409934163485540737 0.22891631413793298022 0.64864092113651561355 0.30463120383168190708 -0.45526309789780516901 -0.14210492873559740779;0.1262754029855259752 0.35200044965822818721 -0.45200892952347015985 0.099077083297728615885 0.72371466277016649471 0.087189263599015603967 -0.15384759195326924708 -0.2297607771667855292 0.33937147262090200384 -0.37160897038253520863;0.27324125042214481018 0.39544467264938593098 0.023878917883616092993 -0.45841677255723767281 0.08274232543692842945 0.078332275692798380984 -0.62986841453821562631 0.41339966251245596762 -0.27185568195508613698 -0.45104874071058170815;0.29463715104243742848 0.0660413551032633106 -0.083863271553446513962 -0.27720072307791632227 0.0069606019766367708754 -0.069777625260370165772 0.58241758316075398216 -0.097959891716316124799 -0.86258452670710583643 0.061268325028735089177;-0.038604872124171740744 -0.14500426014959469367 -0.12562575790744748283 0.11887276656054036883 -3.1548320007870760406 -1.4110838129199727575 0.16682679114593332304 -0.2023226660546676714 0.16741101452626375168 0.99150872144738488867;0.14149487121465975648 -0.04931729613336041651 1.2173584842213323043 0.39192160826143596086 0.10781316217963370085 -1.0966737173993907906 0.36193153887731266405 -0.33754776977263900584 -0.13237475145109053876 0.40269156968360875215;-0.98018531665744512704 0.30881334775546492866 0.16582990875690334365 -0.58555104330336382734 -0.36084281159325493071 -0.48040567219178753611 0.015504003257481902694 0.27883195882423195133 0.97078078469443485066 1.0130186340256830402;-0.78828765182820914603 0.2076698727583802806 0.31702702964331558322 -1.1611021105284291544 0.040471087706592412392 0.62769850837856766557 -0.11634297360860691717 -0.092051187410859519611 0.17701542050227048186 -0.27678548523591073316;0.17797553046476546901 0.22258064632294696783 -0.30928187300435788787 -0.24693532696707140572 -0.23046501912447675542 -0.17498602325002440838 -0.13221548631072613245 -0.012902871419954536208 -0.007132306433821373505 -0.4027243818489035232;-0.41192122056828217591 -0.34543965666913956092 -0.62845165849325268503 0.2828543822367770022 0.67704492159935913964 0.25064125637256629009 -0.81876307610364573719 0.46457986662162031877 -0.032346297193196260622 0.38592565340324486156;0.27504808850369577566 0.39953229199355944079 0.51596655551019143804 -0.16679394606303202253 0.29701539621879979869 -0.16610200124331869764 0.75275662137206622582 -0.66838916989272678659 0.097697017273087646827 -0.38714694358327328416;0.71891842741634848224 0.23694487378734044314 -0.065507014294855794856 -1.3609993864194966928 -0.28760737021063131902 0.12318463538333196405 -0.75883375562581301121 0.4426484464749307346 0.36063969970978670965 -0.73947210220375503287;-0.2185850034259060326 -0.54593820973305906552 -0.61286691733050002728 0.97140263255312897517 1.6624046413743007733 -0.10102344283322331475 -0.033947661999796943655 -0.30369708754671909112 0.40449313036116318898 -0.67404261106660789959;-0.015146466461554658131 0.07388712151002316264 -0.44933598857756434919 -0.62754562034469796306 -1.3689292898795768494 0.32587431497615976239 -0.038824560459037954496 0.39110496554919893519 -0.046938155049008362107 0.31868022950380586744;-0.52013338197664638063 0.45002369361405331061 -0.0068360486550347989224 0.68494568319348203556 -0.043632303382090419086 0.040593367903555215015 0.87953710546899321887 -0.40863580023580597933 -0.65953001685541534638 -0.045156115090780206411;-0.30301932617505772383 -0.31625777011239147862 -0.26369259700418534731 0.43331374545767237239 0.58901591864687830036 0.036450724320314868698 0.27611021089951920393 -0.44528211811350010274 -0.039177248139554018969 1.1966510660754210438;0.34269467150179588888 0.11624752879714844722 -0.094883418274991027097 -0.87311963221284782932 0.80006185568581567047 0.027070676959120409943 -0.45721141147154992224 0.0052976608768100889868 -0.52438135885126546665 -0.33422756963325928048;-0.47033123476898736071 0.11115106584133797873 0.26730482253718768071 0.91555299033819081966 0.87187042530426994702 0.57175265636125527369 -0.13222956794640758349 -0.028388772859725252412 -0.13877944728172467159 0.08984191921045117657;-0.03594438486978770303 0.28949059930074405589 -2.5134830284321263427 -0.23601761758352785003 4.3466373820725943133 1.4223393486287085885 -0.23036186809627526295 0.43866773173302353594 -0.17949303369331612301 -1.1506446356725732461;0.18182812666551778635 -0.76196844983539313567 0.036337881502436761294 -1.4740684483481492073 0.091798937972321317802 -0.053363727708505399872 -0.93291256515859033449 -0.1521114958273184492 0.0038701982946377283187 -1.2816070671775321443;0.58405696440848386963 -0.23106564170721485829 0.12661878182314825758 0.28154751740133876492 -0.17976777090979947915 -0.24287630876041912953 -0.81889624599882437916 -0.15148931151325756295 0.3194292949085780764 -0.068904170056121788468;0.60891529450851111793 0.0042338447175115706198 -0.12650374900886812712 0.44273317525107691583 0.32562522352790956859 0.00070952244414456636795 0.72385416739870589442 0.071372652396554811527 0.26227686312457076934 0.48487311966022955678;0.055945127100012224941 0.98770773164027769742 -0.077272173355824411156 -0.32859899586093771484 0.011524439032761797652 0.011618584596879826323 0.34178197873821808406 0.28932590799238389057 0.25484175607450842982 -0.55253771232612458597];

% Layer 3
b3 = [0.053294023274959502479;-0.072971066219342572978];
LW3_2 = [0.99798843407438442288 -0.17922843979094413291 1.6354344272296563734 0.55422120148608766677 0.34740374102356796904 0.4557254100251557638 0.42513567522438411306 0.17282077013805735577 -1.779478294159038354 0.38577700177473212007 -0.18649429288213414946 -0.55632444221976795617 -1.0289877122719792713 0.42424303361064086282 -0.21889625991278535699 0.50786468793560768376 -1.0776832767573432115 -0.61189896422825640343 -0.56908989285048905415 -1.1484471275153567138 0.77496879474597712978 -0.29795397273511969871 0.74151165466494539658 -0.0030710310342316666544 -0.16256847615118322214 -0.25139060121970335793 -0.71600827704495872972 0.8186371847152061898 -1.3749418010791456535 -1.6477484250969365309 0.20811269266552165358 1.3014960078583213132 1.8478652396066477248 -0.26157354031187390886 -0.58154380876475875173 0.098576031165604621753 -0.064927934475640172729 1.5986546498670848315 -1.0346409673009848706 -0.093977994777831364015 -1.1566228822863948711 -1.018972532817168819 -1.4578493601026800697 0.23100478882331260122 -0.24232423393439342374 -0.55069211412337815137 -1.1947071021838031601 -0.2039564649248026551 0.82468903137149296434 0.61440117919783410194 1.8327104487781145092 0.26920734148076880254 0.51987620120254574019 -1.624049555384007304 -1.1758256114857457142 0.55158586788202290663 0.36148682538206627912 0.71412823002217251656 -0.028870591414751428649 0.52768326274195176406 -0.13958836217119696688 0.227450949310994327 -0.06110932121896404251 0.97192502453802265272 1.1623879485226300545 0.23259159660105327427 -1.0471203990114650306 -0.41038406275845379367 0.23295403151943830378 1.5525043584238769068 0.35283241361964323701 0.77971396462602016175 -1.5046192877785751207 -0.56611502514654477025 0.15530463528901886083 -0.51966313964350852039 0.84461039420968775371 0.21372713404798168724 -0.56861170571324037848 0.94970747154877577234 -1.8388988613596712884 -1.8396837705486983605 -0.23913276429240548637 0.014416582999860379222 -0.90586272623976393792 1.0399688203339254589 0.50804449063520118468 -0.93964065313896716347 1.5293066315779491049 -0.25164826656582256481 1.1995626558591994115 0.87528479861969488152 -0.055586149644111182422 0.36886845505295101644 -0.38770765279654262336 0.24597015390886864394 -0.62661306233904978669 0.61922100099264698603 -1.7348000428414389607 0.43139180232004470383;0.6345606196896494966 -0.63729428079786343275 0.23927664729505529473 0.93858363554556112351 2.1297203908619044554 1.3772245530189684004 0.10092193877455168938 0.495475545927794081 0.19499796005477074146 -0.52589366526384018208 1.6022778062773643803 -0.39951136413579413365 -1.9466762154234342752 -1.1429130067277719629 -1.0933187389077778651 1.0535997101410008447 0.10671517727952406496 -0.064279622824615814669 -0.39460925218129433434 -1.3422356930379317763 -0.3685562582801218956 0.65437173812953297602 0.097665504130764912993 0.88904965482235465135 -0.2393791175116937453 -2.1378309468309679708 -0.57953839449959643204 0.71547310185410639694 -0.2367585449032640621 0.49874621139772951084 -0.92026521831856489264 -1.1548079072415318169 0.38529496572534943644 -1.1288445009588952139 0.31009392965087673177 -0.23151133461560563509 -1.164688072913659278 0.11417457532438657353 -0.95984386320649428548 -1.232039413503805747 0.45895259367820417928 0.17415311645395425977 -0.29661082602674260222 -0.18153834297811188847 1.0172773403124344416 -1.5642108465598880684 -1.5693213584255869542 -0.24112631778960039175 -1.2701350800813644426 1.2281882952545843946 -0.49462627929928654202 1.8282217524151305188 1.0501079366222991762 -0.81479249249745400174 0.32011407968885430275 0.16285865988111491998 -1.3328007038797018424 0.77419253622621431177 0.92003768582035871937 -0.76319537040766316505 -0.045960053283630723786 -0.02458864640972958579 0.26470120326600443672 -0.43781960401741876199 0.62548880198290990329 0.57341965029990193958 -0.66112106485749366769 0.28218590120811509747 0.90767943069614065443 1.5440620324836731303 0.011180527510201123537 -0.47121314104819855828 -0.1048511520066790631 -0.57567897789580102508 -1.1843975089864744454 0.18789971973898367263 0.29838422737267156215 0.81057222415540597371 -0.93908291681148925445 -1.980490572790109205 0.40543839378531515427 -0.19570765326618672075 -0.15032441120347705965 -0.29099667588203514956 0.012201368517996765903 -0.8358716579769315258 0.30581935594342668505 -0.34460382341788370342 1.0810913542226772144 0.51302505246587137844 -0.21496607250216337448 -0.65860667659419014353 0.023467401100091943994 -0.5185322307670565678 -0.32602298013478997474 0.3766095043270403786 -1.0055141883859326501 1.4469643426722147428 0.035350031946791142523 0.8882363616715550636];

% Output 1
y1_step1.ymin = -1;
y1_step1.gain = [0.454455079955691;0.321912002778744];
y1_step1.xoffset = [-2.390888;-2.799727];

% ===== SIMULATION ========

% Dimensions
Q = size(x1,2); % samples

% Input 1
xp1 = mapminmax_apply(x1,x1_step1);

% Layer 1
a1 = tansig_apply(repmat(b1,1,Q) + IW1_1*xp1);

% Layer 2
a2 = tansig_apply(repmat(b2,1,Q) + LW2_1*a1);

% Layer 3
a3 = repmat(b3,1,Q) + LW3_2*a2;

% Output 1
y1 = mapminmax_reverse(a3,y1_step1);
end

% ===== MODULE FUNCTIONS ========

% Map Minimum and Maximum Input Processing Function
function y = mapminmax_apply(x,settings)
  y = bsxfun(@minus,x,settings.xoffset);
  y = bsxfun(@times,y,settings.gain);
  y = bsxfun(@plus,y,settings.ymin);
end

% Sigmoid Symmetric Transfer Function
function a = tansig_apply(n,~)
  a = 2 ./ (1 + exp(-2*n)) - 1;
end

% Map Minimum and Maximum Output Reverse-Processing Function
function x = mapminmax_reverse(y,settings)
  x = bsxfun(@minus,y,settings.ymin);
  x = bsxfun(@rdivide,x,settings.gain);
  x = bsxfun(@plus,x,settings.xoffset);
end
