function [y1] = NN2010020(x1)
%NN2010020 neural network simulation function.
%
% Auto-generated by MATLAB, 15-Oct-2019 20:45:07.
% 
% [y1] = NN2010020(x1) takes these arguments:
%   x = 6xQ matrix, input #1
% and returns:
%   y = 2xQ matrix, output #1
% where Q is the number of samples.

%#ok<*RPMT0>

% ===== NEURAL NETWORK CONSTANTS =====

% Input 1
x1_step1.xoffset = [-4.116737;-4.414833;-1.286626;-1.32087;-0.9986827;-0.9993171];
x1_step1.gain = [0.237677350382405;0.228848138663664;0.775972176741631;0.761305867955304;1.00099022958462;1.00085057285934];
x1_step1.ymin = -1;

% Layer 1
b1 = [-0.0047495683036205323807;0.013872617140915106254;0.019193963436698938813;0.098861163683199568264;-0.049559281124710467814;-0.089873909796385570425;0.038179399513554743151;-0.067885815622274373049;-0.10050094159127520577;0.018821599715452972529;-0.011332463120389948963;0.0017720503631857124644;-0.0055276830081509983547;0.072576138595326328273;-0.06754962578755192848;0.075033991338363914547;-0.0065356735770775910982;0.0076951614638476120711;-0.0025974198648120254938;0.027533226553225851468];
IW1_1 = [0.53641005440422950823 0.11879882083539562709 0.72070224468623655945 0.051840982277609498619 0.25690680934472998054 0.14074887670986283017;-0.43246062737957985389 0.1712645823457898675 -0.35367416616362007398 -0.49533089525070767012 0.020851404178248978544 0.33016332415708943282;1.2347790297415015548 -0.7896207099990874001 0.72546884816948531416 -0.43522162557912813519 0.73023312764366576921 -0.58112591307724492662;-0.045202998687244505538 0.68700686864646964835 0.002145345267190275438 -0.29846782444113462152 0.52443326087736186203 -0.24248020237386688769;-3.6720423909515016447 -0.10904029050814080526 0.67091185005352138582 -0.46300398033631667838 -0.29358440232766191968 0.68552085631923542763;-2.7825958125680405608 5.043839636235044388 0.43380671970442713503 -1.7783302855506015749 -0.16735814052982930789 0.95755897597355310591;-1.6010504501952014245 -3.8880108908501904708 0.62035251658557566401 0.010033004609897359927 -0.47278329712903749416 -0.22086929529102408698;-3.3928352475791725418 0.27026920547867944178 1.4007190210447371115 1.6281957198972116796 -1.2057357712649798831 -1.5571607834140799298;-4.0296586271836263293 -1.2131461876246592002 2.7566875463303919247 -0.31861159170183478428 -1.7900554285066350158 0.042634461345081253736;0.093659025381731292326 2.2255884024262648779 1.13810062400716272 -2.6134623057007129177 -1.1612681182424426929 1.9563510789656670674;-2.3377000537383594292 -3.4384127964470696526 1.5827652824648990038 1.1172741546478730523 -0.91325835968762247852 -0.02801810723481102175;-1.2756349089355956128 -1.1923871486238766249 -0.52300300519039377711 1.5629878423795333653 1.3573190257958713811 0.3099540539652843596;-1.6754812443087094831 -3.8864206742189080224 -0.58125810389756782381 -0.57477718294367741159 -0.15159786716155967956 -0.57789338680805990567;3.2078620408112823448 0.11011244062088461348 -1.9041571461542061705 -0.65528091757579154386 1.7777966414307393439 0.41698747860959139988;-1.902357151868317553 2.5918377078687866444 0.22205065943342655599 0.50270946373864244805 0.69500789490317815833 -0.83809435698936352033;2.73301441932663014 -0.8140429627549515823 0.30854614127849816496 -0.37657100231275408841 0.37732416942038321528 -0.015017350005789287942;-0.80212939179853959271 -1.8351482969013699353 0.0156634557637239831 0.41873109466871244466 -0.08023168565806015895 0.31061654185057480104;0.32597956064460420489 0.15165515769866722007 0.51841229755240003652 -0.14052618036800162971 -0.62922194205360504338 0.28262642124566356161;0.11195814833150398437 0.86364808611842736052 -0.068921540808451906002 0.66552641061019390811 0.068253073307535619407 0.23269804307220406936;0.22327731631405031698 -1.1158274892786068655 0.19385601571952029709 0.13308597914390274397 -0.32162126894825443513 -0.80791623208344798268];

% Layer 2
b2 = [0.034671521544020575401;0.0019089407346978650749;-0.066465733938332688391;0.025708654369440590154;0.044758800979158609723;-0.021720074011548243936;0.028465487523544271559;-0.043263805918839472187;0.03481825567438780189;0.034197090906565613677;-0.073758640276303633065;0.14376749424587623172;0.021180171023819138743;0.024434226629030116051;-0.015270590153446894632;-0.013014796867879549827;-0.030814441058109487415;0.0065708990154864374902;-0.0055863735345284219053;0.12210460503827337553;-0.014503509951775732378;0.031979144845695042787;-0.1289339936565268574;0.010465903261384308653;-0.023976577562437536434;0.048037005613807748361;-0.023483107865602006331;-0.22756736564160426339;-0.00036296910726376990178;-0.13527379873491318651;0.010588545461324311639;0.32947928852276719969;0.032225872979405670304;0.027303024777732193273;0.025145939152620519486;-0.039617244436301074506;0.043320295974105409165;0.047827896676276251964;0.096530852719993273658;-0.03470179567939982862;0.010894091657592726644;0.061444739783447666071;-0.060790604348347723751;-0.01676517773597843361;-0.21232317820879675896;-0.02851505627210816976;-0.064657670555106530608;0.024445177987231468675;0.040419624670631482122;-0.0087259698261998482061;0.021367689126251442067;0.0095015475630917025501;0.056929772341258136348;-0.0026974649781042721666;0.0038693943041682807987;-0.057517325392234246173;0.071166597540484211049;-0.0081008224613159981325;0.0081384339711206409723;0.012529069350125458457;-0.047229620064936972401;-0.019987653035766633769;-0.032707387961993468484;-0.00012431306014210410666;-0.05309846083377903897;0.041231997691454219668;0.078730517442557934604;-0.12925677223373516211;-0.0042037565584079070527;-0.041925481460120254951;-0.029717280428633321976;-0.017704491196445050483;-0.0065243993779779789477;-0.0019133354850140627153;0.024222853552479908096;-0.032868798076765896876;-0.088199848760762727951;0.04670699084382318178;0.076494991191405251052;0.019444763471467747112;0.0093961653140679241708;-0.077600182867638450857;-0.0090350153254600881064;0.028868095305191271427;-0.0048785973015631851554;0.00817464070397628563;-0.024504362402746369259;-0.017122951177380416748;0.05915422976168687591;0.046121935049422940756;-0.035744036232569838252;0.041271087618390149554;0.023276962522301169328;0.0067733844524009460472;-0.26507117570548288654;0.051488126631070274541;0.019970554914834501292;-0.075971507288655842904;-0.037576425057460435819;-0.013902418429046957404];
LW2_1 = [-0.05841662337439811753 -0.022559240530427016047 -0.2377714452951822377 -0.16691804558241019052 -0.152581742007520893 -0.17435520541251045556 -0.026725365690569078542 0.10765377590769799332 -0.056054492592213567281 0.017648476904520218889 0.060727185162839876498 -0.00045005362646671287843 -0.099204652010804916795 -0.050308715663604591795 -0.16745012813883261571 0.062338002915100380885 0.093490380730744546134 -0.10450720504920821274 -0.16262808464993766533 -0.2538635389546943788;-0.06084750825291167925 0.02952638696217420311 0.029859770077975619773 0.058312360309927868673 0.0087392533325528088534 0.032707505683687514153 -0.0072094040638562423284 -0.02333998044555750731 -0.097442055184238693388 -0.00046805485379219175998 -0.064163891498898742438 -0.04412840187559775168 -0.039371312395847714305 0.081001161331759594098 0.066482729231592749275 -0.024814570479745473586 -0.038762018527470687435 0.0012316694631751949358 0.002639974180348187132 -0.045467265974767225034;-0.038856556775140840831 0.097495673399055363118 0.030058458600642698477 -0.088174160632171580398 0.074415155885085473852 -0.2942465841776448765 0.30938172643836547859 -0.14288139422164342074 -0.080514909166565534759 0.24293646563908119496 0.12842604109488822695 -0.0070686303757623476784 0.1647111577315139852 0.02308131080361297896 -0.12103519100359974581 0.094086418382358788515 0.13848966061047654486 -0.017366014482347268827 -0.10090775618249518686 -0.12711493294216105743;0.0096706706373386012998 -0.085799776004211542046 0.19698151043983327946 0.018648220040470842029 -0.36551942055311886781 -0.6199017016017164261 -0.02816253870058013295 -0.21136223689546848603 -0.23802106021782046263 0.18916168902415581021 -0.28841352648733037389 -0.34438926675953551726 0.075380248393620161163 -0.060760423895034991471 -0.41268757006541367804 0.15781658551976723848 0.21910163159484594142 0.023735399752426489944 0.011781395832745586091 0.13864839472194998016;-0.0096538362040836517286 0.1950963618658775045 0.35070145571244459859 -0.047981461709942052618 -0.39330141327150935915 0.084542812061760175268 -0.34570784677752347536 0.041028003715265298768 -0.44626073984892450364 0.038297407529311627838 -0.4951891679906110233 -0.046239052333578181675 -0.18324783076036235685 0.20018627433879374045 0.25549310831983262915 0.081382281084395005633 -0.095109249624200128959 -0.095779470382794024141 0.12688847035384687167 -0.02172206092189097118;-0.028937631071301216784 -0.0062722039820942154797 0.0008097888116624454586 0.046341866356381392067 -0.032036970878675852248 0.043590916267156026853 0.016831957263293829269 -0.02312816352163203984 -0.10013967111223717743 -0.0090118512888743909639 -0.091798924177935475877 -0.020633915014514187664 -0.012517807600926232972 0.080181718488471123707 0.02122489771761699659 0.038060042002873280265 -0.031646796043466915438 -0.038064179965578481823 0.048262627294259979882 -0.048000552136533584935;-0.037423657459339024212 -0.15285633460243469584 -0.034853895100585063904 0.00091087373659846405938 -0.049452748555890893578 -0.080358516966311840934 0.49582231805782162049 -0.015516249652518257496 0.038762928769125945538 0.033300680138981401945 0.38747098516623540432 -0.066584086229111022481 0.95426003157990668679 -0.041060735702637324307 -0.017359224024436532147 -0.2320344345356213922 0.2370519949900992962 0.021064849643500253157 -0.16200041622072183789 -0.013434079602007344828;-0.13970614956297014442 0.12515972579644918383 0.019538891921818232061 -0.22001578394943016592 0.30550424522496266722 -0.13890214305712161869 -0.077849808530488229241 -0.26134705219538284515 -0.088915603276249685627 0.017371527375680758526 0.23463724760986251483 0.048421742012720654647 0.29883712230262721166 0.014434550829718843096 -0.093671665227285760835 -0.14521971752797677158 0.23013305126410116275 -0.067504502449582295953 0.095088298662564407771 -0.11772733933769519155;-0.22828728187770921942 0.018630236746421006272 0.050047467090900528419 0.071730951638931825243 -0.14562056112985585776 0.04404958154317752117 0.064183787554281265808 -0.084256567458748890531 0.11675459007035296488 0.042374792417258846933 -0.15251729420447779351 -0.12328265878285793455 0.26073400201446611524 0.13793865986285822056 -0.061783504306762854208 0.0775808456046840067 -0.20513779609364238277 0.037066549964920453286 -0.17344462817304526214 0.20681113153302352337;0.16861596979198595347 -0.041097008274174964826 0.20285335387487904435 0.14559298715751775588 -0.33494312450124857916 -0.36729676314301940021 -0.25371401053616871035 0.28934178980338520759 -0.066067733217887100738 -0.087990333400673512165 -0.36025746288391913286 -0.23586658090471460114 -0.10315952522742066755 -0.16451622170232207965 0.076139827629694220579 -0.11448916016638777116 -0.34901826087465437354 -0.010188416661454391746 0.29083866435546557039 0.11045493475705282782;0.10751642690851502537 -0.10535563722242187457 -0.22267814509139779999 0.0062315468936917275261 0.033101993962108534897 0.12032586011746067289 0.013021390423918846949 0.35373828621573855102 0.21921034906265082776 -0.036623197542556384931 0.34802259709982780178 0.32988869267812925834 -0.25751421283724457156 -0.41229522877381297175 -0.12972187025506454194 0.088000886618814722073 0.07737725024958208575 0.12512316567386919108 0.059971476524963977794 0.10701276921419983212;-0.043257121949721734355 0.065979684493440826643 -0.010360206659206660021 0.12730438287322878854 -0.12996780353786477336 0.14557543968393835132 -0.23333464622251298692 -0.056243323790947805096 0.087014232681794367874 0.18453479403173700391 0.094328014099162249551 0.012248255527767776957 -0.30842046922538024489 0.033894310246348570426 -0.066139652558713499242 0.016485157715849661081 -0.18043952824227582621 0.025978495920183416329 0.14591859471367540912 -0.038884312172039539601;-0.021507116026035895395 -0.19732152450551210254 0.08186442321215772755 0.076368632393398333535 -0.1040272595559200014 -0.093240749569607428437 -0.077086424808740422465 -0.00097297973383565208513 -0.091089718997033039538 -0.11748575728470998791 -0.058599207653169886612 0.012169039857848194808 -0.10590716740835116882 0.057067883355593929107 0.018392639139802789694 -0.04343280255875645729 0.010584533618687849352 -0.12024370940632664317 0.23116016453721965895 0.14833957369768632772;-0.24955489223395724285 0.16850658844072613496 -0.44135126133881064092 0.075633933997354838019 0.095644626774730637231 1.0548051955143835645 -0.35562579330502863684 0.20613654784634677375 0.59157324326246429891 0.1922233767583172992 -0.45165863022442231944 -0.39112370058023276931 -0.62159599676107057942 -0.39066674773693466083 0.33207065285862846782 -0.54996027705020256171 -0.22141696249170875199 0.20533984200629967765 0.42941029180332673798 0.029586011986359999487;-0.032530337658057711936 -0.089477564230629622055 -0.52585493876409528102 0.33082058726840279927 -0.52008235081081966023 0.90403980415929785508 -0.96086898461974568075 0.026882975927450682152 0.038634673387400023103 0.044230442067578590315 -0.044193290919390906812 -0.32082534553255948051 -0.95870799477387180776 -0.22158207623134937303 0.016150491253853187928 -0.37511678580346147216 0.032224962588702416033 0.19227922930350160868 0.43228139749014982129 0.15903172759537062553;0.020640732512999356713 0.046522136670958814941 -0.25902500207414935751 -0.092019580198060432763 -0.12298768954660915798 0.15924795238003414122 0.077171476683745701686 -0.04487320037381815202 0.054469678595666218279 0.11576375953852072187 -0.18474557465582494564 -0.16838088796513595025 0.057299776712975585002 -0.042293946376302488099 -0.32125395650375060397 0.12474219385121362857 -0.022176367063030062721 0.3539648004386168334 0.22151751039343220429 -0.073320290177007696464;-0.21570473596668840455 -0.059641441858580168667 -0.034717263711480483845 -0.074299411740225265732 0.33289172727957666575 0.18085060159371652011 0.062319705327774324588 0.053320053620003270145 0.13354772121352048719 -0.044653296142065153351 0.26428285635608200765 0.15472378847738721408 -0.039961438372672387909 -0.20707430143941144007 0.070664192227502989341 0.19050015119434615674 0.16049811753302442585 -0.041400052945866842868 0.12037504244888856675 -0.21564001821198339193;-0.044906091756469410092 -0.21451960929186958404 0.26906926363419420012 -0.13874656762734816073 0.60232524106505525019 -1.0554886733095856233 0.87007820380062295129 -0.25432779840725083798 0.3829467367981309045 -0.22194507865733370533 0.7038347348841920148 0.57402745850279635054 1.0406840482768384692 0.062551118261380392327 -0.016358363824600583025 0.35567324607429140482 0.28262084298729467369 0.13338626311644294353 -0.49541615104633601741 0.26293319185677721528;0.12639866189655388218 -0.11793108339162862441 0.046081424203464491085 -0.042960072437819574187 0.09329564538253611039 0.0082439797033632099266 0.28580288543813181512 0.063390587724223276811 0.18893318827347041489 -0.22629160758663791064 0.29690057779063427912 0.38752825965025189392 0.0079718455114022590546 -0.043453516575932396582 -0.037208100959714177081 0.29387096107905008591 0.27268256623031617014 0.046093201145866326274 -0.13911827170406662613 0.0028776485917341824983;-0.042598281540017129965 0.038737555911430299194 0.052880128054204098009 0.044378586440907100141 0.031282386004676622504 0.013025615469372392452 -0.0027694347240950290337 0.061906543581769273021 -0.12175510057694702293 0.10613602391477115761 -0.10951595891618294554 -0.0004595519703278253508 0.19890428505799670478 -0.00089604962925556529661 0.044779336655256192501 -0.10347590064094698559 -0.022677688047510847352 -0.014081570661754409801 -0.14283041654483433214 0.04771098413937766014;0.16635548221938326052 -0.16246652532012550996 0.17663379580773286293 0.073111791698518668881 0.32080667752402075577 -0.21748974597447823243 -0.049973063958590496769 0.22525832500728459884 -0.1896311113681314886 0.1145200301990043773 0.049745800026355757595 0.32346046433122177532 -0.36059758543591358126 0.083463224527565188504 0.080939071279651109148 0.12458778540168836957 0.08637124380640089083 -0.14778060562921194188 0.081365436304641172716 0.01378856659084663587;-0.0042680072218275900281 0.0021204492607017192719 0.58593571352286666354 -0.086679483690317415956 -0.26914994994779850579 -0.27853619000404811201 0.29308871200926450706 -0.15565163871674425611 -0.013284214205611436649 0.18588342824389869623 0.35234408621126811489 0.048490890582446592727 0.47398864302446047647 0.01917576099413269286 -0.37619541929956618054 0.46456575171066988306 0.16388024809746401522 0.2508151374753917473 -0.005016120319513346984 0.2768311721500251732;-0.027353717522448649929 -0.044246242491440053446 -0.10258704928523443289 0.0024204957443395638816 -0.19911922662071102064 -0.03232737789419107971 -0.058068946379905526933 0.098576385774089433922 -0.028151665392444139013 0.028810638093011500804 -0.068393745102573497152 -0.067200568338173824467 -0.026676575899557013194 0.023114925059713950506 -0.0026187968400200323238 0.019947755897208031134 -0.041568319046785803805 -0.031854198721693427476 0.096543722550870597621 0.046197770227267641319;0.39122749677810209068 -0.32331118795434077295 -0.18975117074082301083 -0.18292917330636471185 -0.01349699653126082248 0.2710959061129629144 0.018865410672712679824 0.18024706678352445111 0.015419555140192628059 0.076386618617241483498 -0.085524556672774934563 -0.093959028780706443928 -0.60278040578963720808 0.1224700915020433406 0.25081795785652744035 0.50714746190778059454 0.0073240271074960575093 0.19783515619243235983 0.54786094190932310699 -0.14582342870301884252;-0.074994593711466828179 -0.18559055482094174994 0.011518915477459907779 0.23320240987631649099 -0.3079437998291184031 -0.037605605617087124737 -0.033169765288182447016 -0.18432181114945769829 -0.13159224143967587772 -0.19319180404496608117 -0.17337210597562366377 -0.18582517917924126771 -0.10209443353585799519 -0.018157072864075373547 -0.11422649460142916822 -0.33079447497713587723 -0.12852949165632546191 0.044300473959526784351 0.2255290555104309258 0.21706022161634791479;-0.13641199197912737273 0.02455173781287945875 -0.16095743079410315679 -0.0595208375042923718 -0.13224131931809332552 -0.07342852384608090921 -0.055351061801055166656 0.0012513248047978826893 -0.10606165645272917775 -0.014830479566468901878 0.059274582297574825163 0.025349685014237215847 -0.031296244834592423789 -0.022169327894278830632 -0.10806656197289157828 0.054341293882503048651 0.057529658544439789269 0.061245354118096513585 0.088256987234192063596 0.082892219655347446072;-0.14422879292203918955 -0.022773641798041761863 0.050455528017840714505 -0.025619972797013328136 0.16453591744899562221 -0.57049630264343798025 0.47360313890711175366 0.14300234779563153475 0.032275742366570998876 -0.11774606410754039076 0.50494072205685613941 0.30045640014629698689 0.28541357925898130921 -0.13634570730042855358 -0.0906108383274975282 -0.086438152683476487947 0.46663913665219025617 -0.12549762395908364843 0.13346166544519597053 0.25787724428838659785;0.057053650498732753904 -0.084317273414835663958 0.097475722968527286905 -0.041092963691002099003 0.18249427175396765177 0.017304558156618101566 0.091026008960569532169 0.089685955447904780469 0.2927426795359602818 0.084522489526364055767 -0.017790944051697524242 0.097054412907504286623 0.10223643142372350334 -0.15205188348243378615 -0.0055090546255076380811 0.060211644921478443826 -0.090212547575310400583 0.046064612908070713682 0.025254893592116259282 0.081243648511686125668;-0.017640740232206904986 -0.069933605562185405247 -0.60696131662569330345 -0.044328639744547378154 0.13290102951002663589 0.24457992295658309567 -0.7022271515369910011 0.16044370942812521963 0.039219287242820040362 -0.021551957520571592836 -0.26250296398508032869 -0.37246412560293129523 0.22702705876565154597 -0.080601099140420282008 -0.097138297186090807878 -0.74720196349490841659 -0.38978634209059903615 -0.22100980884843621221 -0.20315434278378671773 -0.0031125225839485561215;-0.085144960134618696834 0.04450272772842651936 -0.23848323017648540012 -0.065749892863905812224 0.022584746538061011706 0.14208106148344032404 -0.021585719542176650537 0.10849876958080253986 0.091179322186540984196 0.0046474667753516277907 -0.20963961327529598289 -0.12620105788233504374 0.038822740821014084522 0.025956170302910891445 -0.060378172440301490498 -0.12362342538415026227 -0.062936419865489687253 0.080434553028721642032 -0.08227335034256172408 -0.056232795413961089714;0.093895534655399001678 -0.12029185798334390833 0.049053779769185588966 -0.08585145739112555463 -0.42691623342672868624 -0.82414676846909862284 0.17725386949819210702 0.18730463833657148842 -0.50105834426232120915 -0.54832576627634699307 -0.095425561607278372445 0.38552272774287660306 0.24889241256851929451 0.20961505709819833188 -0.48197045162554624786 0.38852964782430410295 -0.049061022965183852251 0.10591519873781046757 -0.10068394294016182189 -0.013829064250464638899;0.16886331575731047816 -0.13030433983902559025 0.20418335330629380775 0.09879076971183566036 0.074021290490461438827 0.14196814979504263077 0.12169014250759448148 0.0055836765742130912288 0.097364530284588329812 0.006674034283745132988 0.038044477923450920054 -0.037768789081373675687 0.054789118062610941973 0.063746428188541856552 0.13936302680040957291 0.38006414762552875874 0.09766324049768196347 -0.095093755967926629769 0.046226276667996162029 -0.04214083619376326334;0.17037830972662246221 -0.17378123625425465071 -0.12996509466758529583 -0.0079778467401535480691 -0.53233257278175460936 -0.85525501462706199352 0.0020139701640101959589 0.45475800164461627206 0.18577437230677551483 -0.24593234160727273085 0.12045322416318192393 -0.35020483377781846945 -0.10414744858123302362 -0.31329827168403595605 -0.4155753719620368658 0.14858284270848823305 -0.077090911416510463083 -0.021462606475617328899 0.021897277060445200642 0.22441558988485585391;-0.024029541249732527808 0.056515315688810997818 -0.030569894189170322002 0.033444063981324573254 0.06265143386950261517 0.06875727066652206898 -0.016092143228210318423 -0.029453221045726851041 -0.0043236053919446411353 0.031304065445759164665 -0.067654180426108240232 0.011045075563510356118 -0.048001024599429870099 0.096480406747469993345 0.021797481099088730772 0.024110641744913698797 0.022260071745154878103 0.050045142526767970315 -0.089415669951961179729 -0.00073177363794731922677;0.23540902836316329738 -0.19568955811768254383 0.5369242127049466129 0.038079866653853343406 -0.5498529282302853094 -0.69029158329464823662 0.17295190340420862896 -0.091238606554937262683 0.060107528817441670255 0.13727892686630027708 -0.5244230762727550843 0.12695648925475550017 0.18972664134638228539 0.060954905783627361116 -0.54717044017767157982 1.1159744118790275724 0.27292215545820353029 0.10290973350188546698 -0.069484125501397195346 0.021157571305921104438;-0.081717003650346120569 -0.11732833353306697244 -0.1092308951517425436 -0.090713294802009014628 -0.081596690526524393028 -0.013622286054334974831 -0.085150607304838879519 0.13880165954545323204 0.059731643650616041141 -0.174108367078036258 0.31677455146193678193 0.18336296565011983573 -0.17438284043910504129 -0.095257003475903379019 0.088955748070266058014 -0.47897948851196098241 -0.11002496261711201819 0.1136900769352168078 0.29653882623113347883 0.17079873087939415055;-0.028110655131710637206 0.0037638049647648647196 0.08093728844145769985 -0.058165435536680742956 -0.019494473293191549174 -0.051844543806827833587 0.11914267970998110302 0.11000766501452288737 0.0088598736676645910293 0.084269412084001293906 -0.25806384293366285698 -0.070484102169492926504 -0.017385705402619307247 0.0005202636848898984593 -0.049723821767083703493 0.42570094924044088458 -0.042725858032359308181 0.023672352332800496166 0.18865143734843031753 -0.01110567466135261791;-0.0056458026428837116556 0.16533149916860054307 0.31533296559641360579 -0.19078638495842947798 -0.011781923280863380865 0.14138342776684406643 0.13431098594536550195 -0.068255368988530684682 0.034413907704786146635 -0.02591135273679794071 -0.091504882967999578991 -0.095452656060934157334 -0.060402673630046185838 -0.11644991689979522498 -0.22271869272963945585 0.42843482460696413749 0.25468418449778729151 0.31122958066158695756 -0.076364422154663560982 -0.28754398548019466375;0.029873494254730965924 0.0086555593436864735474 -0.14806224425778879983 -0.056164338098180506542 0.1702871895357677412 -0.091754805185025170577 0.1182183131599397613 0.17636268559397386135 -0.098719701537554688242 -0.072772593316006939368 0.077547948762495280683 0.18068965209762360979 -0.10943614982169275196 0.17505977499088062888 -0.12822726083899094185 0.013114123112163060189 0.12682620897160767903 -0.022648413551145173822 -0.18761896013348053347 0.0042576956110445419307;-0.47787278765338314646 0.12680044203850607265 0.15149795354748948895 0.17656594628172728179 0.90854009237200961113 0.35393465330923323808 0.82830533508144243982 -0.27044817889005584588 0.27008088418308956458 -0.001697654414744349154 1.1885331650612482868 0.52398992487479212343 1.1203170238057147401 0.41856082448384529515 0.38823614144326473729 0.1736788326722932263 0.3761183279140973279 -0.26916642812916163896 -0.5191934668853714907 0.024562332588913594195;-0.006465748465303270201 0.10817287433820368947 -0.002295727816803424387 0.05087146107005135337 -0.056313491064329201929 -0.062873730933458299441 0.12848659606874404671 0.3315281995231933454 0.074313814431127167559 -0.10986788638314719246 -0.055663109502203607371 -0.15642135990356437203 0.033486748848711625492 -0.197492787598474967 -0.095594021597195835693 0.12047820852953733395 0.023172036328801059318 -0.0028231041431132052055 -0.12234569273864466521 0.068747459365993093816;-0.016769541931461587336 0.059129633021164029749 0.2692625876419447728 -0.0037017516608827396793 0.025553323811213741329 0.033188297049672937922 0.025315061517575260241 -0.0016626897408028758207 0.017918535159394649581 0.057814561755653706698 0.013214970871190391891 0.1642633304900232849 -0.01991739976276458296 0.00013122001108956202892 0.10195205706750858077 0.090028487324688363791 0.078606181221127474634 0.0038840858245985571996 0.04434683633536762315 -0.042307829698861730561;-0.49891775068251237313 0.26145567112458356629 -0.067297813659642199968 0.12713513095008849296 -0.0076903203456762979709 -0.51687664471078542672 0.25215623773779610728 -0.15272933918602707437 -0.2981520020055536957 -0.24577596143763622005 0.43581883041731717121 0.23293059790232770179 0.48893203097839166293 0.058174035033600808575 -0.17228880810440119764 -0.18874522315636899084 0.26361428991469587624 -0.059174616432114544862 -0.015970097697964119599 -0.14866804342765724267;-0.037132037082136686024 -0.058603457042281280331 0.2394709332462723328 0.055115576827451127906 0.16236301082977261379 0.19954168159720858666 0.12636847503823195327 0.047709329230678811096 0.085821800578843601692 -0.078655114151811644785 -0.11182548026732691548 -0.15008477488279783896 0.51029670235090385244 0.15379479234244008978 0.18976806085584579931 0.085494213119893247566 0.0014950112875899165907 -0.17971714627708101908 -0.082105044911189070667 -0.082346538627947815647;0.018451419900718780964 -0.072964877907184769179 -0.084743119038204278715 -0.0013564982237010206334 -0.055353305282469948689 -0.086633883966059088699 0.065319482612616427963 -0.055571912416694554948 -0.071575411612112352366 -0.017439071629164477895 -0.16433817970452432866 0.16457431921302126399 -0.030860048440990012902 0.1629882150737532176 -0.060793625509558045505 0.069496941947636309278 0.079066705885668248088 -0.12100856191925526972 -0.021673962738817081908 0.06392881131994763988;-0.26558423753669874179 -0.08657346191090997678 -0.09379692390062893681 0.80614749621153214409 -1.9221063273077452216 -0.36538074388854763219 -2.0400093177167906155 -3.2568537323169044484 -3.3653095894822722123 -0.24061307857754393735 -2.0102902452168400771 -0.41039506168852257773 -1.3841517737211470607 2.6468895737654922762 0.17081533792130798588 0.30560439628442914728 -1.1999191177746157955 -0.3913880285285629701 0.44541736036056667203 -0.31698520614676051199;-0.13178806769441633873 0.0087599645278088628803 -0.025417539135456315713 -0.278315549681485086 0.22376570060226472214 -0.55887239040372205245 0.11173263424294826995 -0.28304480678657506498 -0.14942981056114468252 -0.28075575635008842568 0.39564436595177826517 0.24547197807543319481 0.34996113961846858631 -0.071415363251813870904 -0.35079869840645666601 -0.2563847021484589872 0.29666431415829214169 -0.1009608094592195221 0.051814018748426532435 -0.048536392083832320676;0.041515075554192683305 -0.09474140171290648671 0.10253955701794575939 -0.0037896423219552647157 0.0056579730072782172604 -0.040829703624149789321 0.062224518523708763351 -0.013867315173558164218 -0.083799086879681725093 -0.06548201859484951981 -0.077983837191326926819 -0.029612727132604776265 -0.047668872531868404507 0.041444732848725004959 0.030825160212704091206 -0.06464312178270512077 0.026708186016648403222 0.10981111284262283501 0.1246501103492220347 0.09972286365828551824;-0.15417232759071536341 0.1735997587701448297 0.065855869221426527327 -0.15583874102656622429 0.029664727346065591224 -0.36033933760055275597 -0.16911578020176254444 -0.066676610739667546701 0.22897307537680419709 -0.091827986182839438367 0.10582079973836891473 -0.23126671500293993766 0.072313645996515366066 -0.070772742070384198065 -0.20877349471958087102 -0.32483295711669057937 0.20758959550446237641 0.033273241663290063774 0.17741076759794804918 -0.21154165063949206815;-0.12311514054786092121 -0.0052042237667287091774 0.43408253763065918207 0.10098326206234548019 0.10619792348497132661 0.59279978825363255357 0.65045623124217122335 -0.16088366417444924239 0.057855689432279963635 0.001677089612602192378 0.10341239221156978134 0.36151115920055598707 0.31072648005751651867 0.24753820565630962891 0.16907961529355378105 0.60062157939485316671 0.30707129061021065652 0.14109867918124413544 -0.10552888349064534768 -0.039829971990984848473;0.086923996022472707623 0.014542420003308426796 -0.40857050935664362967 -0.1279295421507034014 -0.054772923797254062517 1.2953966348556660293 -0.55496564821801164236 0.60127751074169721868 0.35817902575042998015 -0.31060927029406826261 -0.80575544219943096014 0.14152057327294167988 -1.0045942576392661305 0.13597335386812495206 0.6598870992484001663 -0.45972811672158375718 -0.23555342130052567273 -0.27360520086383444127 0.51022872649619910312 -0.21134491218637035947;-0.12500233940439131608 0.21482863421496545264 -0.75597284424856681095 -0.05633770466168427915 0.5655956217453550483 0.39166470105803191659 -0.14396866718284753728 0.10787557027758613859 0.10600373483845522415 -0.011285634495077318667 0.06732701341365743275 -0.10869510206320759371 0.49396378546776392726 -0.087795374335222817197 0.59592204737615528387 -0.62883225291515842947 0.094843357053537288848 -0.30062387802237444667 -0.17308060394117813496 -0.14468237669148403812;-0.12053293623512434385 0.15470871404132194304 -0.29148391145755042642 0.00034849222245562981419 0.11654501385751667164 0.17339781848569041367 0.1059147210808183831 0.23803244555378810787 -0.077537394716436017217 0.038192951456238549701 0.079576888354021935168 -0.012205408083232404531 0.1692945509708597418 -0.25781783389197077128 -0.031446571652643799666 -0.073621767663252152269 -0.044811960812696949308 -0.02442801658083855465 -0.17672197277659340564 0.078647352976293799509;-0.14568844264030419988 0.087697826597323322306 0.033105765013173360511 0.11138476267605523784 0.40664706763409053103 0.34459947932677975624 0.12714209589091426955 -0.014839454004476514831 0.015473255241792892994 0.036522313205657339075 0.093866042911166430729 0.28365126938387713595 0.6072015314759794391 0.24590482022997392497 0.14468208565723883474 -0.25939172122530190778 0.11489106554156652829 -0.00269326107396362837 -0.17486855157717992593 -0.017700530683228066914;-0.035686051627748613391 0.15861643082282184114 -0.21221796218228361486 0.12392938220738979049 -0.56225288024889175098 1.0436416508074763954 -0.60745417306453375339 0.51124267171888393424 0.099562035112587501939 -0.23831240589723767798 -0.94350696474980833006 -0.30109195165621704948 -1.2079268438242638517 -0.22594395879310191777 0.22146449266863613148 -0.63192152370464760303 0.37917917593598499115 -0.24740200008422572053 0.2303726661859666347 0.086802653596596501817;-0.080148766127242088153 -0.065814562898729972451 -0.027311641175455744768 0.098720833429129961623 -0.13227476317375955195 -0.15426957971802407465 0.071716945883765675918 0.30535155553496179381 -0.10387828317279654278 -0.26321374938592712045 -0.23967469409657610191 -0.099760511802169146711 0.31452445076976681682 0.082104720964419980467 -0.091716400113449558784 -0.028383081381375397517 0.02829527373206265628 -0.15079821797823608764 -0.097549842812097026234 0.20111360675160930289;-0.29322257849904864724 -0.27865153067667530751 0.12223252065891901386 -0.066767828630410835933 -0.13060810318952151277 -2.6492910346861786586 1.936904903026052116 1.6354183888448676765 1.714505427669122728 -2.2861852874414263503 1.3608295124399867326 0.5550870609628523189 1.2895680768665953586 -1.5653979684919772097 0.16216243482601622183 -0.61982135195391341309 0.47165226933935033848 -0.19732229296172845712 -0.45195883693705019013 0.48406741871621600248;0.24408808498030093448 -0.035043333472341745005 0.011631473428827573957 0.16491139885445174618 -0.24540309615430261347 -0.038866694874171013596 -0.44092147185598817849 0.29916615828812426203 -0.22963650451956540977 -0.24885539033069847825 -0.3716994245214256809 -0.19236155841307467362 -0.50042355502365110098 -0.1764744712779055813 0.27472209821887755288 0.32091610737753156757 -0.16485294277516435169 -0.017510887951941757346 0.22595436896881032629 -0.26078561268257621775;-0.22170198772709040491 -0.071416214862509957984 -0.25218945215935217874 -0.038408691665677244242 -0.12686201306178290782 -0.018606757830668903264 -0.12145318651837214152 0.21015707635659580665 0.42193437163439240223 0.080498060428451506665 -0.056123016820202313582 -0.22313339241696122928 0.19783045665859247397 -0.071303400061155070011 0.0052805691004050312257 -0.27118699279504582256 -0.17357909321575304418 0.08273650102979543397 -0.024201960686356705638 -0.0097964685303942068695;-0.02513820092792607222 -0.24186663075829042957 0.19062524323207971633 0.03721354014196159854 -0.11646321498609009393 -0.17503191883498359083 -0.079221775903367333549 0.032442665977763608665 0.071117519723597588666 0.17192832500965968268 -0.00658405062811261068 -0.084442115801101488848 -0.256651907330797735 0.055265484480125449951 0.15599072599894536761 0.19285429683907956422 -0.2461310125322734299 0.35174658645847189931 -0.069125896292290739398 0.23141269214973642088;-0.08866386315292915099 -0.21087085555589904495 -0.22664657223290293753 -0.25404324498657088194 0.064940247337345879952 0.18960630145493437282 -0.32392915578569408952 0.34228058431274266393 0.26038062790961857829 0.048681749200361439101 0.42671819519101539253 0.055705700875738430045 -0.6070029754744690198 -0.26793764408248504916 0.062701939810252807495 -0.39305775828441347208 0.079907300353463980858 0.069477159253066175792 0.57286782663969271212 -0.013479936122551007191;0.14448365649432895474 0.023287923076012202045 -0.30496255690350132506 0.078296171508925496707 0.0070903737586441948487 0.81795122965326461095 -0.32909552603857672448 -0.50198091769548536245 0.38893436260339142585 -0.14287344272880100893 -0.69574335247365670654 -0.40675414726280750832 -0.43068870546377563402 0.41503486771465242233 0.57572142110904866996 -0.033587249929256338121 -0.072800037670552167346 -0.042554576143335298699 -0.026714252720237613437 -0.25415918134462633926;-0.21795169612721784769 -0.025963003122662139249 -0.2160518161461823794 -0.041945305457683372541 0.03689596367557713974 0.11463920746023856245 -0.096096338288062091437 0.017280981192318228129 0.013736312756889232367 -0.075586145798491266579 -0.41210103428145200555 0.11537001108528455173 -0.0093610755250182163534 0.31248319514186906343 0.13622408982954589685 0.033633558019796214178 -0.037042408695367783078 -0.16301113308662662504 -0.22118548645726626711 0.11138175484287080041;0.037795711536407559927 -0.10237727005790703272 -0.090904954048698666247 -0.076555984643340027618 -0.37742794995920214696 -0.041003358365830952503 0.26285989563283612691 -0.051058794874078584913 0.092092422579457947074 0.18784230143157845672 0.13167621431354470385 -0.062570911580054885959 0.24223228648148922848 -0.29390718293835227382 -0.31873376644120265944 -0.26168862053234304144 0.00091982849769143204197 0.084563906373204170142 0.027120256758801000035 0.24130449104447959652;0.12605853747279244237 -0.041713056778117797718 0.024227228010770068822 -0.072937342031919497054 0.20509420080860182867 0.082131545219959120607 0.011566192315145853303 0.24455813025171846409 0.42348203127926381528 0.11452487137147536467 0.16457010876621180895 0.16778847757895151704 -0.45341329017412890234 -0.31113764415321609746 -1.1418958975456354465e-05 0.15815543352632818741 0.014325297137876943226 -0.11409081626454582736 0.15095064930475865506 0.0092606953623414721422;0.32441674191396852045 -0.32260438481686704026 0.44805553565220912482 -0.14302145923116293957 -1.1721140690270070994 0.43614639960196333046 -0.22721308186367122905 0.11946301442501061629 -0.068033465526653319477 0.10523906578522809752 -0.67043600704680683666 -0.36183159192202807297 -1.4587944201302522895 -0.10256233363303376982 -0.73213390275717693534 0.63400362095501960891 -0.13086257155231564853 0.13923200929956344729 0.37788646544671167238 0.1918396715522371343;-0.039478744114172084623 0.094550933728049790794 0.0051389750601479305264 0.0029895401499256983244 0.058601139421387921091 -0.0036450042163901200977 -0.11148727069271939516 -0.012379685666484945006 -0.13067531081813510418 0.24261571133952686274 -0.1324637252527579856 0.023201486087922072732 0.10064165522386321616 -0.036190976872229059513 -0.39924928882697835464 0.12960756958747648993 0.093953169930931626497 0.14357739622851861672 -0.001134338687724580335 0.0072455113533579293406;0.011938818099656677355 0.018400999962445596658 0.19374687899027692728 0.057516096481121319062 -0.16834654928162043341 -0.0089290327620587250923 0.098852659446661939047 -0.12200313795778786052 0.071436338419402389821 0.070003612384232305477 -0.1601437445470921539 -0.11122861799801063432 0.3430676028773496089 0.017549720485041227225 0.039453094177473391202 0.040538654414479659283 -0.067127552332798809398 -0.034524367693203744656 -0.17321070225087500938 -0.021714872888830040465;0.20253940445541832038 -0.049908372984101945224 0.48323662598109690114 0.10249488753951582765 0.17193735695429993027 -0.0348902789195634222 0.58577643476134988454 -0.063948329446012933119 0.18856085771264219364 -0.050085740906558581798 0.20678002585711177663 0.078860251366162842368 0.49702089887028422233 0.16832742186719823474 0.21935424853116972099 0.29752839680747000806 0.283389492289235434 -0.12733726369687323188 -0.084775164848177153587 -0.11183414027846633187;0.042614990443474040638 0.019221010155930140506 -0.19736704154804779465 -0.062955977066954021959 0.013222146610702182126 -0.10700555799775036958 -0.1041292926432816901 0.03402846473244930392 0.13438584252901361604 0.16289302009592329656 0.011918243765530600956 -0.21751390575471774014 0.14058822408035454021 0.1145176424828495132 -0.25508656544971392011 -0.39256141145397138725 0.094998321483631020801 -0.049078926637544581513 0.034453528860371104847 0.090607463179948111165;0.12508517752528441891 -0.18250155337945042633 -0.081412945719051166282 0.17742529067003706689 -0.47493032197058177024 -0.78640273313202602168 0.15638685583570519078 0.3875363890798414479 -0.59077458884441191866 -0.34464071399569812248 -0.46132019618783998149 0.14499005454774685497 -0.38614692090216629072 -0.064850898193396358526 -0.10931856783341414863 0.49566918684402627715 0.011473515510863705608 -0.059189044576862540059 -0.19842175789089064319 0.37938698724587949229;-0.082963284178417834314 -0.045107212369863293466 0.1126824038992010335 -0.039202242909981706298 0.025377479252177301272 -0.10035779404593768438 0.052792424339410726208 -0.14741146050777892418 -0.18806393293715795156 0.052922198824399510619 -0.1193024113826675614 -0.0078260997178890498449 -0.073605376995971916188 0.075653264337757389346 0.15743937292472304224 0.13757520442719126108 0.15390307333907005116 0.063908339783678477786 0.062240760700169261987 0.0051293028244590328085;-0.15737141525929077002 -0.04393958605914019544 -0.092747890123962686837 0.030292839406314869127 0.072629503535382999857 0.24418054894208557348 -0.16659029767489966223 -0.17873439081513203819 -0.0092177557375397473766 0.15950636202751475312 0.0073537291831342150791 -0.027397704814302016596 -0.16992861497536862481 0.26076338098118162501 -0.16512880365855475695 -0.12197270699716797338 -0.13909234990008687016 -0.0010146062144951817439 0.023909350097752551934 0.10623607519685315803;0.11161912135214734076 -0.15266074763564427275 -0.011675825478299647203 0.19377729525168796432 -0.044153616973718411154 0.29061088782112859397 0.20122359367815459419 -0.1706300518519271725 0.11477529543413370061 0.22267759652474086729 -0.15192258216235859924 -0.27462983665058871008 0.40971032974685012151 0.19986662340828623141 -0.34402068976466271266 0.050190361103966817102 -0.029339680742714251138 -0.088913701207365067325 -0.072211373830592257006 0.15455207485470898177;0.31944664123446137038 0.016468051312041483841 -0.062642538346178458508 0.18663649551532252024 -0.096727142097001700405 -0.12855710243238532842 -0.33570967297058285084 -0.10482857185616831219 0.11146660630343582787 -0.24610614788654314178 -0.24649627393136153142 0.34322803736098594918 -0.44734200496485382326 0.23588766264620958379 -0.18275601713072164856 0.16868964098236580162 -0.053497879891252653195 -0.040191135024186010194 0.31427292917908494774 -0.084963502123239761921;-0.063501010003231050938 0.045303885804527543879 -0.41684622193645837207 -0.033578554262246852746 0.39346287731803958332 0.3387462212325764721 -0.34384428096022845445 -0.10455048191768283317 0.012715798249837739417 0.02574127037232660023 0.010958076193036557847 -0.037588369158774725953 -0.21743744720221119815 0.086846840634369232292 0.28222029290316408279 -0.71441787262840494854 -0.15175399765188865575 0.02031777541805226267 0.46690849563963127133 -0.13912517530267046184;0.1527590607132332523 -0.026622855239484283923 0.20200110583841909828 0.0055986542923807053676 -0.43154292035514130177 0.26234702915353286246 0.24564630153159147663 0.021065763122563106735 0.19056082420258860233 -0.017737893083317350651 -0.24710548777411545096 -0.2160941170143042267 0.12428902256811844018 0.19675534177870410146 -0.089646039825693482617 0.23505133834739705412 -0.25548729900830524642 -0.022120263782180311224 -0.17295536475882730687 0.25625991098904127297;0.083514954642130809215 -0.15358300958050602469 0.16078842015571442881 -0.12450791829385683684 -0.73280206204060560626 -2.35826865585563894 -0.060844045235606596111 -0.60073773663659035815 -2.102709434435157565 -2.3498561112371687543 -0.7338812840669733939 -0.19047183310138351975 -0.2820443323883241038 1.8537903622120832647 -0.61516794704705002328 0.96457789646185676524 0.13406796648261215532 -0.0078617323731067327575 -0.44851985817679979052 0.56385853266373253678;-0.14972656799133643446 0.32606636801794802727 0.11877073041493881045 0.065959539101356406965 -0.30673494541393575563 -0.32724923183124310366 -0.24875990093180624929 -0.075859306458763473002 -0.021186829619020013105 0.19818495767826443954 -0.16418294728495447243 -0.11002965047103116514 -0.023171362363493507031 0.11091525989752044901 -0.15971429226451983041 0.11602283897988699413 -0.077117634146539160156 0.16455802185589543662 -0.1967190667136136939 0.014484315302219160498;-0.17797812730456419317 -0.055031108747889925792 -0.35185876684100603207 -0.20964252654566445377 0.33121014785892943788 -0.56414204371165344032 0.011193565603913822534 -0.41115456142615913748 -0.52986063958629281423 0.3241553681538276166 0.17847791211797550681 0.11493806495352730523 0.42386839293396544326 0.18949619349209917418 -0.62406560185907733462 0.088771736484338142903 0.23954117915649036918 0.037275127461777295135 -0.088664690907848758838 -0.017781323330578205355;-0.10575581337900209766 -0.16626941109936119179 0.17584871098884091722 -0.24746014774769514721 -0.26738997719707430223 0.38428809257190227333 -0.46207136258706182907 -0.096020913545191863281 -0.16692371075270201475 0.11339182864773296455 0.022354219354870863423 0.25385264160730502958 -0.58518959937938375138 0.051094343141769880956 0.18661627507289019201 0.16487672243590284493 -0.11584020983460124876 0.44315096947816523532 0.21586333846419528126 -0.20813571812157816154;-0.14469217329014219531 0.074053147731859905734 0.065833597637058233198 0.0043884804692145579913 -0.10637745572997774068 -0.11802700113046180053 -0.01439255542767243698 0.078969156813825616692 -0.11777575347838613318 -0.20422007446468262715 0.12281847534363991847 -0.0071308727244188876288 0.2167623517094148522 0.095349098105769428124 -0.063442630363890681333 -0.065324548999642323421 0.023768512004084408479 -0.15934722880099730369 -0.3791495964900110649 0.095573810041552881289;-0.19521759881421557603 0.019213369475507217909 0.058052562212362837646 0.14751234074531582863 0.10696015392804779365 0.17211279477866683885 0.32785977960675705134 0.31181233080175213557 0.38514469133907680565 0.11508606594854726979 -0.001602037774497231705 -0.073316691463405844753 0.40668799013046791346 -0.084147160586530170279 0.2105850023968486584 -0.52408788010709794758 -0.31238791467098225851 0.036261399666779686735 -0.3012521417443412286 0.17959459047041795299;-0.086526697664622190254 0.10316576590229085963 0.077849421761747000792 0.058953216136521519042 -0.15256304262694500573 0.1612403976159834107 -0.062940125738141894374 0.029763432547706636377 0.081131954561778615864 0.0061276653792205187238 0.096256270091068477091 -0.04909378264789834162 -0.027292294334904602243 -0.0093238820973774120399 -0.020591567357428428725 0.05574016332331647311 -0.02512357950917784577 0.035914925238402922725 0.0099790239117178262951 0.043157786310151637077;-0.043829436776081191762 0.14115607709028796246 0.64630243399269049487 0.088103385191063365856 0.039952090448126205413 0.25496524596081582281 0.066999628966572771782 -0.49232545011345896224 -0.67524991214941232354 -0.39326021050109200017 -0.13616784525187980437 0.42026492478088206539 0.1046018647751056907 -0.1395992580352855561 0.21328333650924866105 0.3994941296715056045 0.27086283095214314098 0.32331084547110267025 -0.15479722268307835598 -0.35142384151142957993;0.13242279574319873459 -0.058426018617746690309 0.065530565686132677405 0.01008145747853644858 0.44407720290098789961 0.80431829089105100206 0.042073242329219884272 0.27279783163981935479 0.27953713641268140844 -0.3145189076307943199 0.37599804007119486116 0.29781924367872242287 -0.28246462975401054329 0.069211088937727371917 0.75863633529304774772 -0.27236268250652795331 0.031675054106906408435 0.15445014385976998939 0.16305980144166640211 -0.043436471444858286428;-0.15625285846456224426 0.097093065434166528349 -0.34569516974142255883 0.11511760197199555344 0.84684951798495544661 0.79065327181732125705 -0.26793527702429553727 0.1998973054762793744 0.36397794421148510491 -0.25963618623311712774 -0.50160335348825035862 -0.03869235805787113458 0.26231291741546325369 -0.16124470372187560407 0.6247869311997238384 -0.82916986881032983536 -0.018062634005872324483 0.20063766947456776468 0.19124172670757760839 0.0036909446125434237918;0.29459375740233451069 -0.018783101951125990431 0.40610649511612789686 0.24187208913715707581 0.042230997770688546988 0.10574153485446052825 0.15899079330541596167 0.23553437040651764578 0.028976596845583374451 -0.016673439269587485984 -0.4146677750478816038 -0.013150792192048812307 0.060280246018791429352 0.17971470974779832352 0.3027013649871247436 0.098193413484276195757 -0.16524263851922149637 0.016682986771804093201 -0.046642195155375328064 0.16096576433707365794;0.228673398803172917 -0.017194136773241126132 0.31571423865293296585 0.022728825637577571711 -0.24436542508021535935 -0.24667423099285901156 -0.010089747626554748661 0.050687047657850925475 0.020270947163740546393 -0.092440257768235445379 -0.20584598969197637208 0.037398990700426126832 -0.19539411704506559619 -0.17538017308940145877 0.18780272542615134013 0.37728970838967051948 -0.2288661131793006398 0.0074352962438630730568 -0.15133503996502359334 -0.011144978784362120222;0.00027969000693464098582 0.0043766048554964073064 -0.084771663802711949565 -0.0016923107210811819991 -0.055397998442134097075 -0.033986868520603057131 -0.00056666633487502935697 0.031478750505715656638 0.038992863041706141147 0.01329324346565042593 -0.053714517413008089353 0.071755800354353249659 -0.014787100772294765536 0.031137149733702119275 -0.10482732506754778579 0.18162229872314364365 -0.051693435291552909672 -0.042373683642040992081 -0.046142927595072526226 0.015436901631813824617;0.035950103566164584579 0.12558736648328594487 -0.023612455275786974063 0.25796709275078538726 -0.21337212538861735633 0.32828957746436815412 -0.36185840191716101 -0.66298646875522926347 -0.6565071284968622134 0.42879518274877281847 -0.65591038187504313584 0.089366916645964425414 -0.3094513688536257856 0.33204951571391588816 -0.50423231847590088694 0.26408110463658601708 -0.25421207443687443561 -0.040506494759085256985 0.054722143455033428472 -0.059755694386528342144;-0.0028623301414473817546 -0.040368088834672154197 -0.20678207277438426237 -0.12374936164049329945 0.16986415080703151648 0.54960894565540219237 0.30812319080739902777 0.20829662434548756877 0.33345417634829938036 0.23579956097384296987 -0.038381644616972597495 -0.46084770761416643525 0.39078412782742311116 -0.090742692955902093388 0.12566309045299067781 -0.11961497738004464586 0.029997284277288902704 -0.063000244875618116591 0.022324675634727446372 0.041070370386778499994;0.16055436032754208386 -0.22891109445939439304 0.11653077513383895691 0.078313093896280938644 -0.35752009163054515595 -0.3514539104934321645 -0.11021506285499652056 -0.10856290783244455789 -0.094015426093009710207 -0.050823934669404435827 -0.25288395811597064178 0.11529526786989650888 -0.072871182981653057076 -0.015533907580956504701 -0.36064465181231553093 0.52635523914040605042 -0.1319802428491948787 0.11341445457134100017 -0.15260673277852437879 0.26716317728905963902;0.22935646256759734118 -0.23395893700266362503 -0.050264625712027451165 -0.013215903701213779081 -0.44727590352088519854 -0.9183700640336287524 0.11015028756434308566 0.37151871474174036347 0.054305682739733032727 -0.3373532555299638136 0.31334895368338055999 0.061458270146769376774 -0.22966005531392955086 -0.12702100664664989216 -0.41288166503435952404 0.28500427284105989134 -0.19267588787984374354 0.32516288250710001506 -0.16998791035208751787 0.1202349456116296178;0.068211226302378122344 -0.036088480532430015912 -0.11358680302682135077 -0.1127876381987231863 0.12270628721972652586 0.15389400731472802075 -0.13539483773521343579 -0.16637590240577082579 0.11602976897064731787 0.18915206911420373581 -0.064040200962107871052 -0.1168720632276641358 -0.044879264422420454828 0.04200725870506669124 0.019490404723962333894 0.025770935122619208213 -0.14213211842741674262 -0.099131063241370317995 0.18833491487953460397 -0.074443950512647766304;0.08742763417504070822 0.00038458807431527393048 -0.20025533323634336913 -0.17182864513962803343 0.12845811247000202271 0.15136666802276937949 -0.272480608777896538 -0.046099180439453490976 -0.094518203776888812251 -0.072809837963524318138 0.2416351648489190318 -0.083718197632983160084 -0.048410137176011232285 0.034626223385337384642 0.24147316671599600157 -0.196755388183639357 0.049057790648731162964 0.064811030459684892957 0.19630879527085690062 -0.053022374272509803506;0.077068156819594252349 0.0037481110395578645135 0.073121312778757149853 0.074392979019115387795 0.014749968255327891228 0.0053550386439081571616 -0.017606912857094782904 0.024995279536330520381 -0.056230564960220941195 0.0029029612245038993214 -0.0021731240532606257466 0.095365204997855390623 0.052998160746789861608 -0.015089953056464258316 0.014551412029194568318 0.073462695925546495079 0.052014325604175223883 -0.069311754487682702974 0.0052409013684636979874 -0.056968845149913606429;-0.020068722611587132276 -0.026741019724688175341 0.24928078386670882161 -0.012779474713716269113 -0.1336683334291380032 0.37234157361185687973 -0.21481308504629051392 -0.056179129696118379478 0.027634405810468994774 0.093843360628470845475 -0.066754259988710276663 -0.066142574105031229359 -0.10887654791583055436 0.25116732365347205214 -0.13164614664942989042 0.13797078874757437439 -0.15415606228818587442 -0.074464337200809110895 -0.069637648569826932077 0.010996655034496021636;0.040405630014820795304 -0.039339051403694084985 0.061419142986018991637 -0.01159312185312219752 -0.026999577541694626953 -0.040458093705999294276 -0.0089438765541329130759 0.029970026703962274195 0.028495835307166535871 0.05871021258848736768 0.048813041980201289649 0.010195297134004450632 0.047214584095007880449 -0.079146969485392126842 0.03112563572152098057 -0.059702875537631636127 0.023115284621097510059 -0.0133912270854179144 -0.0035305495669039179199 0.012531771877046087374;-0.51332906350090823366 0.0046151572981468552345 -0.24996389070727406678 0.051241496769983865822 0.18049972894962704184 -0.030575193362701313937 0.17742618515112407174 -0.079103020882465444052 0.15650865124197996248 -0.0010194526211425697891 0.31489043914477038433 0.10971001020744233778 0.39163152745673518451 -0.046779317608153056507 0.39210424296048307369 -0.84897604484488065069 0.34924010270012034729 -0.36807478006455662811 0.028958796249236761627 0.22497606773602049635];

% Layer 3
b3 = [-0.026160968987689853238;0.020966862384709034767;-0.021232495803350449198;0.10174721905198985672;0.0027729941867066201962;0.075244923048904330254;-0.0051929324107553003625;0.016682894974717650538;-0.07209776294947857489;-0.051983400170373721128;-0.084322059851082029058;-0.068332182639276706215;0.039878267619351003004;-0.010350239827942061058;-0.01481598755424626962;-0.031527455990386588081;0.060831422077337729548;0.0018891833399697129797;0.028801378334472466092;0.067930979297883220536];
LW3_2 = [-0.24302224448174369886 0.032316466742422167435 -0.037418799791008074129 -0.15073132809641551222 0.28586951039389035811 0.015923240728483077644 0.076321740677238153472 0.12557092402103814388 0.05768549155041897275 -0.15191654392909673121 -0.098415496467690474769 0.078962063898312825905 0.042426210869610389564 0.0040568311214884619775 -0.18162744514950412977 -0.065336089005233924376 0.084035220503704335937 0.0041699526328509168432 0.3234846096619576894 -0.099513576105951240258 -0.12560777020802429971 -0.69770981343005289421 -0.10177272190461801593 -0.25865825457406244059 0.01828144907335943134 -0.16910956433725146675 -0.31922046399936987449 0.086871299445947555706 0.057097239639462935012 0.053123927135422056856 0.10219948752533156155 0.068737760497909750068 -0.4168987799856198051 0.020793363711913964015 -0.17490886810925945771 -0.081545417540710277149 -0.071653855561860449463 -0.021531017552945532628 0.24470342162715694179 -0.089725810277892101285 0.0092111254522254208676 0.063371263133774308196 -0.5274190834051883936 0.079660562881779500843 0.10119292395417968378 -0.16155488845774368389 0.19049998720598718127 0.019064606333847280983 0.26237240961117103133 0.040693139135333775136 0.71976642146748737172 0.23269157007709939666 0.18926720452243789294 -0.23050531535426818652 -0.1892596042893790742 -0.31277897179768227032 0.29064677028848800999 0.041856252348177615252 0.10422173545325474908 -0.2523335259090176419 0.056836418560437453051 -0.27732186436609906899 -0.098861438838962367726 0.23600684315176931327 -0.37003873543401660795 -0.006052336407446602673 0.22227794567463052267 -0.10430981931093556703 0.17902917904827073126 0.093908998545171484817 0.019284382403142546342 -0.054469960988201650276 0.076320542468196597707 -0.01203690933918228137 0.094142831391714767997 0.013949688653809189098 -0.080068032184314949506 -0.4001293201490629392 -0.16811505555490952046 -0.33556135733193886983 0.016689315258938717396 0.04378196918853050762 0.1489351116942017883 -0.14909055129688408847 0.10949039929545358041 -0.0035295841555287111105 -0.13223164151516728082 -0.031665224119899096356 0.05858949398369217576 -0.060534509916845849475 0.1257098595091855342 0.070588051129512774384 -0.19591089264573013917 0.28913468290183286236 0.045800016092411459379 -0.16621296915946512374 0.042286303102236265372 0.091783608233722155378 -0.041823519880049578323 0.25492778766662343992;0.073702892120673157983 0.02948332937797540354 0.08231539785602234871 0.064586820884251341934 -0.054291783278796489076 0.032629346407472670233 -0.2130000720192997965 -0.0033373473875500177417 0.047397035098845539947 0.16989157275204247455 0.011022738552151956776 0.022782029491259330606 0.0050197050712837950129 -0.09751639851376020518 0.058403411745301808677 0.17552683428132045962 0.0409677764619383461 -0.16016650706450094588 0.0049558630445238026352 -0.090762499003906704775 0.24519864032984439728 -0.058551386070110705839 -0.027908997457493148892 0.25581011031976763626 0.089013107492128304421 0.06130109893116835601 0.072291530182271426797 -0.015914372593622026081 -0.14492167237135936131 -0.032120565607659648522 0.11106492257987939098 0.021624516561518491303 0.1396121654730041739 -0.020353724729364933155 -0.027914705687382721649 -0.070946687824315568527 0.12817215818058103061 -0.1306308368556919064 0.067068853827388363875 0.036528814101131991399 0.004425718969786832796 0.0064210857643446240389 0.00076182423815721652532 -0.018863243985745920678 0.085036898807107741405 -0.023376556163495997714 -0.073394106226409072669 0.040480710834399441511 0.15732391502366016578 0.071398777626797138574 -0.24349192741138558915 -0.047399578518946321182 -0.057934793587173502583 -0.10970296659379934201 -0.1727062773624784553 -0.057692204903506842661 0.035061634078667372472 -0.023249029582289928997 -0.016961677111557025427 0.062724021467855481382 -0.0064353421610879642939 0.1609538961044447436 0.0089986453801087305099 0.09259748962964962915 -0.030695554066446511382 0.025423717228728194562 -0.056451434651649791407 -0.07041780355325716334 0.026417308089353067069 0.0026361785067493177272 0.080487154528629797912 0.10204331049747915328 -0.14895100801469646212 -0.28935153801253760131 0.11103023726399892379 -0.062742452426122308218 0.19516830176516197781 -0.020070222946174044037 0.12700014098444753485 0.090528788645891311582 0.14189862990050844394 0.076398987937622828137 0.091975637120811026826 -0.020747678960251245139 -0.052375388237792225299 -0.10490020899147928235 0.080244446639743477467 0.076839852911014888681 -0.12761245717176500358 -0.0046382307984174130436 0.12034507373253630624 -0.12374229766740382774 -0.070733706197947679439 -0.19343940392023853403 0.0077479969855161930081 -0.18180838949072394839 -0.065277598680571979894 0.044228170142109883567 -0.017970897140942750092 0.067897812221079309469;0.081284168200381395897 -0.0075453505883913817714 -0.068899852763894556262 0.050170629909755251608 -0.05986008560531173861 0.012677247222359048703 0.077476138082323314782 -0.13361119076889502177 -0.071401789371268647999 -0.34284643195334524313 0.30225601269775020929 -0.035946498364159237826 0.078235812167366483583 -0.039411945290433160471 -0.10756772838374632772 0.020344883741270098493 -0.12335111266079143433 0.063284034942908448662 -0.088655313394658638582 0.092524716788347810548 0.12231261467006636356 0.091671216360658919209 0.021302682326330851098 0.076952903377215914338 -0.026502913660563429815 -0.08464970200224866681 -0.17776094186332311309 -0.075123948443980459455 0.17598585575296046835 0.15064460384036174045 0.28079344409434708885 0.10556091023445129951 -0.084901595290695547336 0.061126995019056419578 0.19950333963899624656 -0.098878857973122041836 -0.17037198394047520233 0.099040637613773976899 0.03965394688629350628 0.17517528782167299251 -9.2723772938904137908e-05 -0.0070634346323338401824 -0.20480407412446391402 0.1314367331344242773 0.075064336579478932454 0.020986596099865171411 -0.11219296095499128874 -0.034573426572910626042 0.03158100625150441626 -0.069254066414699499976 0.23125328823380578158 0.19486530691261005899 -0.074119878489317891912 0.054555011959710512925 -0.25399920665569558631 -0.070214536944474534308 0.085383747644041455005 0.31826981007792171097 -0.083196680845107659485 -0.039420241600048776254 0.072057399027817881088 -0.065988033389628428238 0.19956999820629742204 0.037762750737753328356 0.017121602355096007808 -0.22607899789519747547 0.079373208944497689044 -0.03302357855029611905 0.024288168124927338176 0.18510339783575655015 0.12833117205254954141 -0.11037363427193830345 0.062902120392902868828 -0.016377053940070645383 -0.11607475159186170233 -0.22878194532524473437 0.2160770862791156488 -0.056245471159253004889 -0.071823333599240202219 -0.18381525212636770639 -0.056710768224600686949 -0.21124724615237810976 -0.15691833164566634795 0.00024867776603298714228 0.19070730557437939878 0.082833458802616583005 -0.02440969237247440915 -0.041698826234919064704 0.23742171255130198326 0.05129004947974312445 0.055754336293662734581 0.2720758126705362101 0.24308373816518485944 -0.056717785746911643374 0.093768773132335628273 -0.094716131530772934566 0.052122776870956274986 -0.094234593635582564186 0.015122036817758439248 -0.12882204925241189097;0.011122016970998656674 0.035408821528611397755 0.03012194410109184442 0.3338233206474495729 -0.020942273615545559801 0.057707809551535489689 0.0012096734171238242815 0.21739080263482851718 0.077503989156690544782 0.0082269572130791134013 0.1489466445011580209 0.32561389585061811802 0.067028101875560824885 0.00011590140622824880723 0.14469911267309212843 -0.24673419655349906887 0.13500814768176838676 -0.26819885620998695774 0.020620523310511902626 -0.12810247760259352301 -0.17314101897155032006 -0.063798258309037486624 0.048803793047885589418 -0.088077636146390317351 0.059896807228535985101 0.069423106829450922928 -0.0036217901102294641769 0.070223498202635348253 -0.095661972700068639841 0.0095256155500369754652 -0.22228859792981633947 -0.097027004210059247802 -0.12639255306733687689 -0.02861000021932995005 -0.042762341755207149141 -0.063806383252291015706 0.10538811438775476381 -0.13093494748099429592 -0.20794670747391219567 0.38649096264361465503 -0.060563395719051199562 -0.068358609643134282674 0.18337203283725223013 0.034360473188513998566 0.022357858905747877293 -0.14881779195214650535 -0.022971530379504116054 -0.035988110344179924383 0.047980166443491421846 -0.036461610331821041331 -0.046544321360158527612 0.18716956811298623986 0.0172653449086238725 -0.061870050014520387716 -0.044921315637614325778 -0.042442425563561807234 -0.74967068738725295418 0.42601097339395721519 0.29733195779373361445 -0.17847268981451416825 0.064312281001366822242 -0.29032031396277818702 -0.13643917600226285192 -0.017647453244337519412 0.015092337799932438805 -0.081637431352485759217 -0.019163241028401015176 0.052360089334768475378 -0.25999542667241692939 -0.042517971865100138984 -0.37899527534377996929 0.047320242573654136553 0.10964414623120449788 -0.013052037616708790646 0.19265823603448201107 0.14558660149413890639 5.5166405632805061779e-05 -0.7615824609427150893 -0.17783903676425807938 -0.14944354279581945066 0.019285933208173507841 -0.011394591065007219147 0.083954213935707858174 -0.013036178910130327702 0.049165276230876540919 0.26655216994387609386 -0.031733273372221829089 0.2253508979098571563 -0.14785680162559808326 0.11406648650368983455 0.21475267684067844698 0.14077995997232345404 0.087175627088153267996 -0.16001248883319707517 0.10605621032311995933 -0.2420114669645500316 -0.046887526075503928313 0.20453899647763887359 -0.074550112977508367629 -0.006247563782458256422;-0.16604323344066659884 0.022843256478977488899 -0.030281296713205330812 -0.056392841910483194889 0.0034819548651241925483 -0.02660513854053959612 0.15057324251217812927 0.081058502493459777538 -0.077935845724546717883 -0.086199392530076870966 0.027951197024787769602 0.22369275952775327654 0.014049430763073486247 0.013539352979278482247 0.35106825275506892137 -0.24854215912928231957 -0.032903778271352185358 -0.39258637118915479247 -0.074165395120147400987 0.089240924431406326578 -0.12466676326951753317 0.0025448512954972038469 0.0012895392704163337761 0.033404412693767024378 0.31638495175775055435 -0.0081905156480099536309 0.07991196210254247756 -0.020497943046049578453 -0.20570767007431720041 -0.14654658790087726761 -0.10276640258199543077 -0.09873394736459721599 -0.083181122562291626155 -0.032326811784817638395 0.19244571727240339376 0.18455328569473072875 -0.2481746511418954082 -0.043656103572261614754 -0.13368723603626245233 0.33889520734519890111 -0.091686597205718659009 -0.046991816572173425448 0.0065946344303327193714 0.067926754407215295117 -0.2245330925970447089 -1.3131083703687094211 0.12136777654458799636 -0.062072639628491133035 -0.038217506303835600823 -0.17101769089967605586 -0.049597617184733815143 0.046318958294053247382 0.12081540772505604264 -0.008354769634636233927 0.15788349688204494914 -0.14020644798238932061 -1.954249580097750183 -0.11945953985475250836 0.1111455042008289984 0.011358270586183095291 0.13730024705225485349 0.019541025270935138969 -0.092162970587362474939 -0.26505259709111367306 0.38562902139598637108 -0.29665607898710533163 -0.017194981441753014184 0.01800553576499323849 -0.070972634277961854643 0.13442542288351153057 -0.38903736682755818421 -0.022199895763691152722 0.17121596425774177064 0.18664319817940788759 0.033619532790342403217 0.014223076639764489076 0.12825490304020392696 -0.79394219755345951661 0.21286838947809424982 -0.088847120786655714442 0.051039006482553939126 0.076917372595348393327 0.007547099829526069184 0.11991569834397268479 -0.10846064887685964717 -0.066943574258955501621 0.27957107684781440371 0.013684677730234514476 0.13521950235834964693 -0.083408621238023658573 -0.089669871002948403627 -0.05242035565762315219 -0.0024482383552995872107 -0.42934725993800398891 0.15646178493954915334 0.19565216290240636243 -0.014754832048070133654 -0.096972602435645885444 0.027835233862297682067 -0.040421757041134181998;-0.041463127568673756318 0.043180792242309161411 0.062937747694061033088 0.30632091018455104292 -0.017862953104357214701 0.048395453107038979845 0.11798565334496026458 -0.064613583100041130369 0.1394655539248328413 -0.098199063886056078831 0.0035019514415017332851 0.062292353177378863294 -0.14223547941749820067 -0.25151606153863231841 -0.28809846330768340561 0.05286750061397219036 -0.11295082891637951705 0.24930423933429515793 0.17523029366930342743 0.047095575973307414464 -0.019803680991597127914 -0.0050765921020514475845 0.11942540851422686621 0.032348211058615045088 -0.2427979310217339981 -0.042029682889841518678 -0.13761540054031551339 -0.0095225337090450983685 -0.22477426755087123733 -0.0065458550645741478413 0.63529807512652780588 -0.16789388520597467447 0.064413865820841090248 0.025008306421327296948 0.00022811832811637329163 -0.070021410333437672513 0.19870031659886552844 0.019245717548611703668 0.085024249094663495452 -0.1916677589270108506 0.15070526352832902539 -0.0077029898162720537858 -0.031136682090885443863 0.28831159212474460896 0.084615818753701263488 -0.12659619188041440485 0.16279508202092354829 -0.11290345239381995024 0.071180621469394800283 0.040993661872434764004 0.1945560615940868654 -0.22950286379685069793 -0.020270576617421376397 0.0090482336659453953265 -0.15080934113354979575 -0.050019093296787539571 1.3080631202169752392 0.012106061749181202744 0.12230711531741347842 -0.079076705455714282889 0.020717946730221245555 0.029541078246227280013 -0.24127412589420244027 0.064244499211557892782 -0.010357886270617212843 0.071942594766071787937 0.10025030823071907904 0.070633955192470426754 -0.061356409968163459767 -0.062149901880709769453 0.13768541408806769799 -0.16579507080621483373 0.073625662717371628818 0.098004222906831028883 0.28020025474790560827 0.02844022098430684653 0.089822662872205652485 0.25287056420167858262 0.083040588013289090563 0.13869972296904023445 -0.13836836917593242635 0.13647419420161363557 0.098963936572287122817 0.092470261695203420649 0.2436710444153373234 -0.048774595381247336234 0.033200262092484833509 -0.08996964514429868498 0.017093458291512240305 0.12484027773673625483 -0.18537577710437919132 0.24285524073927813871 0.10736233803600984948 0.032529275197738426184 0.11584547002925650594 -0.011512459643812913632 0.053652570969669362289 0.02103818408289218761 -0.045941416924198313909 -0.071134605230252348496;0.10189875388943105128 -0.15871174643025606765 0.20886188429181151704 -0.19303245461793022697 -0.065443708066549671765 -0.11160283904831068413 0.011584100663462028324 0.11712954615423300242 0.060991401399193158339 -0.090090202750314332669 0.1167254219996853859 -0.030957903721616619047 -0.051740096069067313678 -0.12713228240020996163 -0.25892445926473800499 0.050385302584562405293 0.023789292839695292542 0.30635083735698959151 0.057541662509438762374 0.024707883245815118189 -0.0023509570962948777607 0.22170335856528591845 -0.16564936167856791904 0.10567483812591425829 -0.10253563509241760132 0.049978103217902719591 -0.26459601494030066116 0.15386405713389855743 0.09761588807859497563 0.017687284932813952115 0.44830652627579331559 0.026031979775967689639 0.012523363078158147518 -0.055342368909912523223 0.31788932519310020286 0.1959381222233430031 -0.0041237646298587643523 0.1653644108984365646 -0.051171031847373191215 -0.33962463354792687964 0.0030053061116360152254 -0.11296073564901630559 0.26523546741594317133 0.023591215008871097014 -0.12157055909654886083 -1.2574408008719992758 0.056200829596784386555 -0.013134542623342711568 0.19471444141128094185 -0.081932315079980791439 0.25737295316781233501 -0.0042255612929220452006 0.16568647675544992404 0.017513879532977751768 -0.10748072309434406058 -0.037512808452621983213 1.353018542027865978 -0.16806538585451152867 -0.29641240805765300959 0.024781287780179909325 -0.33847578762890123683 -0.062536354600357946243 -0.031930223009320940486 -0.14157954940294439905 0.053732280061687981432 0.065456545260761347937 0.056307486953005150832 -0.08353274998659368511 0.18332655200665984307 -0.13218043971075230103 0.29314162132346266443 -0.2490033605667973382 -0.16452594796000810651 0.30100237354386111255 0.078911922115775287589 -0.085582268189271754055 -0.030101063725352646822 1.4140344099906481112 0.20581262957018836568 0.22063563982065195757 -0.11962307412721034927 0.0043116315274113210104 0.20925190575531973924 -0.062040838466966528875 0.086272593291811680571 -0.24047828650631444813 0.023451195529880838192 0.20191150905186924791 0.16433596027744445944 0.064534570621440148774 -0.18331462291927616559 -0.049141574790816558438 0.22215774577801225553 0.054573693742007808871 0.1016515151313220483 0.0013793470668806654539 -0.087188578488675380629 0.037415493155911437595 0.027098882352003007823 -0.17105184883282179009;0.10613321730993939551 0.035883224557396301013 -0.01139146862144096474 0.15916074467172797169 0.086071198767645601402 0.0025599925912716033766 0.28770420534445412253 -0.34665169386216609926 0.2368811389763107178 -0.28024600930465526361 0.18752961638159162949 0.059753534189991519554 -0.21404771577020420548 -0.54587989404406711547 -0.47759185296498662954 -0.38260769367153096843 -0.11869181763741050439 0.012689324808657077154 -0.19123956463526473049 -0.02818958788943301888 -0.20411517043443863639 -0.46622686805223079176 0.082122099077341803586 -0.49342814571435716919 0.17899095399859596411 0.017851375859947331282 0.23745567117963184423 -0.14984886141030631657 0.26452310808956797095 0.18241900050319437288 -0.01685590863990835131 -0.12592434761770368579 -0.27378589121686347507 0.09975402785464330957 -0.06718748471345931117 -0.2652144003282029816 -0.032057475831410039979 -0.10808553158638152525 0.14682314039924893034 0.024903754908973729787 0.027919766277245884611 -0.25046407680934590356 -0.42254782968004056531 -0.30361556949449375331 0.10574486080139222643 0.038593787830978998343 0.12362048221163422779 -0.12144290173200139593 0.32973423782239141833 0.019105573604758018663 0.45306176440000572869 0.7659915063951381331 0.20602642554213101977 0.32699509053599373765 -0.71065868461896442021 0.01434945185561674677 -0.036747176115836305277 0.1408122194668630367 0.15186962333422485139 0.14706122034940941057 0.073960344403545624781 -0.10392558218671986425 0.17530578486865441845 -0.04613112098265631511 0.11109560177516444868 -0.19567720575026997798 0.12246427716909930039 0.081967948993620476372 0.28433853967591127265 0.16849754659047264105 -0.14401775338607819554 0.022262851064414900665 0.02675450907193599806 -0.03455222210188466786 -0.068062048931871454993 -0.010894776139341880161 -0.08862891507889254783 -0.090105424848299878193 -0.35366202090070247843 -0.075954927975271452345 0.075850239434624835977 0.20094412888152782259 -0.11116249277095058279 0.030983133199152870785 0.32764594425018916946 0.37833438234389826782 -0.50302052410553477202 -0.067514434898354847014 0.1812364057605872214 0.054398810544605831485 -0.050545983855490334014 0.24067083526981719599 -0.065686836924744876343 -0.010639271473122843478 -0.10716150736485692552 -0.15075836025563954523 -0.10088664033075762927 0.17425023596945141136 -0.10697398381656066102 0.095026448279617981019;0.047230949053048872088 0.0083440014090575432421 -0.12985376508025409104 0.17379050344248972437 -0.15801251176163094714 0.0023744530781172530111 -0.036080468298137040317 0.091344614063416998406 -0.19227460939275847762 0.13641132705340330844 -0.019633611702386068176 -0.061394107737451894535 -0.036382549150123885684 0.44089585476644471695 0.18168351191797754707 -0.012801961808713246266 0.0089902267866888586206 0.11960907808269902186 -0.15881486753375403942 -0.015969368460799753667 -0.29204282012271765012 0.75854086856795133187 -0.077899431239595945398 0.22794952471554683071 -0.038706847982374011086 -0.10871863121718697287 -0.18291881549861249701 0.17715363137941708693 -0.41623889819910275811 0.053882301712972285879 0.17939402297253959073 0.094474696717939066204 0.40619550098111278924 -0.026423572364261412038 0.27496327979102919148 -0.10973577828379044163 0.089011177377709138625 -0.019797053209194153539 -0.23255159565175803627 -0.12198877241095838764 0.1280390696148092089 0.15002305448908037633 0.26152254351244952346 0.082586377777531097544 -0.10909636058888633192 -0.026936040896077401152 0.41548649728452280439 0.0022134499398538684881 -0.31458273278730874978 0.15840431233774757147 -0.76097640070399819034 -0.2971857729625093647 -0.1142292271076125465 0.13042114914883978782 0.7477870778947985908 -0.15064914752992430991 0.0074947740336687952364 0.065361207790410186247 -0.30143717661539626285 0.27495256710437859793 0.10454954316853860841 -0.24407042781653165431 0.22980442515734145204 -0.0036260249387052032391 -0.011576454599275641175 0.69594546681384195086 -0.055271686049626171655 0.031299177892893582931 0.21979004501029070218 -0.33670556066467011158 0.19754212974713206141 -0.02009816236662944483 -0.14017555948652160591 0.22401670851754867941 0.27297370126947095859 -0.052756478682516892709 -0.43272381516156827042 0.010202097810318465354 0.24062079204766789742 0.25039978401091300686 0.1578680958495520259 0.036277200894476079041 0.073978241423804200205 0.13832763714845569547 -0.50450841250125333382 -0.44295839353125060489 0.18194783434425060298 0.1763002840141724703 0.054944884621595704854 -0.081589189938048450879 0.11407094899343672711 -0.15838719789519928316 -0.16747235141205277231 -0.12638408908717801982 -0.19794040393101694497 -0.025716294117361180455 -0.034004950841273071105 0.16695310151879505511 0.015980466728419635836 -0.25824561686403096905;0.13119831361138009629 -0.060372362042047517106 0.1618835442835445948 0.060880916911630847399 -0.095995576043181027326 -0.081573352339102067621 -0.66258404625131417376 0.13363978852611907433 -0.11082233356827614346 0.21732487495703747826 -0.064187188604454492591 -0.079073798575560558244 -0.010701816255942755984 -0.3792610346474709071 -0.0024187021488478776046 0.099065366009698924143 0.12945719650672096734 -0.35358477167309654288 0.16405133343997499451 0.024821532252973697863 0.050124169520578507053 0.0076484225936587837968 -0.11182388636737011778 0.10088500135432522387 0.16868583535608566715 -0.020886550663061862615 -0.0099490572627076341583 -8.9221307226854638939e-07 0.12764393341261090487 0.063350330922589986882 0.02859730420762549713 0.18399875783784688799 -0.21331684903891620642 -0.020385622629477507389 -0.40904905533765295589 0.042798524807930143909 -0.30466232543592619564 0.06409723037776708654 -0.042460679656997298015 -0.025834932819252726111 -0.066342464511186888254 -0.080230967774060732434 -0.040075062962865420912 0.13521413942137414099 -0.14267276188844726925 0.011899422958250024246 -0.35054887025854158944 -0.096055252461750451065 0.01194512293822508342 -0.23516242522391558878 0.08453726156736182662 -0.12851141030588805747 0.081262122911121767443 0.16604907854192477168 -0.19854009985384196701 -0.040368796109129807814 0.053057596565676108658 -0.02055226038475019279 -0.12718352273507194106 -0.142700040245744314 0.062657754131305212764 -0.12666755664913345591 -0.040787451687678485945 -0.10295409653185419452 -0.2684287325804500246 -0.47071743322320613867 0.0374381293982977148 -0.078781768203789029337 0.11374955216048041051 0.13685055640610574446 -0.24189590333831398339 -0.10613736960316091928 0.079336736891237283342 -0.057695482165382616646 0.1037478260466252189 -0.089639670223174289232 0.12220171701956278332 -0.0084127276140539240801 -0.080034607303832647207 -0.010815080989633229017 -0.06668841980668820113 -0.049347951185563058984 0.17031496369677939784 -0.062406683547431174297 0.01539242260101434355 0.42306754662967238634 -0.17485705178921553959 0.013895941903505695803 -0.069536197002249069965 -0.059952720691668369424 -0.050969366783029386447 0.021298583830952885765 0.0095445088367890808939 -0.061918817088519137459 0.10318806971663134486 0.13777227670207428667 0.029723225236079515998 -0.28272051807641490617 0.035890237010791081751 0.11344932378643610149;0.093258969042389061599 0.043094730398265362892 -0.0073901415093220595987 -0.11373034676811764887 0.016582270898405890996 -0.0014489938305826503828 0.37792264453784868428 0.062400095034543218153 0.055058291595175341826 -0.38643448084690362743 0.2027472066568325737 -0.23438036763832850728 -0.017459960277077073154 -0.051588945007470729531 -0.064105152285739333551 -0.22659956994596355817 -0.19573900067906607747 0.25303585174244314082 -0.15284394372662760131 0.16942405674655330872 0.14015979191966945749 0.24612186645639599902 -0.14135114167073442593 -0.016660779203186738828 0.24258849073320090661 -0.12313961452852044409 0.07313828861021803851 -0.010190435185931040821 0.25545685861393419014 -0.079302025055661043429 -0.08558079937622692368 0.15579622951818999921 -0.16515898072077256353 -0.0037103340722770133953 0.47325988702986071521 -0.4272186434544590905 -0.030732130321582659671 0.36926712741010414565 0.030160963550164267277 -0.31123943276616355957 0.13117796302054476887 0.13966441499390419567 0.073724155916229300312 0.035123339399451947163 0.0016346451456253508622 -0.059466187058988401182 0.077504003127320780786 0.006376566712048467242 -0.12347932884424471511 -0.22310332435892263336 0.010059713686955885914 -0.19124074569297408455 -0.089238349011394227372 -0.0976566637290256917 -0.22962917543898567208 0.080428190123405601808 0.15388834759832417665 -0.19630152910115616915 0.20828397877535043126 -0.012649585960132186946 -0.26522829239847156568 -0.036728434070806191547 -0.12921581357391570544 -0.17730529824480797951 0.042661728843230439789 -0.2914866347397270796 -0.079904217731464360908 0.31274016519082464827 -0.12245170765015481185 -0.17993224593366263786 -0.05583872859844013492 0.18306872567486917602 0.080299917132121201302 -0.012079970203393668865 -0.3749808167790058544 -0.19591249424748380381 0.019659487444087974523 -0.061802939550096289145 -0.0022888681315607665133 0.06475060789506049963 0.079171239891067196615 0.17238247307542056697 -0.25183758309562154221 -0.1617668744672152159 -0.1458459434594095161 0.40541498481950888344 -0.31037261144859551454 -0.2768949499079987886 0.17807186100685534758 -0.054413766580867724276 0.0061073762119891279385 -0.040131787434494872735 -0.082557699504685000402 0.0029260183981106185382 -0.28515414134370331567 -0.19377205867314670207 0.064008600625295869468 -0.18578381217490597122 0.07013514358518553593 -0.53416329043216392858;0.079474636108028157144 -0.044756710401341069649 0.12184513046311822027 0.17022492181569992553 0.0097369343079189932949 -0.0031956133521947528882 0.026661254861153543122 0.04764290090442069997 -0.048996567352917477778 -0.11093118038986471419 -0.1353237104999665541 0.019157650170329509204 0.016974819584294982555 -0.023037204667092855276 0.035111107741792400849 -0.04811062671856734807 0.20993866717368739327 0.081202829836246659401 0.078958515030792958411 0.044788189812125976663 -0.091157588838611663951 -0.021336170386079121586 -0.05673526778719729935 0.045982672428342981352 0.1325508367712004143 -0.048174323821410292013 0.12311649351773877592 -0.0072011133095008584074 0.31542233312728668038 -0.17041637836162915054 -0.012945561403586118912 0.12588259607700288956 -0.042952106984539419055 -0.038221878271343441569 -0.20771699594250578325 0.023608501969618736482 -0.0051881774207652598535 -0.20018733074795358462 -0.044895292400942858613 -0.2757368943352191959 0.018994973127157730591 0.018369771222798363108 -0.006725580553171390738 0.097195099288672259785 -0.020039969483847466791 -0.024638069537678778526 0.14952837862010096015 0.0092846509319780851782 -0.067298059619771130602 0.13937918759808809455 -0.10552985353661387125 0.29564090051924479807 0.10946559442292512487 -0.028640934864814782124 -0.053439385404469651186 0.0070610482446871007667 -0.013277339875830481905 -0.24040167153016486767 -0.063077616368999070429 -0.18747714876483798085 -0.23244576096715011126 -0.046773162588609112911 -0.059464055106308699727 0.34587602973566633491 0.14377394864351258907 -0.14518759192895841492 0.15013077850870790164 0.063305319455419714614 -0.2272418803139699961 -0.17922986417782893476 -0.085253715402328830719 0.023356363096601155671 -0.21947705565352726431 0.13176260064864486754 0.021058155520189480309 -0.13193851802137041007 -0.04358756495731178765 0.046300155688866424797 0.046739061433538453549 0.17022675453258309664 0.009044514463919108016 0.11911678130826981736 0.027237836891501984726 -0.038108968052664900228 0.010771437027094227928 0.14030151496531176325 -0.30659272200659887231 0.062880540728751599389 -0.13068502773513671067 -0.039235826088930038369 -0.10010473779818351847 0.11861148584457997801 0.076789210716270844825 0.12258609038675033487 -0.11598588897429820688 -0.0033788153919725128979 0.089641651807133321261 0.074217252392073260192 0.030187875766423826612 -0.041537628295155851199;-0.058907341368818200156 0.0014816742697377463436 -0.10426014739819093602 -0.1565034934482332496 -0.29250092985544345892 -0.020842508961296336845 -0.10457147451386623882 0.12860083475176470325 -0.069786503573300948111 -0.0078537125585994640997 -0.17710395734344633323 0.11562885025371205661 -0.037358592064530501964 0.019859966538162146521 0.26818465741990821227 -0.084744350032651738491 0.1983342529716748126 -0.23488777653525083622 -0.023966745585215613185 -0.076057596784780953647 0.032135900994111989137 0.01724386232593256435 -0.0084178329308895218086 -0.10305227570627674416 -0.014850377175037187544 -0.078599791184887232709 -0.15242029508128748794 0.04297684205125232304 0.11667724797247291946 -0.018585025152693727263 -0.33345782062405665558 -0.022683705849360743384 0.20031250464944858058 0.036255502584699443591 -0.024772232963493335395 -0.048872976520836594605 -0.15036217654560266044 0.13040602934046022221 -0.055162064958342839349 0.42425295654479922014 -0.19850464062907477447 0.08618307777194589292 0.10468358066485060343 -0.053499031163097933439 -0.054711905905332029743 -0.42808343914288815579 -0.12282071835644284286 -0.00049375303362744781856 0.030531729226950340972 -0.0047069700498606386121 -0.31009381815593917153 0.10380139797784010414 -0.19242295857811664295 0.022433978703974958441 0.041562745420514760064 0.022758313884253002918 -0.53370761071033523404 0.019469875854570637547 0.27370406496972027321 0.058947458107822189866 -0.15673119887037462172 0.16513091720147643482 -0.10596322038864657011 0.10756466803840698809 0.29709960947102032058 0.13986469277574353764 -0.10298412347529063704 -0.051548520804892312974 -0.075574789763317926083 0.019787391729766633935 -0.17759484804786951351 0.019016053817843013574 0.025221628483580792873 -0.017960141711055418318 -0.059866755817181233068 0.17917299981549703047 0.23131006015990723812 -0.49341834166441539411 0.16845450916294385513 -0.050310921633112404283 0.15453590438971526178 -0.074134493111492630324 0.039986856783007784788 0.065622844595735044249 -0.17650825419162455288 0.13886141126127546364 -0.096218874363577608366 0.19097236599049627337 -0.14873404768925035935 -0.068472581065041948634 0.19046205904210322668 -0.16237782430764965969 0.0072705082814158786264 -0.19487081282746299138 0.039239110261258203227 0.28376172701205915061 -0.072778967374417691261 0.012577308070459073189 0.011085851048058396537 0.1564355354408094867;-0.20850733032862248106 -0.030573528780227253454 0.14359389247413315016 -0.27387248854957418898 -0.04109770615589222742 -0.031809517155773306407 -0.079850787297945008403 -0.075864556486561929294 -0.051725555792390909282 -0.38031076061828600343 -0.097133849842634220617 -0.03877733891077756595 -0.05592679195427081168 -0.3043932376103766213 -0.057290010457019903412 -0.039789007827264341599 -0.2844525853886848421 0.16577078194632324792 0.22416893976439389302 0.026591378902565566272 -0.1282626042443018588 0.25044199447734843966 -0.091369073213463672389 -0.16619855861081231363 0.047211868665042767967 -0.07005012830674950397 0.13914633789682351317 0.15252316136037677441 0.18137671197408333779 -0.015035752293341253516 0.37772102153378561695 0.082763960359533692013 0.053641379342367345728 -0.039493670862420983403 -0.06205566383701943689 0.0062646426411348508922 -0.12038355302866975138 0.1227916553268184191 -0.038604550674208669425 -0.15689831388526784273 0.071588255623758909052 0.15752095863686768618 0.19755388647394936386 -0.041658951259406939993 -0.042599388191617064414 -0.015075105322227611016 0.019880027846769732225 -0.028895753241208875506 -0.12402797349189091658 -0.2753897479500112544 -0.09629797040217651094 0.17646501090435923187 0.043608957603166284556 -0.020192150421366631546 -0.070211867452691922864 0.10165025840807341562 -0.071314150668118733711 -0.28806793247503409416 -0.03172845132601991025 0.023590365786368423795 -0.012584522742126718481 -0.066415980584614647819 0.033365903669385126029 -0.017012922536446397487 -0.082258162588119521086 -0.29798041044705292357 -0.11381211867730731124 0.14744267646253012005 0.15234932509512522092 0.03095635549980500778 -0.54122568281997818218 -0.14910183101462465283 0.033679798029365971834 0.017069377798698222304 -0.064299231023685107789 -0.035947124485776756064 0.082372594053446893114 -0.16907327458692994471 0.10517630050993685698 0.25440148077931079573 0.0090912213942525785249 -0.17058694928406423208 -0.16473490256356160266 0.061932799201764879293 -0.15220245821287312071 0.15683950788356498807 0.36805420904080010658 -0.039604185399308475257 0.035806730683402406001 -0.025723344258509802523 -0.084958099137388734534 -0.24043606274118575761 0.31364110067251399494 0.07291817960359051054 -0.12526636771694199535 -0.12678804749585337319 0.056655975872715633179 -0.065562619471703817431 0.071177118476366998956 -0.11730632597323245592;0.036393832302860841532 -0.05729767413499265577 -0.14408610260189211316 0.013928994622581328602 0.17665519860031597688 -0.027992647952704702297 -0.10100823351915712289 0.012776478765545322414 -0.11124899584062736269 0.10278760620105539814 -0.19525419846029165583 -0.044308950565737546812 0.17517590933444385226 0.084655681863534185116 0.43290143332780506302 0.029229514904973833561 0.21905801296635729614 -0.24359109084683813751 -0.0035924317902730294044 0.023787647308239994598 0.14122702984126797587 -0.13119600906255746153 -0.031344502946926956766 0.032583696154641940412 0.12146260381874511569 -0.084989899833890186764 0.1923777519356320298 -0.058124870619101903779 -0.31044788681302915023 -0.055684559555148456511 -0.33413021151280664078 -0.051086357435676570116 0.016342917395665991498 -0.11127399730668342814 -0.30544838993194906029 0.20784077694278560444 -0.038217388129480535375 -0.042943053115319755608 -0.061989761893172762308 -0.13015184795869180756 -0.29400467842182520517 -0.094562010557324091553 0.081523537246229557662 0.22231606080547086646 0.058244380667501295668 0.0017171755910944169407 -0.050257347340606682573 0.10862152751124970473 0.13239555523010221316 -0.13295469113173233322 0.17420802607597446476 -0.13588827473194287077 -0.34503376183624717699 -0.17825586195796330746 0.18040316268863826332 0.028427654132209888987 -0.12279727180375672735 0.018141635531604166642 0.051352821430367866229 0.25797144218353385003 0.16331056505981447757 -0.15143839886986784626 0.017451662676722427825 0.091479044628907227321 -0.16152251357944466537 0.17037367125211361207 -0.10414467386145211114 0.030467795436712800244 0.32866988286411802367 0.064551335457132444362 -0.077844306756933795421 -0.025099018035767670792 -0.24959148525680949215 0.21588843676670821381 0.11542271686113428353 -0.15722619108941193744 -0.36126305641783651446 -0.14719856667891312307 0.076160311162651525563 0.017676162887140998287 -0.053991839887004497434 -0.0083108077007551378612 0.1948711600962408641 -0.095923981519970946685 -0.14314936717430334912 0.040786467931351266802 -0.21706062160772141012 -0.2635962680895485577 -0.048701918437668294259 -0.066193009898466298457 0.02929885742895367573 -0.061393793330260480745 0.62530490835606267197 -0.20165903162779427737 -0.12912632093192405458 -0.082650638830532821566 -0.035987951182599946243 -0.21610147678458424547 0.08108696842888507561 0.30405493223454221896;0.087595797346999015875 0.028487411475823794238 -0.015008236262241523087 0.084869351617918253883 -0.096108691362472575825 0.078514212560816448727 -0.11313785685112073831 0.069160561710054468954 0.066551120067428734539 -0.053733339545960469297 0.11198219941474611694 -0.035536752133790913688 -0.13794562924226752565 -0.53178470643088449066 -0.29585587825305542653 -0.081927889359286742987 0.011969043463524462259 0.24947220137780432014 0.026113304156432055186 0.018200720466655537222 0.10187118315860781148 0.19198059498959021973 0.0055781162479413585673 0.042291866023070168179 -0.23223255123688554824 0.046096577534159723089 -0.097448481612716436606 -0.064631239694809203278 0.21549868754438394891 -0.086587942100389947431 -0.41385468561256932851 -0.038472498147311767758 0.018055825989356660138 0.018909597354701698779 -0.18711858756999585895 -0.22425535328365997501 0.076644643378540266987 0.062941687645238192372 0.10303836619307195355 -0.020885868080518336931 -0.1345396684228661599 -0.032343440999017869508 -0.29266720070990404068 0.104767025659951038 0.038694181983542540182 -0.12360595165672388918 -0.034154752254314753313 -0.063267527110949406399 0.17292165307920259743 -0.090397205240910202817 -0.056117699133556249447 0.0082380764571358677806 -0.12805648658583693167 0.011659393324922275384 0.1250448090059449735 -0.16968083112084242359 0.26479213484846719773 0.017301808490438150279 -0.028235137340204871648 0.17138346612804442048 -0.10513785815335502383 -0.048860580484916218968 0.1299842329414731823 -0.037049028273646020248 -0.10419567159736439765 0.031774033629094373954 0.089222706729212217236 -0.14246887934922403129 -0.11351404488847663399 -0.076622059166074757419 0.061708895857367343507 0.10559202465635493529 -0.20537900940941886119 0.16808236113286989521 -0.11461698960287128313 -0.12559822569291342886 0.11318409875047727442 -0.24837443326657751563 -0.15398633149468909931 -0.22636499334611306922 -0.13562144610868087646 0.093775707906391878033 -0.078480496143961089861 -0.11016483561343914932 -0.031031999439191340628 0.22200620608658661048 -0.20412622059847457257 -0.20822618269119702594 0.22570547129964466104 0.12904615561019128211 0.15139082207049181505 0.13630647478342089451 -0.028759342918803512679 -0.014423062127118881776 0.027907742405422382437 -0.16369681559326754172 0.015235709672279981741 0.073413504362606171738 -0.074357861867990066029 0.20906966095076953693;0.20537338288730894176 -0.13201056041926331752 -0.2685863891504048917 -0.11037781340451835455 0.26682981754317636192 -0.12742161970870391485 -0.057614741087790716234 0.22025360094039250769 -0.29494134656973031161 0.047224602393830791836 -0.051965117337888853954 -0.038733060126495806597 0.022631287853287853501 -0.47891183745677379235 -0.74667802027735907799 0.012110343555070603172 -0.086852310493928996937 0.39474564536909578782 -0.14334049353614877753 -0.075934180066291309674 -0.042868225283477320864 -0.33604761421883883044 0.02140892275043878093 -0.20185563931879182964 -0.2294188031679052775 0.064622513657487126726 -0.036489552729713561896 -0.16680275770726793461 0.36410894540310673184 0.010843298508444797895 -0.083449726213553690468 -0.18097605727174814749 -0.40092077440258300225 -0.071678272034249701505 -0.20974359240417386752 0.064996791016271995844 -0.045547964549243154242 -0.26747378041626451717 0.043714403663452604254 0.34667700080355046133 0.074664663494751967732 0.051581020673492954109 -0.54456036949935893166 -0.37905209258512095882 -0.021999119215776827968 0.014087713412376105457 -0.258816277446078713 -0.1519183419666056134 0.3002563090243474675 0.071446109352332518028 0.57896848080789276025 0.24300738110593295138 -0.035912847650709324443 -0.016130007835330320565 0.1167846675574208265 0.12397118452853778114 0.040125364826735704371 -0.17591704940228428122 0.07763715767765748399 0.14013267957020242305 -0.15765343150368124614 0.45235119424776076835 0.081780848491561586311 0.016900258598725566989 0.13107299087570276064 -0.42804134110959890513 0.017752725342993089241 -0.024866843897959990672 -0.5262802596679035938 -0.10635795408447645816 -0.10615237381079410672 -0.12916969731492741746 -0.085870218564042172238 0.18879263916060787243 -0.33142794955169907478 0.56849789086969637619 0.21410958042932290435 0.011662431744512077869 -0.17052756594589715822 -0.27961437655013565706 -0.47748142909122082145 0.27296116856343938251 -0.11719932630337862034 0.064705503736538383386 0.5072407079064165103 0.34900858505548615351 -0.035087482965243471655 -0.29127727134765463157 -0.27830049745868212785 0.10830690769811690544 -0.18133855868160358993 0.3147734742378365258 -0.026567866620616293477 0.21964130367557840873 -0.040582654274843150966 -0.063199307312334085385 0.075293855293851727484 0.026509818681366013188 0.095048492554335992089 0.32320612793113995265;-0.30162147039427300577 0.068367974455431509972 -0.067029179201826563639 -0.0041088592452656821918 -0.05057679917167549194 0.053154613596450503432 -0.18571478264111862533 -0.14281779157864440966 -0.006411788168027505834 -0.017461049983557883764 0.091723312505174736664 0.033744264085233920125 0.0059594672442229374223 -0.27035280715050596934 0.38711714991758777726 0.15561853104194159347 0.014172435569519914456 0.064856621907222952728 -0.021870867494944344622 -0.053126176443695646845 -0.074021916600341366999 0.024792068910114685443 0.0005006056554834835675 -0.19668276632443368324 -0.044273514040523570534 -0.099670384259051281184 -0.35161950650779993932 0.01537001202429969654 0.0016982134797832947569 -0.023304846476085924745 0.13564376704083502823 0.11143349264972465806 0.39241595345357616065 0.038069573637788074738 0.06963235183395385941 -0.20998039370866425357 0.080012566408400459528 -0.04183105373712521502 -0.0075243451577878730369 -0.070909981813607317336 -0.030254681579595137791 0.018799347369609663294 0.18401408855320347535 0.022465176326392076456 0.067172940718171550434 0.22460815736710157409 -0.06994013940249881045 0.068205580889718578352 -0.048216388663321882446 0.14303379754476175378 -0.79860385644549780615 -0.35496180077611583226 -0.0042225224044309950244 -0.12997672271936397403 -0.24613382668174360601 -0.038178234978754325979 -0.39726038446716488428 -0.028563069286078109077 0.047199327862168301284 0.13289193684976213783 0.27498901881152870708 -0.52102608304276987194 -0.18941853839218122935 0.1969317400001193985 -0.087421896846519409063 0.43254340680031583277 0.131860189455650062 0.002054986523123117706 0.069696802196324222911 0.075854291137607263162 0.02300754480835457555 0.12786609797870399086 0.19346247756191864431 -0.1106508130754696867 0.032164111736323774959 -0.15154838596955355623 0.1916580213917060127 0.44450860283586246524 -0.0089406179917705143334 0.35214237878741372345 0.15598317853412940748 0.043213563123308998404 -0.071355212997009309639 0.039877885811075014511 -0.046422951339882015387 0.083303555175570476177 -0.078531592310347370089 0.18649703861766547819 0.16910152876655309973 -0.03237868369348433778 0.13256247384370895004 0.083336931898261523699 0.038997197565969185518 0.2169754208491794234 0.021190942759329228773 0.025405385177464146623 0.012757095604387534357 0.17702331860474096459 -0.021446486114852909149 0.093175653291660401334;0.012948096656349401129 0.008673744092045668555 -0.0075115663071602025574 0.017951112805977685605 -0.10842032202895524051 0.038058672263976620065 -0.08009103959048487209 0.079088406100623342976 0.087617384033477546668 -0.1121782764948876937 0.076496790734472686069 0.025691973254939080157 -0.023019171774871505232 0.087597445130367407318 -0.12892860779163456408 0.11110291221098464454 0.050553685826837946315 0.25444985589937885173 -0.13402772767193099623 0.020364880563064680086 0.056012507273944481256 0.041455709615277350211 0.054579733898547651283 -0.020467732210495557382 -0.009940824799539123291 0.052642106521855226708 -0.056604942289621609786 0.066032633846615576556 0.18672883485283969796 0.020911341102255072422 0.077148904983488711395 0.064249309753354563735 -0.0049615751326689714815 -0.077833332515450950884 0.053509026159201382444 0.10749981832678924543 0.20555169169066012103 0.10590551628230263081 -0.10069709440941942979 0.24310565935932337833 -0.020714596818976287879 -0.082665113641246359966 0.028972643746399590753 0.13422982329560784187 0.040484361703114535302 0.10925637960131424908 -0.10287487521712387895 0.022672330053899965308 -0.054201946384056072514 -0.11742618140892976952 0.25666244690963374575 -0.14755035701557578376 0.03009517737671541654 0.064728194789138618348 -0.34137533150785648317 0.021134492214723590853 -0.13518630554374269637 0.012084345009987836755 -0.0078232907594912078769 -0.0299590842903493422 0.098966754590353936405 0.035713090574417100109 -0.0017625670345513457654 -0.21897330677289575385 -0.0050011252190993327887 0.017259876294959321241 0.023370367543267683841 -0.019103221213855277327 -0.07792741996581195596 -0.031194901984130298661 -0.041540299103742933662 0.031393302963049478371 -0.12639720910813040389 -0.017613394468848572044 -0.069894831074141711147 0.0053472042709157884335 0.033236171360190455704 0.19899635168299456556 -0.10930221631878273003 0.10978897078494828654 0.020366191328661135268 -0.0023439885483220175393 -0.18677976858954467576 -0.040661725787746488825 -0.10243566785988858503 0.041888256554223700368 -0.067555795870759785537 0.10070517000201915925 -0.080922635739152926071 0.013254870846558318431 -0.17114181635129210868 