function [y1] = NN202010(x1)
%NN202010 neural network simulation function.
%
% Auto-generated by MATLAB, 15-Oct-2019 18:59:19.
% 
% [y1] = NN202010(x1) takes these arguments:
%   x = 6xQ matrix, input #1
% and returns:
%   y = 2xQ matrix, output #1
% where Q is the number of samples.

%#ok<*RPMT0>

% ===== NEURAL NETWORK CONSTANTS =====

% Input 1
x1_step1.xoffset = [-4.116737;-4.414833;-1.286626;-1.32087;-0.9986827;-0.9993171];
x1_step1.gain = [0.237677350382405;0.228848138663664;0.775972176741631;0.761305867955304;1.00099022958462;1.00085057285934];
x1_step1.ymin = -1;

% Layer 1
b1 = [-0.0025732869976371414503;0.0071234085110688308284;-0.0083444968175175170816;0.0012869460446240143028;0.1027999856644254556;-0.0085773391547793662038;0.073627858235938356546;0.20362764657240814414;0.086368929252441370426;0.011446291425499934696;0.021733183457674037226;-0.17475238965178402362;-0.17276882227509254841;-0.033380005447202626412;0.13206744277013410249;0.055272323100560849518;0.00084871512240094928829;0.11380096837693029488;-0.053472042346781628597;-0.064788852942847544036];
IW1_1 = [-1.0525404753257805446 -0.33535148457159730251 -0.31286938365999111822 -0.16695808842504050729 -0.18349066660692880948 -0.24601958988363675784;-0.92259778062695829703 -2.0026445135293227118 -2.6257072217495580624 -1.3414737260657754181 -0.11001318700705674247 1.0989102533254802019;-0.26890965525484084031 0.28416867847274318581 -0.16475578954363051531 -0.88869115015686261927 -0.20729034604931850794 -0.21183732756032530586;-0.42190333614448255473 -0.29818373410784865252 0.43617475573029240721 -0.2447227544980030145 0.034020940488515796774 -0.18714189858623364593;3.7704535915166319526 -0.86253140971166664119 0.090415608998319726974 -0.23760666915868194904 0.44585204080552720551 -0.38355266275527943876;-1.4919865924879247565 -2.2841141818894721283 -0.44331060454242887658 0.98210850437086283371 0.57795350703817915949 -0.055407716997114803137;2.6746923235219770554 -0.82789742337100502567 -0.094699917090071805692 -0.95578174622551226314 0.52613480384806610157 0.79549711775998388497;11.552384145453366671 4.1545912084020661936 -8.3812038030101589925 -0.68761886232613744774 6.3922585786608800973 0.56696987058870451648;5.0289935776185927807 2.6748315219706197965 -0.38532686400092325263 -0.91714524158727250835 0.24774232140736654473 0.025605938101534990448;-0.33484489767484243439 -1.3372318882989737698 -0.72402872701415144086 -0.71680312885326258332 -0.11671347135817379537 -0.28516330166091646836;0.80270691316179665353 -0.48704918893078891218 0.72912780785636199798 -0.55092845170269277855 0.84243165395846464349 -0.33039676909197762678;-7.6850551041549328701 2.8776921001717523652 0.64498938738607280996 -1.7264251584792575933 0.097410631265147554214 0.92531141737095290445;-6.5566400946472036537 2.2105496957456898244 -0.592859252906015044 0.32017520723630954471 -0.79903025924525550305 0.20783293232882940615;-4.90066066139194767 -9.5082236341290808923 -0.43491206892521688809 4.861686003144590984 0.35629496713378361328 -3.7123232285608107617;4.4340113486288954547 -4.9068061283991584176 -1.5413068493184345353 0.64413405495607733986 0.8196246098104675859 -0.12588848327257814996;1.5698260363777085669 -2.0383480889961673732 0.7674747548012642584 0.20310526939513218192 -0.5511143660971966618 -0.51111163589428876275;-1.2278697485711316251 -2.5745859645745383659 -0.87231656449839967138 0.43872254821972028749 0.82670097662833041952 -0.78611390990007190549;2.8026786385817601399 -1.4714702818834475284 -2.2530205589430272184 -2.012623290669013798 0.900816662018372738 1.4103940737569975461;-5.5841188902665157556 -6.4037655155797743589 -0.61955059895766961819 0.45279987056562892578 -0.68956499926051495475 -0.37731301655822169216;-0.60393714705360679318 5.1139923531285029767 0.0064334194798589140057 0.35645816418090703337 -0.28084228563549373803 0.59870445355718471259];

% Layer 2
b2 = [-0.0067118687910039092487;0.019411915269796135158;-0.025828786426701302176;0.012233873956707641203;0.0012498297170339921214;-0.0026543406121246762921;-0.0042701047718017460381;-0.013501987040963659564;-0.040199123605683298455;0.0083748246012331842292;0.019327173050918015906;-0.00098985078267988771579;0.010725017796916124987;0.004274315243043216514;-0.0026623955052505446535;-0.0073716141435800587242;-0.014321033988551288077;0.04864586251199951028;-0.01624017063731501842;-0.0046857711217184599972];
LW2_1 = [0.078425658188294777862 0.096900540059163861595 -0.18366155536368627965 0.52738785504874297061 0.074383824567319581367 -0.031358850096160621745 -0.10595325332068790403 -0.059572249074423273829 -0.1467638734242893428 -0.013620206565969185733 -0.27354100398137942696 0.10476462595449496928 0.46609052520809840514 0.027634507758254038545 0.023323315508905293619 -0.19247522378725706593 0.096975968710017873553 0.053624997807831656371 0.39961311723649028949 0.16944314190945708454;-0.99247157578276279377 0.020351294144493502908 0.68213974848381631055 0.46102616705944954312 -0.25042718269980962509 0.40562191077174181153 0.025230384553944055354 -0.14473708599565307531 0.12744251605055118004 0.65398519775502994555 0.23154019720075516564 -0.1990728187894544865 -0.89903057855558810019 0.12333186133111932736 0.36043452314356849708 0.071474229267785696629 -0.57648826397815355893 -0.012187318985220270753 0.65734941944142089021 -0.66044985066049677336;1.3361686332275524158 -0.087884419841902261528 -0.65793703754721655219 -0.32825681459545513752 -0.16528371542332145894 -0.71541698524490515698 0.067565397619445854982 0.19522307009798156585 0.07770741566076905249 -0.8795105250247166051 -0.39620123094984760481 0.44376970328067805172 0.2837706064130021133 0.15547437486132015261 -0.53810268007210249053 -0.34712851534542438214 1.0476765236572265216 -0.046527580303577086018 -0.7996481858131424536 0.64396228266675237251;-0.75565162560049814466 0.0048046673401290294209 -0.22577861391448908468 1.0560864234823823526 0.19885240838236209471 -0.023429271594541636187 -0.071502127460783257429 0.00022450783214054774971 0.10495730569827524392 0.050225165633167152823 -0.029750579069573099972 -0.1192758637209371253 -0.14138239951410047635 -0.052717017112826537739 -0.12032215227657744316 0.0088432640653025255256 0.034199020672149881006 0.0071005125357879563322 -0.12101233165708710771 -0.021820909009426500691;-0.26560302885385772553 -0.0046905178784873158282 -0.17216351171217528226 0.083627550050283605554 0.05357303246665733043 0.027847811139070258873 -0.10305486749135002456 0.016213913859443609966 0.24303167984393081458 0.34422843046045586979 -0.027643358268388453641 -0.40385154344705154195 -0.30137546083753341541 0.036870645299871190881 -0.24184172145600721371 0.14692615359728347646 -0.05218505238426466436 -0.069783172315687189147 -0.34264605028509137474 -0.25695808013133597525;-0.059560839240718879695 0.14189974056834395166 -0.077509720123952463577 0.54428215321460515774 -0.11943869634445258843 -0.053281296465474699275 -0.20725649583518412911 -0.078497340173194429802 -0.15667455500009436209 0.43990236592108422631 -0.33527993576807874065 -0.11496959192189468157 0.30876483620885175618 0.01024221837770650928 -0.2358158576108778659 -0.24127462699617979736 0.19388078040999381924 0.016777610186366913314 0.1712202645496627984 -0.018845907891520890381;-0.66444122661433568933 0.034782141899213539493 -0.45872075116228050451 0.50620935387065801869 -0.05552639100587528076 -0.41978089962910442035 -0.1427486945640164262 0.18064796608571703773 0.39927076869192851261 0.02292156014528703295 -0.10497648992071628715 0.50110019685040096959 -0.31170844014315590709 -0.27378382025330777472 -0.27984910467656426425 -0.042900697384072865315 0.54359730687455509734 0.12460925793217374202 -0.34552199709647374304 0.62009989015938549173;0.6600234915833000926 0.023492220070680143451 -0.80326041455542640524 -0.50783406487794968687 0.033321220766529373314 -1.0086960224053489465 0.0023075724483724701502 0.22757684126309415951 0.25166696729549681288 -0.3815650401555257254 -0.25443725140589035227 0.3004177038552836021 0.558382341229324064 0.22103718199497798813 -0.52836728810688904368 -0.31611701253480972706 1.1309762061959591772 -0.18077929105961776379 -0.70926769299450598272 0.85395640396812455553;-5.0684673819974106479 -0.36210198971647949984 2.7095615886961867957 -1.3788910887336827127 0.74065442466717912318 -0.95608102508951997578 -3.5303416619945138244 0.99487360034780436546 -1.8917060161311722855 -1.5343519358544741582 -1.4202453341721568147 1.1929450848064782065 -0.44459950338003173531 -7.4414236705776151126 -6.2152818228431492287 -0.12361404646894853798 1.8998564404452993326 3.562377643563158891 -0.63680154571562197496 2.6922326124641502432;-0.55894665690553968496 -0.0189028270034532625 0.49757258880837368364 0.43833291481194686101 -0.35742376041645812501 0.3976938834533920164 0.073513243706503417219 -0.14225854661972675563 -0.28578873643608454502 0.034944966711540695337 0.08659184129838620736 -0.0021582356947299442471 -1.0484785995756522592 0.054444115594800605862 0.29747759225119602133 0.026282171138369572749 -0.48505862987223097305 0.029635698204227768626 0.55777302309695575566 -0.87013352159155199494;-0.71212630595703063641 0.020368558594354709695 0.18824263873591565166 0.48088020414744608866 -0.54477008799806170281 -0.40053728296388818597 0.45415040867174150119 -0.050375860483469633855 -1.2393006827051775698 0.33478084840100752473 -0.30960983535113850706 0.071225797400806936666 0.16022413648402131225 -0.23009687212524038147 -0.351538159219781432 -0.30754854285481941778 0.16811359178406970472 -0.39837010142571915861 -0.81105530286723248601 0.64969993196448905248;1.0608287105186022803 -0.26534766956315442021 0.45332395467700392633 -1.1434205306762292853 0.47059885926298328229 0.46270602575800479084 0.49588695145563832511 0.17190395405986111377 0.046141634480433860177 -0.72233870905879160595 0.52391652924516396439 0.69022263748102319347 0.45270198397180577699 -0.31705302163358278777 1.2401440501889080537 -0.14417997157306422507 -0.33036110482132446942 0.0031006011252665329619 -0.0055827707826857746187 -0.60328972639619893314;-1.3995499328056186794 -0.072420185941314316191 -0.34313117504476919883 0.36244123133023758987 0.47840309136725567285 0.11178854557595446773 -0.14040763580578868863 -0.033366505281364783331 0.27447990785852616202 0.33200751920714066667 -0.054811031968015372362 -0.57359682153598168242 -0.58620999450037847289 -0.14007029426245837245 0.35365235636780201212 0.060512827345925661315 -0.25292855297734262443 0.25510545951075858095 0.45629703605054766635 -0.060924182464482674881;5.1215431744166206585 0.41618291130311252379 0.1511247127242607291 -1.1023862935129193907 -3.605305887571602419 2.4961947843294174376 2.7181980637160698677 -1.9867996828807183984 0.078120089319393168359 0.16078700113862592902 0.5444891888905134536 -0.18931844608475908998 0.11437342459178477527 1.1557699429069805408 -1.2791072823689699778 1.3778838958044092866 0.33286927751375777751 -1.9829637487270774798 -0.22825811677856863713 -1.0201727448246526997;-0.45189876161138647914 0.09437743367307926956 -0.57787706483501344312 0.027772659143484975525 0.5186610551719228468 -0.14466530710160041551 -0.277510033153660296 0.014659010000097632068 0.41664406190807085073 -0.44073715553216558094 -0.092829393729578019157 -0.058652087374873242143 -0.016800646911227155172 -0.073972096973834819411 -0.086579453374176731928 -0.11874903425504131083 0.32399451082450303474 -0.018618413268766412227 -0.41915996229881558044 0.69328274983160231848;-0.41708729507570752038 0.16255596065049748855 0.0059166550576407496431 -0.084445228104225195098 0.94974506798182767309 0.14866479135388951938 0.011694483044396020155 0.10290136246205662529 0.50578767318477468873 -0.74608424349592850078 -0.17082572558618147607 -0.038711939400457189009 0.086820315243334972299 -0.023445671079632465078 0.2186555360945711679 -0.035313291536024998818 -0.11066879168838263114 -0.051406131014717706962 -0.25048350679342368252 0.85688639672057731467;0.97225859720613871939 0.71890079770131820602 1.1164927960325556899 0.31994840078749403611 -0.38471004367153965875 0.52562820691715728127 -0.019700754077753152016 -0.46003320413015502677 1.5661377750031322265 -2.1258341235370927791 -0.41350239949758954561 -0.05163544734114142859 -0.42215992188455730982 -0.27238584666342924301 -1.023020300696189322 0.68539264212835981915 0.03623278959049252429 -0.041134109487110423475 0.40012594188826644537 1.5052202909541954057;-8.0777020084111317288 0.022986174660026212346 0.47211735670399757048 -0.26279717639111421779 0.50688224710899443259 0.30008207815873066959 -0.9247910531804997003 3.0108889758320613872 1.8787326029695037288 0.73965261022153483417 0.80616410897231782773 -3.2007881901900425703 -0.9671192588608731322 5.155128901525038998 1.0916214486519082438 4.3049050980544132372 0.10170945716209954524 2.6164010845110894365 -0.11996821894752301985 0.05159198400028069259;0.91927428386058185339 0.04701600527820296721 -0.64940629026477425523 -1.3503106836757077236 0.56663009589799873122 -0.92951559205187861412 -0.32832991823323787184 0.10031325120393344563 0.32075446647321415039 -0.85845620435772607149 0.19482074610650501612 0.659760400875627262 0.31372372444840324057 -0.34256002853194977842 -0.18513580836082196845 -0.50418273886726772126 0.43942082354559153234 0.55159511698603524987 0.10360280038266020397 0.043747060171345893143;0.34651023425997728999 0.029899741590125285956 -0.2334686528611963352 0.051562798168086232398 0.21628923203885430659 -0.042854618214818486488 0.14371915630829804056 -0.0136088324890787319 0.68328340304739398903 -0.16986269990432895094 -0.23294279042788024192 0.072277839079007671907 0.93792131807353629203 -0.02828112432766954204 -0.27595996464899053002 -0.18365310937482298703 0.020663663824560661586 -0.1145873490751490309 0.044378981951023736829 0.46466799455476220926];

% Layer 3
b3 = [0.014936999957086910876;-0.0058653977627515386378;0.0024929956381811260203;0.0024832942307026419256;0.00278032565760117506;0.0048141144264473700182;-0.00016829443807850168191;0.0064907584721749199408;0.000625208206801061879;0.0032682425799705279619];
LW3_2 = [0.39484786752160144774 0.37196624806772776717 0.64305109204119914601 -1.1920626982709494612 0.073828433147098443401 0.064022517828228875381 0.80219679905536145359 0.045403886210509142307 -0.04753081405369133372 0.93065140432259951808 -0.38631968827593676785 0.19457317374682678301 0.12138761656183068294 -0.040661965376249907533 2.1187911281200291214 -1.5383492338049513659 -0.12299637936314514186 0.15716940480118646306 -0.17678544899859943706 1.8330284977203881169;-1.0103759772194849109 -0.91014232321384991309 -0.01813410837320683644 0.42256426997080331898 -0.31173811765936643159 1.8588328785391348141 -0.21195918210706918283 0.37878333386527762716 0.094297667368942669763 0.82959410143196332665 0.19428123789881782124 0.2075187565947927415 0.52574089461289374992 -0.27095670515539505008 -0.22115450284541007808 0.23607095764703125984 0.029211393238265742633 -0.43951895059630530227 0.045817575647552885587 -0.41961215594881351443;0.75510427324159634654 0.060162482694746242939 -0.31845829481266735295 -0.13079988642000434096 -0.10184894887030100652 -1.3851573487206636504 -0.10666112826091675436 0.29048660435248774281 0.018054398437368657931 -0.07001844644049086408 -0.58055067608035748616 -0.31864822294641981237 -0.68232191261674657312 -0.10508471539473952794 0.62625871712650860168 0.13320379326156503441 0.13671401279077580182 -0.034697031549583111365 0.22293641710151443358 0.26309579395652699096;0.13921834159256180063 -0.55488634500177269615 0.26444614077243766559 -0.089457264533646579929 -0.13346687307202262374 0.12516051227751373576 0.25174695637081812016 -0.43531520408354434926 -0.021882011311859048824 0.27861957327334296863 0.30254072974763329684 0.1879757467742743382 0.033868055834440670415 0.080253321554161594076 -0.40922109757976643518 -0.032994986154908804987 -0.13491472820497898977 0.074286590196846191692 -0.20880688933234117788 0.075798258811565558113;-0.14951207617344919321 0.069983272727137543767 0.28552477602196635331 0.15365704017697748296 -0.099936854094867536014 0.31364608084045181302 0.16915359381339120648 -0.11724496198912472134 -0.034293507719469151773 0.12741836617202006998 0.13862818349330643941 0.11943095390799712829 0.018599911285549056844 0.02844786520241632255 -0.28986031441812576404 -0.062384726139168678039 -0.07138883053917975674 0.08903906472086070556 -0.15017379495221394592 0.15414257633334030317;-1.0257130395262581413 0.12540442858800276982 1.608255490476492966 -0.098725258350057021328 -0.33858303279599816227 1.8585770161277324064 0.44090367095413224297 -0.3842509426258645111 -0.037816014538694646407 0.931133126430302549 0.45883419178294576612 0.4338810675024700747 0.24314120925950774565 0.088591830591641121395 -0.85073982547830928613 -0.034779322962889033799 -0.42471746492372008941 0.087961956031494786812 -0.5221785656798253461 0.99562934204317676823;2.9363975302904274933 -3.1121398395996999753 -2.9562844626342896781 -0.0028639678818920023817 2.2525187110469890861 -2.9006062241713888028 1.4440264853493931518 3.1115336267753925803 1.6881670693277872619 2.1343221055326395685 -1.2642559734990228559 -0.20375020310764124787 1.6607773736782740492 -0.29240169539804028442 0.1471525759928936361 -0.81709080236358289095 0.5335147829692893362 1.9238855878575118474 1.312264425379098709 0.30401847256573238942;0.0089739143730111926162 -0.81807111228974049855 0.090170266158503431519 -0.51836421757847017666 -0.22654493192450159134 0.34987653077881153418 0.6966245146191055726 0.28306661862555937414 0.03242543781751216353 1.0618649757540392642 0.045135000483913362279 0.13137715995993395901 0.032757501711603506656 -0.15703243843442893368 -0.46641370083682659464 0.31946445823744840098 -0.080247651813025733247 -0.14249371428945192819 -0.045782292886151786104 0.25641049619027300732;-2.8854497382493247137 0.78755901606167222351 0.8819504034955827354 0.095098251607058412183 -2.5481223509025876517 1.5950391224414204316 0.59686639721358025756 -1.083741970914352537 0.11082246398454062564 -0.60548266736202116522 -0.0264539839335644969 0.048969902890836740361 0.064996700538137303083 -2.1917317660488664366 -0.15264623558441417495 0.53188312237424340001 0.16181778067886187777 -1.9571459745705734878 0.11645881180922382225 0.33590227809565137429;-0.87295206456076490653 0.061748805774668846791 1.9663296304650839108 -0.080720731110413418419 -0.54344350886258485644 1.5016492608971909739 0.15624217881606558556 -1.371840171685971832 -0.0213924188333974169 0.085672222359803207326 0.4841918453348302287 0.37489882944019298217 0.21537074535097433525 0.096747318206388821515 -0.81679806283529554634 0.10090523495879219484 -0.32155518534724569779 0.04803802351334070242 -0.53490609070029571104 0.53765174066411935971];

% Layer 4
b4 = [0.092724161662346482604;-0.10361784360763973134];
LW4_3 = [0.4862867564291609157 -0.52314451805484285529 -1.7385745319762071492 -1.4795224121292764874 -2.5510566511585057725 0.46034248864105525856 0.44090536127862112181 0.6539699254096610348 -0.10953651107756556815 1.33458179968919044;-0.42585600625055480828 -0.50215507687258076341 -0.65819957624919867012 -3.3449042164672952993 1.7265734576468085848 -2.2914270841716843918 0.11535790528355976958 0.9313778110115386033 0.21198184630346450508 3.8307834761545800362];

% Output 1
y1_step1.ymin = -1;
y1_step1.gain = [0.454455079955691;0.321912002778744];
y1_step1.xoffset = [-2.390888;-2.799727];

% ===== SIMULATION ========

% Dimensions
Q = size(x1,2); % samples

% Input 1
xp1 = mapminmax_apply(x1,x1_step1);

% Layer 1
a1 = tansig_apply(repmat(b1,1,Q) + IW1_1*xp1);

% Layer 2
a2 = tansig_apply(repmat(b2,1,Q) + LW2_1*a1);

% Layer 3
a3 = tansig_apply(repmat(b3,1,Q) + LW3_2*a2);

% Layer 4
a4 = repmat(b4,1,Q) + LW4_3*a3;

% Output 1
y1 = mapminmax_reverse(a4,y1_step1);
end

% ===== MODULE FUNCTIONS ========

% Map Minimum and Maximum Input Processing Function
function y = mapminmax_apply(x,settings)
  y = bsxfun(@minus,x,settings.xoffset);
  y = bsxfun(@times,y,settings.gain);
  y = bsxfun(@plus,y,settings.ymin);
end

% Sigmoid Symmetric Transfer Function
function a = tansig_apply(n,~)
  a = 2 ./ (1 + exp(-2*n)) - 1;
end

% Map Minimum and Maximum Output Reverse-Processing Function
function x = mapminmax_reverse(y,settings)
  x = bsxfun(@minus,y,settings.ymin);
  x = bsxfun(@rdivide,x,settings.gain);
  x = bsxfun(@plus,x,settings.xoffset);
end
