function [y1] = NNval50v1(x1)
%NNVAL50V1 neural network simulation function.
%
% Auto-generated by MATLAB, 16-Oct-2019 10:35:28.
% 
% [y1] = NNval50v1(x1) takes these arguments:
%   x = 6xQ matrix, input #1
% and returns:
%   y = 1xQ matrix, output #1
% where Q is the number of samples.

%#ok<*RPMT0>

% ===== NEURAL NETWORK CONSTANTS =====

% Input 1
x1_step1.xoffset = [-3.998151;-3.997391;-0.9989552;-0.9976032;-0.9986827;-0.9993171];
x1_step1.gain = [0.250109673091651;0.250823862328802;1.0007498618715;1.0026105974737;1.00099022958462;1.00085057285934];
x1_step1.ymin = -1;

% Layer 1
b1 = [-0.8915331583609232835;-0.70113978263870813112;1.1624703339238424693;-0.69597713849105224959;-0.14363402367963759576;-1.0706471711483458442;0.46883138156849346601;0.5674559581486929849;-1.9021826635410508111;0.74255401458892511535;-0.62763186895600797666;1.6276501729578700672;1.6612545649446355256;0.80216046193005974274;1.8246523225452806471;-0.66629282394679467671;-0.52519211942102539403;-1.0813625762438638933;-1.0484053897836207447;-0.53269813447342018176;0.4684373937833888335;-0.60807340812524424134;-0.63454859875024349769;0.34279145766153001906;2.3924034185754328163;-0.30098806035528824498;0.68307972793429116987;0.70206910875407746442;-1.4367591652779752032;0.71620070983495676131;-0.46964877616216416101;0.59479788858217630398;0.097533164786790846335;-0.97296116736379023582;0.86193378139461263032;-0.037494600131252178721;0.48663643176408810653;-0.58194988162163596712;0.64685468117079147898;0.70661946064525360534;0.71446225388199668949;0.4932440973822610486;0.54408787186575924277;1.6490275787423318565;0.73051642389808268963;0.57578119907275637779;-0.022742498085970109384;0.18882610785361769734;0.5212478956444166478;-0.58653491133656343592];
IW1_1 = [-2.6736631577428409123 -1.6752036671567125392 -0.38177755223148451824 -0.014664220628969800234 -0.38826439950249286293 -0.28724540203938908611;0.91454710730507959848 -3.361968990729799156 0.13684931590324658779 -0.051683810429835302935 0.2738592870201261853 -0.23260268914983625588;-0.74713521450174791294 -0.2248250463640762975 -0.50427024828796707112 -0.33866934465966613832 -0.038793753569217923061 -0.034266005009736373588;0.21872256474903478685 0.56039166086172476078 -0.37790619445389389552 0.0043902958460949577726 0.29076763981022196726 0.20021730950312080499;-0.49063838795560399397 0.031449295445132786908 0.092967843124610149985 -0.0020125397273788371046 0.21578519077712543517 0.032748682329670236735;2.1248507366057935997 -0.46242064682325184632 0.25706739427607577797 -0.067129616635022565374 0.25193486928201874742 -0.071062084941260303395;2.9535184690730544865 -1.2095363039803701533 0.49920360781737571632 -0.21150990954269793809 0.47728321292439596091 -0.1718462562538452254;-1.1849482515278757511 -2.4823474642738494467 -0.38544738140572676333 -0.053625474889969215742 -0.33563692505152153966 -0.023249884598788822521;0.52062970265933006253 -1.2154233740758721982 0.10401453098562389588 1.0484627244472799479 0.38909212449629476671 0.83241643332485082407;-1.4024717190851070381 0.60428515851582909058 -0.21543078712983682044 -0.19676130979835915191 -0.41313419703769327374 0.2741773737038026848;3.597519536417804531 0.41463586926594453441 0.67425351352713847053 0.0022158077369184218768 0.62675561905538945684 0.1770831371328393522;-0.25712869976921043369 0.83521415713311497608 -0.058991388995527534178 -1.0676972845667815903 -0.38995591504730481303 -0.89585318449944539854;1.8461733338552235306 1.9474252862060512648 0.26749628374415662657 0.15115879633943435367 0.21598828308968959222 0.61693105680965032445;-1.7498518131340683457 -0.60058232634356467639 -0.26021227736451502111 0.072369111266672933591 -0.19881366752646262297 -0.04071383818971566898;-0.60449462844193246891 -0.18433131563572729972 0.26637664710770342369 0.25853764686921976157 0.65413858865979301882 0.35622955800698286044;-0.70279694513866519667 1.6559914706047051958 0.25849967633776971265 0.59409983801731758302 0.084520093365796980511 0.81519600185574503382;2.1986615237389859345 -2.0395816139609861395 0.44393259052966799194 -0.030900001994730648402 0.5510327751762257309 -0.044180035084759816666;1.8186725190732779822 1.4602247778212698037 0.42968117049702364563 -0.72759097711342768378 -0.18707753721041056605 -0.4846443224040876685;0.26817419149662236055 -0.097771147374252798112 0.29890471726257922258 -0.1315540670302957349 0.2607986819134107126 -0.43858636082571955672;-0.78899158208590558505 -1.3618538983686658828 -0.16030434282095426535 -0.32878053167509252441 -0.19945699206791528413 -0.060540519053101149449;0.52653574444473627558 -1.3742826600666908643 -0.084803483032684506826 -0.59447010613793593858 0.010693973295969000023 -0.75167167475486551531;-1.9316526543567942298 -0.94795436170925018171 -0.20693967900384718783 -0.23316117903951730228 -0.22788097823025091349 -0.37346280605593545898;1.1706720840806428274 -0.77919900208190850943 0.4724135293690297499 -0.061774538033252508751 0.23590181448894312344 -0.055144223448441727353;-1.6269531156611676259 1.8536755502510642302 0.15592065154159323592 0.17062473533031552453 0.17796188241551111342 -0.036671309326073930901;-0.35513105088270280341 -0.29584611215547479413 0.67363098918057395803 0.51097326340939464018 1.6042983143765052745 0.80857474839589460469;1.9762216790300246583 -1.7478761232403348114 0.31075744710374902935 -0.13374406314598119572 0.43139432673085398307 -0.11492635446720693426;-0.92472663105894570279 3.4351455410226585663 -0.042589706305603797221 -0.24679411205751547453 -0.22415341813992420428 -0.022631448575655993549;-1.0172953560760225056 3.7824407272732640806 -0.022347893117099029009 -0.51866754752002119933 -0.26792498493603367216 -0.20312893118452432506;-0.21103201574378274707 0.81863545043197283313 -0.019267848222612977277 0.0026929140202712315531 -0.10093173306330059658 -0.24386152016853132607;-0.82987135370576825544 3.4392802389684464792 -0.44111328337017369217 0.12022381349653714355 -0.56664327585318718938 0.40239584698596775336;-0.13757315714158596665 0.11908874147771429663 -0.22216161797248906717 -0.18601838243911725246 -0.58580661402136946503 -0.31591737569675854003;-0.03202215299943042548 -0.69119860132659005636 -0.19073659089780184428 0.058831585782470920132 0.13096784238041170312 -0.38201433346692847959;0.96874719444067214358 1.375522061659416817 0.16788145178254232359 0.12999085944012839233 0.18800679771354120162 0.12429579886819196177;1.8698091451321829926 0.094294228601525073574 0.27692295054074750338 -0.038291013206784067779 0.26901600300722117165 0.054123725494907903855;-0.89484686185729322982 -4.8718970946696611435 -0.1846517188801883036 -0.84088888824720176007 -0.22083401179282971527 -0.81663929603141383051;0.078581893802350755163 0.3555673592755565493 -0.026318590530581727205 -0.4300208067093224118 -0.35099060155241873504 -0.46892717547330853289;-2.1639486499069162662 2.5494006617049418395 -0.022034789285315947022 0.30343943762664010722 -0.013125955567962834664 0.086926949421726157352;0.19953714880289338818 -0.43636674809073933146 -0.12256291513012569638 -0.18048121665204619468 0.30516693575576114839 0.092375695738072416408;-2.7491673931508460171 3.3525104462213874967 -0.17691743709712873245 0.45359442070783839718 -0.14979290663017039154 0.17975324069933942828;2.246275566530974821 1.3033286838783639805 0.27831592779665925708 0.28159895049066546724 0.38029401962023551276 0.16744964184952432218;2.4704784498380760738 1.5757624886030625611 0.38246204866202415662 0.063253767051942119681 0.33732845084084539522 0.44579943249639925051;-4.0961325737452165541 1.4059488175393477505 0.072585368677558839701 -0.035986573916241770821 -0.16363332330142177362 -0.13679077856175100858;1.8452437519037265812 3.0093076427045906129 0.30446596138427628464 0.34222923381960385081 0.35650722545958529741 0.49339986688512199597;-0.98408514068629382443 -0.42235623135924621474 -0.65470577999516021972 -0.54712715578183368503 -0.084932672804026623781 0.031561973345766686228;0.075685533682458533411 -0.37497201361437459965 0.17832879102619425549 -0.38540239515999702435 -0.12273490982992846243 0.070977812146205160326;-1.2299798864036239898 -1.8880035307219411589 0.090830888880340160396 -0.23401757542501480658 0.010091053788225836166 -0.38628682975176575898;2.1403138470002858185 -2.0058308228601107182 0.2993906915938844282 -0.26305140203730759119 0.51012030906021899046 -0.21252256747668987757;0.54159241969343541179 -1.1193081751558220382 -0.084010104928199422214 -0.70140680363486973548 0.065073287490790790444 -0.95155970397725819776;-1.0549165560518525275 0.51932773240352103628 -0.38796378090694821905 -0.21559673876797000314 -0.34114996355256044236 -0.091841814210101083149;0.17239082071137801222 -0.23324135116184219196 -0.042703386123955036635 0.11303652036626514465 0.4461985298140183076 0.2125845224977414849];

% Layer 2
b2 = 1.4917806695663216043;
LW2_1 = [-0.95348463760529389432 1.6016952618916127093 -1.4322895913215571984 0.43889148712531805829 1.1871403057349585453 -1.5005546905270363833 -0.33657495215232330343 0.38271279343040248699 -0.55495572843783591566 -0.58392671757745240324 0.35411312550225038098 -0.67812279362982419428 -0.39443093544029467212 1.4996824616400632468 2.2268266518570545287 -0.52591474616992162083 -0.80552545433925082374 0.075406759662622668827 0.94132741359530669456 0.78648207603782960273 -1.1443519709903571258 -1.4467664705983585005 0.920866702322404862 -0.63015818451442073833 -0.55336819636060141647 2.0350306350255449317 1.963149877936174903 -0.77037522505567002096 -1.1958453553989321083 0.3361933961934392423 1.7197095758233027496 -0.77485052551194466552 2.4888077570840954067 2.5347235248415467268 -0.14173401303657259809 -0.75852301134547328587 1.3493279527174422139 1.8377601448143372487 -0.64557808420939466476 -0.93592381344912389807 -1.4215909521190077669 0.098163966739424554642 -0.53614207335481622874 0.65633589311783402387 -1.1731276905766929719 0.42256121177843847248 -0.68742785194510913627 0.32802739933761493329 1.0699210089425650327 -1.7239509431405743989];

% Output 1
y1_step1.ymin = -1;
y1_step1.gain = 0.200361391842466;
y1_step1.xoffset = 1.647747;

% ===== SIMULATION ========

% Dimensions
Q = size(x1,2); % samples

% Input 1
xp1 = mapminmax_apply(x1,x1_step1);

% Layer 1
a1 = tansig_apply(repmat(b1,1,Q) + IW1_1*xp1);

% Layer 2
a2 = repmat(b2,1,Q) + LW2_1*a1;

% Output 1
y1 = mapminmax_reverse(a2,y1_step1);
end

% ===== MODULE FUNCTIONS ========

% Map Minimum and Maximum Input Processing Function
function y = mapminmax_apply(x,settings)
  y = bsxfun(@minus,x,settings.xoffset);
  y = bsxfun(@times,y,settings.gain);
  y = bsxfun(@plus,y,settings.ymin);
end

% Sigmoid Symmetric Transfer Function
function a = tansig_apply(n,~)
  a = 2 ./ (1 + exp(-2*n)) - 1;
end

% Map Minimum and Maximum Output Reverse-Processing Function
function x = mapminmax_reverse(y,settings)
  x = bsxfun(@minus,y,settings.ymin);
  x = bsxfun(@rdivide,x,settings.gain);
  x = bsxfun(@plus,x,settings.xoffset);
end
